state	0.055922 0.056639 -0.245483 -0.002874 -0.123846 -0.109240 -0.132685 0.034946 0.088234 0.252703 0.020639 -0.125509 -0.135694 -0.044717 -0.017486 0.079628 0.020484 0.290917 0.169103 -0.000524 -0.152017 -0.216019 0.183562 -0.394833 -0.137884 0.064146 0.002459 0.248733 0.098325 0.200830 -0.001126 0.409287 0.209621 -0.264999 -0.322364 0.125320 0.145621 0.134872 -0.205217 -0.134233 -0.120532 0.085202 -0.015703 -0.203337 -0.120212 -0.354730 0.142704 0.074568 0.223322 -0.437639 -0.106890 0.013401 0.315560 -0.306527 0.174427 0.012266 -0.055877 0.404936 -0.026434 -0.239821 -0.042736 0.010908 -0.005913 -0.179254 0.383839 -0.071173 0.181190 -0.042641 -0.180613 0.081862 -0.234194 0.124595 -0.064663 0.001365 -0.012288 -0.028304 0.029523 -0.329750 0.148567 0.011587 -0.278074 -0.004870 0.064084 -0.017883 -0.250167 -0.091493 -0.120508 -0.015720 -0.027207 -0.167929 -0.028850 0.102725 -0.412424 -0.214514 0.134342 -0.262468 0.074275 -0.415322 0.138323 0.425332 -0.034781 0.082064 0.073567 0.083021 -0.107162 0.067948 -0.283528 0.192306 0.095784 -0.183830 0.078759 -0.191527 -0.113897 0.111590 0.083054 -0.434349 0.293419 0.326742 -0.426134 -0.197172 -0.035426 0.014157 -0.058187 -0.046498 0.173628 -0.109766 0.099249 -0.216566 0.181753 -0.038776 -0.078685 0.082623 0.224266 0.092137 -0.086491 -0.113425 0.135924 -0.124943 0.022587 -0.043447 0.040713 -0.194819 -0.002042 -0.125992 0.070032 -0.130231 0.323840 -0.056768 -0.141105 0.003759 -0.139123 -0.428974 0.057163 -0.380974 0.216486 -0.204103 0.028585 -0.163944 -0.017927 -0.110652 0.014551 0.112322 -0.025304 -0.028971 0.086350 -0.139457 0.176633 -0.129041 -0.431119 -0.155684 0.011774 0.067139 -0.120386 -0.134285 -0.179158 -0.165658 0.064202 0.110449 0.045799 -0.066826 0.311121 0.249462 0.124745 -0.124321 -0.020900 -0.198044 0.213818 -0.246153 0.157148 -0.083335 -0.005353 0.156854 -0.190561 0.170742 -0.210459 -0.297728 -0.107887 -0.121513 0.209988 0.003081 
states	-0.019443 0.234159 -0.398931 -0.081506 -0.124674 0.073868 0.088918 0.116978 0.105246 0.089657 -0.052082 -0.028059 -0.298720 -0.235065 -0.077320 0.155336 0.137450 0.257534 0.036755 0.043354 0.238129 -0.113293 0.294251 -0.194576 -0.061210 -0.059243 0.170327 -0.073018 0.046733 0.134615 0.126416 0.131318 0.242702 0.036591 -0.175932 0.169162 0.067106 0.294708 -0.136065 -0.053957 -0.269653 -0.084992 0.025649 -0.114049 -0.285728 0.046691 -0.097958 -0.079377 0.176008 -0.484942 -0.126937 -0.048806 0.114738 -0.190314 0.109898 -0.022998 0.063810 0.101396 -0.111648 0.253748 -0.030283 -0.122199 -0.005306 0.089071 0.138247 -0.131819 0.065285 0.031092 0.107881 -0.089007 0.004253 0.074843 0.110758 0.127817 -0.105488 0.183052 -0.096488 -0.182462 -0.284587 0.046410 0.044037 0.219692 0.028317 -0.031643 -0.352928 0.286203 -0.259040 -0.183452 -0.395503 -0.130569 -0.346429 0.098912 -0.400417 0.018194 0.115898 -0.126831 -0.152358 -0.068362 0.135377 0.043464 -0.051878 -0.168123 -0.027079 0.115642 -0.106680 -0.007525 -0.114887 -0.034536 -0.104360 -0.038411 -0.022927 -0.147913 0.132875 0.040478 0.058030 -0.075195 0.134683 0.131866 -0.413136 -0.397484 0.107420 0.051354 -0.070635 -0.072927 0.092112 -0.151917 0.060084 -0.089986 0.129664 0.064907 0.150774 -0.350916 -0.207942 0.150451 -0.046141 -0.127664 -0.043461 -0.023861 -0.055564 -0.099734 -0.190562 -0.020935 -0.026249 -0.126388 0.152628 -0.104016 0.332153 0.112727 -0.048589 0.014735 -0.128920 -0.324344 0.018286 -0.169900 0.110270 -0.387194 -0.184235 -0.019454 0.034427 -0.070094 -0.024318 -0.039924 -0.115716 -0.050317 0.219721 -0.079314 0.321769 -0.092901 -0.107532 -0.147761 -0.172895 0.237764 -0.171077 -0.091096 0.201173 -0.271996 0.124827 -0.340931 0.075671 -0.019438 -0.026122 0.069106 -0.048045 -0.312531 0.167617 0.117784 -0.023575 -0.083724 0.117673 0.075204 0.200368 0.080107 -0.302784 0.157950 -0.037069 -0.068407 -0.116103 0.130402 0.308706 0.038811 
country	0.233104 0.309009 -0.105811 0.250234 -0.060343 0.023898 0.214107 0.027037 0.164257 0.108027 0.076128 -0.244072 -0.175967 0.258676 0.020572 0.005516 0.148518 0.092370 0.034957 -0.082470 0.121452 -0.186980 0.059678 -0.254902 0.078515 -0.071531 0.106953 -0.076090 0.363664 0.291651 0.212812 0.102855 -0.010499 -0.159194 -0.041946 0.153113 0.250640 0.020482 0.006229 -0.238317 -0.470778 0.166012 -0.160415 -0.172460 -0.267487 -0.073737 0.091947 0.106721 0.359490 -0.346122 -0.082076 0.088431 0.086943 -0.239439 0.126783 -0.088164 0.186310 0.186432 -0.096077 -0.044203 -0.030712 0.078118 0.038555 -0.039407 0.373386 0.040002 0.145069 0.125602 -0.083605 -0.060580 -0.039352 -0.099539 0.047484 -0.245201 -0.164026 0.029243 0.108531 -0.204744 0.233866 0.026087 -0.155183 0.190071 0.138719 0.017251 -0.064613 -0.023315 0.205109 -0.290556 -0.209663 -0.205392 -0.240541 -0.013510 -0.221890 -0.001559 0.156578 -0.114556 -0.134940 -0.327582 -0.024925 0.072181 -0.124369 -0.227366 -0.034258 -0.063939 -0.197546 0.024620 -0.207642 0.049732 -0.212260 -0.164533 0.097420 0.041204 0.157831 0.191745 -0.050783 -0.165139 0.031013 0.287393 -0.363209 -0.269596 0.041698 0.130827 0.147112 -0.113190 0.080135 0.027079 0.042012 0.100381 -0.211791 0.047560 0.019482 -0.234441 -0.065727 0.003209 -0.078960 -0.171571 0.056186 0.119289 -0.064186 0.056070 -0.107408 -0.084835 -0.123791 -0.289669 -0.167370 -0.147178 0.215116 0.014450 -0.033800 0.098296 0.090094 -0.052777 -0.109081 -0.325470 -0.076124 -0.179669 0.005994 0.076079 -0.210822 -0.160056 -0.202506 -0.023896 0.069934 -0.080655 0.056228 0.043019 0.254859 0.110388 -0.108166 -0.016779 -0.244547 0.212455 -0.015669 -0.175428 0.036859 -0.107882 -0.286733 -0.377471 -0.150795 0.105341 0.229190 0.003272 -0.082332 -0.201862 0.035098 -0.087762 0.081841 0.024709 0.085913 0.072293 -0.023645 0.125937 -0.344782 0.216061 0.099006 -0.092542 -0.154777 0.095858 -0.106935 0.101458 
city	0.027958 0.313170 -0.138315 0.065216 -0.270334 -0.397879 -0.143082 0.056336 0.058614 0.329089 -0.358931 0.225852 -0.153464 -0.256148 -0.013668 0.114663 0.152824 0.332449 0.079339 0.090604 -0.037368 -0.142680 0.211774 -0.125269 0.029912 -0.112465 0.067595 -0.086545 0.168506 0.203824 -0.287374 -0.007724 0.120154 -0.154993 -0.101985 -0.134987 0.077017 0.116652 -0.257169 -0.392568 -0.221667 0.068948 -0.097570 0.076692 0.064953 -0.324464 0.125163 0.392437 0.008104 -0.037008 0.243416 0.083075 0.138045 0.162834 0.229280 0.261961 -0.162827 0.255053 -0.060317 -0.095194 -0.212616 0.031794 -0.136576 -0.172876 0.177102 0.176216 0.116552 0.254735 0.143390 0.077669 0.167132 0.124178 0.225981 -0.224632 -0.191099 0.069913 0.252177 -0.219123 0.167752 0.093032 -0.131562 -0.027834 0.046044 0.040790 -0.019051 0.144102 -0.080188 -0.322024 -0.173119 0.037601 0.001757 0.143749 0.052822 -0.072489 0.154793 0.073606 0.013593 -0.065665 0.131951 0.086806 -0.010406 0.149564 0.079505 0.095057 0.065583 -0.023956 -0.283060 0.110033 0.036961 0.025632 -0.173136 -0.043075 -0.008407 0.202350 -0.081294 -0.212347 -0.131614 -0.004969 -0.193305 -0.030722 -0.101095 0.195584 -0.043466 -0.055802 0.041450 0.201235 0.015463 0.006915 -0.039579 -0.044385 -0.054361 0.174262 0.036943 0.144146 -0.088780 -0.158446 -0.052755 0.218502 -0.037691 -0.062030 0.067522 -0.014940 -0.263165 -0.360817 0.078901 -0.023987 0.037907 -0.220980 -0.196525 -0.004808 0.019421 -0.244656 0.100682 -0.060041 0.127034 -0.195820 0.020445 0.028774 -0.209070 -0.266274 -0.045461 0.180951 -0.024219 0.043283 0.290074 -0.213853 0.230193 0.102021 -0.294462 -0.406838 -0.082608 0.126880 0.133058 0.170970 -0.015371 -0.204646 -0.054771 -0.389516 -0.338451 -0.239524 0.409865 0.138477 -0.139509 0.003730 0.192710 0.005768 0.094904 -0.222606 0.169645 0.033238 -0.203778 0.391397 -0.007040 0.189256 0.030834 -0.430303 0.238294 0.037360 -0.020620 -0.005437 
company	0.123049 0.009710 0.033235 0.112980 -0.132387 0.191951 0.043807 -0.153599 -0.071443 -0.085456 -0.279482 -0.116335 -0.326884 -0.274721 -0.082895 -0.015738 0.120485 0.087967 -0.136831 -0.026380 0.332224 -0.168248 0.222589 0.146687 0.317382 -0.141537 -0.189365 -0.245662 0.416560 0.388733 -0.146741 0.084318 -0.096348 0.010105 -0.019981 -0.212145 -0.034821 0.023388 -0.198067 -0.002223 -0.249464 0.097655 0.227583 -0.309768 -0.242662 -0.086521 -0.058287 0.238033 -0.141216 -0.265966 -0.149770 0.112659 0.134687 -0.202404 -0.144919 0.049167 0.064473 0.291600 -0.105124 0.047412 0.071679 0.256108 -0.090020 0.006985 0.411968 -0.023728 0.314771 0.005394 0.250744 -0.023752 0.072279 -0.082817 -0.193182 0.193171 0.046837 0.234403 0.191982 0.029489 -0.137384 0.088000 0.166467 0.039143 0.025246 -0.236301 -0.143973 0.146747 -0.521666 0.025819 -0.109058 -0.128527 -0.022525 0.089224 -0.139618 -0.291645 -0.060432 -0.260326 0.173205 -0.210284 -0.265995 0.184344 -0.083911 0.022839 0.145959 -0.296439 -0.028558 -0.155368 0.137666 0.136751 0.049807 -0.114991 -0.091537 0.289879 -0.033586 0.057211 -0.178267 -0.130679 -0.087649 -0.039954 0.038805 -0.334477 -0.282166 -0.062213 0.047333 -0.014758 0.057030 0.112448 -0.044777 -0.027142 -0.022935 0.199418 -0.077234 0.108940 0.294432 -0.168059 -0.090138 -0.197310 -0.343260 0.046278 0.376632 0.207886 0.084854 -0.249938 -0.258823 0.071947 0.200601 -0.283502 0.081534 0.105459 -0.083327 0.009030 0.018901 -0.166351 0.006482 -0.163612 0.230949 -0.374963 0.053940 -0.013340 -0.155753 -0.405187 -0.271353 -0.005452 -0.235913 -0.289143 -0.068814 -0.025821 0.033687 0.337744 -0.155957 -0.131324 -0.208129 -0.135768 0.264910 -0.096771 -0.047219 -0.029627 0.013505 -0.095492 -0.059101 0.040768 0.061486 0.194632 0.131946 0.066710 -0.107708 0.126834 0.104297 -0.036192 0.284611 0.234993 0.244314 0.275822 -0.304090 0.068461 0.121713 -0.192924 -0.079786 -0.127186 -0.062073 -0.044155 
team	0.170655 0.004836 -0.274374 0.092370 0.047647 0.127441 -0.305889 -0.040463 -0.148243 0.145652 0.063655 -0.127709 0.113376 -0.199761 -0.193555 0.280058 -0.138180 0.242505 -0.037921 -0.277179 -0.130707 -0.079864 -0.074654 -0.056517 0.155356 0.116005 -0.007922 -0.120706 0.118077 -0.009190 -0.256185 -0.228257 0.062805 -0.038652 -0.165216 0.042067 0.114544 0.018047 -0.201397 -0.158075 -0.268658 -0.064591 -0.185746 -0.125784 -0.073020 -0.304830 -0.166487 0.114562 -0.225795 0.273205 0.231215 -0.087136 0.086842 0.023341 -0.017038 -0.016028 0.077946 -0.096528 -0.022394 -0.016201 -0.007347 0.016529 -0.357015 0.221971 0.242267 -0.022379 0.040580 -0.128531 0.210929 0.035413 0.005155 -0.012206 0.038940 0.061823 0.129884 0.104958 -0.025207 -0.267951 0.033695 -0.254374 -0.072959 0.105005 0.056840 -0.032190 -0.093721 -0.247587 0.060262 0.155659 -0.324041 0.046462 0.085770 0.005419 0.138194 -0.295176 0.142088 -0.232507 0.114887 -0.291199 -0.018092 0.255613 -0.290862 0.035117 0.084853 -0.025383 0.041061 0.101201 -0.298862 -0.005683 0.422128 -0.057007 0.161151 -0.015508 0.302627 -0.378372 0.028356 -0.511243 0.092699 0.092849 -0.120525 -0.231555 0.121837 0.076319 -0.111549 -0.059106 0.187540 -0.094651 0.055118 0.279331 -0.231338 0.034252 -0.110584 0.172739 -0.108895 -0.171209 -0.247921 -0.349588 -0.228755 0.352463 -0.068528 -0.073486 0.136829 -0.097385 -0.144440 -0.145460 -0.011781 -0.581990 0.014853 0.329907 0.112021 0.042533 -0.104501 -0.000902 -0.325860 -0.054037 0.177990 0.000146 -0.264946 -0.117961 -0.220231 0.076525 -0.015232 -0.159366 0.030741 -0.016430 -0.033911 -0.043898 -0.010397 0.153575 -0.141240 -0.159969 -0.423618 0.058837 -0.098124 -0.365612 0.256986 -0.059527 0.040929 -0.461365 -0.161758 0.027868 0.098016 -0.087670 0.035718 -0.400190 -0.091373 0.100454 0.212019 0.017861 0.038893 -0.206816 -0.204539 0.278857 0.016698 0.182283 0.007842 -0.110000 0.264031 -0.089445 -0.035321 0.141566 
countries	0.067959 0.274388 -0.103708 0.215681 0.055329 0.223220 0.299351 -0.049793 0.103132 0.329927 0.239875 -0.001043 -0.332475 0.119001 -0.024041 0.044826 0.181258 0.071061 0.235081 -0.242983 0.066014 -0.183713 0.256315 -0.146827 -0.027373 0.039588 0.179967 0.109710 -0.067545 0.143308 0.202588 0.158601 -0.078571 0.027841 -0.126153 0.334272 0.126799 0.255382 -0.153932 -0.196280 -0.324129 -0.017992 -0.083363 -0.399041 -0.397604 0.130931 -0.045487 0.074085 0.278302 -0.363324 -0.127603 -0.103756 0.055466 -0.272322 0.179832 -0.174542 0.211975 0.230918 -0.081576 0.213202 -0.128964 -0.200124 0.138311 0.136943 0.280629 0.041896 -0.088665 -0.051530 0.003572 -0.154848 0.002574 -0.130039 0.194296 0.383279 -0.226902 0.272912 0.034218 -0.000604 -0.009583 0.031828 -0.103932 0.453588 0.215404 0.042911 -0.122771 0.121209 -0.135635 -0.235995 -0.357272 -0.023445 -0.581112 -0.039990 -0.141737 0.120085 0.117728 -0.209431 -0.039750 -0.138151 -0.032465 0.079687 0.029250 -0.359558 0.007297 -0.114236 -0.235338 0.083817 -0.002749 0.183876 -0.126844 0.023274 -0.117698 0.117021 0.241865 0.083682 -0.014220 -0.113575 -0.113896 0.093169 -0.260847 -0.379168 -0.181316 0.136045 -0.114459 -0.378170 -0.106543 -0.107154 -0.114382 0.282275 -0.005809 0.253896 0.179747 -0.325311 -0.192155 0.163349 -0.123405 -0.099357 -0.069015 0.077019 0.000639 -0.102347 -0.128372 0.028529 -0.013780 -0.181309 -0.026222 -0.027978 0.229984 0.094276 0.163150 -0.127048 0.015745 -0.161008 -0.048978 -0.221225 0.017677 -0.248844 -0.165075 0.031057 -0.222917 -0.023368 -0.190609 0.089327 -0.127506 -0.242670 0.198813 0.194367 0.393496 -0.051035 -0.309962 0.095617 -0.226030 0.300277 -0.066101 0.130964 0.232938 -0.042842 0.132342 -0.706481 -0.280776 0.223018 0.063987 0.174768 -0.065782 -0.525999 -0.133338 -0.038696 0.102500 0.134531 0.210556 0.227991 0.370456 0.081591 -0.255876 0.102187 -0.122570 0.064644 -0.206619 0.043168 0.324672 0.455775 
school	0.160126 0.160961 0.098782 -0.080113 -0.303629 -0.021431 0.131111 -0.217990 0.108492 0.366559 -0.216226 -0.132640 0.314272 -0.108096 -0.079011 -0.032937 -0.125649 0.336340 0.033309 -0.196554 0.023151 -0.092656 -0.282192 0.238029 0.049792 -0.472472 0.238191 -0.075706 0.001079 0.076260 0.179752 0.096096 0.088809 -0.487738 -0.617769 -0.071620 0.167526 0.420594 -0.343166 -0.097227 -0.143676 0.006037 -0.025642 -0.065448 0.093341 -0.363278 -0.322467 0.200739 0.027315 -0.348162 0.082084 0.180482 0.427574 -0.227526 0.126872 0.192249 -0.079859 0.061248 0.037722 -0.026050 -0.111488 -0.237452 -0.078564 -0.419711 -0.058720 0.119763 0.080100 -0.033597 0.153217 0.153615 0.027301 0.310677 0.057253 -0.011048 0.064487 -0.136710 0.173803 -0.108614 -0.038238 -0.010772 -0.211874 -0.017146 0.170123 0.030889 0.072960 -0.210862 -0.338807 -0.088963 -0.082807 0.008171 0.060798 -0.078858 -0.127388 -0.054610 0.129526 -0.007822 0.015993 -0.122833 -0.114512 0.040006 -0.062121 0.225522 0.011038 0.106015 0.155928 -0.168120 0.081713 -0.075295 0.273124 -0.130075 -0.047076 -0.004541 0.001874 0.094981 -0.243268 -0.103727 -0.041166 -0.189669 -0.335761 -0.148770 0.339011 -0.352703 -0.144210 -0.150784 0.277669 -0.235593 -0.001731 0.056704 0.322003 -0.196100 -0.180948 0.178681 0.039157 -0.144458 -0.529129 -0.012581 -0.263826 0.366171 -0.216481 -0.161094 0.119418 -0.342828 -0.196408 0.027971 -0.116572 0.065348 -0.167677 -0.171925 -0.183122 0.143105 -0.300660 -0.212242 0.106427 -0.033758 0.397625 -0.003867 -0.102608 -0.149222 0.230460 0.116671 -0.430641 0.034810 -0.063874 0.107139 0.155993 -0.010242 -0.062512 0.240247 -0.208607 -0.326064 -0.259988 -0.086100 0.247127 0.065973 -0.090700 -0.078527 -0.272852 -0.470807 0.044740 -0.014626 0.022491 0.070083 -0.077436 -0.360480 0.159153 0.121144 0.079037 0.115006 -0.026587 -0.106845 -0.100573 0.165490 0.051957 0.207655 -0.071282 -0.319805 0.260607 0.011225 -0.223571 0.144896 
dollars	-0.428521 -0.172471 -0.194917 0.348140 -0.129869 0.013196 -0.183069 0.316584 0.405179 -0.028892 0.170899 0.216040 -0.429724 0.133642 -0.107147 -0.125012 0.317991 0.172748 0.127374 0.021206 0.243978 -0.508454 0.003775 -0.025417 0.141928 -0.281175 0.047331 0.064904 0.292125 0.331199 -0.081146 -0.003161 -0.112457 0.085973 0.121959 -0.249441 0.213534 0.269612 -0.082218 -0.297497 -0.122136 0.073106 0.054117 -0.307431 -0.047826 -0.229426 -0.256146 0.233947 -0.021144 -0.360939 -0.125473 0.170359 0.346984 -0.298308 -0.093273 -0.055521 -0.155102 0.350419 -0.050355 0.058853 -0.141360 -0.281012 0.058748 0.155772 0.510619 0.007416 0.069675 -0.064821 0.133736 -0.023079 0.191319 0.039896 0.054971 0.280204 -0.357022 0.223630 0.282761 0.076279 -0.347846 -0.251584 0.326167 0.040662 0.220831 -0.323451 -0.350574 -0.004192 0.136600 0.448318 -0.174426 -0.269499 -0.172271 -0.104072 -0.031022 0.080004 0.237192 -0.611573 0.284458 -0.383122 -0.480990 0.205906 0.269263 0.007392 0.054319 -0.494537 -0.219961 -0.166523 0.011504 0.298762 0.169772 -0.313158 -0.223628 0.200295 -0.101671 -0.025321 -0.125491 -0.049238 -0.155196 0.152002 -0.132389 -0.304623 -0.086336 0.446720 0.260916 0.143167 0.065576 -0.011101 -0.194452 -0.019829 -0.338999 0.488150 -0.037804 0.168984 0.046045 -0.010141 -0.120746 -0.319953 -0.300272 0.219481 0.551752 -0.126812 0.132453 -0.193894 0.287344 -0.225896 -0.069002 0.044740 0.235594 -0.187174 -0.161617 -0.156192 -0.010947 -0.197997 0.145762 -0.433064 -0.138146 -0.510733 0.051396 -0.090898 -0.172205 -0.044270 0.189366 0.309342 -0.332232 -0.485712 0.179414 -0.341615 0.193010 0.104521 -0.183971 -0.159973 0.026831 -0.000455 0.248455 -0.212352 0.145921 0.036873 -0.176333 -0.244194 -0.150975 -0.189254 0.105269 -0.141657 -0.095559 -0.359752 0.078782 -0.201817 -0.170003 -0.007333 0.175396 0.177140 0.134104 -0.198139 -0.540432 0.413082 0.393515 -0.252088 -0.116308 -0.070053 -0.137710 0.251442 
family	0.078003 0.213470 -0.106595 0.104364 -0.232519 -0.042263 -0.062575 0.097995 0.253245 -0.178800 0.021039 -0.522729 0.189385 -0.340727 0.018681 -0.198126 0.039008 0.384425 -0.080533 -0.086417 0.196064 0.016684 -0.017806 -0.051809 -0.154790 -0.048770 -0.177246 0.323137 0.256195 -0.042570 0.240012 0.016083 0.370432 -0.105649 -0.300210 0.025083 -0.148135 0.296277 -0.000591 -0.135269 -0.412891 0.110598 -0.096296 -0.098985 0.159668 -0.166945 0.204140 0.345676 -0.147477 -0.174321 -0.099322 0.251667 0.193705 -0.133313 0.054156 0.052475 0.143827 0.186408 -0.239854 -0.235730 -0.162342 -0.075084 -0.002870 0.096671 0.224206 0.095738 0.091420 0.162003 0.300597 0.111903 0.178842 -0.030078 -0.118584 -0.036638 -0.059886 0.019585 -0.164144 -0.027617 0.157096 0.197503 0.005519 0.329820 0.221927 0.064845 -0.183186 0.267524 -0.139821 -0.204856 -0.288312 0.068853 -0.013261 -0.018146 -0.389411 -0.382804 0.008910 -0.328854 0.023438 -0.352119 0.078778 -0.195904 -0.013973 0.158668 -0.117004 0.139638 -0.030829 -0.132148 0.331868 0.011421 -0.090319 -0.087039 0.209852 0.131931 0.006635 0.017683 0.005785 -0.011036 0.229167 -0.043355 -0.154865 -0.097448 -0.115193 -0.294603 0.413247 0.052393 0.280550 0.129234 -0.183471 0.077623 -0.087495 -0.042609 -0.320574 0.180606 0.055700 -0.052831 -0.375006 -0.076794 -0.121418 0.128434 -0.281574 -0.081790 0.297951 -0.197327 0.025917 -0.075600 0.337463 -0.091430 -0.288275 -0.093118 -0.013912 0.055371 0.289798 -0.198400 -0.100147 0.198248 0.328434 -0.260173 0.056291 -0.005100 -0.250012 -0.007717 -0.142505 0.111340 -0.056569 -0.025107 0.167655 -0.225205 0.371142 0.101101 -0.266872 -0.222341 -0.147558 0.322571 0.019150 -0.180179 -0.161137 -0.136233 -0.112341 -0.416913 -0.049356 -0.136031 -0.458059 0.082875 -0.125463 0.027582 -0.064769 0.006643 0.033500 0.100307 0.004716 0.015889 -0.283094 -0.012566 -0.207454 -0.456025 -0.099067 -0.027861 0.178016 0.324099 0.106943 -0.044061 
bush	0.278867 -0.138880 -0.188585 -0.077363 -0.177259 -0.214659 0.213618 0.297328 -0.065384 0.138486 -0.281421 -0.163502 -0.110887 0.047556 -0.030107 0.306618 -0.019031 0.474011 0.059167 0.365006 0.387570 0.103319 0.118410 -0.168972 -0.034377 0.226392 0.071994 0.391202 0.149286 -0.004579 0.058481 0.307772 0.095740 -0.033101 -0.088045 -0.029658 0.194605 0.524021 -0.290447 0.096677 -0.295516 0.173500 -0.060447 -0.158416 -0.347571 0.023735 -0.183617 0.157373 -0.252308 -0.496963 0.020654 -0.363934 -0.038510 0.117637 0.002984 -0.116134 0.140457 -0.111725 0.224144 -0.306290 0.268295 0.009933 -0.233900 -0.094528 0.086535 -0.088113 0.424608 -0.017956 -0.031970 -0.342601 -0.058772 -0.183147 -0.538100 0.064705 0.160691 -0.280809 -0.051130 -0.242146 -0.193556 -0.130696 0.167654 0.232186 0.204419 -0.395488 0.119081 0.217543 0.040667 0.052684 -0.149403 0.213709 0.196171 0.210539 -0.369004 -0.157105 0.316828 0.131364 -0.184961 -0.055526 -0.028984 0.212567 0.232201 0.243487 0.064413 0.055008 -0.043420 0.196183 -0.381856 0.114806 -0.352067 0.179008 -0.269332 0.133439 0.095728 -0.377640 0.284844 0.007773 0.089631 0.123733 -0.226549 -0.176570 -0.272749 -0.374686 -0.084120 0.078617 -0.196755 -0.076962 0.046051 0.055062 -0.017343 0.088941 -0.125639 -0.174773 -0.248557 0.224569 -0.077490 -0.038778 -0.253695 -0.210870 -0.090524 -0.422642 -0.492540 -0.013814 -0.121299 -0.153270 -0.168695 -0.024554 0.092203 -0.081173 0.004593 0.194956 -0.033266 -0.083321 -0.030490 -0.351759 -0.028924 -0.111517 -0.100983 -0.313758 0.263900 0.043864 -0.032575 0.161015 -0.136996 -0.156583 0.099172 -0.083239 0.075469 -0.435202 -0.421380 -0.297913 -0.163158 0.246740 -0.200944 -0.150595 -0.155501 -0.103237 -0.092227 -0.377704 -0.024248 -0.041721 0.149202 0.512500 0.303251 -0.088514 0.221045 0.116900 0.180315 0.081885 0.186548 -0.078513 -0.096833 -0.065686 -0.289203 0.148642 0.574533 0.024746 -0.039195 0.151971 -0.105830 0.007141 
university	0.118326 0.070024 0.002787 -0.007161 -0.208868 -0.034452 0.141480 -0.291010 0.249404 0.074968 0.004188 -0.447581 0.379236 0.185858 0.001032 0.339622 -0.120392 0.119424 0.080161 0.022785 -0.188465 0.146715 -0.161123 0.153434 0.253611 -0.027570 0.053359 0.131935 0.098204 0.057611 -0.069405 0.282441 0.267462 -0.688549 -0.520337 -0.191815 0.033257 0.554354 -0.044321 -0.406684 0.090347 -0.027188 0.145257 0.070647 -0.027793 -0.272623 -0.064069 0.317158 0.067389 -0.289524 0.087050 0.183439 0.327905 -0.040484 0.105575 0.281571 0.129737 0.010679 0.233853 -0.149921 -0.242649 -0.042413 -0.022726 -0.351080 0.002626 0.469237 0.163127 -0.008427 0.116484 0.027913 -0.000926 -0.047215 0.038455 0.233108 -0.398278 -0.233838 -0.025615 -0.321792 0.042832 -0.153042 0.079783 -0.005166 -0.089299 -0.066694 0.092506 -0.218261 -0.405991 -0.095927 -0.147990 -0.034895 -0.013610 0.136238 -0.016737 -0.025139 0.116246 -0.061435 -0.034745 -0.157208 -0.141212 0.057994 -0.129553 0.121776 0.123360 -0.010817 0.050580 0.008061 -0.199032 0.129965 0.312373 -0.081377 -0.057140 -0.271346 -0.230093 -0.073868 0.135134 -0.322949 0.204015 -0.106956 -0.187205 -0.348300 0.166152 -0.162860 -0.174266 0.070844 0.258071 -0.274585 0.070905 0.031265 0.509698 -0.028118 -0.038205 0.018947 0.069865 -0.243558 -0.400217 -0.300472 -0.258734 0.238629 -0.061039 -0.083586 0.301097 -0.081354 -0.160607 0.100333 0.205007 0.046830 0.201361 -0.226285 -0.104822 0.168243 -0.379157 -0.249465 0.235378 -0.114296 0.339627 -0.210829 0.186827 0.360696 0.040977 -0.186155 0.051341 -0.067251 -0.187483 -0.176220 0.144047 0.174987 -0.000349 0.046404 -0.398017 -0.303601 -0.408291 0.284409 0.260820 -0.036902 0.013714 0.078201 -0.073105 -0.402048 0.036918 -0.049264 0.286995 0.047917 -0.247032 -0.412319 0.339832 -0.001122 0.221216 -0.106885 0.153540 -0.142838 -0.311522 0.270784 -0.025747 0.291925 0.014206 -0.395739 0.412050 -0.262409 0.102849 0.058622 
companies	0.239798 0.083486 -0.146459 0.311030 -0.333885 0.375889 0.251912 -0.200811 -0.149455 -0.024518 -0.123742 -0.003013 -0.474335 -0.037755 -0.055163 -0.106540 0.289398 0.194586 -0.054810 -0.185845 0.357562 -0.246489 0.232763 0.102313 0.301291 0.180059 -0.179868 -0.285399 0.251094 0.061106 -0.214442 0.227223 -0.230852 0.098044 -0.052313 -0.051469 -0.012763 0.098878 -0.300170 -0.265895 -0.459583 -0.073745 0.193075 -0.311112 -0.316094 -0.033328 -0.202630 0.206716 -0.071175 -0.436833 -0.236267 0.004819 0.021204 -0.279938 0.058023 -0.256779 0.185163 0.454547 0.019263 0.129741 -0.026286 0.221020 0.063753 0.013281 0.388385 0.021827 0.261813 -0.071717 -0.020297 0.020476 0.006823 -0.071883 -0.276485 0.189873 -0.046802 0.039542 0.122310 0.067835 -0.166587 -0.011174 0.050558 0.140119 -0.072840 -0.433347 -0.073797 0.368257 -0.472103 -0.009646 0.032891 0.007181 -0.172925 -0.009835 -0.051471 -0.272271 0.098810 -0.405865 -0.080489 -0.348584 -0.165935 0.129728 0.094637 -0.166316 0.248617 -0.211047 0.074964 -0.104011 0.078422 0.382417 0.103373 -0.275700 -0.046665 0.355571 0.148763 0.315038 -0.046652 -0.221458 -0.025106 0.075751 -0.008043 -0.365736 -0.160676 -0.021114 -0.270553 -0.229404 -0.088473 -0.002846 -0.015900 0.056216 -0.073995 0.298377 -0.087079 -0.016737 0.130238 -0.008675 -0.036794 -0.178729 -0.099558 0.029369 0.295862 0.244678 0.168722 -0.264993 -0.043483 0.006969 0.106523 -0.129631 0.168546 0.057450 0.027012 -0.215124 -0.034941 -0.174599 0.071010 -0.287637 0.148396 -0.247831 0.069502 -0.029839 -0.170702 -0.316262 -0.207965 -0.032997 -0.066221 -0.437917 0.054305 -0.035134 0.006992 0.192047 -0.284296 0.018047 -0.164968 -0.034650 0.106040 -0.122734 -0.069694 0.045866 0.139961 -0.092025 -0.169075 0.168334 -0.009204 0.224239 0.132194 -0.050469 -0.233673 0.201837 -0.003695 0.127206 0.125802 0.369620 0.373863 0.160303 -0.113481 0.142544 0.141452 0.026484 -0.262638 -0.247222 -0.040765 0.191421 
television	-0.228279 0.009360 -0.096118 -0.050690 0.201140 0.067924 -0.063219 0.348804 0.164903 0.162387 0.099423 -0.084330 -0.043407 -0.133174 -0.375290 0.053177 -0.486492 0.268102 0.193946 0.143217 0.076182 0.072706 0.028027 -0.311697 0.074848 0.216060 -0.003627 -0.257619 0.132667 0.281060 0.360158 0.033527 0.175278 0.123026 -0.019765 0.016125 -0.263590 0.248316 -0.337390 -0.570040 -0.125427 0.136554 0.046335 -0.070903 -0.264999 -0.170148 -0.143466 0.443331 -0.043321 -0.314465 -0.137957 -0.125392 0.194024 0.176437 -0.379900 0.072235 -0.269220 0.113326 0.153791 0.223890 -0.208208 -0.082208 0.239979 -0.294879 0.199094 -0.008111 0.293437 -0.322727 0.142021 0.237285 0.092181 0.048216 -0.293555 -0.027383 0.095770 0.088179 -0.271899 -0.094306 -0.059636 0.000502 -0.212073 -0.073435 0.295770 0.178755 0.200824 0.195026 0.371947 -0.294509 -0.203924 -0.455185 -0.073426 0.225594 -0.107711 -0.360851 -0.242157 -0.293662 0.239798 -0.193250 -0.055271 -0.087053 -0.023635 0.059641 0.253831 -0.047530 0.067316 -0.166765 -0.126644 0.258161 0.017900 -0.042014 0.325911 -0.134366 0.160383 0.205998 -0.137126 -0.121108 0.075068 0.344528 -0.220261 0.114893 0.064838 0.084412 0.029838 -0.096311 0.001793 -0.022965 0.011700 0.214159 -0.052734 0.186262 -0.071273 0.097731 0.176278 -0.309016 -0.339775 -0.025313 -0.049642 0.081880 0.094673 -0.062529 0.125722 0.047208 -0.001067 -0.206639 0.152265 0.033663 0.281219 0.028209 -0.094893 0.030733 0.169787 -0.370114 0.063330 0.125132 -0.081350 -0.363625 0.032852 0.037963 0.003733 -0.249411 0.100601 -0.140774 0.206724 0.079059 -0.024386 -0.101421 0.008288 0.025561 -0.469599 0.083254 -0.166863 0.240826 0.118598 -0.192045 -0.035564 0.063585 -0.223773 -0.239139 -0.238640 -0.012997 0.308175 -0.075479 0.302490 0.071471 -0.037620 0.070352 0.290641 -0.034520 -0.059545 0.259083 0.030961 0.119079 -0.109527 0.146804 0.229838 -0.119544 0.100462 -0.015964 0.300723 -0.239455 
workers	0.300106 0.199047 -0.077184 0.246145 -0.495706 -0.063863 -0.156771 0.290090 -0.083495 -0.014432 -0.368330 -0.096845 -0.125501 -0.043211 0.216471 -0.015006 0.261412 0.080645 -0.050611 -0.119878 0.202490 0.071201 0.283341 -0.196653 0.272189 -0.145482 -0.165446 -0.061927 0.362472 0.558434 -0.300182 -0.065037 0.044289 -0.062600 0.010716 0.009765 -0.139246 -0.088042 -0.647343 -0.515301 -0.408506 0.126613 -0.077475 -0.441328 0.006211 0.048729 -0.174442 0.156218 0.429549 -0.170722 -0.052340 -0.088587 -0.199706 -0.437817 0.046305 -0.257807 0.093375 0.427663 -0.182378 -0.157733 -0.140286 -0.147906 0.068161 -0.210547 0.194379 -0.016221 0.089950 -0.073046 0.021485 0.008931 -0.027495 -0.337975 0.028767 0.014629 -0.061881 -0.220493 0.047754 -0.157449 0.025188 0.152800 -0.179785 0.080534 0.075163 -0.303291 0.052062 0.067993 0.034304 -0.068620 -0.100151 0.016270 -0.249633 0.155366 -0.440638 -0.179834 0.173645 -0.222308 0.085500 -0.080913 -0.033244 0.311254 0.015259 -0.019281 -0.057759 0.194871 -0.143626 -0.132088 0.101500 0.494411 0.211240 -0.341351 -0.307245 0.266094 -0.004172 0.182855 0.032741 -0.259726 0.120744 0.144035 -0.162719 -0.444371 -0.156076 0.194516 -0.034428 -0.017183 -0.008547 0.035214 0.132974 0.028479 -0.320820 -0.091716 -0.057974 0.148681 -0.150106 0.145298 -0.070330 -0.182464 -0.030818 0.251239 0.372184 0.319224 0.360193 -0.190630 0.211406 -0.163854 -0.041817 0.129599 0.533465 -0.113224 -0.338982 0.073280 -0.116141 0.073170 0.064198 0.180559 0.040073 -0.108337 0.268967 -0.167011 -0.374146 -0.001309 -0.077973 0.008333 -0.080391 -0.190424 -0.010323 -0.117325 -0.201120 -0.032468 -0.172708 0.035915 -0.541658 -0.065655 0.084195 0.277373 -0.240577 -0.360719 0.140759 -0.397473 -0.369579 0.060317 -0.282773 0.440831 0.054738 -0.150982 -0.109182 0.126548 0.144487 0.153731 0.215956 0.286794 0.110512 0.266305 -0.041593 -0.131655 -0.060558 -0.319985 0.270402 -0.027522 -0.158311 0.017653 
car	0.310625 -0.386954 -0.321966 0.155356 0.316822 -0.298911 -0.000713 -0.121550 -0.046172 -0.037598 -0.184286 -0.086259 -0.067035 -0.355546 -0.091211 -0.206244 -0.098073 0.231838 0.103591 -0.251449 0.194389 -0.022341 -0.056896 0.006126 -0.113470 0.236256 -0.129485 -0.085508 0.032156 0.310268 0.099624 0.024335 0.360427 -0.146496 0.079353 -0.150529 -0.069062 0.171657 0.082052 -0.289735 -0.218465 0.225636 0.007846 -0.246404 -0.398353 -0.177918 0.093910 0.138365 -0.143684 -0.003193 0.144643 0.028123 -0.013277 -0.109602 0.207941 -0.254157 -0.080246 0.330639 0.057089 0.098933 -0.008610 -0.004173 0.136297 -0.176099 0.239590 -0.085817 0.180256 0.395113 0.202674 0.161246 0.202416 0.320460 0.113349 -0.470603 -0.140927 0.142140 0.013203 -0.084916 0.088738 -0.165404 0.292028 -0.124963 0.176654 0.134965 0.176526 -0.036082 -0.036602 -0.176854 -0.116986 -0.055492 -0.061517 0.155674 0.010182 -0.222836 -0.078045 -0.349996 0.238575 -0.317938 0.202032 0.254171 -0.146899 0.355470 -0.191697 0.104387 0.381241 0.126155 0.048322 0.450160 -0.553343 0.001191 -0.264239 -0.155691 0.391803 -0.209529 -0.341165 -0.456357 0.427543 -0.127688 -0.345960 0.193317 -0.007648 0.182512 0.051372 0.076769 -0.008347 0.297669 0.204671 0.093013 -0.069173 0.057432 0.189560 0.343422 -0.025550 -0.096188 0.297338 -0.036977 0.180655 0.307290 0.149220 -0.132153 0.208315 -0.108776 -0.167995 0.081882 -0.109445 0.114907 0.168420 -0.147734 -0.190552 0.022495 0.183441 -0.225689 -0.198038 0.225461 -0.337674 -0.138709 0.026896 -0.276046 -0.305313 -0.221242 -0.013238 0.575792 0.176154 0.015905 0.080784 0.136559 0.129558 0.056106 -0.621267 -0.116146 -0.608745 -0.111411 0.336185 -0.028559 -0.059971 -0.188936 0.041495 -0.249853 -0.207185 -0.184603 -0.112417 -0.158402 -0.173560 -0.258494 0.024878 0.244784 0.094535 -0.036485 0.030357 0.196142 0.137600 0.092297 -0.203051 -0.144603 0.179585 -0.197119 -0.012047 0.130564 -0.227131 -0.020786 
book	-0.036003 0.319380 0.172737 0.204658 0.194863 -0.044804 0.059957 -0.302610 0.088145 -0.269522 -0.206142 0.107897 0.204909 -0.139276 -0.040314 -0.042006 0.053573 0.282867 -0.006115 -0.151551 0.241294 0.044864 -0.215734 -0.083943 0.139273 0.000851 0.070768 0.316107 0.364998 0.157047 0.150527 -0.023212 0.143634 -0.157813 0.012157 0.210102 -0.094110 0.373652 -0.089484 0.084794 -0.058813 -0.219883 0.026805 -0.169215 0.048405 -0.126385 -0.015456 0.169533 -0.028831 -0.178723 -0.034079 0.072361 0.296452 0.091116 -0.112023 -0.060223 0.243878 -0.071135 -0.085984 0.012635 -0.004842 -0.180786 -0.363216 0.062886 -0.140304 0.191943 0.368057 -0.071925 0.115650 0.482355 0.172525 -0.028159 -0.208748 -0.122414 -0.119237 0.058758 0.153880 0.258378 0.039279 -0.185695 -0.194578 0.171557 -0.025808 0.221710 -0.035544 0.217624 -0.163048 -0.046087 -0.231775 0.068963 -0.065597 -0.159874 -0.044812 -0.155982 -0.092497 -0.147221 -0.053747 0.080570 -0.011204 0.036662 -0.078504 0.077619 -0.053999 0.030952 0.181562 0.046191 0.237435 -0.087749 -0.242093 0.341172 0.092677 -0.092816 -0.350221 0.080110 -0.080917 0.080735 0.143281 0.039813 -0.088754 0.115001 0.064034 -0.427645 -0.108655 -0.016944 0.116014 0.032321 -0.123309 0.244873 0.270016 0.204874 0.222643 0.180478 -0.018829 -0.049733 -0.324983 0.090628 -0.318537 -0.227385 -0.017542 -0.056470 0.022894 0.183881 0.013461 -0.238355 0.006060 -0.066298 0.011578 -0.241253 -0.097263 0.237794 0.249117 0.007509 0.006154 -0.213493 0.023013 0.117978 0.162099 0.007828 -0.222177 -0.123953 0.322153 0.004318 -0.022094 0.257787 -0.044222 0.147561 -0.079236 0.259860 -0.274196 -0.018855 -0.425502 0.111293 0.160680 -0.149534 0.072451 -0.224675 -0.220341 -0.208210 -0.134483 0.027804 0.005406 -0.022491 0.106483 -0.064676 0.017047 0.114239 0.218179 0.063224 0.239096 -0.019955 -0.182433 -0.175247 -0.430171 0.226405 0.383357 -0.088644 -0.032275 -0.275976 0.280939 0.069346 
weapons	0.130287 -0.108945 0.095150 -0.334000 0.110861 -0.018498 0.532510 0.266339 0.085516 0.051865 0.049017 0.225981 -0.100506 0.145690 -0.518937 0.181603 0.028998 0.419335 -0.406782 -0.086175 0.229207 -0.120587 0.339804 0.059056 0.000723 0.306612 0.236315 0.173638 0.183643 0.346058 -0.326148 0.414671 0.223222 0.292783 0.207495 0.387230 0.192309 0.336566 -0.383925 -0.428355 0.018319 0.049265 -0.654564 0.018852 -0.196092 -0.225455 -0.149877 -0.152305 -0.115919 -0.377399 -0.223121 0.236962 -0.070269 -0.138260 0.194966 -0.067309 0.307857 -0.104600 -0.095083 0.150060 -0.142119 -0.243609 -0.025671 -0.369463 -0.015564 -0.118151 0.135053 0.334073 0.186206 -0.312188 0.238651 0.010427 0.075660 0.435562 0.080902 -0.093223 0.322110 -0.257240 -0.170077 -0.121621 -0.211612 0.362246 0.151977 0.512340 -0.004881 0.013621 0.107022 -0.225940 -0.219213 -0.051552 -0.094347 0.270757 0.181462 -0.444775 0.208610 -0.166273 -0.119701 -0.601334 -0.138647 0.142723 -0.104026 -0.021414 -0.084967 -0.330841 -0.008087 -0.051774 -0.078057 -0.115710 -0.347755 -0.193151 0.298010 0.215977 0.360784 -0.215804 -0.204953 -0.333231 -0.075864 0.029875 0.005853 0.178736 0.102028 0.199965 -0.117226 0.156487 -0.158392 -0.578620 0.371475 0.144635 -0.262727 -0.385617 0.050242 -0.167936 -0.268025 -0.175596 -0.077267 -0.292377 0.216407 0.000326 0.326550 -0.456641 -0.082479 0.439135 -0.181017 -0.271226 0.103113 0.254970 0.275621 0.015894 -0.130026 -0.124968 -0.098552 -0.105905 -0.441205 -0.016976 -0.043441 -0.422663 -0.072796 -0.072736 -0.050910 0.131122 -0.115211 -0.176758 0.012924 0.416093 -0.017988 -0.316632 0.311026 -0.121093 -0.320557 -0.024452 -0.620461 -0.367133 -0.079687 0.275640 -0.118708 -0.026010 0.226604 -0.238694 0.008129 -0.182594 -0.008690 0.179012 0.222497 -0.446747 -0.010193 0.236704 -0.034899 -0.101998 0.433309 0.052600 0.219196 0.061517 -0.431120 0.485741 0.000729 -0.321305 -0.389725 -0.072071 -0.021506 -0.153063 
dollar	-0.259425 0.036980 -0.208366 -0.094738 0.142431 0.294088 -0.152860 0.054050 -0.061648 0.025257 0.144470 0.210223 -0.494322 0.190660 -0.032278 0.006787 0.503104 0.389383 0.353762 0.050021 0.503200 -0.198810 -0.321598 -0.313805 0.049426 -0.323533 0.269055 -0.077625 -0.035903 0.341167 0.198202 0.031095 -0.069776 0.466995 0.313481 -0.302627 0.348294 0.125610 -0.260512 0.055276 -0.237927 -0.067874 0.042742 -0.511526 -0.171480 -0.020293 -0.423664 0.319981 0.101502 -0.289616 -0.033887 0.146707 -0.017137 -0.266966 0.181805 -0.197188 -0.184250 0.311686 -0.093031 -0.087796 -0.166795 -0.379119 -0.278114 0.117230 0.691408 0.389082 0.286447 -0.187945 0.345422 -0.051709 -0.076867 -0.116027 0.066465 0.161711 -0.193206 0.146566 -0.010263 0.311519 -0.007801 -0.404344 0.437024 -0.243576 -0.202191 0.128147 -0.080772 -0.014708 -0.215913 0.424031 -0.196413 -0.276882 -0.201722 -0.156093 -0.199027 0.029162 0.249997 -0.438139 0.009406 -0.306437 -0.051956 0.035657 0.161187 0.014188 0.251935 -0.079551 -0.033492 0.312464 0.401556 0.358301 0.180890 -0.539545 -0.219497 -0.204301 0.095380 0.030441 -0.524149 -0.111555 0.079037 0.000970 -0.161361 -0.227421 0.124291 0.216262 0.223841 -0.029512 -0.242601 0.160096 -0.171348 -0.231798 -0.460165 0.279128 -0.280966 0.168484 -0.167068 0.112576 -0.331316 -0.457588 -0.335802 0.075125 0.143591 -0.181276 0.083196 0.115913 0.103942 -0.220776 0.065025 0.052812 0.295923 0.268458 -0.335241 -0.081993 0.101172 0.072879 0.439010 -0.221684 -0.031163 -0.367952 0.186138 -0.234563 0.094134 0.067467 -0.013757 0.562962 0.021801 -0.123421 0.158059 -0.336542 -0.040300 0.183488 -0.270170 -0.159366 -0.049213 -0.144859 -0.014006 -0.237660 0.248009 0.199986 0.105934 -0.373262 -0.039689 -0.515856 0.211964 -0.387317 -0.041627 -0.532324 -0.098627 -0.148672 -0.333261 0.028558 0.137485 0.192799 0.051395 -0.008645 -0.504418 0.209489 0.413894 -0.240430 -0.142000 -0.166214 -0.031459 0.174759 
father	0.287971 0.098820 0.168910 0.150909 -0.014023 0.099462 0.081637 -0.021512 0.203491 0.038253 0.006110 -0.281683 0.170049 -0.365100 -0.086203 -0.041355 0.092043 0.179034 -0.234678 0.108530 0.147784 -0.023205 -0.058684 0.106431 0.289519 -0.084330 -0.343180 0.035840 0.375881 0.014416 0.200020 -0.131976 0.196568 -0.183523 -0.077818 0.141550 -0.033280 0.282028 -0.424662 -0.065021 -0.004784 0.160515 -0.182456 -0.089264 0.190546 -0.176350 0.153656 0.294280 0.157850 -0.130720 -0.013060 0.331305 0.205055 -0.106022 0.101295 0.000082 0.205695 -0.123457 -0.105438 0.014313 -0.218622 -0.144887 -0.176129 -0.189999 0.359299 -0.100815 0.091332 0.178744 0.324274 -0.004614 0.066813 -0.137504 -0.270848 -0.166478 -0.122090 0.022392 -0.101066 -0.170066 0.186240 -0.154979 -0.167466 0.067818 0.448898 0.118732 -0.378101 -0.111949 -0.237708 -0.241758 -0.430297 0.053176 0.151525 -0.157988 -0.233224 -0.159259 -0.032417 -0.234996 -0.023803 -0.373557 0.120146 -0.010845 -0.041728 -0.041623 0.104322 0.212366 0.145909 0.027740 0.284059 -0.018756 -0.073892 -0.034820 0.080144 -0.127381 0.175539 -0.146840 0.071616 0.030067 0.184597 0.142913 -0.072725 0.226688 0.159977 -0.182021 0.375333 -0.043881 0.342698 0.202376 0.044005 0.052491 0.071030 -0.009184 -0.014564 0.352979 -0.094192 -0.293615 -0.308018 -0.131811 -0.396693 0.222113 -0.237572 -0.085208 0.203673 -0.161559 0.144059 -0.050169 0.125485 0.100148 -0.192366 -0.067991 -0.133607 0.102414 0.224914 -0.343084 -0.028310 -0.010904 0.336978 -0.257069 -0.117192 0.143734 -0.187945 -0.012882 -0.231206 0.350960 0.060094 -0.031698 0.107925 0.041066 0.070124 0.022639 -0.133759 -0.046846 -0.370554 0.117967 -0.276429 -0.011244 -0.045834 -0.100387 -0.313751 -0.272061 0.078166 -0.231769 0.037697 -0.026553 0.070118 -0.190691 0.314861 -0.026499 0.179149 0.015993 0.131527 -0.095634 -0.296340 -0.069532 -0.066122 -0.192861 0.129685 -0.127322 0.194408 0.081899 0.090979 0.053815 
king	0.406554 0.570053 -0.161959 0.287919 0.023553 -0.058832 0.076058 0.362596 0.211039 0.101451 -0.101373 0.032375 -0.084642 -0.146831 0.073561 -0.022063 0.044429 0.290820 -0.016016 0.040114 0.295392 -0.086040 0.008768 -0.028073 0.028931 -0.105030 -0.295749 0.302688 0.240171 0.029977 0.213462 0.172816 -0.147245 -0.006427 -0.106495 0.135419 0.051381 0.167926 -0.298538 0.006008 -0.283702 -0.213488 -0.171260 -0.560982 -0.185967 -0.368915 0.231420 0.201493 -0.035557 -0.121921 0.277046 0.401153 0.120166 0.269818 -0.266367 0.135535 0.141325 -0.246681 0.031395 0.023627 -0.263015 0.298184 0.065083 -0.031633 -0.071569 0.155386 0.079522 0.056322 0.366631 0.243329 -0.372366 -0.344745 -0.079736 -0.174719 0.051248 0.071084 0.191561 -0.222271 -0.303451 -0.310213 -0.108904 0.147962 0.096682 0.168806 -0.001781 0.009464 0.040873 -0.474039 -0.213033 -0.074853 0.140515 0.345979 0.025153 -0.059468 -0.001826 -0.027527 0.063319 -0.455037 -0.303576 -0.024920 -0.092812 0.041544 0.233270 0.024414 0.175654 0.241418 0.352174 0.194811 -0.254059 0.426716 -0.198980 -0.300813 0.060183 -0.003939 0.142163 0.121560 0.171118 0.505618 0.178957 -0.084826 0.214267 -0.090818 0.088720 0.150298 0.259859 0.274938 -0.010945 -0.167872 -0.043710 0.161514 0.069075 -0.147500 0.016599 0.075738 -0.552067 -0.068458 0.143640 0.065008 -0.353580 -0.221487 0.149635 0.078241 0.229679 -0.334001 -0.002042 0.212915 -0.180125 0.281251 -0.053280 -0.199928 -0.094484 -0.253645 0.291322 -0.063279 0.553476 -0.575784 -0.215248 0.161906 -0.059653 -0.031630 0.028224 0.352847 -0.070897 0.073075 -0.183703 0.135152 -0.046897 -0.002297 -0.151488 0.083981 -0.303460 0.154495 0.016992 0.079247 -0.078591 0.076352 -0.070780 -0.034416 0.392750 -0.252229 0.136997 0.180608 0.137518 -0.200150 0.375631 -0.325531 0.176709 0.074923 -0.135516 -0.303116 0.117911 -0.040813 -0.253685 0.202522 0.059381 -0.052123 0.319182 0.086571 -0.150379 -0.030915 
person	0.042433 0.099962 -0.180304 0.257172 -0.043017 -0.172005 0.046027 -0.061470 -0.006983 -0.120956 0.023027 -0.014991 0.027229 0.066279 -0.044911 0.194513 0.021202 0.146250 -0.071694 -0.084444 0.108291 0.063851 -0.234397 0.170815 0.161163 -0.250429 -0.283731 0.227143 0.369202 -0.003382 0.168383 -0.015971 0.226108 -0.148309 0.350637 0.052612 -0.118408 0.413039 -0.030793 -0.268313 -0.223639 -0.040379 -0.163506 -0.200276 -0.020692 -0.105752 0.087851 0.272932 -0.050335 -0.179411 0.122899 -0.068972 0.022619 -0.303654 0.098735 -0.020002 0.004000 0.396326 0.055268 -0.148787 -0.126230 0.016530 -0.226625 -0.112022 -0.140214 -0.101469 0.056529 0.202021 0.038631 0.026975 -0.050573 0.183902 -0.144602 -0.039052 0.082964 0.230496 -0.041051 -0.122642 0.149059 -0.059856 -0.057824 -0.025921 0.075437 -0.096060 0.032249 -0.015086 0.073679 -0.066665 -0.214522 0.123986 0.084620 -0.053503 -0.256558 -0.397084 0.062904 -0.277329 -0.101612 -0.220293 0.212017 0.004328 0.035978 0.072022 -0.445685 -0.076084 -0.165640 0.035884 -0.008940 0.212541 -0.359191 0.132159 0.125922 0.095363 0.152512 -0.016758 -0.328667 -0.307338 -0.057211 0.189958 -0.133854 -0.001242 -0.098345 0.007583 0.116940 0.008039 0.324366 0.259811 -0.096801 0.041690 0.100298 -0.061474 -0.013973 0.567320 -0.004297 0.078623 -0.199091 -0.019264 -0.250950 0.267374 -0.246311 0.139869 0.390462 -0.060763 -0.150035 -0.034446 0.048518 -0.047503 0.033035 0.221542 0.002757 0.098927 0.039746 0.065431 0.015735 0.025302 0.152465 -0.106896 -0.014376 -0.049860 -0.119676 -0.130513 0.080793 0.193160 -0.188020 0.272331 -0.036697 0.041445 0.042107 -0.002465 -0.103200 0.188632 0.004401 0.174601 -0.054550 0.027355 -0.011124 -0.117996 -0.065410 -0.120069 -0.093500 -0.078228 0.150635 0.019700 0.071436 -0.117509 0.187012 -0.053728 0.211019 0.278982 0.239822 0.038532 -0.095741 0.006506 -0.228465 0.060493 0.043741 0.102534 -0.117529 -0.030760 0.184807 0.335310 
teams	0.161123 0.116673 -0.323448 0.068242 -0.012224 0.267816 -0.286905 0.035491 -0.237362 0.217868 0.175531 0.091723 0.169673 -0.165134 -0.215205 0.041503 -0.139424 0.228205 -0.176011 -0.373645 0.158135 -0.197098 0.188623 0.110445 0.114913 0.141313 0.058158 -0.116897 -0.056137 -0.080111 -0.246549 -0.190736 0.097392 -0.043973 -0.314209 -0.005132 0.164405 0.067272 -0.406493 -0.363068 -0.373069 -0.075059 -0.232611 -0.224151 -0.174156 -0.137820 -0.170354 -0.081446 -0.296859 0.180514 0.248309 -0.089578 0.093941 -0.118783 -0.065169 -0.057321 -0.016127 0.112293 -0.109833 0.122015 -0.060855 -0.069450 -0.026611 0.046531 0.139839 0.007364 -0.012062 -0.136411 0.025230 0.139106 0.033418 0.103003 0.112371 0.073341 0.299396 0.201192 -0.002831 -0.143696 -0.011946 -0.212081 -0.142724 0.242283 -0.183523 -0.208409 0.122316 -0.153534 0.041538 0.013550 -0.265643 0.219122 0.029051 -0.236999 0.325542 -0.172152 0.259012 0.023241 0.167006 -0.380657 0.088419 0.282733 -0.134042 0.017231 0.253176 0.122950 0.190710 -0.045090 -0.487685 0.129772 0.417799 -0.079842 0.136063 0.168508 0.296512 -0.226625 0.130440 -0.597302 -0.118599 0.228062 -0.136031 -0.218324 0.128470 -0.037536 -0.313038 -0.033472 0.109837 -0.181167 0.227163 0.322372 -0.251585 0.046783 0.035941 0.333920 -0.005528 -0.123694 -0.263871 -0.368776 -0.213826 0.232523 -0.099340 -0.030695 0.263247 -0.076870 -0.315632 -0.260219 0.029256 -0.585703 0.059173 0.214027 0.033851 0.054718 -0.201278 0.021532 -0.366777 -0.054296 0.107921 0.205865 -0.230513 -0.201798 -0.200818 0.181018 0.198565 -0.204340 -0.125193 -0.013382 0.406912 0.003769 -0.155202 0.134302 -0.049301 -0.419809 -0.489055 -0.059328 0.018335 -0.049386 0.291610 -0.037619 0.249284 -0.782844 -0.249481 0.080017 0.143390 -0.235598 0.226271 -0.495145 -0.354077 0.104197 -0.122624 0.015168 -0.077393 -0.217508 0.067540 0.185384 0.157892 0.338688 -0.077789 -0.034520 0.393315 -0.003084 -0.024170 0.236520 
star	0.065889 0.254645 -0.327263 0.009232 0.019071 -0.256608 -0.055832 0.206699 -0.184939 0.098808 0.438121 -0.187993 0.171994 -0.285669 -0.154704 -0.062315 -0.154817 0.249986 0.085556 -0.163005 -0.185341 0.018188 -0.190360 0.344808 -0.156456 0.209724 -0.161965 -0.159242 0.443738 0.125873 0.265688 -0.509065 -0.112903 0.061760 0.027670 -0.009995 0.206429 0.043998 -0.188354 0.030695 -0.259843 -0.069139 -0.071305 0.174339 -0.049148 -0.011588 0.228286 0.116518 -0.153256 0.019265 -0.103768 0.002054 0.046133 0.298428 0.077553 -0.058523 -0.090605 -0.079619 0.236068 0.017523 0.041017 -0.016607 0.027732 -0.278073 0.195868 -0.008780 0.119520 -0.150966 0.490187 0.532040 -0.012425 -0.059388 -0.109909 -0.132592 -0.246779 0.192613 -0.036692 0.044383 -0.047419 -0.205410 -0.143038 0.059135 -0.063769 0.106079 -0.159810 -0.124221 0.110266 0.326444 -0.969133 -0.029622 0.123436 0.267368 0.230414 -0.176006 0.100294 -0.240485 0.166859 -0.407851 -0.445597 0.127352 -0.048492 -0.102527 0.240016 0.008988 0.075525 -0.078373 0.047575 0.106356 -0.154063 -0.077030 -0.028332 -0.112394 -0.048932 0.059750 -0.033279 0.269614 0.011605 0.271668 -0.090658 -0.289003 0.134621 -0.047752 -0.063489 -0.323590 0.105601 -0.003730 0.012100 0.221226 0.095438 0.067570 -0.089952 0.160361 -0.009372 -0.209409 -0.595282 -0.008905 -0.045058 0.148535 0.247910 0.190498 0.017567 -0.155268 0.073417 -0.087560 0.105339 -0.163343 -0.100881 0.350546 -0.072619 0.080851 0.008784 -0.335621 -0.031015 -0.241207 0.114045 -0.418476 -0.336767 -0.238358 0.006242 -0.047112 0.063806 -0.102171 0.206133 0.100969 -0.167037 -0.183790 0.001150 0.457967 0.100763 -0.118951 0.112437 -0.284454 -0.119934 -0.249717 0.346292 -0.034632 -0.126802 -0.343284 -0.283191 -0.021089 0.494462 -0.036306 0.002980 -0.051240 0.354335 0.027278 0.086035 0.169662 -0.028748 0.177714 -0.223913 0.192453 0.063219 0.153602 0.301845 -0.238063 -0.003236 -0.019355 0.006637 -0.012865 
schools	0.202285 0.523910 0.085873 0.133173 -0.421241 -0.069577 0.108999 -0.079446 0.010071 0.402200 -0.341832 -0.020849 0.334466 0.162587 0.014477 -0.057487 -0.045881 0.363371 -0.138906 -0.139618 0.144516 -0.117627 -0.141342 0.051142 0.047589 -0.543908 0.140692 -0.139719 -0.072948 0.089033 0.065525 0.144687 -0.107493 -0.449004 -0.542069 -0.022025 0.454448 0.319629 -0.377954 -0.427354 -0.378787 0.054909 -0.262839 -0.224204 -0.063937 -0.286753 -0.401011 0.070081 0.087236 -0.498118 -0.021335 0.102158 0.610494 -0.278189 0.173588 0.261219 -0.051594 0.228879 0.034189 -0.057678 -0.009474 -0.202274 0.165845 -0.362652 -0.089837 0.097793 0.163152 -0.092407 0.037594 0.283531 -0.107678 0.331279 -0.026474 -0.085027 0.068120 -0.114968 0.296066 0.044383 0.104717 0.196847 -0.318677 -0.154317 0.051578 -0.088709 -0.066176 -0.048580 -0.147089 -0.142174 0.099113 0.139410 -0.027682 -0.182354 -0.084880 0.044255 0.012335 -0.067063 0.127448 -0.065696 0.148154 0.144210 -0.116735 0.125070 0.123867 0.174907 0.162747 -0.228253 0.061027 0.043850 0.245694 -0.030874 -0.045666 0.054836 0.083850 0.351011 -0.245163 -0.038397 -0.213006 -0.094142 -0.547858 -0.279199 0.223614 -0.151430 -0.255426 -0.148573 0.200619 -0.382580 0.010326 -0.008369 0.181953 0.127869 -0.097979 0.039695 0.199224 -0.042897 -0.435475 -0.021998 0.185600 0.295345 -0.227553 -0.039556 0.125219 -0.173089 -0.195578 -0.184336 -0.077188 0.073785 0.098489 -0.189504 -0.163844 -0.009865 -0.459828 -0.280619 -0.006904 -0.161294 0.168919 0.221332 0.055849 -0.148424 0.283650 0.130794 -0.288493 -0.116891 -0.107979 0.201511 0.280415 0.037558 0.079362 0.102598 -0.329885 -0.520814 -0.337407 -0.101495 0.136851 0.044882 -0.092806 -0.081439 -0.165155 -0.470292 -0.147612 -0.068724 0.217661 0.447144 0.042816 -0.370962 0.072031 0.126342 0.042877 0.150229 -0.123201 -0.044845 -0.032750 0.212431 -0.122130 0.198145 -0.097768 -0.196177 0.006709 0.106791 -0.086204 0.234038 
computer	-0.027478 -0.073438 -0.006760 0.163455 -0.185228 0.123235 0.319277 -0.414365 -0.217590 -0.213888 -0.085955 -0.251654 -0.062774 -0.052610 -0.140449 0.023568 -0.210614 0.093307 -0.336440 -0.417870 0.143670 0.208871 -0.191583 0.181125 0.118150 0.279423 0.254523 0.024256 0.129307 0.183477 -0.148802 0.191815 0.043111 -0.187768 0.245145 -0.057623 -0.123082 0.061525 0.040386 -0.088686 -0.061533 -0.337367 -0.137437 -0.145638 0.213502 -0.104483 -0.144568 0.557583 -0.096372 -0.159456 -0.159272 -0.107024 0.368704 -0.124744 0.144454 -0.485935 -0.047296 0.175088 0.137726 0.034487 0.166270 -0.150500 0.251522 -0.043707 0.069814 0.064193 0.428655 0.025129 -0.065411 0.068026 -0.123506 -0.205084 0.232705 0.040291 0.324053 0.197149 0.165192 -0.064108 0.134998 -0.146014 0.112217 -0.132061 -0.051956 0.223002 -0.057796 0.470387 -0.020339 -0.012965 -0.014269 0.087064 0.195099 -0.170812 -0.407989 -0.292347 0.196974 -0.515890 0.113841 -0.128409 0.012143 -0.225806 -0.174303 0.216125 0.528829 -0.421369 0.108049 -0.258660 -0.010749 0.136034 0.006522 -0.094413 0.036889 0.064715 -0.003423 0.306445 -0.471148 0.045149 0.133117 -0.055798 -0.138745 -0.071853 -0.096125 0.267725 -0.213497 -0.042544 0.332496 -0.046190 0.218398 0.085074 -0.018519 0.219640 0.086268 0.258396 -0.402135 -0.383743 -0.216374 -0.005503 0.175164 0.224025 0.150801 -0.067963 0.112776 0.070214 -0.210063 0.123702 0.014639 0.209276 0.248213 -0.148324 -0.050932 -0.206056 -0.227758 -0.222659 0.335891 -0.207210 0.066574 -0.541275 0.095437 -0.036857 0.073726 -0.324358 -0.100721 0.052814 -0.117589 0.054375 -0.010326 0.105859 -0.133390 -0.015813 -0.295255 -0.132579 -0.374764 -0.195969 0.328741 -0.339166 0.332311 0.279761 -0.070962 -0.311774 0.315566 0.355809 -0.131584 0.067491 0.117607 -0.078270 0.232205 0.247708 0.121146 -0.119230 0.092339 0.267217 0.064652 0.170381 -0.279025 0.327265 -0.048949 -0.172231 -0.166707 -0.188864 0.180549 0.009606 
families	-0.065502 0.190024 -0.270825 0.252113 -0.291724 -0.017429 -0.128692 0.271878 0.108634 -0.103872 -0.054380 -0.116227 0.126019 -0.078866 -0.100273 -0.329513 0.073552 0.528282 -0.058710 -0.068449 0.112776 -0.009522 0.300544 0.132203 -0.107680 -0.095895 -0.038471 0.321574 0.123909 0.142844 -0.032165 0.196345 0.402202 -0.285937 -0.523909 0.184246 -0.088570 0.333519 -0.323969 -0.468341 -0.235007 0.075152 -0.226332 -0.035286 0.152920 -0.056862 -0.126689 0.064826 0.125003 -0.197183 -0.158578 0.144430 0.140327 -0.585189 0.031828 0.107254 0.313366 0.338640 -0.365955 -0.007989 -0.159223 -0.154919 0.080007 -0.109585 0.203939 0.190813 0.193127 0.070973 0.184263 0.138517 -0.066049 -0.117842 -0.196256 0.072105 -0.025027 -0.154940 0.088069 0.137889 -0.063543 -0.110495 -0.164321 0.127993 0.212408 -0.222212 -0.027523 0.173553 0.045227 -0.123717 -0.062395 0.261715 -0.144406 0.037177 -0.449157 -0.318101 0.033619 -0.321651 -0.037827 -0.248383 0.251889 0.052880 0.321652 -0.086585 -0.003471 0.299181 -0.097882 -0.089185 0.203950 0.310290 0.197116 -0.344483 -0.096851 0.310821 0.134456 0.061355 -0.170903 0.032760 0.161271 -0.254567 -0.279599 -0.076943 -0.228887 -0.106863 0.058819 -0.077795 0.192764 0.221292 -0.123688 -0.072414 -0.258453 0.077483 -0.013824 0.106547 -0.008425 0.188521 -0.158098 0.115613 0.026206 0.243945 -0.234579 -0.075443 0.245478 -0.301047 0.070677 -0.314476 -0.006228 0.038398 -0.058392 -0.008053 -0.107011 -0.187645 0.109443 -0.217441 -0.183882 0.101043 0.012296 -0.047754 0.046494 0.020907 -0.184268 0.088982 -0.208937 -0.154943 -0.104767 0.085836 0.064927 -0.227904 0.405435 -0.063834 -0.203520 -0.109233 -0.106857 0.350645 0.131146 -0.009874 -0.133921 -0.059939 -0.173603 -0.416288 -0.113267 -0.276368 -0.194052 0.385498 -0.115052 0.020173 -0.159086 -0.220533 0.161649 0.270129 -0.047830 0.021959 -0.207863 0.050165 -0.105340 -0.327684 -0.026696 -0.082891 0.198987 0.141541 -0.061088 0.311858 
movie	-0.307763 0.199250 0.039228 -0.027943 -0.077283 -0.362857 0.157057 0.067510 0.070651 -0.282563 0.035014 -0.269051 0.058661 -0.342808 -0.360433 -0.031988 -0.064030 0.261719 0.192390 0.041316 0.452366 0.073765 -0.205945 -0.003335 -0.085644 0.152925 -0.046044 0.067470 0.044246 0.322807 0.221084 -0.167009 -0.143372 -0.247639 0.126847 0.215890 -0.147779 0.013549 -0.132805 0.039306 0.026884 -0.136623 -0.012378 -0.037540 -0.031090 0.046507 -0.095250 0.251641 0.015692 -0.278442 -0.193936 -0.150635 0.158593 0.155453 -0.143891 -0.326631 -0.073997 -0.038475 0.151635 -0.134118 -0.036030 -0.000310 -0.155216 -0.381199 -0.006361 0.156395 0.407574 0.123423 0.432689 0.564375 0.313631 0.248083 -0.012905 -0.093835 0.078312 0.078335 -0.024770 0.370064 0.081604 -0.272310 -0.432725 -0.033635 0.446356 0.281926 0.051730 0.215958 0.106836 0.019581 -0.331526 -0.085579 -0.205209 -0.175344 0.102118 -0.268547 -0.132552 -0.206832 0.075155 -0.606196 -0.045681 -0.059291 -0.234612 0.019454 0.112085 0.330013 0.173489 -0.003460 0.133500 0.007577 -0.266786 0.209916 -0.024290 0.090452 -0.062070 0.041337 -0.172707 0.006922 0.152279 0.141332 -0.289340 0.160783 0.011389 -0.231016 0.008306 -0.415849 0.216624 0.309726 -0.089934 0.384525 -0.029389 0.055436 -0.027241 -0.018530 0.273363 -0.230680 -0.309761 -0.180273 -0.345710 0.040266 0.103219 0.214604 0.002988 0.039109 -0.045697 0.053176 -0.053510 0.034294 0.036981 0.101200 -0.037840 -0.082805 0.028265 -0.353531 0.149374 -0.124016 0.061150 -0.183197 -0.024263 -0.108713 -0.113270 -0.494003 0.173422 -0.139024 -0.010415 0.347271 0.121073 0.029446 -0.279190 0.199275 -0.062771 0.009139 0.014900 -0.045138 0.038372 -0.195780 0.036108 -0.015570 -0.072944 -0.163148 -0.093705 -0.000684 0.111817 0.080289 0.329180 0.091287 0.018584 0.369881 0.214427 0.172677 0.185287 -0.142406 0.163538 -0.277391 0.068756 0.204232 0.550860 -0.203598 0.358711 0.198691 0.093985 0.162699 
song	-0.260558 0.250373 0.069784 -0.049313 0.248699 0.001188 0.154548 -0.404791 0.180972 -0.025094 -0.273008 -0.148545 0.080349 -0.663784 -0.053535 -0.206452 -0.050456 0.058273 -0.022751 -0.165390 0.238451 -0.089729 0.033446 -0.094807 0.463034 0.137161 -0.258440 0.026835 0.172811 0.141686 0.071000 -0.216719 0.128639 -0.656226 -0.083218 0.388657 0.222794 0.213844 -0.179520 0.088242 0.012161 -0.070034 -0.323433 -0.164108 -0.009508 0.129902 -0.267857 -0.162710 -0.128849 -0.171711 0.195858 -0.052034 0.308973 0.293233 -0.263265 -0.203775 0.136244 -0.181349 0.337004 -0.095323 0.021979 0.198833 -0.123472 -0.126273 0.251298 -0.010842 0.180818 0.263920 0.079938 0.769050 0.011941 0.070358 0.124590 -0.410610 -0.148609 0.109310 0.320590 0.157454 0.224813 -0.062061 -0.019994 0.187952 0.586959 0.023530 0.006029 0.304602 0.453027 0.020380 -0.266484 -0.121793 -0.789034 0.208096 -0.078778 0.151004 -0.311558 -0.146284 -0.163760 -0.635504 -0.107619 0.372744 -0.040803 -0.020837 0.096761 0.173671 -0.032018 0.170646 0.234307 0.070192 -0.306541 -0.304393 0.041066 -0.128885 -0.078660 0.030055 -0.196636 -0.180668 0.228781 0.171556 0.059752 0.020168 0.204541 -0.283541 0.233339 0.111703 0.351052 0.185756 0.019337 0.388549 -0.043556 0.122172 -0.004778 0.253390 -0.051077 -0.345936 -0.308552 -0.126131 -0.335553 0.075526 -0.439514 0.228795 -0.004944 -0.088389 -0.170538 -0.129042 -0.231040 0.003216 0.176649 0.253891 -0.006320 0.203925 0.098766 0.062246 0.145815 -0.199584 0.115258 -0.186994 -0.266513 -0.093464 -0.314908 -0.148198 0.403652 -0.287640 0.152888 0.099266 -0.073334 0.213796 -0.043228 0.204395 0.302278 0.035453 0.129631 0.268421 -0.053376 0.013933 0.009919 0.149991 0.058522 -0.234154 0.084664 0.051564 0.205697 -0.137839 0.059147 -0.024364 -0.009230 0.515635 0.094164 0.070508 -0.077907 0.250640 -0.077018 -0.312103 -0.035905 0.390517 0.471878 -0.005145 0.166319 -0.320962 -0.129035 0.184780 
cities	0.055463 0.606926 -0.112887 0.219987 -0.411773 -0.265177 0.075267 0.032555 -0.129033 0.227903 -0.179532 0.030169 -0.100089 -0.183270 -0.205749 0.034759 0.219255 0.289364 -0.044066 0.190066 0.173159 -0.192078 0.162071 -0.036829 0.138944 0.014002 0.193167 -0.144674 0.149707 0.078684 -0.129729 0.030019 0.086179 -0.074742 -0.252569 -0.080802 0.049341 -0.112063 -0.140348 -0.755765 -0.483696 -0.154646 -0.142351 0.052962 -0.147780 -0.204641 -0.003904 0.129568 -0.021591 0.033919 0.169991 -0.096913 0.316446 -0.073409 0.353446 0.272269 -0.180522 0.157304 0.129988 0.083515 -0.064761 0.143646 -0.043610 -0.217419 0.246951 0.339654 0.289903 0.305153 -0.023520 0.002526 0.014731 0.188897 -0.012914 -0.129850 -0.425531 0.213293 0.062044 -0.079302 0.188809 0.090109 -0.207440 0.063062 0.052195 -0.147989 -0.089148 0.156922 -0.072709 -0.326137 -0.106069 0.266020 -0.119089 -0.062769 0.027317 0.254403 0.085878 0.206229 0.071931 -0.246053 0.157343 0.031630 0.175738 0.192922 0.172454 0.127500 0.061095 0.098852 -0.161738 0.090744 0.131905 -0.110969 -0.095773 0.323071 0.110012 0.447602 -0.004159 0.055102 -0.018312 -0.050152 -0.195983 -0.234203 -0.259247 0.276322 -0.254440 -0.025145 -0.095246 -0.037670 -0.069883 0.019942 0.141431 0.252509 0.229753 0.020403 0.189135 0.073191 -0.261563 -0.016091 0.091776 0.199976 -0.063248 -0.184654 0.136398 0.042104 -0.203816 -0.412733 -0.090046 0.087349 0.267203 -0.349755 -0.314658 -0.099419 0.050189 -0.331850 -0.009746 -0.209201 -0.289532 0.062238 0.009082 0.187512 -0.348899 -0.554615 -0.071702 0.123993 -0.289949 -0.103420 0.387495 -0.156079 0.282314 -0.215866 -0.209324 -0.302252 -0.294878 0.249142 -0.020915 0.349549 0.043795 -0.105918 -0.020541 -0.420314 -0.456910 -0.229610 0.566462 0.175404 0.072170 -0.020085 0.028361 0.121563 0.032689 -0.246507 -0.129909 0.255599 -0.089917 0.272244 -0.048060 0.196436 -0.102562 0.012046 0.235064 0.050865 0.129009 0.223747 
phone	0.221634 -0.136438 0.018635 0.155954 -0.064552 0.139558 -0.003397 -0.021924 -0.171820 0.060194 0.069868 -0.005194 0.236665 -0.380259 -0.013471 -0.108516 -0.181155 0.081520 -0.163709 -0.089912 0.032124 0.033309 0.037173 -0.002479 0.196990 0.053716 -0.556044 0.092344 0.162014 0.246958 0.480794 -0.038282 0.095383 0.040417 -0.038134 -0.052515 0.051047 -0.059421 0.302976 -0.721210 -0.048854 0.174468 0.063477 -0.196208 -0.201764 -0.223957 -0.009878 0.401632 0.095295 -0.340519 0.019757 0.003832 0.099219 -0.039379 0.099852 -0.249952 -0.006672 0.063478 0.135721 0.169908 0.345088 0.161464 0.017828 0.008456 0.207292 0.165814 0.347771 0.244650 -0.160772 0.155846 -0.014017 0.111384 -0.174510 -0.277775 0.367050 0.170023 -0.045218 0.075952 0.053444 -0.284464 0.309328 -0.029377 0.016026 0.052573 -0.024198 0.464545 0.112010 -0.033405 -0.006848 -0.237181 0.173700 0.200138 -0.297727 -0.781168 0.085590 -0.413862 0.090893 0.028819 0.218681 0.228754 0.176992 0.385574 0.166786 -0.511596 0.334739 0.121901 -0.262147 0.456091 -0.049294 -0.160323 0.083209 0.098358 0.006926 0.149604 -0.573281 -0.066083 0.048812 0.202732 0.016977 0.407905 -0.164976 0.063451 0.348123 -0.192396 0.377319 0.280815 0.202987 0.132139 -0.133244 0.242157 0.094447 0.363563 -0.158677 -0.423646 0.014013 0.058771 -0.278213 0.154062 0.179219 -0.546287 -0.120924 -0.018361 -0.131411 -0.067808 -0.146762 -0.000190 0.334611 -0.265871 0.096449 0.070133 0.035989 -0.462428 -0.050470 0.049983 0.245759 -0.157131 -0.170235 -0.031006 0.013338 -0.379015 0.063662 0.057697 0.094238 0.345697 -0.115581 0.232847 0.251571 -0.204107 -0.182538 -0.151606 -0.041737 0.052388 0.272557 0.017244 0.393874 -0.000787 0.236895 -0.358585 -0.101878 0.169400 0.155817 0.266635 0.241274 -0.016920 0.067064 0.164919 -0.086754 -0.035516 0.206298 0.479164 -0.045019 -0.080934 -0.010360 -0.028225 -0.050675 -0.147548 0.105832 -0.140240 0.290595 0.145694 
cars	0.383200 -0.085268 -0.332582 0.111572 0.104199 -0.165770 0.000229 -0.320573 -0.053334 -0.045578 -0.153045 0.120331 -0.315437 -0.324125 -0.134816 -0.318716 -0.038456 0.339780 -0.126229 -0.124302 0.100445 -0.105927 0.053702 0.119196 -0.204031 0.352218 -0.029901 -0.152084 0.063650 0.234428 -0.108063 -0.102193 0.300944 -0.127870 -0.127018 -0.311439 -0.067774 0.047989 0.035855 -0.582242 -0.146450 0.060847 -0.001719 -0.315483 -0.431744 -0.174033 0.144451 -0.129563 -0.169899 -0.191378 0.120237 -0.148518 -0.020692 -0.268069 0.232836 -0.079375 0.018163 0.293983 0.074768 0.164349 -0.082457 0.045264 0.200280 -0.271473 0.094194 -0.024641 0.336413 0.193647 0.134024 0.143211 0.115792 0.466024 0.139559 -0.238216 -0.044390 0.087019 0.165353 0.018723 0.176726 -0.238747 0.318021 -0.110034 0.326705 0.005796 0.160866 0.013586 -0.074520 -0.265349 -0.087501 0.055339 -0.246716 0.080096 -0.055530 -0.187487 -0.032939 -0.183912 0.336396 -0.386511 0.099694 0.325229 -0.318082 0.470090 -0.137858 0.040079 0.348190 0.113778 0.050689 0.505067 -0.219163 0.093854 -0.407290 0.073630 0.478375 -0.197331 -0.076407 -0.194844 0.150533 -0.112071 -0.448206 0.196384 -0.118749 0.246183 -0.023563 -0.056185 -0.361340 -0.018088 0.414021 0.027131 0.037802 0.177494 0.350446 0.190541 0.068553 0.171346 0.241192 -0.195979 0.296007 0.414871 0.274372 -0.008050 0.189903 -0.178339 -0.208642 -0.102800 -0.033317 0.124198 0.294638 -0.114694 -0.032808 0.009622 -0.037277 -0.090993 -0.318374 0.109879 -0.381574 -0.062976 0.011633 -0.223041 -0.356517 -0.359222 -0.103416 0.523426 0.270561 0.022643 0.024252 0.118572 0.100910 0.054834 -0.600977 -0.320560 -0.433947 -0.133045 0.390567 0.036952 -0.150781 -0.136778 -0.138313 -0.548873 -0.355039 -0.077026 -0.241973 -0.155780 0.022172 -0.131060 -0.151267 0.273922 -0.122672 0.032009 -0.001363 0.389929 0.188847 0.137297 -0.393129 0.094597 0.290081 -0.299977 0.087290 0.203660 -0.360418 -0.005410 
books	0.048681 0.427757 0.089941 0.225169 0.119371 0.033901 0.157070 -0.314778 0.197543 -0.297001 -0.098317 0.160483 0.250128 0.066960 -0.020378 -0.063249 0.005808 0.238101 -0.260988 -0.222081 0.084715 0.072350 -0.035129 0.214916 0.079546 0.140636 0.169723 -0.002660 0.368995 0.129530 0.123533 0.040859 0.089444 -0.326371 -0.133511 0.060260 -0.101511 0.554142 -0.195640 -0.037879 0.001872 -0.219718 -0.009351 -0.176710 0.043230 -0.033995 -0.074556 0.184962 -0.129411 -0.422243 -0.081611 0.117348 0.266458 -0.045386 -0.163456 -0.171206 0.241673 -0.129929 -0.330649 0.019908 -0.056189 -0.095384 -0.123388 0.038475 -0.149544 0.250921 0.429058 -0.096600 0.299362 0.480146 0.166292 0.121419 -0.232209 -0.121731 -0.030390 -0.033307 0.105781 0.207339 0.000922 0.025961 -0.074587 0.204370 -0.165439 0.211211 0.054124 0.057742 -0.036252 0.018637 -0.158675 0.047397 -0.017029 -0.192590 -0.034334 -0.288941 -0.062866 -0.239519 -0.016474 0.004617 -0.146565 -0.071391 -0.217948 -0.139255 0.009249 0.008775 0.176847 -0.115434 0.331797 -0.193371 0.076977 0.336727 0.090424 -0.090400 -0.219655 0.236837 -0.008335 0.234665 0.115623 -0.115448 -0.089990 0.137275 -0.094262 -0.385438 -0.216709 -0.176378 0.112771 -0.114404 0.049344 0.064631 0.314746 0.529604 0.260461 0.184747 0.029491 -0.156338 -0.341666 -0.017404 -0.122398 -0.230725 0.086133 -0.136759 0.051842 0.145202 0.118340 -0.234234 0.052992 -0.025917 0.036741 -0.233599 -0.097134 0.258145 -0.035001 -0.066065 0.135630 -0.154677 -0.058040 0.022140 0.113389 -0.042931 -0.047680 -0.198508 0.361710 0.086243 0.050285 0.217504 0.071806 0.158548 -0.203764 0.227871 -0.521210 0.049909 -0.254048 0.061111 0.263237 -0.209078 0.068813 -0.124430 -0.330714 -0.298808 -0.188941 0.098883 -0.072154 -0.033389 0.114437 -0.006558 0.001782 0.275867 0.311251 -0.113741 -0.004772 0.083139 -0.100546 -0.158427 -0.496809 0.253454 0.326269 -0.096638 -0.093869 -0.325294 0.217130 0.271151 
lake	0.000695 -0.023072 -0.225726 0.309597 -0.377915 -0.276213 -0.112942 0.025312 0.024684 0.240060 -0.266312 0.056430 0.180202 0.103779 -0.124024 0.181937 0.176217 0.057828 0.079330 -0.117101 -0.125628 -0.109558 -0.053369 -0.495544 -0.078846 -0.311694 0.579201 0.300036 0.336541 0.409481 -0.316121 -0.167228 0.324949 -0.064934 -0.397950 0.120840 -0.008859 -0.025910 -0.319606 0.114207 -0.180146 0.081695 0.172997 0.146508 0.224355 -0.304561 -0.071169 -0.004108 -0.084692 -0.292082 0.295427 0.070343 0.273574 0.144255 0.157890 0.104906 -0.073407 -0.052471 0.442046 -0.323612 -0.197128 0.368567 -0.190371 -0.302750 0.110228 -0.222374 0.313367 0.043470 0.584694 -0.110623 0.600777 -0.241521 0.136544 -0.410003 0.119875 0.079269 0.415903 0.057783 -0.221206 0.058557 -0.044388 0.132698 0.073744 0.157193 0.008010 0.116626 -0.080816 -0.099542 -0.245916 -0.372345 -0.447531 0.127727 0.057406 -0.394751 0.309617 -0.142747 0.028365 -0.271368 -0.086287 0.242905 0.023313 0.093815 -0.084878 0.099921 0.089044 0.173902 -0.237433 -0.356316 0.091676 -0.167063 -0.156170 -0.073820 0.017678 0.555718 0.046190 -0.125982 -0.219370 0.172162 -0.396259 0.295622 0.060094 0.231937 -0.241989 -0.060630 0.043429 0.077929 0.169877 -0.233195 0.442426 0.024752 0.259594 0.311707 -0.025702 -0.036802 -0.327716 -0.075159 -0.155235 0.157940 -0.433961 -0.109754 -0.106944 -0.050811 0.047560 0.149389 0.062090 -0.155117 -0.196539 0.130381 -0.238489 0.117720 0.215190 0.144179 0.030210 -0.144369 0.023980 -0.431351 -0.164536 -0.276781 -0.505833 -0.015634 -0.363684 0.319216 -0.045053 -0.322762 0.366533 -0.019772 -0.051403 0.197120 0.059057 -0.404866 0.045942 0.063304 -0.095575 -0.137074 -0.029581 0.145640 0.050519 -0.329331 0.163587 -0.621351 0.208044 -0.119711 -0.036578 -0.228181 -0.232389 0.000732 -0.160247 -0.065306 0.173056 -0.093043 0.263854 0.003811 0.020040 0.068681 -0.290829 -0.072765 0.103727 -0.016925 0.107948 -0.010615 
seat	0.332871 0.000890 -0.344628 0.073805 0.171362 0.122829 -0.358601 -0.022848 0.132222 -0.031936 0.171168 -0.006710 0.050343 -0.067672 -0.220328 -0.192742 -0.198308 0.346369 0.126600 0.334844 0.096851 -0.005440 0.054728 -0.067622 0.273876 0.093429 0.276023 0.220033 0.122328 0.275433 -0.139735 0.178692 0.601591 0.258813 -0.123246 0.319159 -0.266934 -0.155376 -0.154225 -0.313795 -0.319023 0.162724 0.046545 0.142050 -0.493211 -0.361145 0.188594 0.175717 0.024530 -0.097322 0.545948 0.164281 0.498566 0.170198 0.013987 -0.238915 0.112276 0.009647 -0.244594 -0.077190 0.007315 0.441707 0.040468 0.067638 0.489419 0.215994 -0.030658 0.063869 0.073503 -0.002128 -0.022632 0.267895 -0.067115 -0.177177 0.029265 0.247739 0.160334 0.008038 0.044034 0.138785 -0.028395 -0.071030 0.194385 0.156072 -0.050440 -0.183789 -0.350819 0.012309 0.048553 0.200508 -0.362003 0.009787 -0.323580 0.143940 0.071479 -0.214087 -0.067018 -0.446346 -0.215530 0.175813 0.264463 -0.034841 -0.217231 0.088332 0.226169 -0.334320 -0.397083 0.170422 -0.003517 -0.013745 -0.060610 -0.219220 0.203232 -0.078866 -0.214841 0.120667 0.006668 0.118583 -0.127111 0.352551 0.353739 -0.197786 -0.020068 0.115847 0.308896 0.145418 -0.001111 0.105117 0.189109 0.115812 -0.096084 0.417813 -0.125029 -0.229167 -0.172912 -0.139342 0.000689 0.337293 0.024810 0.082303 0.241627 0.261414 -0.204256 -0.127956 0.203117 -0.135959 0.176398 0.071672 -0.331415 0.521785 -0.218584 -0.160887 0.285489 0.057858 -0.044240 -0.211383 -0.058997 -0.558876 0.145128 -0.271642 0.022050 0.446779 -0.309254 -0.102604 -0.077740 0.163572 -0.079357 -0.377265 -0.157441 -0.200667 0.243349 -0.075393 0.016334 -0.065553 -0.084883 -0.323801 0.173998 -0.066673 -0.178849 0.028580 -0.043048 0.205807 -0.284335 -0.407519 0.220434 -0.167030 0.496463 -0.445331 0.199798 -0.134478 -0.086233 0.257811 -0.131689 -0.105554 0.240773 0.078254 -0.193569 0.597569 -0.336078 0.016352 
seats	0.344037 0.306485 -0.483028 -0.017838 0.319729 0.239611 -0.595646 0.134484 0.127234 -0.029842 0.310084 -0.118341 0.115459 0.191059 -0.329965 -0.173202 -0.285987 0.407741 0.001912 0.234090 0.023580 -0.040419 -0.134046 0.084535 0.252807 0.193926 0.383645 0.146499 -0.054050 0.251234 -0.262607 0.289261 0.496285 0.207653 -0.162851 0.381644 -0.192264 -0.241183 -0.009452 -0.662611 -0.432576 0.035460 0.142537 0.121014 -0.442544 -0.311039 0.131064 0.157777 0.310502 -0.141966 0.483002 -0.127678 0.438877 -0.055286 -0.286170 -0.298213 0.117480 -0.119456 -0.549537 -0.088180 0.073984 0.356359 0.583687 -0.011443 0.595236 0.115360 -0.130324 -0.108013 0.127454 0.110201 -0.202400 0.364108 -0.246680 -0.094832 -0.201194 0.433333 0.153300 0.243693 0.088825 0.175734 -0.112566 -0.067083 0.231752 0.225115 -0.075561 -0.304753 -0.113626 -0.016863 0.015898 0.348154 -0.345426 -0.186368 -0.168913 0.387047 0.326728 -0.300681 -0.105061 -0.484337 -0.318781 0.267813 0.264220 -0.204159 -0.084645 0.133491 0.281611 -0.483853 -0.415561 0.132269 0.124941 -0.294254 -0.131610 -0.106766 -0.150820 -0.012734 -0.621364 0.038934 -0.258790 0.485988 -0.289328 0.174337 0.190735 -0.168646 0.002509 -0.090765 0.156192 0.226293 -0.033043 0.131911 0.259554 0.067584 0.020411 0.197269 0.095282 -0.190982 -0.450479 -0.388553 0.115455 0.330651 0.163280 0.089092 0.164790 0.283936 -0.255591 -0.310175 0.218965 -0.090754 0.522782 0.054007 0.232982 0.527338 -0.394045 -0.178144 0.249881 0.137954 -0.229461 -0.163568 -0.110703 -0.604254 0.131366 -0.256481 0.330057 0.520543 -0.112141 -0.238241 0.063561 -0.043808 -0.240769 -0.327247 -0.131205 -0.115154 0.239210 -0.131919 0.373550 -0.100517 -0.140462 -0.084024 0.475616 -0.335196 -0.515034 -0.012668 -0.246594 0.225188 -0.132460 -0.344821 0.082105 -0.229383 0.575761 -0.474206 0.166888 -0.261220 0.151447 0.303564 -0.132756 0.027837 0.333518 0.128254 -0.152405 0.566285 -0.352655 0.076491 
van	0.046845 0.030894 0.096255 -0.061633 0.196842 0.188193 -0.043091 -0.009098 0.009896 0.129838 -0.189702 0.079743 0.050600 -0.382511 -0.165715 0.312372 -0.049206 0.044111 0.030609 -0.190012 -0.432659 -0.430389 -0.320318 -0.205688 -0.136942 -0.127150 -0.267751 -0.060876 0.064992 0.183148 -0.430369 -0.093710 0.401936 0.005287 -0.225908 0.299617 0.036512 0.507983 -0.053458 -0.063038 -0.305452 0.025785 0.309586 -0.460579 -0.127243 0.069513 0.133646 0.021675 -0.271737 0.136021 0.015620 0.211243 -0.050622 -0.209437 0.168935 -0.003566 0.018729 -0.047362 0.086601 0.010933 0.246666 0.000412 0.149797 0.256478 -0.326464 0.008645 0.129709 0.088671 0.267360 -0.085338 -0.096105 -0.017139 -0.083891 -0.199800 -0.396120 0.594334 0.209229 -0.160824 0.153067 -0.408607 -0.344116 -0.223231 -0.226661 0.352631 -0.042526 -0.115795 0.055315 0.057705 -0.460083 0.043802 0.026473 0.399706 -0.009758 -0.234562 -0.013527 0.021166 0.598426 -0.037682 0.330500 0.298459 -0.121872 -0.275025 0.116779 -0.282460 0.275334 -0.158943 0.206813 0.346289 -0.188378 0.092990 0.106044 -0.294339 0.043043 0.009591 -0.266224 -0.068883 0.373797 -0.532800 -0.117540 0.231673 0.055807 -0.086048 -0.188853 -0.079049 -0.311341 -0.014267 0.504350 0.308565 0.395289 0.195896 0.216477 0.343832 -0.201792 -0.245564 -0.283899 -0.369593 -0.253199 -0.053878 -0.308884 -0.036155 0.037760 -0.437710 0.108725 0.080217 -0.254575 0.003181 0.169861 0.094909 0.157650 -0.062863 0.211519 0.058555 0.015761 0.147541 0.091871 -0.708875 -0.039720 -0.214878 -0.149642 -0.272766 -0.028476 0.312718 0.788006 -0.110533 -0.169460 -0.323496 0.019248 -0.078073 -0.232997 0.163393 -0.110690 0.014573 0.029330 -0.018937 -0.188726 -0.162895 -0.303492 -0.189728 -0.268573 -0.309588 -0.063179 0.228529 -0.125899 -0.273737 0.129850 0.182764 0.197043 -0.184897 0.135871 0.083643 0.248653 -0.179698 0.241764 0.467550 0.131398 -0.168296 0.148610 0.461545 -0.284935 -0.040069 
bus	0.084734 -0.017727 0.126820 0.115685 -0.119803 -0.284710 -0.009201 -0.255467 -0.055901 0.349474 -0.527881 -0.221857 0.044558 -0.096063 -0.107615 -0.226795 -0.463937 0.129249 0.162754 -0.450873 -0.105112 -0.029500 -0.132698 0.195890 -0.089293 0.256594 0.033724 -0.161154 0.174052 0.499390 -0.082719 -0.071707 0.328880 -0.240706 -0.163859 -0.243684 -0.134224 0.017660 -0.261740 -0.401983 -0.393891 0.012558 0.253675 -0.313027 -0.220035 -0.114312 -0.102348 -0.131236 -0.311394 -0.012381 0.130279 0.108559 0.287427 -0.250448 0.104511 0.000506 -0.317818 0.093217 -0.179472 0.297310 -0.143159 0.030716 -0.109632 -0.383141 -0.027896 -0.003828 0.394398 0.377203 0.119233 -0.071918 -0.106261 0.221996 0.235715 -0.630032 -0.214674 0.233523 0.145435 -0.128576 -0.077636 -0.262057 -0.090338 -0.102938 0.355073 0.188091 -0.098999 0.041831 0.037591 -0.100735 -0.177136 -0.162423 0.045313 0.225334 -0.210080 -0.458694 0.183946 -0.265028 0.131617 -0.279331 -0.067433 -0.022676 -0.088640 0.432109 0.056246 0.285598 0.233954 0.100922 -0.121424 0.596622 -0.040813 -0.022222 -0.278169 -0.076044 0.097311 -0.049531 -0.402823 -0.430892 0.244945 0.159308 -0.020086 0.001113 -0.093378 0.324168 -0.033518 0.171509 -0.061996 0.492178 -0.061364 -0.037561 0.159007 0.105838 -0.046119 0.325973 -0.028585 -0.151479 -0.164690 0.049472 0.012790 0.327684 0.245063 -0.328406 0.450410 -0.149155 -0.193015 -0.127361 -0.362246 -0.020371 0.191576 -0.236273 -0.093289 0.266663 -0.277084 -0.289994 0.164814 0.015433 -0.100931 -0.199897 0.144436 -0.488046 -0.281961 0.015032 -0.209521 0.252119 -0.003807 0.442431 0.036758 0.108814 0.133690 -0.006402 -0.472776 -0.086188 -0.361089 0.050778 0.056939 0.370269 -0.127401 -0.252764 -0.024994 0.027672 -0.615268 -0.398861 0.472364 0.393255 -0.288741 -0.084975 -0.015427 -0.020874 -0.131525 -0.020828 -0.070782 0.254814 0.315283 0.287890 0.218567 -0.117817 0.054944 -0.142639 -0.175938 0.327705 -0.209742 0.187232 
stars	0.157599 0.221043 -0.100940 -0.284124 0.119887 -0.365147 -0.201752 0.273261 -0.195817 -0.137149 0.315554 -0.179274 -0.036940 -0.185289 -0.207907 -0.012358 -0.102784 0.165415 0.079543 -0.214481 0.018226 -0.175877 -0.173034 0.152008 -0.185725 -0.069494 -0.158647 -0.079372 0.072850 -0.064449 0.027232 -0.485034 0.065680 -0.140162 0.049296 0.181675 0.088279 -0.002088 -0.182149 0.008955 -0.161462 -0.156315 0.021870 0.214568 0.115269 -0.038000 0.059690 -0.059326 -0.127844 0.009055 0.013290 0.075893 0.228573 0.252431 -0.066125 -0.183910 -0.083522 -0.119737 0.128605 -0.066269 -0.239506 0.096155 0.127550 -0.173062 0.243874 -0.104388 -0.023317 -0.083476 0.522876 0.471509 0.013531 0.030229 0.056770 -0.133887 -0.087568 0.150076 -0.140085 0.200575 0.181676 -0.381009 -0.206137 -0.004467 -0.018152 0.051137 -0.274079 -0.305092 0.129964 0.254664 -0.829518 0.174033 -0.282203 0.108872 0.086266 -0.334800 -0.134409 -0.234935 -0.054041 -0.446914 -0.325179 0.038958 0.111203 -0.223578 0.487828 0.121172 0.379260 -0.060824 0.064004 0.095218 0.019181 -0.084659 0.057154 0.117845 0.232414 0.061670 0.022119 0.130369 -0.110075 0.229648 -0.341349 -0.112046 0.079606 -0.258208 -0.250580 -0.262927 0.081344 -0.176032 0.119039 0.424739 0.014105 0.134649 0.071354 -0.121865 -0.011726 -0.039354 -0.614352 -0.344832 -0.058981 0.066223 0.114702 0.169035 0.029753 -0.172851 -0.006890 -0.172035 -0.047589 -0.074302 -0.195013 0.212685 0.193539 -0.041459 0.009963 -0.197998 -0.198459 -0.042877 -0.029490 -0.189506 -0.196856 -0.027244 -0.004637 -0.271336 0.250227 -0.219284 0.086624 0.045771 -0.109425 -0.040553 -0.265356 0.254126 0.056839 -0.035663 0.060311 0.125744 -0.065280 -0.206093 0.352723 0.023003 -0.016954 -0.630905 -0.408443 0.000213 0.384380 0.015626 0.230913 -0.071254 -0.184782 0.256767 0.031306 0.479532 -0.199240 0.079928 0.058769 -0.101131 0.294647 0.270881 0.413078 -0.179218 0.061600 -0.137779 0.014472 -0.089432 
girl	-0.096334 0.000133 -0.114021 -0.080278 0.227184 -0.141696 0.119040 -0.109418 -0.106649 0.296773 -0.006336 -0.070592 0.249204 -0.678500 0.030170 0.086704 0.076617 0.185888 -0.279797 -0.140938 0.083140 0.118940 -0.343826 0.153202 0.153162 -0.329206 -0.048669 -0.151183 0.081798 0.378202 0.191182 0.074199 0.140339 -0.171390 0.216520 0.221462 -0.305522 0.580366 -0.420505 -0.102906 -0.094839 -0.158337 -0.312488 -0.162493 0.048837 0.186592 -0.179279 0.434054 -0.097248 -0.099620 -0.095765 0.232003 0.307772 -0.203737 -0.167722 -0.006275 0.094657 -0.025941 0.129040 -0.034977 -0.179170 0.134054 -0.173794 -0.395841 0.540099 -0.182114 -0.123807 0.107148 0.182184 0.295124 0.017112 0.167306 -0.068266 -0.367775 -0.114711 0.138006 0.030064 -0.013258 0.367242 0.108009 -0.295988 -0.042894 0.446860 -0.021115 -0.132051 -0.206014 0.052669 -0.079339 -0.483516 -0.144633 0.021988 -0.413987 -0.390882 -0.019125 0.090936 -0.376162 -0.120824 -0.213174 0.271332 0.345164 0.191465 0.193284 -0.246678 0.045419 -0.032595 -0.015610 0.177928 0.307853 -0.129897 -0.063876 0.175334 0.180220 0.058578 -0.030908 -0.214784 0.075253 -0.019814 -0.050500 0.136048 0.019211 0.128559 -0.236004 0.044823 -0.357926 0.299972 0.495505 0.020608 0.250860 -0.008583 0.027098 0.103264 -0.002710 -0.270548 0.027096 -0.416104 0.125964 -0.337416 0.081666 -0.104228 -0.196968 0.011005 -0.206405 0.084892 0.016386 -0.079395 0.202335 -0.215983 0.214793 -0.077433 0.051554 0.235587 -0.383658 0.077995 0.135960 0.146189 -0.016880 -0.321863 -0.262569 -0.349538 0.053607 -0.098849 0.253399 -0.017548 0.123212 0.307140 -0.059967 -0.258711 0.272403 -0.027143 0.017734 -0.126108 0.075788 -0.143565 0.007033 -0.071156 -0.236711 -0.023045 -0.134626 0.016703 -0.303912 0.182834 0.026393 -0.008192 -0.185447 0.140318 0.319249 -0.102499 0.485240 0.258324 0.278233 -0.189558 -0.263627 0.050555 0.177681 0.187813 -0.081711 0.162872 -0.214008 -0.136084 0.201345 
songs	-0.176193 0.480880 0.086656 -0.083127 0.152111 0.051217 0.280873 -0.363238 0.160927 -0.148112 -0.321651 -0.198768 0.145500 -0.407755 -0.016741 -0.294996 -0.038424 0.155963 -0.090060 -0.116554 0.427938 -0.021402 0.193376 0.080468 0.326758 0.301935 -0.070086 -0.067307 0.130548 -0.086522 0.103313 -0.074062 0.174080 -0.722355 -0.115721 0.352618 0.059682 0.207716 -0.223347 -0.048604 -0.081514 -0.291370 -0.274753 -0.201793 0.242532 0.004786 -0.322969 -0.283437 -0.096985 -0.247020 0.169937 -0.028205 0.241148 0.135327 -0.054445 -0.264006 0.227784 -0.004371 0.153870 -0.034654 -0.127404 0.390343 -0.036910 -0.218563 0.236485 0.155180 0.290883 0.324317 0.134911 0.621760 -0.157026 0.156494 -0.053608 -0.311392 -0.068745 0.024609 0.432081 0.107058 0.233037 -0.138459 -0.170538 0.134181 0.648478 0.117241 0.025099 0.152355 0.647872 0.006913 -0.032959 -0.194770 -0.749865 0.054842 -0.101571 0.091533 -0.316088 -0.193831 -0.173767 -0.450560 -0.054397 0.264979 -0.322944 -0.160647 0.191679 0.275678 0.004370 0.188576 0.313065 0.005126 -0.237753 -0.298153 0.026420 -0.009946 -0.040565 0.087710 -0.076181 -0.101807 -0.001465 0.078273 -0.040277 0.311173 -0.073407 -0.413453 0.097677 -0.017695 0.263244 0.082068 0.002040 0.487902 0.079498 0.173545 0.215408 0.301271 0.054333 -0.420962 -0.328624 -0.294072 -0.199291 0.035471 -0.080182 0.175216 -0.034025 -0.056126 -0.097423 -0.206908 -0.171950 -0.138146 0.040322 0.197264 0.108240 0.347402 -0.037466 -0.112161 0.193925 -0.104102 0.078827 -0.079844 -0.166656 0.068650 -0.457668 -0.257493 0.460246 -0.090173 0.331729 0.025150 -0.118539 0.153501 0.164669 0.265825 0.175823 -0.009162 0.150599 0.263228 0.206211 0.095694 -0.092968 0.265475 0.058970 -0.404313 -0.111664 0.114217 0.084439 -0.073519 0.267407 0.039656 -0.028192 0.553002 0.194322 -0.017705 -0.080713 0.288960 -0.139792 -0.326445 -0.121974 0.401251 0.532800 0.183565 0.129007 -0.362457 -0.054770 0.430712 
prince	0.317024 0.378328 -0.030111 0.488730 0.243752 -0.070725 0.173100 0.398676 0.530786 0.166544 -0.481989 0.054427 -0.003911 -0.304376 0.035491 0.114052 0.193936 0.170291 -0.178839 -0.027855 0.053602 -0.327222 0.093946 -0.027420 -0.021773 0.199912 -0.385524 0.199272 -0.040853 0.412813 0.021544 -0.065717 -0.022352 0.134458 -0.050056 0.244836 0.079631 0.110283 -0.282402 -0.213916 -0.155670 -0.145211 -0.353017 -0.384682 0.091201 -0.619198 0.253286 0.628572 -0.019705 0.109035 0.137421 0.494775 0.236241 -0.014692 -0.096359 0.230744 0.193221 -0.280626 0.098217 -0.109175 -0.306195 0.505736 0.479134 -0.035187 0.214006 0.088273 -0.133538 0.139501 0.441906 0.135711 -0.490835 -0.292074 0.133312 -0.042254 0.059405 0.404269 0.141301 -0.012446 0.041330 0.008138 0.123416 0.088091 0.164983 0.198816 0.084138 0.071386 0.049030 -0.422125 -0.385304 -0.218097 0.281707 0.156684 0.014371 -0.064796 -0.000075 -0.075168 -0.000761 -0.273777 -0.124881 0.292060 -0.138157 0.002000 0.163051 0.196670 0.148624 -0.221650 0.155953 0.121769 -0.205229 0.124880 0.099289 -0.016731 -0.043470 -0.298237 0.192414 0.397844 0.259438 0.329157 -0.187107 -0.278895 0.079680 -0.147287 0.261666 -0.171415 0.095784 0.230259 -0.068019 -0.244473 -0.056377 0.150964 0.082464 -0.022009 -0.230918 0.027066 -0.529903 -0.234521 0.260419 -0.002924 -0.416324 -0.132357 0.227272 0.017335 -0.056801 -0.485060 0.111297 0.250708 -0.369191 0.078406 -0.123676 -0.172139 0.166146 -0.377554 -0.124369 0.128039 0.521336 -0.178290 -0.214038 -0.158443 -0.017935 -0.151376 -0.463986 0.288219 -0.096208 -0.053689 0.073563 0.215739 0.014747 0.218292 -0.291236 0.126040 -0.205659 0.401405 0.148483 0.058445 -0.178010 0.157754 -0.184891 -0.175815 0.519083 -0.290831 0.212827 0.245695 0.137620 -0.278991 0.456756 -0.176879 0.154534 0.389534 0.123418 -0.173616 0.327988 0.150529 -0.239117 0.209888 0.112310 -0.041964 0.277801 0.118034 0.142300 -0.310307 
girls	0.133625 -0.087210 -0.185246 -0.050152 0.087370 -0.333881 -0.052184 -0.113983 0.047472 0.496039 -0.006973 -0.147622 0.338694 -0.256059 -0.023036 -0.158402 0.182927 0.139964 -0.371254 -0.567632 0.111973 -0.108578 -0.171861 -0.003478 0.144310 -0.246582 0.136612 -0.307597 -0.195088 0.163393 0.054500 0.249211 0.187991 -0.175112 0.176722 0.205026 -0.025784 0.734369 -0.587552 -0.177698 -0.249148 -0.066791 -0.327634 -0.217414 -0.076515 -0.072757 -0.337069 -0.131167 -0.065570 -0.294123 0.019921 0.145615 0.433232 -0.132198 -0.084821 -0.090259 0.144309 -0.038068 -0.100666 0.048318 -0.105286 -0.111217 0.133355 -0.503676 0.318327 0.078799 -0.122956 -0.169692 -0.091119 0.329657 0.041787 0.051381 -0.047311 -0.231991 0.192081 -0.082902 0.036221 -0.079078 0.316683 -0.100904 -0.248300 -0.052133 0.385761 0.070083 -0.102898 -0.298916 0.017450 -0.214458 -0.311412 0.096758 -0.039217 -0.456385 -0.221702 -0.138822 0.002099 -0.273674 -0.012509 -0.091882 0.114164 0.208377 0.054735 0.055283 -0.044364 -0.009176 0.085897 -0.081757 0.248641 0.281707 0.119069 -0.094164 0.079540 0.281526 0.039778 0.212892 -0.271198 0.162001 -0.017118 -0.204580 -0.158938 0.087606 0.238861 -0.186506 -0.021046 -0.508410 0.149593 0.263072 0.116341 0.275144 -0.084040 0.015682 0.081102 -0.235113 0.083885 -0.009418 -0.503590 0.055993 -0.250736 0.297566 -0.144739 -0.373978 0.145981 -0.381258 -0.037574 -0.310849 -0.057049 0.112593 -0.083245 0.305690 -0.030709 0.112753 -0.035630 -0.151242 0.211236 0.244555 0.247371 0.032257 -0.210260 -0.083244 -0.248316 0.032802 -0.199834 -0.107045 -0.015196 0.316765 0.360860 0.092907 -0.286399 0.392214 -0.177953 -0.086417 -0.225362 -0.133776 0.040410 0.160578 0.033884 -0.113702 -0.205696 -0.528364 -0.077199 -0.194735 0.121998 0.216094 0.120096 -0.213107 0.036010 0.051511 -0.068124 0.387737 0.044094 0.168887 -0.123474 -0.099646 0.147427 0.274389 -0.133757 -0.088250 0.264632 0.132668 -0.292483 0.239533 
bowl	0.113657 0.360410 -0.519334 -0.127484 -0.571247 0.164404 -0.639932 -0.323010 -0.345192 -0.285111 0.407064 0.007748 -0.015726 -0.264782 -0.309492 -0.177692 -0.156841 0.054944 -0.103532 -0.571853 -0.180719 0.318496 0.284279 -0.319896 0.392814 0.248159 0.188243 -0.147355 0.241514 0.152319 -0.119940 0.025566 -0.222205 -0.680228 0.014052 0.180690 0.036871 -0.142818 -0.090164 -0.099392 -0.242750 0.122354 -0.270797 -0.264984 -0.720196 -0.029836 -0.022581 0.125604 -0.425647 0.023578 -0.174619 -0.188565 0.424635 -0.034813 -0.108200 -0.037152 -0.185832 0.048993 0.487124 -0.140118 -0.129406 0.055746 -0.225965 -0.431639 0.162543 0.134959 0.549747 -0.191959 -0.107679 -0.021822 -0.210802 0.203003 -0.189859 0.062817 0.162061 0.011202 0.374259 0.067523 0.074767 -0.367551 0.255183 -0.213129 -0.198004 0.295675 -0.287949 -0.156377 0.302028 0.194771 -0.721867 0.168269 0.008322 0.136622 0.292834 -0.215689 0.188003 -0.275326 0.020199 -0.400644 0.319564 0.079505 -0.163527 0.216428 0.079961 0.188350 0.345689 0.065657 -0.074417 0.082721 0.107788 -0.236131 -0.006944 0.043011 0.216637 -0.439043 0.096024 -0.412901 0.409118 0.239889 0.075699 -0.184621 0.286014 -0.152393 -0.107244 -0.321969 0.216779 -0.112516 -0.206382 0.388760 0.191747 -0.008499 0.026390 0.556239 -0.307204 0.163664 -0.867490 -0.324580 -0.166333 0.065837 -0.368695 -0.018853 0.112539 0.059548 -0.280110 0.291149 0.324731 -0.239368 -0.137087 -0.236564 0.007778 0.115408 0.308503 0.129669 0.257687 -0.474034 0.548437 0.335750 -0.299700 -0.089387 -0.103893 0.256572 0.245698 -0.250558 -0.674590 -0.519245 0.236186 -0.002276 -0.033441 -0.225863 0.098212 -0.348159 0.129511 -0.050782 0.367470 0.166607 -0.110106 -0.067368 -0.001873 0.156917 -0.198549 0.030778 0.356349 -0.413846 0.265069 -0.032552 -0.407863 -0.021787 0.026752 -0.303235 -0.211997 -0.232114 0.272355 -0.362715 0.238740 0.317259 0.509635 -0.188896 0.547348 -0.057230 -0.058119 -0.292099 
senator	-0.110174 -0.070534 -0.043635 0.317912 -0.191420 -0.095691 -0.119263 0.129914 -0.027257 -0.023148 0.108477 -0.111356 0.011659 0.018036 -0.013292 -0.060943 0.100970 0.442011 -0.124807 0.237945 0.033695 -0.075276 -0.016548 -0.220022 0.297360 0.098515 -0.068701 0.363851 0.186064 0.101351 -0.408941 0.254812 0.071047 0.167505 0.079917 0.356684 0.149475 0.534974 -0.110700 0.009474 -0.077918 0.078024 -0.213592 -0.026953 -0.338277 -0.111807 0.215805 0.132066 0.193643 -0.342087 -0.252063 0.025228 0.357901 0.170934 0.128936 -0.402533 0.054019 0.032192 -0.165253 -0.276106 0.097113 0.061752 -0.160714 -0.303999 0.154950 0.251561 0.358796 0.035277 0.349943 -0.229628 -0.161625 0.202969 -0.086275 -0.104042 -0.035305 -0.129189 -0.074655 -0.176899 -0.311278 -0.101803 -0.243919 -0.065265 0.074353 -0.173776 0.155500 0.118366 -0.274153 0.432053 0.041744 0.112458 -0.042845 0.179378 -0.544321 -0.169739 -0.169819 -0.068392 -0.132132 -0.144453 -0.118750 -0.005056 0.014007 0.197725 -0.116700 0.318434 0.206908 0.239768 -0.319318 0.326760 -0.072453 -0.044777 -0.204981 -0.175296 0.343957 -0.138669 0.391364 -0.328493 0.025556 0.254003 -0.283644 -0.152934 0.078685 -0.654637 0.081994 -0.134029 0.366923 -0.193640 -0.360742 0.395999 0.056850 -0.146810 -0.333064 0.149239 -0.167522 -0.048466 0.102219 -0.059380 -0.282011 -0.117216 -0.092220 -0.146658 0.180631 -0.120947 -0.018721 -0.083346 0.045870 -0.177683 0.273203 -0.039681 -0.153144 0.627034 -0.138202 -0.426527 0.256497 -0.199811 -0.030089 -0.321689 -0.287624 -0.114791 -0.084046 -0.257153 -0.222785 -0.001115 0.076187 -0.369403 0.163221 -0.153582 0.013560 -0.388560 -0.004076 -0.393275 -0.093227 0.356912 -0.328025 -0.133680 -0.396614 0.075039 -0.420861 -0.010243 0.174837 -0.043738 0.159355 0.572910 0.406592 -0.257135 0.607081 -0.083493 0.069829 -0.168358 0.307727 0.191192 -0.104618 0.076892 -0.275154 -0.180816 0.213442 0.052697 0.302067 0.059277 -0.008584 0.125808 
politicians	0.275977 0.206531 -0.141705 0.296848 -0.049309 -0.204246 0.038363 0.246452 -0.158187 -0.012142 0.062088 -0.068930 -0.017627 0.252285 -0.048625 -0.030291 -0.051340 0.414533 -0.233691 0.187845 -0.051998 -0.264520 -0.124547 -0.222081 0.156244 0.029386 -0.026578 -0.118835 0.183117 0.078548 0.028930 0.175355 0.136570 -0.010936 0.024350 0.249894 -0.205734 0.192266 -0.242287 -0.253141 -0.556282 -0.225180 -0.045093 -0.195888 -0.226205 -0.101594 0.021096 0.074112 0.238805 -0.133754 -0.230394 -0.320899 -0.117514 0.122339 -0.035708 -0.289906 0.071557 0.073869 -0.183292 -0.258737 -0.276653 0.180088 0.134555 -0.137844 0.305469 0.196837 0.142150 0.117727 -0.049683 -0.055727 -0.153136 0.006642 -0.150410 0.231360 -0.272446 -0.122231 -0.060203 -0.039153 -0.068201 -0.036078 -0.064444 -0.086438 0.239979 0.076457 0.135659 0.200558 0.157897 0.069777 0.236201 -0.250696 -0.421394 -0.165080 0.075224 0.144274 0.016905 -0.068716 -0.173569 -0.403899 -0.013925 0.331908 -0.042741 -0.231378 -0.015996 0.127813 0.377710 0.215129 -0.138724 0.437275 -0.020976 -0.238278 -0.048345 0.191638 0.118784 0.138258 0.016767 -0.083114 0.130238 0.176402 -0.382461 -0.184313 -0.195848 -0.220951 -0.280144 -0.094840 -0.023296 0.040179 -0.081888 0.290221 -0.134539 0.078979 0.040521 -0.135595 -0.139120 -0.153630 -0.031534 -0.136997 0.037467 0.007307 -0.295667 -0.019231 0.167801 0.040833 0.174577 -0.444268 0.098485 -0.053337 0.132045 -0.101773 0.110891 -0.083058 0.011766 -0.499386 0.217750 -0.047920 0.091067 -0.092461 0.125759 0.221867 -0.238057 -0.022207 -0.131679 0.095895 0.015417 -0.124682 0.213426 -0.261081 0.014996 -0.242884 -0.380177 -0.077167 -0.131278 0.059149 -0.115615 0.101742 -0.257092 0.179204 -0.247572 -0.321732 -0.323346 0.123638 0.024831 0.381717 0.125522 -0.273249 0.024050 -0.111716 0.357888 0.155691 0.027418 -0.028424 -0.228865 0.175532 -0.129491 -0.019818 0.194563 -0.331023 -0.324672 0.141828 0.180875 0.154054 
novel	-0.147812 0.413250 0.252806 0.357732 0.327459 -0.178976 0.040672 -0.435441 0.103167 -0.350873 -0.197329 0.026085 0.237999 -0.357336 0.079684 -0.004860 -0.029134 0.357405 0.367465 0.035678 0.218514 0.102711 0.002026 -0.215979 0.144669 0.044789 0.118189 0.186626 0.215944 0.264011 0.061179 -0.442504 0.092680 -0.307615 -0.061957 0.698394 0.051671 0.336641 -0.058686 0.229480 0.127511 -0.203793 -0.238767 0.091698 0.384586 -0.049198 0.124333 0.269413 0.016437 -0.224252 -0.150660 -0.132223 0.468539 -0.079829 -0.365140 0.042764 0.305974 0.045513 0.156428 -0.051030 -0.128185 -0.186676 -0.286375 -0.209193 -0.119742 -0.069822 0.280128 0.112097 0.459803 0.635629 0.303003 0.029070 -0.137434 -0.181279 -0.302738 0.095168 0.207095 0.239654 0.057218 -0.471915 -0.186133 0.171811 -0.035052 0.120828 0.243092 0.287872 -0.312538 -0.344122 -0.189372 -0.024974 -0.267666 -0.102864 0.088952 -0.062604 -0.062255 -0.138436 -0.072637 -0.139034 -0.079446 0.004460 -0.103301 0.262838 0.119516 0.221344 0.089987 0.069341 0.271359 -0.089162 -0.180265 0.360656 0.410613 0.164494 -0.295740 -0.149802 0.101626 0.031706 0.038063 -0.031353 -0.091129 0.248979 0.042394 -0.539524 0.004949 -0.060062 0.213023 0.140200 -0.256785 0.213446 0.095832 0.103922 0.112437 0.092206 0.032902 -0.079411 -0.466309 -0.001413 -0.474245 -0.422311 0.088535 0.208557 0.057738 0.189133 0.179018 -0.056342 -0.216801 -0.257425 0.233459 0.044077 -0.061285 -0.056754 0.137908 -0.211852 0.123736 -0.071985 0.059141 -0.014818 0.174812 -0.033394 -0.430679 -0.310468 0.213920 -0.040928 -0.064151 0.302146 0.048353 0.161234 -0.406573 0.187444 -0.124328 0.045266 -0.239685 -0.012332 -0.191729 -0.096954 -0.074013 -0.268653 -0.194506 -0.295665 0.130723 -0.116948 -0.042591 -0.115806 0.249250 -0.149877 -0.146513 0.521200 0.303229 0.067207 0.363880 -0.020495 -0.144822 -0.223041 -0.255320 0.145365 0.456455 -0.241833 0.139596 -0.262402 0.218352 0.237615 
movies	-0.225166 0.304799 0.119134 0.091803 -0.126079 -0.265035 0.362581 -0.001839 0.023554 -0.274424 0.041723 -0.287292 -0.120359 -0.150504 -0.298943 -0.131967 -0.075645 0.236916 0.039560 0.019280 0.456626 0.116615 -0.048794 0.159582 -0.062113 0.391154 0.051599 -0.144860 0.082057 0.277517 0.298978 -0.052530 -0.229860 -0.228759 0.136123 0.149665 -0.223492 0.149072 -0.180520 0.051857 0.048096 -0.310916 0.030343 -0.111777 -0.029540 0.208640 -0.108977 0.309759 -0.029559 -0.505776 -0.234462 -0.243865 0.029661 0.042561 -0.151880 -0.350754 -0.058840 0.104310 0.038688 -0.024188 -0.112310 -0.091302 0.139258 -0.277797 0.015272 0.267671 0.442366 0.181038 0.414223 0.494884 0.268681 0.317095 -0.039113 -0.131332 -0.042856 0.076008 -0.039274 0.239794 0.071265 -0.224970 -0.467096 0.046143 0.343884 0.212070 0.134290 0.212789 0.303609 0.018619 -0.314138 -0.220732 -0.297593 -0.197689 0.211257 -0.502024 -0.103705 -0.228067 0.225407 -0.624174 -0.045229 -0.157617 -0.236556 0.057384 0.356137 0.341556 0.180419 -0.008274 0.304209 0.042847 -0.163462 0.294801 -0.014000 0.075069 -0.004039 0.237401 -0.167487 0.199291 0.097286 0.060474 -0.389296 0.251093 -0.008691 -0.212129 0.026066 -0.579129 0.269027 0.116234 0.158890 0.408473 0.048085 0.312324 -0.078117 0.006327 0.284638 -0.316108 -0.363182 -0.111716 -0.136998 0.173151 0.122832 0.196285 0.066283 0.099986 -0.020109 0.100593 0.156491 0.111149 -0.001292 0.167119 -0.002698 -0.026217 -0.157917 -0.335733 0.266023 -0.063036 0.123095 -0.181537 -0.168020 -0.128854 -0.141242 -0.544463 0.293965 -0.127444 0.021438 0.325864 0.186729 0.030696 -0.280163 0.053493 -0.080876 0.080080 -0.015061 0.065658 0.047541 -0.149858 0.078571 0.057018 -0.055791 -0.311450 -0.083229 0.021647 0.055826 -0.017641 0.474434 0.180214 -0.206498 0.369296 0.266281 0.058699 -0.075909 0.015360 0.286630 -0.328048 -0.008872 0.185501 0.494837 -0.139511 0.297128 0.315387 0.062457 0.287806 
animals	-0.279856 0.161033 -0.034984 0.197078 0.043120 -0.008838 -0.209855 -0.319499 0.059292 0.366046 -0.055057 -0.373208 -0.218309 0.011869 -0.055698 0.168666 0.243507 -0.453949 -0.555099 0.169901 -0.167950 0.413591 -0.313898 0.157865 -0.122444 -0.306686 0.010809 0.147295 0.337818 0.048104 -0.207138 0.079811 0.498152 -0.417008 -0.071416 0.155350 -0.210659 0.488734 -0.143661 -0.436475 -0.282139 -0.068360 -0.188720 0.175914 0.011214 -0.043606 0.077862 0.140236 -0.125968 -0.161410 -0.393494 -0.106769 0.056999 -0.158989 0.446629 -0.124204 0.431796 0.223893 0.077098 0.023083 0.172546 0.262280 -0.254654 -0.397635 -0.122260 0.086652 0.350681 -0.109039 0.506204 0.155363 -0.001917 -0.073226 -0.006920 0.080475 -0.001597 -0.022665 0.042576 0.125658 -0.156099 -0.122406 -0.122556 0.035917 0.298135 -0.199810 0.138253 0.074972 0.166567 -0.542410 -0.199875 0.052642 -0.288261 0.089025 -0.235585 -0.376334 -0.245084 -0.145675 -0.112215 -0.618493 0.311353 0.283914 -0.172258 -0.065239 -0.080690 -0.031106 -0.195052 0.010562 0.490178 -0.009564 -0.095445 0.288012 -0.018266 0.439018 -0.064852 0.345596 0.227942 0.104923 0.089887 0.233969 0.216830 -0.093589 -0.159564 -0.026348 -0.147385 0.023718 0.036235 0.030236 0.219973 0.224214 -0.206639 0.112056 -0.087836 0.114132 0.066521 0.214929 -0.064227 -0.017717 0.074530 0.130543 0.102376 -0.204495 0.046521 0.135080 0.568114 -0.064804 0.109334 0.256874 -0.025903 0.092405 0.268901 -0.196791 -0.092750 0.057197 0.028474 0.009623 0.162880 -0.054618 0.115877 -0.417615 -0.180511 -0.000638 0.060397 0.206946 -0.267558 0.087156 0.318825 -0.060010 0.057263 -0.104475 -0.339774 0.048810 -0.024825 -0.053050 0.216064 0.153100 0.187750 0.036137 0.020759 -0.345229 -0.195348 -0.356639 -0.276635 0.045469 -0.120762 -0.126693 -0.632207 -0.063319 -0.029726 0.021991 0.047081 0.111426 0.095517 -0.118916 -0.266791 0.507494 0.091429 0.138802 0.044698 0.220875 0.040680 0.090772 
singer	-0.184744 0.066470 0.001316 -0.221619 0.311455 0.068858 0.217642 0.169225 -0.092658 0.022609 -0.003845 -0.149020 0.158793 -0.513753 -0.014968 -0.130842 -0.191430 0.334254 -0.157674 0.078616 0.208497 0.087136 -0.025202 0.145268 0.103488 -0.003332 -0.393863 0.098367 0.197931 0.002548 0.127783 -0.087590 0.054119 -0.397908 0.133848 0.236807 0.068840 0.258273 -0.281314 0.026623 -0.329133 -0.065382 -0.379072 0.003576 0.231444 -0.123230 -0.035288 -0.004560 -0.177587 -0.277415 0.234806 0.236991 0.205823 0.421816 -0.106684 -0.140602 0.246288 -0.057639 0.095130 -0.158045 0.047016 0.355969 -0.191609 -0.142290 0.491549 0.059649 0.029122 0.096634 0.322262 0.229809 -0.183210 0.158489 0.016507 -0.202761 0.001046 0.008995 0.380172 -0.058351 0.453800 0.160071 -0.241185 0.114927 0.470837 -0.042337 -0.325196 -0.102599 0.373951 0.049898 -0.331432 -0.337379 -0.420001 0.035873 -0.275535 0.181639 -0.402586 -0.431779 -0.174630 -0.436801 -0.128095 0.239880 -0.198597 -0.103724 0.168806 0.286523 -0.037436 0.213044 0.165647 0.299341 -0.454504 -0.157462 -0.102970 -0.062450 -0.058162 0.089166 0.026548 0.102613 0.241413 0.043856 -0.147385 -0.143606 -0.100641 -0.262225 0.111310 0.199552 0.134005 0.033027 -0.069673 0.316989 -0.099618 0.141734 -0.045434 0.403220 -0.039928 -0.514315 -0.430306 -0.255066 -0.609524 -0.025624 0.039760 0.236182 0.066824 -0.265924 -0.072912 -0.108208 0.023463 -0.111473 0.268657 0.081338 0.057531 0.003586 0.193620 -0.099714 0.267565 -0.195021 0.189864 -0.473944 -0.104992 0.149196 -0.412829 0.011856 -0.078587 -0.151710 0.076349 0.045218 -0.004219 0.275511 -0.118568 0.381137 0.112640 0.159073 0.292949 -0.034593 0.050716 -0.013487 -0.139955 0.088689 -0.166160 -0.316825 -0.026690 -0.291706 0.421503 -0.151450 0.065881 -0.090563 0.363596 0.263848 0.194059 0.080795 -0.030529 0.372608 -0.305406 -0.035936 0.315035 0.152194 0.323059 0.025440 0.257813 -0.144637 -0.134277 0.126261 
computers	0.178546 0.120861 -0.064539 0.235652 -0.395036 -0.020548 0.126506 -0.585991 -0.303247 -0.132370 0.025011 -0.143262 -0.008975 0.013947 -0.131126 -0.178563 -0.254156 0.100093 -0.449433 -0.368842 0.224940 0.128027 0.021262 0.292786 0.001758 0.291258 0.280793 -0.000697 0.055266 0.137838 -0.158455 0.028781 -0.011014 -0.180307 0.253638 -0.037841 -0.104474 0.156162 0.194583 -0.195082 -0.024075 -0.320347 -0.197215 -0.166016 0.245743 -0.201274 -0.183659 0.389977 -0.214209 -0.450404 -0.145566 -0.163034 0.313760 -0.286019 0.126653 -0.543966 -0.089055 0.162119 -0.112737 0.263900 0.144505 -0.264938 0.264224 -0.016328 0.061940 0.122123 0.491324 -0.060142 -0.235112 -0.018058 -0.025264 -0.046178 0.111836 0.006832 0.286157 0.130471 0.420126 0.026951 0.095885 -0.187765 0.043347 -0.146402 0.067580 0.074733 -0.099820 0.456475 0.136220 0.166462 0.049555 0.051542 -0.032778 -0.163581 -0.350195 -0.247281 0.127209 -0.595671 0.213016 -0.183153 0.227248 -0.134109 -0.355840 0.267583 0.482316 -0.450219 0.003184 -0.348625 0.036312 0.217175 0.018354 0.038114 -0.060275 0.091251 0.168765 0.289769 -0.368193 0.229501 0.020481 -0.173428 -0.200444 0.021884 -0.008628 0.318688 -0.188488 -0.118804 0.197145 -0.076840 0.281467 0.152069 0.002259 0.187991 0.307842 0.239729 -0.285609 -0.382384 -0.108190 0.210504 0.289154 0.139665 0.051741 -0.124187 0.086587 -0.112528 -0.171342 0.046271 0.046646 0.031182 0.383994 -0.217733 -0.003388 -0.440099 -0.367096 -0.094418 0.238016 -0.166053 -0.071091 -0.462474 -0.058271 -0.157500 0.051661 -0.376856 -0.005854 0.138542 -0.226150 0.039625 -0.055411 0.044928 -0.176424 -0.247550 -0.329153 -0.282011 -0.312567 -0.218865 0.477055 -0.181887 0.144432 0.185280 -0.183275 -0.485072 0.106443 0.343426 -0.219805 0.288974 0.196550 -0.001033 0.065557 0.310639 0.107865 -0.159224 0.070206 0.461739 0.189948 0.104888 -0.536676 0.292565 -0.027545 0.012681 -0.130768 -0.135814 0.026640 0.097933 
color	-0.044590 0.253084 0.058875 -0.220730 -0.045483 -0.247355 -0.064597 -0.223334 -0.229027 -0.257934 0.012386 0.022479 0.264788 -0.305917 0.296395 0.081530 -0.000020 0.001638 -0.025891 0.029567 -0.046306 -0.000339 -0.215286 0.043153 0.029221 -0.130928 0.398685 0.096622 0.090816 0.379909 0.162876 0.111972 0.105195 -0.224297 0.497276 0.351794 -0.060410 -0.075292 0.078020 -0.062426 -0.204894 0.125568 0.030739 -0.418300 -0.042691 -0.282658 0.055706 -0.107185 -0.473994 -0.109513 0.257174 -0.366757 0.167685 -0.370903 -0.025466 0.362789 0.006882 -0.236743 0.461620 0.047806 0.130119 -0.059153 -0.083113 -0.307328 0.159835 -0.139851 0.340446 -0.251097 0.283129 0.118240 -0.113755 -0.127450 -0.016185 -0.085620 -0.429717 0.157671 -0.024519 0.474378 -0.212484 -0.149594 0.135405 0.103071 -0.176041 0.230510 0.170104 0.357317 0.362494 -0.052756 -0.570883 0.257666 -0.031030 0.152255 -0.282139 -0.168302 0.307583 -0.259384 -0.042278 -0.080337 0.219116 -0.064766 -0.233054 0.165925 0.194970 0.121783 0.105742 -0.201379 0.424412 0.331497 -0.018853 -0.156268 -0.203887 0.061921 -0.024030 0.287730 -0.126535 -0.117732 0.118574 0.522269 -0.310804 0.529051 -0.020989 -0.195622 0.125060 -0.050022 0.106727 0.141418 0.376699 0.122553 0.106870 0.278509 -0.171911 0.326270 -0.140234 0.023192 -0.396827 -0.082104 0.111401 0.029958 -0.134381 0.438333 0.184363 0.257512 -0.007604 -0.084159 0.404536 0.050985 -0.075644 -0.217798 0.261062 0.091692 0.024246 0.044967 -0.066732 0.228188 0.500957 0.253430 -0.346217 0.064767 -0.072404 0.021979 0.024087 -0.227322 0.044289 -0.058214 -0.164171 -0.181708 -0.404747 0.120184 -0.397950 0.080515 0.282191 -0.087001 0.201368 -0.244954 -0.026908 0.126145 -0.237788 -0.300805 -0.279484 0.174802 -0.058414 -0.145281 -0.187928 0.076619 -0.067099 0.652546 0.367613 0.042416 0.197717 0.201990 -0.253914 0.124338 -0.211739 0.329115 -0.065735 0.044065 -0.014736 0.082334 0.083455 -0.006164 
