state	0.055922 0.056639 -0.245483 -0.002874 -0.123846 -0.109240 -0.132685 0.034946 0.088234 0.252703 0.020639 -0.125509 -0.135694 -0.044717 -0.017486 0.079628 0.020484 0.290917 0.169103 -0.000524 -0.152017 -0.216019 0.183562 -0.394833 -0.137884 0.064146 0.002459 0.248733 0.098325 0.200830 -0.001126 0.409287 0.209621 -0.264999 -0.322364 0.125320 0.145621 0.134872 -0.205217 -0.134233 -0.120532 0.085202 -0.015703 -0.203337 -0.120212 -0.354730 0.142704 0.074568 0.223322 -0.437639 -0.106890 0.013401 0.315560 -0.306527 0.174427 0.012266 -0.055877 0.404936 -0.026434 -0.239821 -0.042736 0.010908 -0.005913 -0.179254 0.383839 -0.071173 0.181190 -0.042641 -0.180613 0.081862 -0.234194 0.124595 -0.064663 0.001365 -0.012288 -0.028304 0.029523 -0.329750 0.148567 0.011587 -0.278074 -0.004870 0.064084 -0.017883 -0.250167 -0.091493 -0.120508 -0.015720 -0.027207 -0.167929 -0.028850 0.102725 -0.412424 -0.214514 0.134342 -0.262468 0.074275 -0.415322 0.138323 0.425332 -0.034781 0.082064 0.073567 0.083021 -0.107162 0.067948 -0.283528 0.192306 0.095784 -0.183830 0.078759 -0.191527 -0.113897 0.111590 0.083054 -0.434349 0.293419 0.326742 -0.426134 -0.197172 -0.035426 0.014157 -0.058187 -0.046498 0.173628 -0.109766 0.099249 -0.216566 0.181753 -0.038776 -0.078685 0.082623 0.224266 0.092137 -0.086491 -0.113425 0.135924 -0.124943 0.022587 -0.043447 0.040713 -0.194819 -0.002042 -0.125992 0.070032 -0.130231 0.323840 -0.056768 -0.141105 0.003759 -0.139123 -0.428974 0.057163 -0.380974 0.216486 -0.204103 0.028585 -0.163944 -0.017927 -0.110652 0.014551 0.112322 -0.025304 -0.028971 0.086350 -0.139457 0.176633 -0.129041 -0.431119 -0.155684 0.011774 0.067139 -0.120386 -0.134285 -0.179158 -0.165658 0.064202 0.110449 0.045799 -0.066826 0.311121 0.249462 0.124745 -0.124321 -0.020900 -0.198044 0.213818 -0.246153 0.157148 -0.083335 -0.005353 0.156854 -0.190561 0.170742 -0.210459 -0.297728 -0.107887 -0.121513 0.209988 0.003081 
country	0.233104 0.309009 -0.105811 0.250234 -0.060343 0.023898 0.214107 0.027037 0.164257 0.108027 0.076128 -0.244072 -0.175967 0.258676 0.020572 0.005516 0.148518 0.092370 0.034957 -0.082470 0.121452 -0.186980 0.059678 -0.254902 0.078515 -0.071531 0.106953 -0.076090 0.363664 0.291651 0.212812 0.102855 -0.010499 -0.159194 -0.041946 0.153113 0.250640 0.020482 0.006229 -0.238317 -0.470778 0.166012 -0.160415 -0.172460 -0.267487 -0.073737 0.091947 0.106721 0.359490 -0.346122 -0.082076 0.088431 0.086943 -0.239439 0.126783 -0.088164 0.186310 0.186432 -0.096077 -0.044203 -0.030712 0.078118 0.038555 -0.039407 0.373386 0.040002 0.145069 0.125602 -0.083605 -0.060580 -0.039352 -0.099539 0.047484 -0.245201 -0.164026 0.029243 0.108531 -0.204744 0.233866 0.026087 -0.155183 0.190071 0.138719 0.017251 -0.064613 -0.023315 0.205109 -0.290556 -0.209663 -0.205392 -0.240541 -0.013510 -0.221890 -0.001559 0.156578 -0.114556 -0.134940 -0.327582 -0.024925 0.072181 -0.124369 -0.227366 -0.034258 -0.063939 -0.197546 0.024620 -0.207642 0.049732 -0.212260 -0.164533 0.097420 0.041204 0.157831 0.191745 -0.050783 -0.165139 0.031013 0.287393 -0.363209 -0.269596 0.041698 0.130827 0.147112 -0.113190 0.080135 0.027079 0.042012 0.100381 -0.211791 0.047560 0.019482 -0.234441 -0.065727 0.003209 -0.078960 -0.171571 0.056186 0.119289 -0.064186 0.056070 -0.107408 -0.084835 -0.123791 -0.289669 -0.167370 -0.147178 0.215116 0.014450 -0.033800 0.098296 0.090094 -0.052777 -0.109081 -0.325470 -0.076124 -0.179669 0.005994 0.076079 -0.210822 -0.160056 -0.202506 -0.023896 0.069934 -0.080655 0.056228 0.043019 0.254859 0.110388 -0.108166 -0.016779 -0.244547 0.212455 -0.015669 -0.175428 0.036859 -0.107882 -0.286733 -0.377471 -0.150795 0.105341 0.229190 0.003272 -0.082332 -0.201862 0.035098 -0.087762 0.081841 0.024709 0.085913 0.072293 -0.023645 0.125937 -0.344782 0.216061 0.099006 -0.092542 -0.154777 0.095858 -0.106935 0.101458 
china	-0.086224 0.231327 -0.206285 -0.135647 -0.119355 -0.119258 0.447864 -0.128144 0.413483 0.426598 0.220625 0.231320 -0.316500 0.089369 -0.180357 0.068726 0.366259 -0.238217 -0.089882 0.013423 0.273096 -0.009575 0.226365 -0.279205 0.051406 0.117847 0.171160 0.005490 0.103798 0.391665 0.126151 -0.245908 0.060284 0.083057 0.002547 0.174549 -0.033984 -0.165020 0.107211 0.213489 -0.448253 -0.145402 0.022047 -0.025450 -0.543964 -0.018678 0.036284 0.109710 0.112034 0.000697 -0.318081 -0.076183 -0.151424 -0.495326 -0.027613 0.048751 -0.130747 0.087138 -0.132838 0.042129 0.000741 -0.229227 0.118166 0.183907 0.179209 0.107218 0.024347 -0.044635 -0.500199 0.143266 0.102675 -0.207277 -0.092717 0.277911 -0.401194 0.226232 -0.014317 -0.046519 -0.128398 0.152140 0.175294 0.292462 0.204704 -0.037075 -0.224075 0.120813 -0.192058 0.019307 -0.512579 -0.083732 -0.454065 -0.161761 -0.276352 -0.470575 0.268101 -0.190160 0.286626 -0.385216 -0.094970 0.139182 0.051910 -0.233726 -0.060814 0.165882 -0.201628 0.154541 -0.052237 0.012385 -0.263450 -0.043194 -0.034022 0.033603 0.228384 0.223811 0.083903 0.018981 0.012073 0.112998 0.012850 -0.171877 0.113695 -0.039897 -0.174030 -0.035366 0.024647 0.066954 -0.158610 0.037027 -0.083902 0.243500 -0.041869 -0.071843 -0.264882 0.043013 -0.071908 -0.408056 -0.121004 0.006527 0.075011 -0.227448 -0.105428 -0.009099 -0.101360 -0.073709 -0.207621 0.416895 0.472197 0.082870 0.030228 -0.248087 0.061178 -0.074667 0.054779 -0.219933 0.280648 -0.082377 -0.066273 -0.043709 -0.071774 -0.066195 -0.160383 0.243443 -0.162058 -0.058331 0.145375 -0.131802 0.391838 -0.017945 -0.164192 -0.292034 -0.136595 -0.013470 0.162949 -0.156435 -0.073061 -0.090946 -0.088865 -0.358745 0.039066 -0.006747 -0.014982 0.277769 0.065558 -0.499740 0.149873 0.188846 0.140424 0.086003 0.155497 0.229913 0.190086 0.306769 -0.364397 0.470839 -0.010986 -0.283276 -0.075672 -0.024252 0.348559 0.243261 
city	0.027958 0.313170 -0.138315 0.065216 -0.270334 -0.397879 -0.143082 0.056336 0.058614 0.329089 -0.358931 0.225852 -0.153464 -0.256148 -0.013668 0.114663 0.152824 0.332449 0.079339 0.090604 -0.037368 -0.142680 0.211774 -0.125269 0.029912 -0.112465 0.067595 -0.086545 0.168506 0.203824 -0.287374 -0.007724 0.120154 -0.154993 -0.101985 -0.134987 0.077017 0.116652 -0.257169 -0.392568 -0.221667 0.068948 -0.097570 0.076692 0.064953 -0.324464 0.125163 0.392437 0.008104 -0.037008 0.243416 0.083075 0.138045 0.162834 0.229280 0.261961 -0.162827 0.255053 -0.060317 -0.095194 -0.212616 0.031794 -0.136576 -0.172876 0.177102 0.176216 0.116552 0.254735 0.143390 0.077669 0.167132 0.124178 0.225981 -0.224632 -0.191099 0.069913 0.252177 -0.219123 0.167752 0.093032 -0.131562 -0.027834 0.046044 0.040790 -0.019051 0.144102 -0.080188 -0.322024 -0.173119 0.037601 0.001757 0.143749 0.052822 -0.072489 0.154793 0.073606 0.013593 -0.065665 0.131951 0.086806 -0.010406 0.149564 0.079505 0.095057 0.065583 -0.023956 -0.283060 0.110033 0.036961 0.025632 -0.173136 -0.043075 -0.008407 0.202350 -0.081294 -0.212347 -0.131614 -0.004969 -0.193305 -0.030722 -0.101095 0.195584 -0.043466 -0.055802 0.041450 0.201235 0.015463 0.006915 -0.039579 -0.044385 -0.054361 0.174262 0.036943 0.144146 -0.088780 -0.158446 -0.052755 0.218502 -0.037691 -0.062030 0.067522 -0.014940 -0.263165 -0.360817 0.078901 -0.023987 0.037907 -0.220980 -0.196525 -0.004808 0.019421 -0.244656 0.100682 -0.060041 0.127034 -0.195820 0.020445 0.028774 -0.209070 -0.266274 -0.045461 0.180951 -0.024219 0.043283 0.290074 -0.213853 0.230193 0.102021 -0.294462 -0.406838 -0.082608 0.126880 0.133058 0.170970 -0.015371 -0.204646 -0.054771 -0.389516 -0.338451 -0.239524 0.409865 0.138477 -0.139509 0.003730 0.192710 0.005768 0.094904 -0.222606 0.169645 0.033238 -0.203778 0.391397 -0.007040 0.189256 0.030834 -0.430303 0.238294 0.037360 -0.020620 -0.005437 
company	0.123049 0.009710 0.033235 0.112980 -0.132387 0.191951 0.043807 -0.153599 -0.071443 -0.085456 -0.279482 -0.116335 -0.326884 -0.274721 -0.082895 -0.015738 0.120485 0.087967 -0.136831 -0.026380 0.332224 -0.168248 0.222589 0.146687 0.317382 -0.141537 -0.189365 -0.245662 0.416560 0.388733 -0.146741 0.084318 -0.096348 0.010105 -0.019981 -0.212145 -0.034821 0.023388 -0.198067 -0.002223 -0.249464 0.097655 0.227583 -0.309768 -0.242662 -0.086521 -0.058287 0.238033 -0.141216 -0.265966 -0.149770 0.112659 0.134687 -0.202404 -0.144919 0.049167 0.064473 0.291600 -0.105124 0.047412 0.071679 0.256108 -0.090020 0.006985 0.411968 -0.023728 0.314771 0.005394 0.250744 -0.023752 0.072279 -0.082817 -0.193182 0.193171 0.046837 0.234403 0.191982 0.029489 -0.137384 0.088000 0.166467 0.039143 0.025246 -0.236301 -0.143973 0.146747 -0.521666 0.025819 -0.109058 -0.128527 -0.022525 0.089224 -0.139618 -0.291645 -0.060432 -0.260326 0.173205 -0.210284 -0.265995 0.184344 -0.083911 0.022839 0.145959 -0.296439 -0.028558 -0.155368 0.137666 0.136751 0.049807 -0.114991 -0.091537 0.289879 -0.033586 0.057211 -0.178267 -0.130679 -0.087649 -0.039954 0.038805 -0.334477 -0.282166 -0.062213 0.047333 -0.014758 0.057030 0.112448 -0.044777 -0.027142 -0.022935 0.199418 -0.077234 0.108940 0.294432 -0.168059 -0.090138 -0.197310 -0.343260 0.046278 0.376632 0.207886 0.084854 -0.249938 -0.258823 0.071947 0.200601 -0.283502 0.081534 0.105459 -0.083327 0.009030 0.018901 -0.166351 0.006482 -0.163612 0.230949 -0.374963 0.053940 -0.013340 -0.155753 -0.405187 -0.271353 -0.005452 -0.235913 -0.289143 -0.068814 -0.025821 0.033687 0.337744 -0.155957 -0.131324 -0.208129 -0.135768 0.264910 -0.096771 -0.047219 -0.029627 0.013505 -0.095492 -0.059101 0.040768 0.061486 0.194632 0.131946 0.066710 -0.107708 0.126834 0.104297 -0.036192 0.284611 0.234993 0.244314 0.275822 -0.304090 0.068461 0.121713 -0.192924 -0.079786 -0.127186 -0.062073 -0.044155 
team	0.170655 0.004836 -0.274374 0.092370 0.047647 0.127441 -0.305889 -0.040463 -0.148243 0.145652 0.063655 -0.127709 0.113376 -0.199761 -0.193555 0.280058 -0.138180 0.242505 -0.037921 -0.277179 -0.130707 -0.079864 -0.074654 -0.056517 0.155356 0.116005 -0.007922 -0.120706 0.118077 -0.009190 -0.256185 -0.228257 0.062805 -0.038652 -0.165216 0.042067 0.114544 0.018047 -0.201397 -0.158075 -0.268658 -0.064591 -0.185746 -0.125784 -0.073020 -0.304830 -0.166487 0.114562 -0.225795 0.273205 0.231215 -0.087136 0.086842 0.023341 -0.017038 -0.016028 0.077946 -0.096528 -0.022394 -0.016201 -0.007347 0.016529 -0.357015 0.221971 0.242267 -0.022379 0.040580 -0.128531 0.210929 0.035413 0.005155 -0.012206 0.038940 0.061823 0.129884 0.104958 -0.025207 -0.267951 0.033695 -0.254374 -0.072959 0.105005 0.056840 -0.032190 -0.093721 -0.247587 0.060262 0.155659 -0.324041 0.046462 0.085770 0.005419 0.138194 -0.295176 0.142088 -0.232507 0.114887 -0.291199 -0.018092 0.255613 -0.290862 0.035117 0.084853 -0.025383 0.041061 0.101201 -0.298862 -0.005683 0.422128 -0.057007 0.161151 -0.015508 0.302627 -0.378372 0.028356 -0.511243 0.092699 0.092849 -0.120525 -0.231555 0.121837 0.076319 -0.111549 -0.059106 0.187540 -0.094651 0.055118 0.279331 -0.231338 0.034252 -0.110584 0.172739 -0.108895 -0.171209 -0.247921 -0.349588 -0.228755 0.352463 -0.068528 -0.073486 0.136829 -0.097385 -0.144440 -0.145460 -0.011781 -0.581990 0.014853 0.329907 0.112021 0.042533 -0.104501 -0.000902 -0.325860 -0.054037 0.177990 0.000146 -0.264946 -0.117961 -0.220231 0.076525 -0.015232 -0.159366 0.030741 -0.016430 -0.033911 -0.043898 -0.010397 0.153575 -0.141240 -0.159969 -0.423618 0.058837 -0.098124 -0.365612 0.256986 -0.059527 0.040929 -0.461365 -0.161758 0.027868 0.098016 -0.087670 0.035718 -0.400190 -0.091373 0.100454 0.212019 0.017861 0.038893 -0.206816 -0.204539 0.278857 0.016698 0.182283 0.007842 -0.110000 0.264031 -0.089445 -0.035321 0.141566 
home	0.000279 0.206767 -0.122774 0.142631 0.116476 -0.033830 -0.167167 0.161518 -0.019705 0.088762 -0.121799 -0.193496 0.064464 0.003653 -0.165955 -0.067962 -0.044170 0.158841 -0.215139 -0.136147 0.089847 -0.078188 -0.125086 0.191826 0.042136 0.270184 0.176066 -0.018782 0.144949 -0.035430 0.181432 0.035932 0.213789 -0.107183 -0.134721 0.072643 0.015053 0.133538 -0.116058 -0.318360 -0.392919 0.089453 0.144157 0.018888 -0.011270 -0.097554 0.096907 0.351055 0.017074 -0.046957 0.195453 0.040488 0.157767 -0.122602 0.173785 0.030484 -0.093537 0.231713 -0.115903 -0.033053 -0.071980 -0.133861 0.182837 -0.039382 0.146356 0.165549 -0.027907 0.147582 0.016672 0.119738 0.132852 -0.050716 -0.186474 -0.306804 0.181285 -0.212071 0.298284 0.060529 0.295407 -0.197068 -0.035964 -0.010417 0.162361 0.132384 -0.212777 0.032905 0.094074 0.023616 -0.352361 0.006207 0.146853 0.215727 -0.024151 -0.312907 0.099305 -0.319515 0.025492 -0.261772 0.211555 0.091953 -0.010258 0.049663 -0.006966 0.127650 0.019199 -0.266009 -0.023893 -0.006341 0.155543 0.047683 0.026370 -0.042517 0.194655 0.086658 -0.105155 -0.013851 0.119851 -0.047192 -0.142211 -0.021461 -0.131952 0.044127 0.104583 0.181277 0.176965 0.187232 0.191821 -0.073954 -0.052844 0.152008 -0.191417 -0.032321 -0.113996 -0.122774 -0.180526 -0.185061 -0.135985 0.019765 -0.150786 -0.252664 0.027846 -0.264666 0.105312 -0.059437 -0.056354 -0.272780 0.059056 -0.107609 -0.138830 -0.040666 0.037217 -0.036550 0.072686 -0.027740 0.080316 -0.152889 -0.212659 -0.004563 -0.331172 -0.206174 -0.073043 0.133850 0.048207 0.042566 0.095498 -0.215662 0.037563 0.017124 0.075532 -0.112290 -0.188460 0.387662 0.177334 -0.065810 0.114592 -0.338519 -0.002170 -0.496312 -0.106797 -0.275523 0.015950 -0.050399 -0.123382 -0.209556 0.000258 0.025610 0.233586 -0.232924 -0.035020 -0.300676 -0.123919 0.280975 -0.086592 -0.090117 0.104085 -0.254147 0.096544 0.031478 -0.033112 -0.159682 
school	0.160126 0.160961 0.098782 -0.080113 -0.303629 -0.021431 0.131111 -0.217990 0.108492 0.366559 -0.216226 -0.132640 0.314272 -0.108096 -0.079011 -0.032937 -0.125649 0.336340 0.033309 -0.196554 0.023151 -0.092656 -0.282192 0.238029 0.049792 -0.472472 0.238191 -0.075706 0.001079 0.076260 0.179752 0.096096 0.088809 -0.487738 -0.617769 -0.071620 0.167526 0.420594 -0.343166 -0.097227 -0.143676 0.006037 -0.025642 -0.065448 0.093341 -0.363278 -0.322467 0.200739 0.027315 -0.348162 0.082084 0.180482 0.427574 -0.227526 0.126872 0.192249 -0.079859 0.061248 0.037722 -0.026050 -0.111488 -0.237452 -0.078564 -0.419711 -0.058720 0.119763 0.080100 -0.033597 0.153217 0.153615 0.027301 0.310677 0.057253 -0.011048 0.064487 -0.136710 0.173803 -0.108614 -0.038238 -0.010772 -0.211874 -0.017146 0.170123 0.030889 0.072960 -0.210862 -0.338807 -0.088963 -0.082807 0.008171 0.060798 -0.078858 -0.127388 -0.054610 0.129526 -0.007822 0.015993 -0.122833 -0.114512 0.040006 -0.062121 0.225522 0.011038 0.106015 0.155928 -0.168120 0.081713 -0.075295 0.273124 -0.130075 -0.047076 -0.004541 0.001874 0.094981 -0.243268 -0.103727 -0.041166 -0.189669 -0.335761 -0.148770 0.339011 -0.352703 -0.144210 -0.150784 0.277669 -0.235593 -0.001731 0.056704 0.322003 -0.196100 -0.180948 0.178681 0.039157 -0.144458 -0.529129 -0.012581 -0.263826 0.366171 -0.216481 -0.161094 0.119418 -0.342828 -0.196408 0.027971 -0.116572 0.065348 -0.167677 -0.171925 -0.183122 0.143105 -0.300660 -0.212242 0.106427 -0.033758 0.397625 -0.003867 -0.102608 -0.149222 0.230460 0.116671 -0.430641 0.034810 -0.063874 0.107139 0.155993 -0.010242 -0.062512 0.240247 -0.208607 -0.326064 -0.259988 -0.086100 0.247127 0.065973 -0.090700 -0.078527 -0.272852 -0.470807 0.044740 -0.014626 0.022491 0.070083 -0.077436 -0.360480 0.159153 0.121144 0.079037 0.115006 -0.026587 -0.106845 -0.100573 0.165490 0.051957 0.207655 -0.071282 -0.319805 0.260607 0.011225 -0.223571 0.144896 
family	0.078003 0.213470 -0.106595 0.104364 -0.232519 -0.042263 -0.062575 0.097995 0.253245 -0.178800 0.021039 -0.522729 0.189385 -0.340727 0.018681 -0.198126 0.039008 0.384425 -0.080533 -0.086417 0.196064 0.016684 -0.017806 -0.051809 -0.154790 -0.048770 -0.177246 0.323137 0.256195 -0.042570 0.240012 0.016083 0.370432 -0.105649 -0.300210 0.025083 -0.148135 0.296277 -0.000591 -0.135269 -0.412891 0.110598 -0.096296 -0.098985 0.159668 -0.166945 0.204140 0.345676 -0.147477 -0.174321 -0.099322 0.251667 0.193705 -0.133313 0.054156 0.052475 0.143827 0.186408 -0.239854 -0.235730 -0.162342 -0.075084 -0.002870 0.096671 0.224206 0.095738 0.091420 0.162003 0.300597 0.111903 0.178842 -0.030078 -0.118584 -0.036638 -0.059886 0.019585 -0.164144 -0.027617 0.157096 0.197503 0.005519 0.329820 0.221927 0.064845 -0.183186 0.267524 -0.139821 -0.204856 -0.288312 0.068853 -0.013261 -0.018146 -0.389411 -0.382804 0.008910 -0.328854 0.023438 -0.352119 0.078778 -0.195904 -0.013973 0.158668 -0.117004 0.139638 -0.030829 -0.132148 0.331868 0.011421 -0.090319 -0.087039 0.209852 0.131931 0.006635 0.017683 0.005785 -0.011036 0.229167 -0.043355 -0.154865 -0.097448 -0.115193 -0.294603 0.413247 0.052393 0.280550 0.129234 -0.183471 0.077623 -0.087495 -0.042609 -0.320574 0.180606 0.055700 -0.052831 -0.375006 -0.076794 -0.121418 0.128434 -0.281574 -0.081790 0.297951 -0.197327 0.025917 -0.075600 0.337463 -0.091430 -0.288275 -0.093118 -0.013912 0.055371 0.289798 -0.198400 -0.100147 0.198248 0.328434 -0.260173 0.056291 -0.005100 -0.250012 -0.007717 -0.142505 0.111340 -0.056569 -0.025107 0.167655 -0.225205 0.371142 0.101101 -0.266872 -0.222341 -0.147558 0.322571 0.019150 -0.180179 -0.161137 -0.136233 -0.112341 -0.416913 -0.049356 -0.136031 -0.458059 0.082875 -0.125463 0.027582 -0.064769 0.006643 0.033500 0.100307 0.004716 0.015889 -0.283094 -0.012566 -0.207454 -0.456025 -0.099067 -0.027861 0.178016 0.324099 0.106943 -0.044061 
bush	0.278867 -0.138880 -0.188585 -0.077363 -0.177259 -0.214659 0.213618 0.297328 -0.065384 0.138486 -0.281421 -0.163502 -0.110887 0.047556 -0.030107 0.306618 -0.019031 0.474011 0.059167 0.365006 0.387570 0.103319 0.118410 -0.168972 -0.034377 0.226392 0.071994 0.391202 0.149286 -0.004579 0.058481 0.307772 0.095740 -0.033101 -0.088045 -0.029658 0.194605 0.524021 -0.290447 0.096677 -0.295516 0.173500 -0.060447 -0.158416 -0.347571 0.023735 -0.183617 0.157373 -0.252308 -0.496963 0.020654 -0.363934 -0.038510 0.117637 0.002984 -0.116134 0.140457 -0.111725 0.224144 -0.306290 0.268295 0.009933 -0.233900 -0.094528 0.086535 -0.088113 0.424608 -0.017956 -0.031970 -0.342601 -0.058772 -0.183147 -0.538100 0.064705 0.160691 -0.280809 -0.051130 -0.242146 -0.193556 -0.130696 0.167654 0.232186 0.204419 -0.395488 0.119081 0.217543 0.040667 0.052684 -0.149403 0.213709 0.196171 0.210539 -0.369004 -0.157105 0.316828 0.131364 -0.184961 -0.055526 -0.028984 0.212567 0.232201 0.243487 0.064413 0.055008 -0.043420 0.196183 -0.381856 0.114806 -0.352067 0.179008 -0.269332 0.133439 0.095728 -0.377640 0.284844 0.007773 0.089631 0.123733 -0.226549 -0.176570 -0.272749 -0.374686 -0.084120 0.078617 -0.196755 -0.076962 0.046051 0.055062 -0.017343 0.088941 -0.125639 -0.174773 -0.248557 0.224569 -0.077490 -0.038778 -0.253695 -0.210870 -0.090524 -0.422642 -0.492540 -0.013814 -0.121299 -0.153270 -0.168695 -0.024554 0.092203 -0.081173 0.004593 0.194956 -0.033266 -0.083321 -0.030490 -0.351759 -0.028924 -0.111517 -0.100983 -0.313758 0.263900 0.043864 -0.032575 0.161015 -0.136996 -0.156583 0.099172 -0.083239 0.075469 -0.435202 -0.421380 -0.297913 -0.163158 0.246740 -0.200944 -0.150595 -0.155501 -0.103237 -0.092227 -0.377704 -0.024248 -0.041721 0.149202 0.512500 0.303251 -0.088514 0.221045 0.116900 0.180315 0.081885 0.186548 -0.078513 -0.096833 -0.065686 -0.289203 0.148642 0.574533 0.024746 -0.039195 0.151971 -0.105830 0.007141 
university	0.118326 0.070024 0.002787 -0.007161 -0.208868 -0.034452 0.141480 -0.291010 0.249404 0.074968 0.004188 -0.447581 0.379236 0.185858 0.001032 0.339622 -0.120392 0.119424 0.080161 0.022785 -0.188465 0.146715 -0.161123 0.153434 0.253611 -0.027570 0.053359 0.131935 0.098204 0.057611 -0.069405 0.282441 0.267462 -0.688549 -0.520337 -0.191815 0.033257 0.554354 -0.044321 -0.406684 0.090347 -0.027188 0.145257 0.070647 -0.027793 -0.272623 -0.064069 0.317158 0.067389 -0.289524 0.087050 0.183439 0.327905 -0.040484 0.105575 0.281571 0.129737 0.010679 0.233853 -0.149921 -0.242649 -0.042413 -0.022726 -0.351080 0.002626 0.469237 0.163127 -0.008427 0.116484 0.027913 -0.000926 -0.047215 0.038455 0.233108 -0.398278 -0.233838 -0.025615 -0.321792 0.042832 -0.153042 0.079783 -0.005166 -0.089299 -0.066694 0.092506 -0.218261 -0.405991 -0.095927 -0.147990 -0.034895 -0.013610 0.136238 -0.016737 -0.025139 0.116246 -0.061435 -0.034745 -0.157208 -0.141212 0.057994 -0.129553 0.121776 0.123360 -0.010817 0.050580 0.008061 -0.199032 0.129965 0.312373 -0.081377 -0.057140 -0.271346 -0.230093 -0.073868 0.135134 -0.322949 0.204015 -0.106956 -0.187205 -0.348300 0.166152 -0.162860 -0.174266 0.070844 0.258071 -0.274585 0.070905 0.031265 0.509698 -0.028118 -0.038205 0.018947 0.069865 -0.243558 -0.400217 -0.300472 -0.258734 0.238629 -0.061039 -0.083586 0.301097 -0.081354 -0.160607 0.100333 0.205007 0.046830 0.201361 -0.226285 -0.104822 0.168243 -0.379157 -0.249465 0.235378 -0.114296 0.339627 -0.210829 0.186827 0.360696 0.040977 -0.186155 0.051341 -0.067251 -0.187483 -0.176220 0.144047 0.174987 -0.000349 0.046404 -0.398017 -0.303601 -0.408291 0.284409 0.260820 -0.036902 0.013714 0.078201 -0.073105 -0.402048 0.036918 -0.049264 0.286995 0.047917 -0.247032 -0.412319 0.339832 -0.001122 0.221216 -0.106885 0.153540 -0.142838 -0.311522 0.270784 -0.025747 0.291925 0.014206 -0.395739 0.412050 -0.262409 0.102849 0.058622 
money	0.102836 0.033451 -0.176689 0.426744 -0.170051 0.101538 -0.090153 0.073298 0.041293 -0.037082 0.024601 -0.070958 -0.219920 0.010198 -0.044070 -0.008946 0.270664 0.327400 -0.103094 -0.077535 0.166355 -0.366669 -0.193613 -0.177336 0.220164 -0.109699 -0.031713 0.132371 0.132441 0.158774 -0.040578 0.079741 0.064767 0.028894 0.034191 -0.238239 0.213455 0.218203 -0.026721 -0.285377 0.101845 0.055862 -0.006684 -0.215993 -0.074888 -0.130645 -0.160885 0.061606 -0.078425 -0.304460 -0.082720 0.203950 0.250636 0.188809 -0.083785 -0.264926 0.320949 0.166151 -0.224726 -0.203279 -0.256344 -0.262171 -0.049100 -0.055794 0.362673 0.261684 -0.036634 0.311580 0.056035 -0.070435 0.040398 0.078749 -0.196758 -0.118013 -0.182307 0.098250 0.025037 0.347588 -0.014412 -0.001253 0.031453 0.221385 -0.106713 -0.147217 -0.225373 0.323120 0.135537 0.170562 -0.068410 0.059899 0.161545 -0.105723 -0.114730 -0.297843 0.148988 -0.520371 0.060787 -0.461571 0.073156 0.281701 -0.040623 0.132634 -0.128590 0.050638 -0.003638 -0.139654 -0.048640 0.233217 0.157986 -0.157902 0.012992 -0.118242 0.237488 0.159074 -0.266588 -0.305715 0.035755 -0.166965 0.104289 -0.171071 0.113213 -0.058552 0.297076 -0.069311 -0.031617 0.033593 0.304002 0.221480 -0.114552 0.190297 -0.145366 0.145631 0.045955 -0.184470 0.101191 -0.015579 -0.064752 0.118566 0.045005 -0.034421 -0.055324 -0.099815 0.064985 -0.173356 0.019373 0.035100 -0.184244 -0.076968 -0.361186 -0.108298 0.032910 -0.301785 -0.047458 -0.280621 -0.156563 -0.120303 0.137915 0.252287 -0.092120 0.023055 -0.057592 -0.002308 -0.149228 -0.138405 0.124935 -0.228907 0.100888 -0.017026 -0.447840 -0.049320 0.085474 -0.008842 0.104429 -0.191904 0.167426 -0.163147 0.024107 -0.222469 -0.079849 -0.005868 -0.172167 0.148798 0.183031 -0.387645 -0.118206 0.014847 -0.044286 0.005088 -0.004881 0.022261 0.283871 -0.145396 -0.240859 0.336125 0.290311 -0.235337 -0.129578 -0.179658 -0.164108 0.231561 
oil	-0.041812 0.141355 -0.137550 0.276169 -0.291217 0.325935 0.225025 -0.133030 0.017857 -0.073758 -0.235513 0.097222 -0.546888 0.148115 0.124679 -0.388344 0.225593 0.414237 -0.073441 -0.103698 0.024700 0.097768 -0.056502 0.112402 0.043733 0.020197 -0.126690 0.191930 -0.351816 0.247932 -0.083354 -0.012809 -0.054390 0.182960 0.226779 0.192300 -0.032764 -0.157024 -0.467991 -0.198808 0.158260 0.299432 0.116810 -0.368722 -0.262187 -0.248730 0.078877 0.268821 -0.053144 -0.347558 -0.281678 0.018720 0.017250 -0.485643 -0.236494 -0.382096 0.070548 -0.110811 0.284600 -0.205508 0.185739 0.063381 -0.188623 -0.310470 0.262479 0.217721 0.055764 -0.104163 0.690157 -0.023949 0.325794 0.044743 -0.118703 0.310875 -0.240047 -0.144782 -0.028182 -0.219431 -0.106484 0.161681 0.312421 -0.039999 0.085264 0.017993 -0.312164 0.073396 -0.152501 -0.157605 -0.460244 -0.275670 0.055880 0.245513 -0.195629 -0.163081 0.079662 -0.111098 -0.193369 -0.011790 -0.331871 0.180370 0.489320 -0.360772 0.195903 -0.228462 -0.061633 0.139825 -0.079947 0.246896 -0.310633 -0.520740 -0.070574 -0.038395 0.222150 0.118931 -0.120249 -0.136106 0.104004 0.000488 -0.234356 0.043539 -0.464509 0.384904 -0.150108 0.037454 -0.326616 -0.014583 0.013330 0.125657 0.027376 -0.191066 -0.198934 0.219290 -0.346062 0.292495 -0.223385 -0.501534 0.107090 -0.319514 0.627062 -0.160600 -0.177789 -0.089471 -0.461350 -0.300643 0.124176 -0.426313 0.094016 -0.387856 0.050293 -0.041727 0.198387 -0.035285 0.110571 -0.085730 0.521441 -0.226943 0.035125 -0.234128 -0.173266 0.126061 -0.057259 -0.130977 -0.171228 -0.214737 0.026041 -0.131459 0.403920 0.427294 -0.676444 -0.233196 -0.019101 0.062157 0.138586 0.043582 -0.219375 -0.085937 0.111457 -0.006037 -0.108232 -0.195171 0.285131 -0.370643 -0.069065 -0.372883 -0.603327 -0.111817 -0.050690 -0.431367 0.179696 -0.060993 0.689228 0.126653 -0.748386 0.382991 0.174934 -0.213421 -0.126936 0.192700 -0.246642 0.084389 
film	-0.232820 0.012709 0.146824 -0.154477 0.047538 -0.269786 0.245051 -0.006381 0.071871 -0.167622 -0.216031 -0.238149 0.010758 -0.504740 -0.359834 0.257782 -0.198931 0.316364 0.206466 0.086604 0.306254 -0.067230 -0.004854 -0.089220 -0.061894 0.038838 0.025894 0.267846 0.092485 0.380125 0.205953 -0.181832 -0.044329 -0.324927 -0.048752 0.356284 0.073270 0.170717 -0.039947 0.088330 0.110240 -0.162505 0.009656 0.088113 0.172485 0.152366 -0.185017 0.397521 -0.061472 -0.154807 -0.142541 -0.228910 0.163564 0.111193 -0.266726 -0.110921 -0.136392 0.103908 0.226435 0.011619 0.005765 0.001623 -0.223251 -0.469822 0.073754 0.172741 0.433573 -0.001551 0.493481 0.590106 0.300729 0.025320 0.091288 -0.188561 -0.184020 0.193994 -0.072844 0.331164 0.134897 -0.145043 -0.378249 0.078672 0.424250 0.347957 -0.022790 0.161938 0.052754 -0.064203 -0.287398 -0.166438 -0.337355 -0.069682 0.327870 -0.118913 -0.187681 -0.221993 0.020498 -0.550787 -0.056480 -0.083359 -0.200030 0.091069 0.262403 0.252273 0.297346 0.052612 0.058462 -0.107832 -0.310077 0.161328 -0.044955 0.166763 -0.124738 -0.018116 -0.193328 0.049162 0.319915 0.102256 -0.340492 0.101143 0.102731 -0.237650 -0.037004 -0.200715 0.165075 0.016633 -0.076343 0.291611 -0.103964 0.176539 -0.142076 0.015537 0.264145 -0.223233 -0.293377 -0.328313 -0.337888 0.027717 0.054370 0.402529 0.102530 0.111699 -0.047405 -0.171794 0.024847 0.018773 0.147763 -0.062610 -0.017093 -0.115032 -0.075168 -0.291252 0.179767 -0.078970 0.199866 -0.196115 0.057253 -0.082805 -0.156741 -0.543893 0.116197 -0.294208 -0.016477 0.135323 0.202823 0.212187 -0.259041 0.154246 -0.181655 0.119192 -0.003665 0.118907 0.001800 -0.192371 -0.070872 -0.123574 -0.169516 -0.045043 -0.114472 0.029018 -0.023737 0.055002 0.239323 -0.117121 -0.211682 0.309227 0.298371 0.029602 0.198856 -0.225149 0.151634 -0.091871 0.265643 0.061844 0.454166 -0.199432 0.408382 -0.032729 0.160982 0.239429 
water	-0.043512 0.364306 -0.033970 0.310019 -0.377283 0.008279 -0.050786 -0.248640 -0.401531 0.409127 -0.140893 0.008663 -0.130121 0.238838 0.311862 -0.212858 0.027344 0.239189 0.035510 -0.012828 0.046369 0.214131 -0.059925 -0.280403 0.011553 -0.180739 0.222752 0.078006 -0.136968 0.635683 -0.191558 -0.119365 0.002095 -0.331112 -0.279170 0.055311 -0.052480 -0.130447 -0.033443 -0.242976 0.078921 0.209695 0.026911 -0.176650 -0.252447 -0.318649 -0.078189 0.237767 0.026708 -0.189277 -0.132913 -0.307985 0.054552 0.107777 0.098102 -0.001072 0.400808 0.086755 0.310893 -0.364065 -0.043333 0.115179 -0.153125 -0.566099 0.001888 -0.091424 -0.207361 0.100885 0.451060 -0.133624 0.252962 -0.129116 0.170719 -0.242019 0.176839 0.156642 0.175945 0.135015 0.041547 0.141883 0.132694 0.006954 0.040630 -0.148949 -0.437344 0.133745 0.289251 -0.110677 -0.360502 -0.177927 -0.135138 0.098906 0.121599 -0.459626 -0.024141 -0.261749 -0.166551 -0.202406 -0.136041 0.114569 0.177422 0.220486 -0.002804 0.028737 -0.064687 0.105476 -0.027967 0.091269 -0.106775 -0.395081 -0.020469 0.173518 0.066002 0.212591 -0.133448 -0.199532 -0.295978 0.198327 0.052717 0.311153 -0.056046 0.224439 -0.140186 0.042244 0.045863 -0.037096 0.401464 -0.189616 0.315397 0.235558 0.134688 0.287969 0.115183 -0.025779 -0.181607 -0.046565 0.193003 0.107015 -0.090128 0.058454 0.154278 0.146545 -0.087942 -0.349221 0.245272 0.015974 -0.091220 -0.168174 -0.095886 0.173409 0.151505 0.223385 0.074440 -0.034386 0.342814 -0.037950 -0.168101 -0.170811 -0.450528 0.029703 -0.106621 0.201985 0.031395 -0.234807 0.187874 -0.427985 -0.025505 -0.027492 -0.240327 -0.096243 -0.186407 -0.182945 0.054267 -0.095751 0.165291 -0.209603 0.240279 -0.121050 0.397640 -0.418995 0.108510 0.307467 -0.188944 -0.026285 -0.467665 -0.340679 -0.017863 0.091436 0.016125 0.169022 0.452780 0.179548 -0.394542 0.336412 0.067910 -0.264235 0.003348 0.096773 -0.139697 0.079468 
television	-0.228279 0.009360 -0.096118 -0.050690 0.201140 0.067924 -0.063219 0.348804 0.164903 0.162387 0.099423 -0.084330 -0.043407 -0.133174 -0.375290 0.053177 -0.486492 0.268102 0.193946 0.143217 0.076182 0.072706 0.028027 -0.311697 0.074848 0.216060 -0.003627 -0.257619 0.132667 0.281060 0.360158 0.033527 0.175278 0.123026 -0.019765 0.016125 -0.263590 0.248316 -0.337390 -0.570040 -0.125427 0.136554 0.046335 -0.070903 -0.264999 -0.170148 -0.143466 0.443331 -0.043321 -0.314465 -0.137957 -0.125392 0.194024 0.176437 -0.379900 0.072235 -0.269220 0.113326 0.153791 0.223890 -0.208208 -0.082208 0.239979 -0.294879 0.199094 -0.008111 0.293437 -0.322727 0.142021 0.237285 0.092181 0.048216 -0.293555 -0.027383 0.095770 0.088179 -0.271899 -0.094306 -0.059636 0.000502 -0.212073 -0.073435 0.295770 0.178755 0.200824 0.195026 0.371947 -0.294509 -0.203924 -0.455185 -0.073426 0.225594 -0.107711 -0.360851 -0.242157 -0.293662 0.239798 -0.193250 -0.055271 -0.087053 -0.023635 0.059641 0.253831 -0.047530 0.067316 -0.166765 -0.126644 0.258161 0.017900 -0.042014 0.325911 -0.134366 0.160383 0.205998 -0.137126 -0.121108 0.075068 0.344528 -0.220261 0.114893 0.064838 0.084412 0.029838 -0.096311 0.001793 -0.022965 0.011700 0.214159 -0.052734 0.186262 -0.071273 0.097731 0.176278 -0.309016 -0.339775 -0.025313 -0.049642 0.081880 0.094673 -0.062529 0.125722 0.047208 -0.001067 -0.206639 0.152265 0.033663 0.281219 0.028209 -0.094893 0.030733 0.169787 -0.370114 0.063330 0.125132 -0.081350 -0.363625 0.032852 0.037963 0.003733 -0.249411 0.100601 -0.140774 0.206724 0.079059 -0.024386 -0.101421 0.008288 0.025561 -0.469599 0.083254 -0.166863 0.240826 0.118598 -0.192045 -0.035564 0.063585 -0.223773 -0.239139 -0.238640 -0.012997 0.308175 -0.075479 0.302490 0.071471 -0.037620 0.070352 0.290641 -0.034520 -0.059545 0.259083 0.030961 0.119079 -0.109527 0.146804 0.229838 -0.119544 0.100462 -0.015964 0.300723 -0.239455 
food	-0.007385 0.311847 -0.203417 0.615304 -0.149196 0.343535 0.077097 -0.184788 -0.200398 -0.013953 -0.081131 0.001815 -0.028061 0.149168 0.253080 -0.370710 0.290192 0.107057 -0.288605 -0.109930 0.138446 0.261186 0.185747 0.065574 0.038372 -0.384877 -0.102607 0.109020 0.360779 0.428533 -0.039544 0.241385 0.133469 -0.151821 -0.309890 -0.102248 0.059478 0.261361 -0.070266 -0.267383 -0.242061 0.286776 -0.272534 0.056659 -0.392640 -0.084275 -0.099540 0.450630 -0.057654 -0.070729 -0.240363 0.026941 0.068851 -0.118489 0.000670 -0.374614 0.066745 -0.187991 0.012935 0.092208 -0.111504 -0.142186 -0.126043 -0.628166 0.149382 0.171736 0.019663 -0.089673 0.271022 0.098825 0.320154 0.168210 0.293698 0.027145 0.134248 -0.075157 0.005203 0.053150 -0.301504 -0.100606 0.056373 0.377019 0.113465 -0.057226 -0.156728 0.065832 0.107714 -0.180871 -0.252009 0.136440 -0.165209 0.293202 -0.079805 -0.177812 -0.359660 -0.258940 -0.180027 -0.262848 0.204043 0.301761 0.297119 0.077995 -0.176552 0.157743 -0.119001 -0.022032 -0.035334 -0.278739 -0.156620 -0.000914 -0.099892 0.205342 0.080318 0.173033 -0.192857 0.148267 0.223650 -0.097984 -0.048423 -0.337365 -0.342776 0.278455 0.129490 0.109249 -0.158143 -0.168820 0.111611 -0.002369 -0.094101 -0.258481 0.098571 -0.019893 0.018895 -0.054182 0.007963 0.091858 0.226388 0.058678 0.238822 -0.178331 -0.072373 -0.077577 -0.235267 -0.407498 -0.195341 0.049682 0.098928 -0.418506 0.151755 -0.083065 0.069194 0.484254 0.139246 -0.102682 0.269783 -0.276183 0.015460 -0.172606 -0.271301 0.140385 0.005627 -0.065785 -0.154143 -0.160994 -0.143688 -0.232046 0.133563 -0.024632 -0.380503 0.081994 0.031386 -0.055174 0.276923 -0.223406 0.102866 -0.182487 -0.000190 -0.196376 -0.071410 -0.432130 0.038356 0.087987 -0.037369 0.153764 -0.618618 -0.113605 0.316263 -0.038203 0.317340 0.081527 0.208731 0.102313 -0.333933 0.521959 0.116050 -0.294662 0.159968 0.349749 -0.142347 -0.106752 
car	0.310625 -0.386954 -0.321966 0.155356 0.316822 -0.298911 -0.000713 -0.121550 -0.046172 -0.037598 -0.184286 -0.086259 -0.067035 -0.355546 -0.091211 -0.206244 -0.098073 0.231838 0.103591 -0.251449 0.194389 -0.022341 -0.056896 0.006126 -0.113470 0.236256 -0.129485 -0.085508 0.032156 0.310268 0.099624 0.024335 0.360427 -0.146496 0.079353 -0.150529 -0.069062 0.171657 0.082052 -0.289735 -0.218465 0.225636 0.007846 -0.246404 -0.398353 -0.177918 0.093910 0.138365 -0.143684 -0.003193 0.144643 0.028123 -0.013277 -0.109602 0.207941 -0.254157 -0.080246 0.330639 0.057089 0.098933 -0.008610 -0.004173 0.136297 -0.176099 0.239590 -0.085817 0.180256 0.395113 0.202674 0.161246 0.202416 0.320460 0.113349 -0.470603 -0.140927 0.142140 0.013203 -0.084916 0.088738 -0.165404 0.292028 -0.124963 0.176654 0.134965 0.176526 -0.036082 -0.036602 -0.176854 -0.116986 -0.055492 -0.061517 0.155674 0.010182 -0.222836 -0.078045 -0.349996 0.238575 -0.317938 0.202032 0.254171 -0.146899 0.355470 -0.191697 0.104387 0.381241 0.126155 0.048322 0.450160 -0.553343 0.001191 -0.264239 -0.155691 0.391803 -0.209529 -0.341165 -0.456357 0.427543 -0.127688 -0.345960 0.193317 -0.007648 0.182512 0.051372 0.076769 -0.008347 0.297669 0.204671 0.093013 -0.069173 0.057432 0.189560 0.343422 -0.025550 -0.096188 0.297338 -0.036977 0.180655 0.307290 0.149220 -0.132153 0.208315 -0.108776 -0.167995 0.081882 -0.109445 0.114907 0.168420 -0.147734 -0.190552 0.022495 0.183441 -0.225689 -0.198038 0.225461 -0.337674 -0.138709 0.026896 -0.276046 -0.305313 -0.221242 -0.013238 0.575792 0.176154 0.015905 0.080784 0.136559 0.129558 0.056106 -0.621267 -0.116146 -0.608745 -0.111411 0.336185 -0.028559 -0.059971 -0.188936 0.041495 -0.249853 -0.207185 -0.184603 -0.112417 -0.158402 -0.173560 -0.258494 0.024878 0.244784 0.094535 -0.036485 0.030357 0.196142 0.137600 0.092297 -0.203051 -0.144603 0.179585 -0.197119 -0.012047 0.130564 -0.227131 -0.020786 
book	-0.036003 0.319380 0.172737 0.204658 0.194863 -0.044804 0.059957 -0.302610 0.088145 -0.269522 -0.206142 0.107897 0.204909 -0.139276 -0.040314 -0.042006 0.053573 0.282867 -0.006115 -0.151551 0.241294 0.044864 -0.215734 -0.083943 0.139273 0.000851 0.070768 0.316107 0.364998 0.157047 0.150527 -0.023212 0.143634 -0.157813 0.012157 0.210102 -0.094110 0.373652 -0.089484 0.084794 -0.058813 -0.219883 0.026805 -0.169215 0.048405 -0.126385 -0.015456 0.169533 -0.028831 -0.178723 -0.034079 0.072361 0.296452 0.091116 -0.112023 -0.060223 0.243878 -0.071135 -0.085984 0.012635 -0.004842 -0.180786 -0.363216 0.062886 -0.140304 0.191943 0.368057 -0.071925 0.115650 0.482355 0.172525 -0.028159 -0.208748 -0.122414 -0.119237 0.058758 0.153880 0.258378 0.039279 -0.185695 -0.194578 0.171557 -0.025808 0.221710 -0.035544 0.217624 -0.163048 -0.046087 -0.231775 0.068963 -0.065597 -0.159874 -0.044812 -0.155982 -0.092497 -0.147221 -0.053747 0.080570 -0.011204 0.036662 -0.078504 0.077619 -0.053999 0.030952 0.181562 0.046191 0.237435 -0.087749 -0.242093 0.341172 0.092677 -0.092816 -0.350221 0.080110 -0.080917 0.080735 0.143281 0.039813 -0.088754 0.115001 0.064034 -0.427645 -0.108655 -0.016944 0.116014 0.032321 -0.123309 0.244873 0.270016 0.204874 0.222643 0.180478 -0.018829 -0.049733 -0.324983 0.090628 -0.318537 -0.227385 -0.017542 -0.056470 0.022894 0.183881 0.013461 -0.238355 0.006060 -0.066298 0.011578 -0.241253 -0.097263 0.237794 0.249117 0.007509 0.006154 -0.213493 0.023013 0.117978 0.162099 0.007828 -0.222177 -0.123953 0.322153 0.004318 -0.022094 0.257787 -0.044222 0.147561 -0.079236 0.259860 -0.274196 -0.018855 -0.425502 0.111293 0.160680 -0.149534 0.072451 -0.224675 -0.220341 -0.208210 -0.134483 0.027804 0.005406 -0.022491 0.106483 -0.064676 0.017047 0.114239 0.218179 0.063224 0.239096 -0.019955 -0.182433 -0.175247 -0.430171 0.226405 0.383357 -0.088644 -0.032275 -0.275976 0.280939 0.069346 
red	0.126548 0.087196 -0.451120 -0.014645 0.017591 -0.241670 -0.225175 0.184920 -0.317982 0.060271 0.057014 -0.185666 0.158973 -0.087149 -0.094689 0.100703 0.130010 0.056643 -0.039605 -0.014977 -0.079612 -0.121148 0.130438 0.007295 0.140961 -0.255657 0.000017 0.076584 0.187770 0.495089 -0.412436 -0.240764 0.182311 -0.204353 -0.011614 0.314265 0.235851 -0.300544 -0.102563 -0.445317 -0.415445 -0.160619 0.109396 -0.234075 0.060605 -0.169110 -0.193259 -0.019090 -0.045546 -0.177332 0.057140 -0.398178 0.173123 0.006823 0.012705 0.262498 0.154302 -0.198999 0.129719 -0.038689 -0.155564 -0.110283 0.030614 -0.139634 -0.003589 -0.170571 -0.504389 -0.088422 0.176791 0.292715 0.306056 -0.203170 0.046108 -0.268864 0.004884 0.041364 -0.237681 0.469365 -0.140745 -0.345275 -0.210490 0.373603 -0.209732 -0.051801 0.068869 0.135186 0.265069 -0.081977 -0.726690 -0.152443 0.223686 0.328502 -0.009342 -0.121004 0.141226 -0.108846 0.079625 -0.170979 -0.403404 0.268801 -0.136317 0.136515 0.125474 0.188757 0.061655 -0.170983 -0.144240 0.208877 0.028880 0.042086 -0.640118 0.100488 0.121686 0.015332 -0.032417 -0.059180 0.089698 0.596435 0.255520 -0.058793 -0.072092 0.078604 0.107547 -0.104265 0.320208 0.210943 0.059990 0.011907 -0.070754 0.294667 -0.369626 0.127169 -0.191369 0.233647 -0.118522 -0.045572 -0.050001 0.089990 0.240365 -0.274248 0.039682 -0.185164 -0.353494 -0.110782 -0.152015 -0.047091 -0.197584 -0.342307 0.487827 0.247371 0.090263 -0.092603 -0.352750 0.414503 0.211821 -0.365564 -0.147498 -0.227294 -0.355770 0.023059 0.190020 0.085828 0.003778 -0.316199 -0.106309 -0.100451 0.056930 0.295042 -0.165925 0.084806 0.053584 0.081150 0.063135 -0.079843 -0.018492 0.035840 -0.154144 -0.425948 0.164338 0.034427 0.150247 -0.142327 -0.078374 -0.186651 -0.121816 0.046689 -0.036370 0.080196 -0.010963 -0.154625 -0.288446 0.155761 -0.064319 0.365140 -0.034152 -0.269689 0.069595 -0.088081 -0.165483 -0.200661 
dollar	-0.259425 0.036980 -0.208366 -0.094738 0.142431 0.294088 -0.152860 0.054050 -0.061648 0.025257 0.144470 0.210223 -0.494322 0.190660 -0.032278 0.006787 0.503104 0.389383 0.353762 0.050021 0.503200 -0.198810 -0.321598 -0.313805 0.049426 -0.323533 0.269055 -0.077625 -0.035903 0.341167 0.198202 0.031095 -0.069776 0.466995 0.313481 -0.302627 0.348294 0.125610 -0.260512 0.055276 -0.237927 -0.067874 0.042742 -0.511526 -0.171480 -0.020293 -0.423664 0.319981 0.101502 -0.289616 -0.033887 0.146707 -0.017137 -0.266966 0.181805 -0.197188 -0.184250 0.311686 -0.093031 -0.087796 -0.166795 -0.379119 -0.278114 0.117230 0.691408 0.389082 0.286447 -0.187945 0.345422 -0.051709 -0.076867 -0.116027 0.066465 0.161711 -0.193206 0.146566 -0.010263 0.311519 -0.007801 -0.404344 0.437024 -0.243576 -0.202191 0.128147 -0.080772 -0.014708 -0.215913 0.424031 -0.196413 -0.276882 -0.201722 -0.156093 -0.199027 0.029162 0.249997 -0.438139 0.009406 -0.306437 -0.051956 0.035657 0.161187 0.014188 0.251935 -0.079551 -0.033492 0.312464 0.401556 0.358301 0.180890 -0.539545 -0.219497 -0.204301 0.095380 0.030441 -0.524149 -0.111555 0.079037 0.000970 -0.161361 -0.227421 0.124291 0.216262 0.223841 -0.029512 -0.242601 0.160096 -0.171348 -0.231798 -0.460165 0.279128 -0.280966 0.168484 -0.167068 0.112576 -0.331316 -0.457588 -0.335802 0.075125 0.143591 -0.181276 0.083196 0.115913 0.103942 -0.220776 0.065025 0.052812 0.295923 0.268458 -0.335241 -0.081993 0.101172 0.072879 0.439010 -0.221684 -0.031163 -0.367952 0.186138 -0.234563 0.094134 0.067467 -0.013757 0.562962 0.021801 -0.123421 0.158059 -0.336542 -0.040300 0.183488 -0.270170 -0.159366 -0.049213 -0.144859 -0.014006 -0.237660 0.248009 0.199986 0.105934 -0.373262 -0.039689 -0.515856 0.211964 -0.387317 -0.041627 -0.532324 -0.098627 -0.148672 -0.333261 0.028558 0.137485 0.192799 0.051395 -0.008645 -0.504418 0.209489 0.413894 -0.240430 -0.142000 -0.166214 -0.031459 0.174759 
father	0.287971 0.098820 0.168910 0.150909 -0.014023 0.099462 0.081637 -0.021512 0.203491 0.038253 0.006110 -0.281683 0.170049 -0.365100 -0.086203 -0.041355 0.092043 0.179034 -0.234678 0.108530 0.147784 -0.023205 -0.058684 0.106431 0.289519 -0.084330 -0.343180 0.035840 0.375881 0.014416 0.200020 -0.131976 0.196568 -0.183523 -0.077818 0.141550 -0.033280 0.282028 -0.424662 -0.065021 -0.004784 0.160515 -0.182456 -0.089264 0.190546 -0.176350 0.153656 0.294280 0.157850 -0.130720 -0.013060 0.331305 0.205055 -0.106022 0.101295 0.000082 0.205695 -0.123457 -0.105438 0.014313 -0.218622 -0.144887 -0.176129 -0.189999 0.359299 -0.100815 0.091332 0.178744 0.324274 -0.004614 0.066813 -0.137504 -0.270848 -0.166478 -0.122090 0.022392 -0.101066 -0.170066 0.186240 -0.154979 -0.167466 0.067818 0.448898 0.118732 -0.378101 -0.111949 -0.237708 -0.241758 -0.430297 0.053176 0.151525 -0.157988 -0.233224 -0.159259 -0.032417 -0.234996 -0.023803 -0.373557 0.120146 -0.010845 -0.041728 -0.041623 0.104322 0.212366 0.145909 0.027740 0.284059 -0.018756 -0.073892 -0.034820 0.080144 -0.127381 0.175539 -0.146840 0.071616 0.030067 0.184597 0.142913 -0.072725 0.226688 0.159977 -0.182021 0.375333 -0.043881 0.342698 0.202376 0.044005 0.052491 0.071030 -0.009184 -0.014564 0.352979 -0.094192 -0.293615 -0.308018 -0.131811 -0.396693 0.222113 -0.237572 -0.085208 0.203673 -0.161559 0.144059 -0.050169 0.125485 0.100148 -0.192366 -0.067991 -0.133607 0.102414 0.224914 -0.343084 -0.028310 -0.010904 0.336978 -0.257069 -0.117192 0.143734 -0.187945 -0.012882 -0.231206 0.350960 0.060094 -0.031698 0.107925 0.041066 0.070124 0.022639 -0.133759 -0.046846 -0.370554 0.117967 -0.276429 -0.011244 -0.045834 -0.100387 -0.313751 -0.272061 0.078166 -0.231769 0.037697 -0.026553 0.070118 -0.190691 0.314861 -0.026499 0.179149 0.015993 0.131527 -0.095634 -0.296340 -0.069532 -0.066122 -0.192861 0.129685 -0.127322 0.194408 0.081899 0.090979 0.053815 
king	0.406554 0.570053 -0.161959 0.287919 0.023553 -0.058832 0.076058 0.362596 0.211039 0.101451 -0.101373 0.032375 -0.084642 -0.146831 0.073561 -0.022063 0.044429 0.290820 -0.016016 0.040114 0.295392 -0.086040 0.008768 -0.028073 0.028931 -0.105030 -0.295749 0.302688 0.240171 0.029977 0.213462 0.172816 -0.147245 -0.006427 -0.106495 0.135419 0.051381 0.167926 -0.298538 0.006008 -0.283702 -0.213488 -0.171260 -0.560982 -0.185967 -0.368915 0.231420 0.201493 -0.035557 -0.121921 0.277046 0.401153 0.120166 0.269818 -0.266367 0.135535 0.141325 -0.246681 0.031395 0.023627 -0.263015 0.298184 0.065083 -0.031633 -0.071569 0.155386 0.079522 0.056322 0.366631 0.243329 -0.372366 -0.344745 -0.079736 -0.174719 0.051248 0.071084 0.191561 -0.222271 -0.303451 -0.310213 -0.108904 0.147962 0.096682 0.168806 -0.001781 0.009464 0.040873 -0.474039 -0.213033 -0.074853 0.140515 0.345979 0.025153 -0.059468 -0.001826 -0.027527 0.063319 -0.455037 -0.303576 -0.024920 -0.092812 0.041544 0.233270 0.024414 0.175654 0.241418 0.352174 0.194811 -0.254059 0.426716 -0.198980 -0.300813 0.060183 -0.003939 0.142163 0.121560 0.171118 0.505618 0.178957 -0.084826 0.214267 -0.090818 0.088720 0.150298 0.259859 0.274938 -0.010945 -0.167872 -0.043710 0.161514 0.069075 -0.147500 0.016599 0.075738 -0.552067 -0.068458 0.143640 0.065008 -0.353580 -0.221487 0.149635 0.078241 0.229679 -0.334001 -0.002042 0.212915 -0.180125 0.281251 -0.053280 -0.199928 -0.094484 -0.253645 0.291322 -0.063279 0.553476 -0.575784 -0.215248 0.161906 -0.059653 -0.031630 0.028224 0.352847 -0.070897 0.073075 -0.183703 0.135152 -0.046897 -0.002297 -0.151488 0.083981 -0.303460 0.154495 0.016992 0.079247 -0.078591 0.076352 -0.070780 -0.034416 0.392750 -0.252229 0.136997 0.180608 0.137518 -0.200150 0.375631 -0.325531 0.176709 0.074923 -0.135516 -0.303116 0.117911 -0.040813 -0.253685 0.202522 0.059381 -0.052123 0.319182 0.086571 -0.150379 -0.030915 
person	0.042433 0.099962 -0.180304 0.257172 -0.043017 -0.172005 0.046027 -0.061470 -0.006983 -0.120956 0.023027 -0.014991 0.027229 0.066279 -0.044911 0.194513 0.021202 0.146250 -0.071694 -0.084444 0.108291 0.063851 -0.234397 0.170815 0.161163 -0.250429 -0.283731 0.227143 0.369202 -0.003382 0.168383 -0.015971 0.226108 -0.148309 0.350637 0.052612 -0.118408 0.413039 -0.030793 -0.268313 -0.223639 -0.040379 -0.163506 -0.200276 -0.020692 -0.105752 0.087851 0.272932 -0.050335 -0.179411 0.122899 -0.068972 0.022619 -0.303654 0.098735 -0.020002 0.004000 0.396326 0.055268 -0.148787 -0.126230 0.016530 -0.226625 -0.112022 -0.140214 -0.101469 0.056529 0.202021 0.038631 0.026975 -0.050573 0.183902 -0.144602 -0.039052 0.082964 0.230496 -0.041051 -0.122642 0.149059 -0.059856 -0.057824 -0.025921 0.075437 -0.096060 0.032249 -0.015086 0.073679 -0.066665 -0.214522 0.123986 0.084620 -0.053503 -0.256558 -0.397084 0.062904 -0.277329 -0.101612 -0.220293 0.212017 0.004328 0.035978 0.072022 -0.445685 -0.076084 -0.165640 0.035884 -0.008940 0.212541 -0.359191 0.132159 0.125922 0.095363 0.152512 -0.016758 -0.328667 -0.307338 -0.057211 0.189958 -0.133854 -0.001242 -0.098345 0.007583 0.116940 0.008039 0.324366 0.259811 -0.096801 0.041690 0.100298 -0.061474 -0.013973 0.567320 -0.004297 0.078623 -0.199091 -0.019264 -0.250950 0.267374 -0.246311 0.139869 0.390462 -0.060763 -0.150035 -0.034446 0.048518 -0.047503 0.033035 0.221542 0.002757 0.098927 0.039746 0.065431 0.015735 0.025302 0.152465 -0.106896 -0.014376 -0.049860 -0.119676 -0.130513 0.080793 0.193160 -0.188020 0.272331 -0.036697 0.041445 0.042107 -0.002465 -0.103200 0.188632 0.004401 0.174601 -0.054550 0.027355 -0.011124 -0.117996 -0.065410 -0.120069 -0.093500 -0.078228 0.150635 0.019700 0.071436 -0.117509 0.187012 -0.053728 0.211019 0.278982 0.239822 0.038532 -0.095741 0.006506 -0.228465 0.060493 0.043741 0.102534 -0.117529 -0.030760 0.184807 0.335310 
space	-0.068209 0.463770 -0.080416 0.004894 0.089470 -0.082877 0.014518 -0.394660 -0.359973 -0.086120 -0.180780 -0.051646 -0.220711 -0.027088 -0.121637 -0.175648 0.033509 0.202514 -0.139373 0.104735 0.067309 0.164405 -0.300546 0.170200 -0.336816 0.418241 0.338767 0.196118 -0.148227 0.325969 -0.139736 -0.181205 0.354172 -0.331292 0.021148 0.018758 -0.235269 0.053680 -0.075071 -0.208762 -0.312309 0.094745 -0.052047 0.202275 0.175605 0.056662 0.200856 0.211474 -0.283028 -0.089046 0.017784 -0.371789 0.328248 -0.004204 -0.121651 -0.116369 -0.123253 0.183831 0.111806 -0.402306 -0.208850 0.105013 -0.067390 -0.184157 0.357835 0.040966 0.240875 -0.170826 0.115942 0.003219 0.302743 0.054597 -0.131272 0.018619 0.208985 0.175141 0.083181 0.068409 -0.345136 0.004672 0.367618 -0.089092 -0.293942 0.142963 -0.109956 -0.061112 0.079122 -0.229491 -0.250255 0.287782 -0.097391 0.291215 -0.165643 -0.587247 -0.105746 -0.149373 0.426466 -0.011761 -0.244274 -0.453222 0.102812 -0.317650 0.423825 0.343516 -0.073295 -0.210592 0.069481 -0.206552 0.156009 -0.306253 -0.218846 0.252048 0.007539 0.100628 -0.325734 0.221504 0.099606 -0.107779 0.148420 -0.110925 0.191907 0.214924 -0.013330 0.065110 -0.028548 -0.272430 0.272426 0.194464 -0.024951 0.040786 0.046650 0.143863 -0.209872 -0.028254 -0.048410 -0.228925 -0.405848 0.163888 0.182844 -0.076205 0.334173 0.387299 -0.045414 -0.196614 -0.534824 -0.070392 0.102828 0.229234 -0.254952 0.351013 -0.250562 -0.133395 -0.050292 -0.436923 -0.003104 -0.242802 -0.160852 -0.459935 0.175764 -0.315100 0.130481 -0.102159 -0.058984 0.124813 -0.247937 -0.419987 -0.060520 -0.093302 -0.247413 -0.266248 -0.426619 -0.093738 0.441362 -0.184444 0.080998 -0.005039 0.048619 -0.073929 0.210605 0.188155 -0.148979 -0.122779 -0.060812 -0.048309 0.243255 -0.042371 0.222592 0.298006 0.167031 0.109432 0.236387 0.129641 -0.028090 0.192520 0.147020 0.147017 -0.131202 0.263415 0.101354 0.023295 
indian	0.060984 0.188032 -0.167002 -0.289532 -0.106214 -0.151848 0.230697 0.246698 -0.001140 0.149085 0.234372 -0.161039 -0.481424 0.001557 -0.199288 -0.415088 -0.093419 0.051940 -0.065518 -0.157550 0.026936 0.269381 -0.180778 -0.227336 -0.038904 0.055565 0.193975 0.034737 0.010321 0.398770 -0.140213 -0.018976 0.237699 -0.372201 -0.093627 0.303912 -0.228771 -0.097037 -0.082796 0.116407 -0.643045 -0.076731 -0.060519 -0.294278 -0.189349 -0.212427 -0.053608 -0.061207 0.191587 -0.583329 -0.614094 0.213877 -0.063561 -0.277637 -0.198966 0.006356 -0.229961 0.470105 0.289548 0.310258 0.110546 0.443542 -0.029793 -0.351265 0.416739 0.008101 0.162378 0.084824 0.001367 0.092998 0.022911 -0.147793 0.169911 -0.096738 -0.241389 0.285936 0.117034 0.121735 0.038495 -0.071191 -0.134607 0.397674 -0.197251 0.318575 -0.203322 0.069973 0.070413 0.085357 -0.203800 0.020691 0.126141 -0.165871 0.123632 -0.401103 0.405535 -0.373198 0.024557 0.280504 0.156088 0.091964 -0.086878 -0.155953 -0.029016 0.064678 0.012435 0.138858 -0.148409 0.037862 0.136581 -0.040900 -0.048396 -0.135570 -0.173865 0.163775 -0.207683 0.189698 0.388737 0.174024 -0.185905 -0.283772 -0.083820 0.159566 -0.336347 0.516380 -0.068480 0.008925 -0.097998 0.468800 0.073388 -0.139295 0.082332 -0.162249 0.146780 0.118109 -0.059933 -0.526675 -0.127438 -0.042388 0.020289 -0.190981 -0.059041 -0.345502 -0.007911 -0.314541 -0.111761 -0.178237 0.075057 -0.174759 -0.132084 0.178798 -0.217237 -0.163967 0.124885 -0.324680 0.241033 -0.107427 -0.044151 0.088939 -0.143723 -0.240238 -0.063451 0.483676 -0.140424 0.042188 0.260740 -0.188989 -0.066142 0.037012 -0.160474 0.196939 0.206406 -0.245931 -0.329459 0.052143 0.172602 -0.228923 -0.022353 -0.190043 0.224181 -0.049286 -0.037549 0.272277 0.419902 -0.401070 0.103859 -0.166376 0.285662 -0.144219 0.175280 -0.183246 -0.265499 0.391156 -0.274228 0.182931 -0.106764 -0.159167 -0.118670 0.082083 0.199575 -0.012544 
internet	0.238554 -0.051372 -0.263058 0.293674 -0.132769 -0.123631 0.406362 -0.234000 -0.132429 -0.221512 0.163972 0.000660 0.009375 -0.222439 -0.281224 0.001072 -0.158357 0.085101 -0.218868 -0.308029 0.107339 -0.138346 0.015860 -0.136561 0.105415 0.378384 0.096119 -0.058367 0.023391 0.361641 0.113527 0.044473 -0.196218 -0.116464 0.001890 -0.173642 0.081964 0.072653 0.017268 -0.262909 -0.189253 -0.305402 0.053704 0.012315 -0.216299 -0.158047 -0.230225 0.107452 -0.215522 -0.138654 -0.357801 -0.035754 0.281156 0.014464 0.074560 -0.469839 -0.049740 0.064787 0.023844 0.102510 0.161212 -0.038291 0.165607 -0.093543 -0.061310 0.200039 0.263786 0.038928 -0.060835 0.023855 -0.072761 -0.095320 -0.274540 -0.296946 0.241397 -0.244107 0.208352 0.032761 0.140977 0.130259 0.202317 -0.254517 0.079358 -0.172195 0.081500 0.610770 0.197354 -0.085437 -0.106987 -0.096481 -0.015188 -0.037863 -0.198207 -0.572477 -0.067042 -0.450718 -0.036235 0.098982 0.143245 -0.065286 0.124309 0.092714 0.248236 -0.277823 0.243887 0.003068 -0.083107 0.328936 0.124462 0.244594 0.220029 -0.074123 -0.052474 0.590563 -0.432164 0.274774 -0.123609 -0.004553 -0.064743 -0.172853 0.046409 0.184658 -0.033785 -0.431574 0.179603 0.082788 -0.206063 0.213425 0.038107 0.001948 0.142068 0.370813 -0.253062 -0.543389 -0.286031 0.022055 0.019483 0.112270 -0.032638 -0.236558 -0.013370 0.027877 0.022223 -0.127085 0.104472 0.258105 0.220386 -0.055211 0.027334 -0.221168 -0.153403 -0.237532 0.248147 -0.220604 0.142767 -0.348774 -0.057247 0.052686 0.153513 -0.561705 0.108843 -0.131440 -0.085734 0.138170 -0.021431 0.040352 0.097959 0.141359 -0.191673 -0.127824 -0.217894 -0.005347 0.455761 0.019802 0.299386 0.048379 -0.016010 -0.271621 0.193668 0.272412 0.104409 0.093861 0.256419 -0.015352 0.074280 0.417847 -0.120672 0.026738 0.080557 0.520694 0.134168 0.140558 -0.532627 0.205677 -0.097444 0.159340 0.062493 -0.092900 0.305379 0.307548 
star	0.065889 0.254645 -0.327263 0.009232 0.019071 -0.256608 -0.055832 0.206699 -0.184939 0.098808 0.438121 -0.187993 0.171994 -0.285669 -0.154704 -0.062315 -0.154817 0.249986 0.085556 -0.163005 -0.185341 0.018188 -0.190360 0.344808 -0.156456 0.209724 -0.161965 -0.159242 0.443738 0.125873 0.265688 -0.509065 -0.112903 0.061760 0.027670 -0.009995 0.206429 0.043998 -0.188354 0.030695 -0.259843 -0.069139 -0.071305 0.174339 -0.049148 -0.011588 0.228286 0.116518 -0.153256 0.019265 -0.103768 0.002054 0.046133 0.298428 0.077553 -0.058523 -0.090605 -0.079619 0.236068 0.017523 0.041017 -0.016607 0.027732 -0.278073 0.195868 -0.008780 0.119520 -0.150966 0.490187 0.532040 -0.012425 -0.059388 -0.109909 -0.132592 -0.246779 0.192613 -0.036692 0.044383 -0.047419 -0.205410 -0.143038 0.059135 -0.063769 0.106079 -0.159810 -0.124221 0.110266 0.326444 -0.969133 -0.029622 0.123436 0.267368 0.230414 -0.176006 0.100294 -0.240485 0.166859 -0.407851 -0.445597 0.127352 -0.048492 -0.102527 0.240016 0.008988 0.075525 -0.078373 0.047575 0.106356 -0.154063 -0.077030 -0.028332 -0.112394 -0.048932 0.059750 -0.033279 0.269614 0.011605 0.271668 -0.090658 -0.289003 0.134621 -0.047752 -0.063489 -0.323590 0.105601 -0.003730 0.012100 0.221226 0.095438 0.067570 -0.089952 0.160361 -0.009372 -0.209409 -0.595282 -0.008905 -0.045058 0.148535 0.247910 0.190498 0.017567 -0.155268 0.073417 -0.087560 0.105339 -0.163343 -0.100881 0.350546 -0.072619 0.080851 0.008784 -0.335621 -0.031015 -0.241207 0.114045 -0.418476 -0.336767 -0.238358 0.006242 -0.047112 0.063806 -0.102171 0.206133 0.100969 -0.167037 -0.183790 0.001150 0.457967 0.100763 -0.118951 0.112437 -0.284454 -0.119934 -0.249717 0.346292 -0.034632 -0.126802 -0.343284 -0.283191 -0.021089 0.494462 -0.036306 0.002980 -0.051240 0.354335 0.027278 0.086035 0.169662 -0.028748 0.177714 -0.223913 0.192453 0.063219 0.153602 0.301845 -0.238063 -0.003236 -0.019355 0.006637 -0.012865 
light	-0.130480 0.114522 -0.025371 -0.247482 0.162460 -0.234942 -0.246805 -0.099153 -0.148502 -0.028119 -0.249715 0.012844 -0.251819 -0.109304 0.103641 -0.115580 -0.025783 0.106078 -0.146116 -0.094909 -0.134885 -0.162076 0.152248 0.059974 0.288251 -0.158620 0.387030 -0.173059 0.173858 0.316500 0.129721 -0.045370 0.114914 -0.303537 0.374254 0.158041 -0.056738 -0.033496 0.105938 -0.018608 -0.131529 0.253643 -0.007897 -0.335560 -0.184219 -0.105808 -0.029916 0.077059 0.023710 -0.121557 0.196276 -0.178239 0.104147 -0.130319 0.138677 0.193602 0.157174 -0.109403 0.293939 0.148621 0.130415 0.008398 0.006459 -0.301357 -0.006009 -0.032946 -0.038729 -0.067062 0.236484 0.201708 0.185899 0.152376 0.020073 -0.280426 -0.115761 -0.046467 0.129629 0.037450 -0.072422 -0.325561 0.284601 0.060578 -0.310893 -0.027046 0.038841 0.362516 -0.073065 0.151444 -0.280200 -0.027754 0.111181 0.302785 -0.073467 -0.187779 -0.035452 -0.145491 0.001872 -0.225628 -0.128668 -0.241193 -0.171758 -0.050351 0.198099 -0.143215 0.020916 0.011964 -0.033119 0.054516 -0.184967 -0.058882 0.005993 -0.047223 0.019232 -0.119981 -0.023101 -0.088811 0.053661 0.193019 -0.154119 0.127714 0.103901 -0.049384 -0.337148 -0.174967 0.046272 -0.069050 0.229831 0.051306 0.055123 0.301147 -0.103030 0.083236 -0.160381 0.035589 -0.174409 -0.062725 0.040247 0.026387 0.241683 0.021255 0.233855 0.187220 -0.057132 -0.371348 0.145816 -0.009688 0.023587 0.027453 0.181417 0.150380 -0.060330 -0.056188 -0.188778 0.304421 0.243297 -0.248024 -0.403924 0.044816 -0.272232 -0.272769 -0.117912 0.472472 -0.237869 -0.149236 -0.239112 -0.222596 0.106438 -0.004875 -0.264343 -0.213809 0.249075 0.064619 -0.128824 0.003253 -0.364837 -0.287509 -0.079277 0.200054 -0.416890 -0.158346 0.152869 0.062071 -0.102721 0.012054 -0.215642 0.116624 -0.276588 0.341686 0.119748 0.053633 0.051769 0.162001 -0.215945 0.294923 0.195563 -0.026608 -0.183580 -0.009590 -0.055283 -0.101411 
art	-0.248832 0.150116 0.248848 -0.169189 -0.126469 -0.181228 0.080717 -0.149147 -0.066881 -0.161292 -0.021287 -0.020592 0.052375 -0.115939 0.187068 0.203222 0.066370 0.328846 -0.431857 0.195309 -0.039307 0.019290 -0.125081 0.109700 -0.006581 0.374637 0.063667 0.102050 0.373900 0.134865 0.158762 0.180907 0.197202 -0.612574 0.092790 0.244515 -0.129961 0.300310 -0.044819 0.016981 -0.068579 0.000850 -0.262745 -0.033623 0.007348 -0.070300 -0.148508 0.263266 -0.267419 -0.244944 0.084077 0.153060 0.228065 0.066259 0.243138 0.095410 -0.023582 0.091037 -0.291995 -0.084569 -0.153192 -0.131055 -0.406691 -0.117598 0.126851 0.384133 0.412247 -0.084778 0.083466 0.202180 0.005355 0.333303 0.065706 0.233091 -0.610644 0.170746 0.457322 0.125531 0.119831 0.113282 -0.247373 -0.012239 0.216854 0.056610 0.213685 0.130059 -0.019005 -0.418361 -0.136325 -0.141410 0.073972 -0.036923 0.376592 -0.114099 -0.166579 -0.267537 -0.043915 -0.041076 0.052118 0.063297 -0.146846 0.020809 0.210896 -0.191958 0.363860 0.107473 0.035191 -0.061074 0.041043 0.164600 -0.409832 0.173538 -0.238693 0.383263 -0.001639 0.125382 0.339222 0.040225 -0.222876 0.126538 0.192706 -0.182182 0.049714 0.071141 -0.049004 -0.197346 0.317327 0.038514 0.246528 0.172430 -0.208842 0.442309 -0.369828 -0.137597 -0.278692 -0.152778 -0.319782 0.191294 -0.203799 0.174102 0.187095 0.060802 0.101490 -0.163879 0.004631 0.042579 -0.058796 -0.059794 -0.270776 0.046304 -0.304189 -0.127006 -0.011599 -0.329569 0.469050 0.233168 -0.054060 0.050336 -0.003193 -0.453318 -0.123412 -0.110583 0.143220 -0.211633 -0.031851 0.121662 -0.169365 0.246451 -0.343946 -0.041797 0.124375 0.128491 0.401139 -0.334270 -0.049059 0.168086 0.317784 -0.356436 -0.058185 -0.029744 0.005237 -0.307098 -0.036184 -0.168966 0.117894 0.164543 0.362036 0.029259 0.205699 -0.065498 0.226341 0.094987 0.043257 0.374831 0.081048 -0.184613 -0.015779 -0.058222 0.019729 0.226601 
computer	-0.027478 -0.073438 -0.006760 0.163455 -0.185228 0.123235 0.319277 -0.414365 -0.217590 -0.213888 -0.085955 -0.251654 -0.062774 -0.052610 -0.140449 0.023568 -0.210614 0.093307 -0.336440 -0.417870 0.143670 0.208871 -0.191583 0.181125 0.118150 0.279423 0.254523 0.024256 0.129307 0.183477 -0.148802 0.191815 0.043111 -0.187768 0.245145 -0.057623 -0.123082 0.061525 0.040386 -0.088686 -0.061533 -0.337367 -0.137437 -0.145638 0.213502 -0.104483 -0.144568 0.557583 -0.096372 -0.159456 -0.159272 -0.107024 0.368704 -0.124744 0.144454 -0.485935 -0.047296 0.175088 0.137726 0.034487 0.166270 -0.150500 0.251522 -0.043707 0.069814 0.064193 0.428655 0.025129 -0.065411 0.068026 -0.123506 -0.205084 0.232705 0.040291 0.324053 0.197149 0.165192 -0.064108 0.134998 -0.146014 0.112217 -0.132061 -0.051956 0.223002 -0.057796 0.470387 -0.020339 -0.012965 -0.014269 0.087064 0.195099 -0.170812 -0.407989 -0.292347 0.196974 -0.515890 0.113841 -0.128409 0.012143 -0.225806 -0.174303 0.216125 0.528829 -0.421369 0.108049 -0.258660 -0.010749 0.136034 0.006522 -0.094413 0.036889 0.064715 -0.003423 0.306445 -0.471148 0.045149 0.133117 -0.055798 -0.138745 -0.071853 -0.096125 0.267725 -0.213497 -0.042544 0.332496 -0.046190 0.218398 0.085074 -0.018519 0.219640 0.086268 0.258396 -0.402135 -0.383743 -0.216374 -0.005503 0.175164 0.224025 0.150801 -0.067963 0.112776 0.070214 -0.210063 0.123702 0.014639 0.209276 0.248213 -0.148324 -0.050932 -0.206056 -0.227758 -0.222659 0.335891 -0.207210 0.066574 -0.541275 0.095437 -0.036857 0.073726 -0.324358 -0.100721 0.052814 -0.117589 0.054375 -0.010326 0.105859 -0.133390 -0.015813 -0.295255 -0.132579 -0.374764 -0.195969 0.328741 -0.339166 0.332311 0.279761 -0.070962 -0.311774 0.315566 0.355809 -0.131584 0.067491 0.117607 -0.078270 0.232205 0.247708 0.121146 -0.119230 0.092339 0.267217 0.064652 0.170381 -0.279025 0.327265 -0.048949 -0.172231 -0.166707 -0.188864 0.180549 0.009606 
movie	-0.307763 0.199250 0.039228 -0.027943 -0.077283 -0.362857 0.157057 0.067510 0.070651 -0.282563 0.035014 -0.269051 0.058661 -0.342808 -0.360433 -0.031988 -0.064030 0.261719 0.192390 0.041316 0.452366 0.073765 -0.205945 -0.003335 -0.085644 0.152925 -0.046044 0.067470 0.044246 0.322807 0.221084 -0.167009 -0.143372 -0.247639 0.126847 0.215890 -0.147779 0.013549 -0.132805 0.039306 0.026884 -0.136623 -0.012378 -0.037540 -0.031090 0.046507 -0.095250 0.251641 0.015692 -0.278442 -0.193936 -0.150635 0.158593 0.155453 -0.143891 -0.326631 -0.073997 -0.038475 0.151635 -0.134118 -0.036030 -0.000310 -0.155216 -0.381199 -0.006361 0.156395 0.407574 0.123423 0.432689 0.564375 0.313631 0.248083 -0.012905 -0.093835 0.078312 0.078335 -0.024770 0.370064 0.081604 -0.272310 -0.432725 -0.033635 0.446356 0.281926 0.051730 0.215958 0.106836 0.019581 -0.331526 -0.085579 -0.205209 -0.175344 0.102118 -0.268547 -0.132552 -0.206832 0.075155 -0.606196 -0.045681 -0.059291 -0.234612 0.019454 0.112085 0.330013 0.173489 -0.003460 0.133500 0.007577 -0.266786 0.209916 -0.024290 0.090452 -0.062070 0.041337 -0.172707 0.006922 0.152279 0.141332 -0.289340 0.160783 0.011389 -0.231016 0.008306 -0.415849 0.216624 0.309726 -0.089934 0.384525 -0.029389 0.055436 -0.027241 -0.018530 0.273363 -0.230680 -0.309761 -0.180273 -0.345710 0.040266 0.103219 0.214604 0.002988 0.039109 -0.045697 0.053176 -0.053510 0.034294 0.036981 0.101200 -0.037840 -0.082805 0.028265 -0.353531 0.149374 -0.124016 0.061150 -0.183197 -0.024263 -0.108713 -0.113270 -0.494003 0.173422 -0.139024 -0.010415 0.347271 0.121073 0.029446 -0.279190 0.199275 -0.062771 0.009139 0.014900 -0.045138 0.038372 -0.195780 0.036108 -0.015570 -0.072944 -0.163148 -0.093705 -0.000684 0.111817 0.080289 0.329180 0.091287 0.018584 0.369881 0.214427 0.172677 0.185287 -0.142406 0.163538 -0.277391 0.068756 0.204232 0.550860 -0.203598 0.358711 0.198691 0.093985 0.162699 
green	0.180908 0.018114 -0.133970 0.037638 -0.048170 -0.266012 -0.112238 -0.160285 -0.086017 0.092135 0.034674 -0.079277 0.037240 -0.150302 0.141773 0.042939 -0.113331 -0.024176 -0.019492 0.100156 0.000999 0.093055 -0.018589 -0.194309 0.111329 -0.263388 0.300191 0.103667 -0.079395 0.106715 0.154720 0.243506 0.117851 -0.133413 -0.038499 0.162388 0.349342 -0.183074 -0.309110 -0.049155 -0.356890 -0.106994 0.024928 -0.344941 -0.128778 -0.073812 0.135479 -0.026296 -0.264752 -0.138192 0.173637 -0.211342 0.157465 -0.028975 0.091081 0.296222 0.103260 0.023641 0.149158 -0.147462 0.006734 -0.022749 -0.081388 -0.457482 0.010504 -0.213580 -0.062898 0.302685 0.179420 0.088846 0.330946 0.089214 0.068145 -0.506381 -0.050449 -0.129901 -0.021422 0.148143 0.053514 -0.275082 0.198613 0.110755 -0.222914 0.084042 -0.043329 0.250822 0.127589 -0.021719 -0.497290 0.253838 0.335105 0.402628 0.029630 -0.136403 -0.156814 0.067087 -0.266135 -0.154923 -0.357750 0.113982 -0.225965 0.182467 0.135232 0.126021 -0.022598 -0.331635 0.182819 0.189817 0.050122 -0.203296 -0.135860 0.047016 -0.036356 0.067527 0.242025 -0.116966 0.261656 0.376770 0.134027 0.018127 0.122091 -0.312088 -0.075030 -0.058210 0.088780 0.044497 0.208770 0.152180 0.071015 0.296653 -0.028591 0.222597 -0.342530 0.129890 -0.269521 -0.210165 -0.185782 0.204004 0.035646 -0.334557 0.058049 0.235352 -0.131104 -0.049429 0.079727 -0.146641 -0.029130 -0.344455 0.323475 0.225367 0.377431 -0.078451 -0.047437 0.223036 0.050268 -0.194572 -0.254795 -0.379397 -0.060723 -0.139374 -0.144607 0.139803 0.100048 -0.504272 -0.172161 -0.350792 0.014027 -0.046412 -0.351071 -0.083368 0.271298 -0.164988 0.229542 0.189535 0.006106 -0.098383 -0.020255 0.129708 -0.293997 -0.200293 0.103297 -0.073278 -0.254492 -0.330784 -0.124186 -0.058896 0.148165 0.167986 -0.274558 0.083597 -0.059377 0.303672 -0.053349 0.115965 0.155422 -0.242872 0.004869 -0.027142 0.056834 0.045055 
brown	0.162464 -0.077063 0.003657 -0.025492 -0.050180 0.087138 0.162507 0.119995 0.047829 0.139594 -0.045538 0.168963 -0.014583 0.065374 -0.121950 0.092776 -0.333930 -0.033518 -0.160369 -0.015237 0.074128 -0.156103 0.135471 0.069918 -0.192745 -0.269017 0.112692 0.378032 -0.178399 0.230195 -0.076240 0.281703 0.383744 -0.425687 0.304973 0.065272 0.266227 0.182306 -0.346752 -0.021749 -0.626091 0.142424 0.116385 -0.077992 -0.206417 -0.079564 0.093312 -0.002336 -0.458622 -0.183186 -0.192051 -0.147108 0.233770 -0.234049 -0.191920 0.147782 0.068700 -0.236924 0.137808 -0.338808 0.390888 0.010213 -0.035441 -0.247716 0.188160 -0.012936 0.018522 -0.162431 -0.139192 0.222558 0.041255 0.218891 -0.134974 -0.238397 0.035815 0.159570 -0.151557 0.130301 0.121682 -0.154227 0.041296 0.078207 -0.541442 0.010793 -0.068170 0.105946 -0.057574 0.140938 -0.457644 -0.245064 0.440287 0.533810 -0.284524 -0.041953 0.228334 -0.124421 -0.229892 0.005198 -0.143909 0.233799 -0.067485 0.001470 0.158093 0.159286 -0.057831 -0.216926 0.166454 0.316362 0.148787 0.062177 -0.119580 0.020141 -0.100863 -0.016928 0.226553 -0.016726 0.369062 0.209670 -0.170689 0.066552 0.139596 -0.225888 -0.137367 0.231253 0.350888 -0.097197 0.237104 0.308637 0.040272 0.072931 -0.023029 0.090053 -0.107132 0.153201 -0.552022 -0.235953 -0.301414 0.041858 -0.221261 0.035036 -0.021411 0.397335 -0.119193 -0.089890 0.288760 -0.101547 -0.360240 -0.070353 0.093593 0.025774 0.214737 -0.003095 0.097820 0.009337 0.410151 -0.140138 -0.257257 -0.050968 -0.102467 0.134929 -0.023187 0.052381 0.086595 -0.315520 -0.154515 -0.136723 -0.167427 0.052418 -0.280384 -0.228122 0.062772 -0.120514 -0.037187 -0.239303 0.068577 0.008069 -0.231603 -0.097732 -0.115638 -0.271923 0.339415 0.113949 -0.300851 -0.165218 -0.092796 0.104153 0.195320 0.040835 -0.012017 0.110089 -0.168401 -0.239486 -0.011382 -0.144032 0.235411 -0.093725 0.136977 -0.068370 -0.182805 -0.073022 
song	-0.260558 0.250373 0.069784 -0.049313 0.248699 0.001188 0.154548 -0.404791 0.180972 -0.025094 -0.273008 -0.148545 0.080349 -0.663784 -0.053535 -0.206452 -0.050456 0.058273 -0.022751 -0.165390 0.238451 -0.089729 0.033446 -0.094807 0.463034 0.137161 -0.258440 0.026835 0.172811 0.141686 0.071000 -0.216719 0.128639 -0.656226 -0.083218 0.388657 0.222794 0.213844 -0.179520 0.088242 0.012161 -0.070034 -0.323433 -0.164108 -0.009508 0.129902 -0.267857 -0.162710 -0.128849 -0.171711 0.195858 -0.052034 0.308973 0.293233 -0.263265 -0.203775 0.136244 -0.181349 0.337004 -0.095323 0.021979 0.198833 -0.123472 -0.126273 0.251298 -0.010842 0.180818 0.263920 0.079938 0.769050 0.011941 0.070358 0.124590 -0.410610 -0.148609 0.109310 0.320590 0.157454 0.224813 -0.062061 -0.019994 0.187952 0.586959 0.023530 0.006029 0.304602 0.453027 0.020380 -0.266484 -0.121793 -0.789034 0.208096 -0.078778 0.151004 -0.311558 -0.146284 -0.163760 -0.635504 -0.107619 0.372744 -0.040803 -0.020837 0.096761 0.173671 -0.032018 0.170646 0.234307 0.070192 -0.306541 -0.304393 0.041066 -0.128885 -0.078660 0.030055 -0.196636 -0.180668 0.228781 0.171556 0.059752 0.020168 0.204541 -0.283541 0.233339 0.111703 0.351052 0.185756 0.019337 0.388549 -0.043556 0.122172 -0.004778 0.253390 -0.051077 -0.345936 -0.308552 -0.126131 -0.335553 0.075526 -0.439514 0.228795 -0.004944 -0.088389 -0.170538 -0.129042 -0.231040 0.003216 0.176649 0.253891 -0.006320 0.203925 0.098766 0.062246 0.145815 -0.199584 0.115258 -0.186994 -0.266513 -0.093464 -0.314908 -0.148198 0.403652 -0.287640 0.152888 0.099266 -0.073334 0.213796 -0.043228 0.204395 0.302278 0.035453 0.129631 0.268421 -0.053376 0.013933 0.009919 0.149991 0.058522 -0.234154 0.084664 0.051564 0.205697 -0.137839 0.059147 -0.024364 -0.009230 0.515635 0.094164 0.070508 -0.077907 0.250640 -0.077018 -0.312103 -0.035905 0.390517 0.471878 -0.005145 0.166319 -0.320962 -0.129035 0.184780 
phone	0.221634 -0.136438 0.018635 0.155954 -0.064552 0.139558 -0.003397 -0.021924 -0.171820 0.060194 0.069868 -0.005194 0.236665 -0.380259 -0.013471 -0.108516 -0.181155 0.081520 -0.163709 -0.089912 0.032124 0.033309 0.037173 -0.002479 0.196990 0.053716 -0.556044 0.092344 0.162014 0.246958 0.480794 -0.038282 0.095383 0.040417 -0.038134 -0.052515 0.051047 -0.059421 0.302976 -0.721210 -0.048854 0.174468 0.063477 -0.196208 -0.201764 -0.223957 -0.009878 0.401632 0.095295 -0.340519 0.019757 0.003832 0.099219 -0.039379 0.099852 -0.249952 -0.006672 0.063478 0.135721 0.169908 0.345088 0.161464 0.017828 0.008456 0.207292 0.165814 0.347771 0.244650 -0.160772 0.155846 -0.014017 0.111384 -0.174510 -0.277775 0.367050 0.170023 -0.045218 0.075952 0.053444 -0.284464 0.309328 -0.029377 0.016026 0.052573 -0.024198 0.464545 0.112010 -0.033405 -0.006848 -0.237181 0.173700 0.200138 -0.297727 -0.781168 0.085590 -0.413862 0.090893 0.028819 0.218681 0.228754 0.176992 0.385574 0.166786 -0.511596 0.334739 0.121901 -0.262147 0.456091 -0.049294 -0.160323 0.083209 0.098358 0.006926 0.149604 -0.573281 -0.066083 0.048812 0.202732 0.016977 0.407905 -0.164976 0.063451 0.348123 -0.192396 0.377319 0.280815 0.202987 0.132139 -0.133244 0.242157 0.094447 0.363563 -0.158677 -0.423646 0.014013 0.058771 -0.278213 0.154062 0.179219 -0.546287 -0.120924 -0.018361 -0.131411 -0.067808 -0.146762 -0.000190 0.334611 -0.265871 0.096449 0.070133 0.035989 -0.462428 -0.050470 0.049983 0.245759 -0.157131 -0.170235 -0.031006 0.013338 -0.379015 0.063662 0.057697 0.094238 0.345697 -0.115581 0.232847 0.251571 -0.204107 -0.182538 -0.151606 -0.041737 0.052388 0.272557 0.017244 0.393874 -0.000787 0.236895 -0.358585 -0.101878 0.169400 0.155817 0.266635 0.241274 -0.016920 0.067064 0.164919 -0.086754 -0.035516 0.206298 0.479164 -0.045019 -0.080934 -0.010360 -0.028225 -0.050675 -0.147548 0.105832 -0.140240 0.290595 0.145694 
cars	0.383200 -0.085268 -0.332582 0.111572 0.104199 -0.165770 0.000229 -0.320573 -0.053334 -0.045578 -0.153045 0.120331 -0.315437 -0.324125 -0.134816 -0.318716 -0.038456 0.339780 -0.126229 -0.124302 0.100445 -0.105927 0.053702 0.119196 -0.204031 0.352218 -0.029901 -0.152084 0.063650 0.234428 -0.108063 -0.102193 0.300944 -0.127870 -0.127018 -0.311439 -0.067774 0.047989 0.035855 -0.582242 -0.146450 0.060847 -0.001719 -0.315483 -0.431744 -0.174033 0.144451 -0.129563 -0.169899 -0.191378 0.120237 -0.148518 -0.020692 -0.268069 0.232836 -0.079375 0.018163 0.293983 0.074768 0.164349 -0.082457 0.045264 0.200280 -0.271473 0.094194 -0.024641 0.336413 0.193647 0.134024 0.143211 0.115792 0.466024 0.139559 -0.238216 -0.044390 0.087019 0.165353 0.018723 0.176726 -0.238747 0.318021 -0.110034 0.326705 0.005796 0.160866 0.013586 -0.074520 -0.265349 -0.087501 0.055339 -0.246716 0.080096 -0.055530 -0.187487 -0.032939 -0.183912 0.336396 -0.386511 0.099694 0.325229 -0.318082 0.470090 -0.137858 0.040079 0.348190 0.113778 0.050689 0.505067 -0.219163 0.093854 -0.407290 0.073630 0.478375 -0.197331 -0.076407 -0.194844 0.150533 -0.112071 -0.448206 0.196384 -0.118749 0.246183 -0.023563 -0.056185 -0.361340 -0.018088 0.414021 0.027131 0.037802 0.177494 0.350446 0.190541 0.068553 0.171346 0.241192 -0.195979 0.296007 0.414871 0.274372 -0.008050 0.189903 -0.178339 -0.208642 -0.102800 -0.033317 0.124198 0.294638 -0.114694 -0.032808 0.009622 -0.037277 -0.090993 -0.318374 0.109879 -0.381574 -0.062976 0.011633 -0.223041 -0.356517 -0.359222 -0.103416 0.523426 0.270561 0.022643 0.024252 0.118572 0.100910 0.054834 -0.600977 -0.320560 -0.433947 -0.133045 0.390567 0.036952 -0.150781 -0.136778 -0.138313 -0.548873 -0.355039 -0.077026 -0.241973 -0.155780 0.022172 -0.131060 -0.151267 0.273922 -0.122672 0.032009 -0.001363 0.389929 0.188847 0.137297 -0.393129 0.094597 0.290081 -0.299977 0.087290 0.203660 -0.360418 -0.005410 
pacific	-0.335159 -0.163406 -0.120939 -0.110857 -0.324051 -0.117112 -0.058917 -0.093298 0.043622 0.086547 0.166609 -0.284566 -0.142468 -0.193235 -0.052005 -0.511505 0.269912 -0.212648 -0.042894 -0.149980 0.108935 -0.084180 0.272174 -0.096830 -0.172788 -0.133940 0.284881 0.230443 0.041470 0.414328 0.086929 -0.103834 -0.214697 0.158452 0.132445 0.279878 -0.068714 -0.004027 -0.038251 0.299792 -0.611724 -0.092378 0.116556 0.342654 -0.357770 -0.262993 -0.430222 0.232485 0.286280 -0.231952 -0.030583 -0.132711 -0.135017 -0.346754 0.088937 0.394274 -0.123382 0.392753 0.301361 0.285776 0.014794 0.433865 0.061118 -0.203266 -0.077426 0.340623 0.459159 -0.265612 0.166359 0.151846 -0.050009 -0.050448 -0.071284 0.165726 -0.179088 0.670389 -0.039394 0.171341 0.144973 0.072798 0.021120 0.061686 -0.276406 0.485258 -0.187806 0.185849 -0.636132 -0.245468 -0.254044 -0.471113 -0.079168 -0.325254 0.090732 -0.420291 0.312325 -0.160513 0.271255 0.077827 -0.148765 0.091550 0.175391 0.101537 0.236042 -0.061417 -0.044394 -0.153181 -0.178082 0.113208 0.083621 -0.028522 -0.188078 -0.167864 0.225374 0.319890 -0.214927 -0.138875 -0.012154 -0.185151 -0.261303 -0.468062 -0.024058 -0.167500 0.140372 0.161999 0.135464 0.071652 0.090429 0.057883 0.241273 -0.122924 -0.089974 -0.146473 -0.426715 0.204406 0.272882 -0.420078 -0.113900 -0.050650 0.077719 -0.002064 -0.030281 0.173505 -0.133076 -0.274545 0.067605 -0.109237 -0.019392 -0.054156 0.327871 0.351651 -0.102773 0.067059 -0.132645 -0.403494 0.024768 -0.267582 -0.253799 -0.014255 -0.252480 -0.091951 0.112903 0.464448 -0.233262 -0.241235 0.273727 -0.067525 0.420600 0.026452 0.362506 -0.320975 -0.074189 0.450988 0.015509 -0.315694 0.372600 -0.030888 0.371080 -0.402142 0.050106 -0.233584 0.236371 0.143381 -0.145356 -0.198055 0.247392 0.017690 0.147702 0.057106 0.150386 0.532242 0.335728 0.340920 -0.230187 0.201855 0.213483 -0.328701 0.078392 -0.190425 0.120292 0.071296 
books	0.048681 0.427757 0.089941 0.225169 0.119371 0.033901 0.157070 -0.314778 0.197543 -0.297001 -0.098317 0.160483 0.250128 0.066960 -0.020378 -0.063249 0.005808 0.238101 -0.260988 -0.222081 0.084715 0.072350 -0.035129 0.214916 0.079546 0.140636 0.169723 -0.002660 0.368995 0.129530 0.123533 0.040859 0.089444 -0.326371 -0.133511 0.060260 -0.101511 0.554142 -0.195640 -0.037879 0.001872 -0.219718 -0.009351 -0.176710 0.043230 -0.033995 -0.074556 0.184962 -0.129411 -0.422243 -0.081611 0.117348 0.266458 -0.045386 -0.163456 -0.171206 0.241673 -0.129929 -0.330649 0.019908 -0.056189 -0.095384 -0.123388 0.038475 -0.149544 0.250921 0.429058 -0.096600 0.299362 0.480146 0.166292 0.121419 -0.232209 -0.121731 -0.030390 -0.033307 0.105781 0.207339 0.000922 0.025961 -0.074587 0.204370 -0.165439 0.211211 0.054124 0.057742 -0.036252 0.018637 -0.158675 0.047397 -0.017029 -0.192590 -0.034334 -0.288941 -0.062866 -0.239519 -0.016474 0.004617 -0.146565 -0.071391 -0.217948 -0.139255 0.009249 0.008775 0.176847 -0.115434 0.331797 -0.193371 0.076977 0.336727 0.090424 -0.090400 -0.219655 0.236837 -0.008335 0.234665 0.115623 -0.115448 -0.089990 0.137275 -0.094262 -0.385438 -0.216709 -0.176378 0.112771 -0.114404 0.049344 0.064631 0.314746 0.529604 0.260461 0.184747 0.029491 -0.156338 -0.341666 -0.017404 -0.122398 -0.230725 0.086133 -0.136759 0.051842 0.145202 0.118340 -0.234234 0.052992 -0.025917 0.036741 -0.233599 -0.097134 0.258145 -0.035001 -0.066065 0.135630 -0.154677 -0.058040 0.022140 0.113389 -0.042931 -0.047680 -0.198508 0.361710 0.086243 0.050285 0.217504 0.071806 0.158548 -0.203764 0.227871 -0.521210 0.049909 -0.254048 0.061111 0.263237 -0.209078 0.068813 -0.124430 -0.330714 -0.298808 -0.188941 0.098883 -0.072154 -0.033389 0.114437 -0.006558 0.001782 0.275867 0.311251 -0.113741 -0.004772 0.083139 -0.100546 -0.158427 -0.496809 0.253454 0.326269 -0.096638 -0.093869 -0.325294 0.217130 0.271151 
fuel	0.342561 0.381839 -0.386142 0.105501 0.073576 0.103301 0.051739 -0.269272 -0.179455 -0.251746 -0.030828 -0.040459 -0.528950 -0.119324 -0.083307 -0.486499 -0.032258 0.135287 0.033745 0.002828 0.515923 -0.181512 -0.038537 0.083363 -0.068767 -0.121286 0.156516 0.282002 -0.188389 0.114456 0.078083 -0.267960 0.111522 -0.046402 -0.059801 0.182744 0.054598 -0.212143 -0.135144 -0.599947 0.234769 0.381698 0.044640 -0.014615 -0.333827 -0.300680 0.042743 -0.194075 -0.054393 -0.115302 -0.189474 -0.222576 0.006176 -0.304014 0.150993 -0.255744 0.239456 -0.080204 0.228475 -0.019895 -0.296297 0.027359 0.082648 -0.546064 0.193870 0.226489 -0.054879 0.188532 0.263534 -0.038304 0.010085 0.105717 0.106947 -0.172209 -0.410935 -0.155705 0.057756 0.052607 -0.048761 0.112696 -0.003763 -0.145405 0.074431 -0.081929 -0.085214 0.085753 -0.363886 0.146601 -0.323981 -0.141753 -0.124061 0.320516 -0.064690 -0.130227 0.026554 -0.159910 0.129267 -0.158842 -0.260843 0.273304 0.093008 0.277116 -0.036996 0.047629 0.086403 0.134330 -0.175959 0.056495 -0.575419 -0.358977 -0.191716 0.072272 0.158422 -0.408630 -0.415994 -0.353316 0.018357 -0.300493 -0.167386 -0.056890 -0.179570 0.150655 0.169453 0.427065 -0.183513 -0.363776 0.424297 0.217620 0.152227 0.061919 0.105108 0.094797 -0.092310 -0.205297 0.326013 -0.071280 0.267382 0.127843 0.369186 -0.166528 0.145756 -0.022833 -0.381012 -0.094924 -0.224489 -0.184311 0.267698 0.171884 0.276899 0.010192 -0.114034 -0.137274 0.027456 -0.151190 0.023621 -0.134009 0.208709 -0.061811 -0.207037 -0.157737 0.012064 0.145572 -0.073534 -0.104004 0.231119 -0.380110 0.383443 -0.083698 -0.706617 -0.196314 -0.286416 -0.168993 0.429656 -0.083335 -0.227426 -0.421160 -0.266127 -0.026151 0.256419 -0.332685 -0.124319 0.053284 0.176936 -0.110394 -0.562150 -0.080583 0.017129 -0.084296 0.181629 0.471655 0.292282 0.299056 -0.595458 0.329813 0.089630 0.123410 -0.054910 0.012545 -0.481023 -0.003774 
ireland	-0.025532 0.072937 -0.496016 -0.006890 0.222447 -0.219543 0.361114 0.302253 0.569376 0.228015 -0.410148 0.231957 0.134282 0.289579 0.222583 -0.038275 -0.173470 0.246439 -0.118042 0.124047 -0.001424 -0.210109 0.378539 -0.206194 0.046917 0.147165 -0.051535 0.131324 -0.011486 0.101250 -0.222553 -0.132232 0.238426 -0.292153 -0.207042 0.645261 0.290635 0.113711 -0.204770 0.071484 -0.616641 0.095117 -0.349883 -0.548729 -0.588499 -0.077661 0.232222 -0.148429 0.156457 0.172332 0.321579 -0.152135 -0.075369 -0.014879 0.080043 -0.038986 -0.200617 0.029743 -0.452815 0.178988 0.379539 -0.095643 0.274192 0.033559 0.194992 -0.035777 0.208165 0.048844 0.212583 -0.177957 0.169450 -0.232864 0.219693 -0.557411 -0.280516 0.372398 -0.203878 0.138718 -0.190499 -0.059138 -0.011517 -0.146653 0.230745 -0.205687 -0.078991 -0.118046 -0.190658 -0.381026 -0.045507 -0.135261 -0.069592 -0.385857 -0.116593 -0.274883 0.195731 -0.167983 -0.000211 -0.191163 -0.057706 0.023480 -0.347243 0.116199 -0.070874 -0.059412 -0.096719 0.250494 -0.100583 -0.097691 -0.014398 0.269710 0.022170 -0.325430 0.213670 0.257649 0.162358 -0.324387 -0.038200 -0.022964 -0.107956 -0.396595 0.348629 -0.088172 -0.142738 0.423794 0.279090 -0.271852 0.279455 0.533292 -0.309214 -0.057353 0.257221 -0.130518 -0.557009 -0.132360 -0.470469 0.112373 0.101015 -0.325766 -0.154674 -0.130883 -0.231564 0.008004 0.232161 -0.157967 0.050766 -0.341865 -0.016689 0.475984 -0.229641 0.208686 0.240343 -0.202800 0.673776 -0.059248 0.321534 -0.081430 -0.259468 0.214961 0.019899 0.046075 -0.137771 0.007707 -0.303857 0.276451 0.150772 -0.145549 0.026664 -0.522802 0.001197 0.069837 0.061211 0.005008 0.397318 0.102873 0.226187 0.195175 -0.242081 -0.235801 -0.356180 0.147671 -0.026618 -0.007743 -0.178975 -0.287278 -0.139052 0.117074 0.160662 0.305462 0.002997 0.086783 0.148092 0.109705 -0.354492 -0.007461 0.343597 -0.366320 -0.028268 0.278605 0.273683 0.254103 
blue	-0.218532 0.121513 -0.158844 -0.022894 0.293127 -0.342815 -0.374570 -0.223018 -0.108890 0.207621 -0.124129 -0.346312 0.112355 -0.253983 0.171617 -0.164238 -0.014077 0.048792 -0.148271 -0.113184 0.089012 -0.283261 0.033804 0.192094 0.133725 -0.302618 0.204042 0.000354 0.286679 0.290476 -0.013739 -0.016611 -0.033109 -0.366250 0.035371 0.319185 0.357569 -0.406750 -0.130010 -0.206692 -0.476693 -0.129696 0.182247 -0.267796 -0.019202 -0.402461 -0.417678 -0.138622 -0.273671 -0.147763 0.043798 -0.282494 0.111107 0.070730 0.116017 0.391326 0.324618 -0.008107 0.581557 -0.032153 0.072418 -0.031832 0.124031 -0.131096 0.352608 -0.086914 -0.112972 -0.011818 0.222311 0.211363 0.055961 -0.065600 0.255610 -0.273614 -0.202263 0.011681 -0.208052 0.077659 -0.256377 -0.483512 -0.191704 0.120464 -0.425264 0.150356 0.282592 0.239410 -0.066911 0.198625 -0.369241 0.039517 0.200201 0.034173 -0.317997 -0.342384 0.081653 -0.326113 -0.039258 0.043436 -0.321902 0.200724 -0.122627 0.334058 0.284078 -0.009095 0.188791 -0.505693 0.069038 0.152821 0.137500 -0.118098 -0.269651 0.046889 0.011313 0.142583 -0.087881 0.091128 -0.017903 0.404605 0.035765 0.198482 0.116595 -0.192237 -0.327487 0.268182 0.150638 0.102614 -0.012731 -0.020277 -0.145874 0.306852 -0.259024 -0.036307 -0.161407 0.139130 -0.290960 -0.263368 -0.199926 -0.038799 -0.004665 -0.255368 -0.020692 -0.169039 -0.271521 0.198795 0.280153 0.004104 0.141936 -0.241812 0.267517 0.198901 0.148117 -0.162855 -0.114986 0.130034 0.160827 -0.225968 -0.199311 -0.428039 -0.334941 0.037857 0.017905 0.248119 0.073797 -0.313338 -0.164549 -0.126171 -0.208235 0.144493 -0.016215 -0.104988 0.138409 0.222646 -0.025244 -0.100127 -0.244434 0.002619 0.119102 -0.134355 -0.075147 0.220599 0.090704 -0.268879 -0.205535 0.031372 -0.079162 0.438970 0.109070 0.226316 -0.194538 -0.136388 -0.123048 0.034540 -0.129904 0.470798 0.146960 -0.159761 0.090383 -0.315533 -0.135759 -0.182286 
currency	0.091213 0.001233 -0.167889 -0.104483 0.060091 0.422876 0.265884 -0.156242 -0.199171 0.007033 0.101969 0.071137 -0.341424 0.327257 0.069794 -0.061373 0.187739 0.266851 0.202082 -0.033417 0.231690 -0.315031 -0.124356 -0.474205 0.150670 -0.068115 0.170923 0.031657 -0.098106 0.440415 0.109770 0.020277 -0.077482 0.361177 0.144591 0.235065 0.392225 -0.018711 -0.132184 0.080591 -0.270649 0.102653 0.033401 -0.495608 -0.230106 0.206659 -0.118359 0.177815 -0.206688 -0.249059 -0.026702 -0.078083 0.034052 -0.380091 0.407092 -0.345828 0.027268 0.073025 -0.082921 -0.315821 -0.001833 -0.225282 -0.375714 0.431691 0.517235 0.483919 0.034779 -0.262855 0.232081 -0.176520 -0.342347 0.071680 0.008383 0.130797 -0.075019 0.223510 -0.086564 0.339817 0.137330 -0.192912 0.190669 0.034411 0.124561 0.136381 0.126063 0.026868 -0.225098 0.040653 -0.041081 -0.232898 -0.128580 -0.330446 -0.319875 0.127687 0.076892 -0.412147 -0.300122 -0.861772 -0.380096 -0.155611 -0.042179 -0.409955 -0.094061 0.051885 0.262818 0.202768 0.321360 0.168558 -0.106330 -0.326281 -0.152700 -0.070007 0.173344 0.081612 -0.754575 -0.469350 0.042983 -0.131931 0.100049 -0.780567 -0.004059 0.373381 0.150396 0.047629 -0.531767 -0.139190 0.084786 -0.151002 -0.392133 0.236213 -0.249431 0.040077 -0.307708 0.087441 -0.352572 -0.384352 -0.243832 -0.005505 -0.115745 0.149695 -0.113974 -0.097932 0.120812 -0.020418 -0.050230 0.199756 0.539158 0.264195 -0.191198 -0.057530 0.304893 -0.004504 0.399594 -0.456009 -0.162002 -0.280704 0.232951 -0.208185 0.149050 0.030370 -0.263048 0.502228 0.251399 -0.025750 0.156765 0.040601 0.001947 -0.150048 -0.500631 -0.098290 -0.190254 0.197958 -0.191191 -0.136526 0.164437 0.254064 0.143673 -0.429160 -0.013321 -0.139695 0.265453 -0.328700 -0.077837 -0.262154 -0.210399 -0.073064 -0.335471 -0.151425 0.201422 0.668697 -0.016491 0.101376 -0.513892 0.202446 0.333385 -0.372541 -0.296904 -0.119128 0.233134 0.558148 
lake	0.000695 -0.023072 -0.225726 0.309597 -0.377915 -0.276213 -0.112942 0.025312 0.024684 0.240060 -0.266312 0.056430 0.180202 0.103779 -0.124024 0.181937 0.176217 0.057828 0.079330 -0.117101 -0.125628 -0.109558 -0.053369 -0.495544 -0.078846 -0.311694 0.579201 0.300036 0.336541 0.409481 -0.316121 -0.167228 0.324949 -0.064934 -0.397950 0.120840 -0.008859 -0.025910 -0.319606 0.114207 -0.180146 0.081695 0.172997 0.146508 0.224355 -0.304561 -0.071169 -0.004108 -0.084692 -0.292082 0.295427 0.070343 0.273574 0.144255 0.157890 0.104906 -0.073407 -0.052471 0.442046 -0.323612 -0.197128 0.368567 -0.190371 -0.302750 0.110228 -0.222374 0.313367 0.043470 0.584694 -0.110623 0.600777 -0.241521 0.136544 -0.410003 0.119875 0.079269 0.415903 0.057783 -0.221206 0.058557 -0.044388 0.132698 0.073744 0.157193 0.008010 0.116626 -0.080816 -0.099542 -0.245916 -0.372345 -0.447531 0.127727 0.057406 -0.394751 0.309617 -0.142747 0.028365 -0.271368 -0.086287 0.242905 0.023313 0.093815 -0.084878 0.099921 0.089044 0.173902 -0.237433 -0.356316 0.091676 -0.167063 -0.156170 -0.073820 0.017678 0.555718 0.046190 -0.125982 -0.219370 0.172162 -0.396259 0.295622 0.060094 0.231937 -0.241989 -0.060630 0.043429 0.077929 0.169877 -0.233195 0.442426 0.024752 0.259594 0.311707 -0.025702 -0.036802 -0.327716 -0.075159 -0.155235 0.157940 -0.433961 -0.109754 -0.106944 -0.050811 0.047560 0.149389 0.062090 -0.155117 -0.196539 0.130381 -0.238489 0.117720 0.215190 0.144179 0.030210 -0.144369 0.023980 -0.431351 -0.164536 -0.276781 -0.505833 -0.015634 -0.363684 0.319216 -0.045053 -0.322762 0.366533 -0.019772 -0.051403 0.197120 0.059057 -0.404866 0.045942 0.063304 -0.095575 -0.137074 -0.029581 0.145640 0.050519 -0.329331 0.163587 -0.621351 0.208044 -0.119711 -0.036578 -0.228181 -0.232389 0.000732 -0.160247 -0.065306 0.173056 -0.093043 0.263854 0.003811 0.020040 0.068681 -0.290829 -0.072765 0.103727 -0.016925 0.107948 -0.010615 
charles	-0.082440 0.288318 0.297021 0.363692 0.185250 0.145676 -0.140750 0.223677 0.432510 -0.127378 -0.176373 0.259497 0.095929 -0.035212 -0.085449 0.090104 0.002233 0.321592 -0.251584 0.003303 -0.136625 -0.196337 -0.028711 -0.022236 -0.110885 -0.192220 -0.026211 0.555858 -0.159682 0.035778 -0.004976 -0.030226 0.348706 -0.103346 -0.273952 0.202865 0.056758 0.280866 -0.251525 0.142797 -0.245184 0.189860 0.021754 0.011466 -0.094574 -0.579819 0.277850 0.115730 -0.355814 -0.074212 0.274398 0.458454 0.132548 0.177681 -0.093283 -0.214684 -0.088079 0.060515 0.040417 -0.102135 -0.168436 0.236216 -0.097235 0.104563 -0.049219 0.272584 0.127039 0.005907 0.108105 -0.174862 -0.043097 0.013106 0.056849 -0.251482 -0.013504 -0.187936 -0.104270 0.125391 -0.147326 -0.008947 0.133982 0.164452 -0.133286 0.031720 0.032276 0.069363 -0.255800 -0.125911 -0.282646 0.133120 0.161115 0.151092 -0.038744 -0.111998 0.354225 -0.248460 0.038701 -0.096353 -0.168886 0.213156 -0.008089 0.133618 0.377565 -0.025374 0.104346 -0.256456 0.071014 -0.171754 -0.025104 0.166078 0.112559 0.107399 -0.007175 0.292190 0.110169 0.162966 0.225682 0.260193 -0.184236 -0.373517 0.130408 -0.074831 0.024138 0.035682 -0.173390 -0.123939 0.111037 0.315832 -0.192292 -0.195683 0.218927 0.061041 -0.278289 -0.166068 -0.236115 0.053728 -0.019993 -0.152618 -0.020904 0.107571 0.402136 0.110120 -0.161743 -0.251644 0.102630 -0.086782 -0.161211 0.063334 -0.079922 -0.106575 0.265604 -0.102273 0.207230 -0.128545 0.389126 -0.339928 -0.096505 -0.167787 -0.049742 -0.189228 -0.297204 0.106991 0.156924 -0.361678 -0.192921 0.274791 0.117046 -0.094387 -0.018110 -0.017465 -0.443906 0.262586 -0.175602 0.040342 -0.139135 -0.180660 -0.475387 -0.159618 0.316364 -0.353395 0.184872 -0.057742 0.367106 -0.276691 0.452611 -0.114764 0.134170 0.272967 0.213085 0.170374 0.012383 -0.047069 0.081525 -0.105472 0.201265 0.027974 0.047090 -0.106845 0.103491 -0.187646 
seat	0.332871 0.000890 -0.344628 0.073805 0.171362 0.122829 -0.358601 -0.022848 0.132222 -0.031936 0.171168 -0.006710 0.050343 -0.067672 -0.220328 -0.192742 -0.198308 0.346369 0.126600 0.334844 0.096851 -0.005440 0.054728 -0.067622 0.273876 0.093429 0.276023 0.220033 0.122328 0.275433 -0.139735 0.178692 0.601591 0.258813 -0.123246 0.319159 -0.266934 -0.155376 -0.154225 -0.313795 -0.319023 0.162724 0.046545 0.142050 -0.493211 -0.361145 0.188594 0.175717 0.024530 -0.097322 0.545948 0.164281 0.498566 0.170198 0.013987 -0.238915 0.112276 0.009647 -0.244594 -0.077190 0.007315 0.441707 0.040468 0.067638 0.489419 0.215994 -0.030658 0.063869 0.073503 -0.002128 -0.022632 0.267895 -0.067115 -0.177177 0.029265 0.247739 0.160334 0.008038 0.044034 0.138785 -0.028395 -0.071030 0.194385 0.156072 -0.050440 -0.183789 -0.350819 0.012309 0.048553 0.200508 -0.362003 0.009787 -0.323580 0.143940 0.071479 -0.214087 -0.067018 -0.446346 -0.215530 0.175813 0.264463 -0.034841 -0.217231 0.088332 0.226169 -0.334320 -0.397083 0.170422 -0.003517 -0.013745 -0.060610 -0.219220 0.203232 -0.078866 -0.214841 0.120667 0.006668 0.118583 -0.127111 0.352551 0.353739 -0.197786 -0.020068 0.115847 0.308896 0.145418 -0.001111 0.105117 0.189109 0.115812 -0.096084 0.417813 -0.125029 -0.229167 -0.172912 -0.139342 0.000689 0.337293 0.024810 0.082303 0.241627 0.261414 -0.204256 -0.127956 0.203117 -0.135959 0.176398 0.071672 -0.331415 0.521785 -0.218584 -0.160887 0.285489 0.057858 -0.044240 -0.211383 -0.058997 -0.558876 0.145128 -0.271642 0.022050 0.446779 -0.309254 -0.102604 -0.077740 0.163572 -0.079357 -0.377265 -0.157441 -0.200667 0.243349 -0.075393 0.016334 -0.065553 -0.084883 -0.323801 0.173998 -0.066673 -0.178849 0.028580 -0.043048 0.205807 -0.284335 -0.407519 0.220434 -0.167030 0.496463 -0.445331 0.199798 -0.134478 -0.086233 0.257811 -0.131689 -0.105554 0.240773 0.078254 -0.193569 0.597569 -0.336078 0.016352 
egypt	0.116425 0.240291 -0.382254 -0.362411 -0.213834 -0.217464 0.303690 0.232882 -0.070927 0.124326 0.008332 -0.310209 -0.279293 0.068281 0.010595 0.142654 -0.016253 -0.186991 0.227491 -0.026645 0.197031 -0.242598 0.347471 -0.047827 -0.327868 0.244221 -0.101029 0.143054 -0.080210 0.306763 -0.011595 0.009281 -0.096981 0.083131 -0.241014 0.130915 -0.235634 0.124316 -0.252215 0.225453 0.022932 0.166945 -0.445148 -0.520442 -0.410701 -0.022607 0.179629 0.198093 0.295757 -0.182492 -0.075260 0.128747 0.201099 -0.211270 0.000300 -0.428032 0.512944 0.194579 -0.064911 0.054439 -0.002257 0.051617 0.175757 0.078975 0.035195 -0.000220 -0.399765 -0.319803 0.151589 0.176464 -0.195247 -0.271665 0.300547 0.009622 -0.425925 -0.243110 0.128469 -0.017540 -0.308890 -0.114660 0.172082 0.493660 0.230860 -0.111881 -0.524437 0.082813 -0.169566 -0.486716 -0.274974 -0.107783 -0.035278 -0.131844 -0.121373 -0.165387 -0.007982 -0.393260 0.235968 -0.128345 -0.113786 0.128478 -0.281661 -0.154628 -0.219410 0.026031 0.111501 0.436014 -0.074212 0.122138 -0.293490 0.256971 -0.115035 -0.277466 -0.346252 0.319149 -0.021124 0.154038 -0.203338 0.201784 -0.142192 0.312368 0.177272 0.427297 0.123425 0.166836 0.114949 0.025206 -0.035164 -0.161711 0.058862 0.214809 -0.059117 -0.271809 -0.107647 0.394452 -0.197957 0.147482 -0.011867 0.074662 0.077586 -0.449161 -0.110946 0.250339 -0.053664 -0.412492 -0.352617 -0.103825 0.008448 0.108181 -0.247044 0.172058 -0.067942 -0.109065 0.142785 -0.152472 0.383235 -0.226834 -0.369006 -0.184788 -0.175679 0.103266 0.192749 0.181652 -0.291515 -0.126205 -0.001761 0.175333 0.399033 0.097002 -0.630764 -0.228938 -0.185041 0.149257 -0.190863 0.209368 0.333836 0.130250 -0.043799 -0.611343 -0.209001 0.141475 0.370675 0.112700 0.218979 -0.317050 0.064003 0.163925 0.002105 0.196992 0.162813 -0.083051 0.299795 0.392397 -0.327570 0.186048 0.226979 -0.105713 0.005819 -0.020074 0.091377 -0.079555 
van	0.046845 0.030894 0.096255 -0.061633 0.196842 0.188193 -0.043091 -0.009098 0.009896 0.129838 -0.189702 0.079743 0.050600 -0.382511 -0.165715 0.312372 -0.049206 0.044111 0.030609 -0.190012 -0.432659 -0.430389 -0.320318 -0.205688 -0.136942 -0.127150 -0.267751 -0.060876 0.064992 0.183148 -0.430369 -0.093710 0.401936 0.005287 -0.225908 0.299617 0.036512 0.507983 -0.053458 -0.063038 -0.305452 0.025785 0.309586 -0.460579 -0.127243 0.069513 0.133646 0.021675 -0.271737 0.136021 0.015620 0.211243 -0.050622 -0.209437 0.168935 -0.003566 0.018729 -0.047362 0.086601 0.010933 0.246666 0.000412 0.149797 0.256478 -0.326464 0.008645 0.129709 0.088671 0.267360 -0.085338 -0.096105 -0.017139 -0.083891 -0.199800 -0.396120 0.594334 0.209229 -0.160824 0.153067 -0.408607 -0.344116 -0.223231 -0.226661 0.352631 -0.042526 -0.115795 0.055315 0.057705 -0.460083 0.043802 0.026473 0.399706 -0.009758 -0.234562 -0.013527 0.021166 0.598426 -0.037682 0.330500 0.298459 -0.121872 -0.275025 0.116779 -0.282460 0.275334 -0.158943 0.206813 0.346289 -0.188378 0.092990 0.106044 -0.294339 0.043043 0.009591 -0.266224 -0.068883 0.373797 -0.532800 -0.117540 0.231673 0.055807 -0.086048 -0.188853 -0.079049 -0.311341 -0.014267 0.504350 0.308565 0.395289 0.195896 0.216477 0.343832 -0.201792 -0.245564 -0.283899 -0.369593 -0.253199 -0.053878 -0.308884 -0.036155 0.037760 -0.437710 0.108725 0.080217 -0.254575 0.003181 0.169861 0.094909 0.157650 -0.062863 0.211519 0.058555 0.015761 0.147541 0.091871 -0.708875 -0.039720 -0.214878 -0.149642 -0.272766 -0.028476 0.312718 0.788006 -0.110533 -0.169460 -0.323496 0.019248 -0.078073 -0.232997 0.163393 -0.110690 0.014573 0.029330 -0.018937 -0.188726 -0.162895 -0.303492 -0.189728 -0.268573 -0.309588 -0.063179 0.228529 -0.125899 -0.273737 0.129850 0.182764 0.197043 -0.184897 0.135871 0.083643 0.248653 -0.179698 0.241764 0.467550 0.131398 -0.168296 0.148610 0.461545 -0.284935 -0.040069 
weather	-0.319095 0.443372 -0.250936 0.101673 -0.368569 -0.145585 -0.014799 0.088064 -0.289673 0.540002 0.075907 -0.051430 -0.082332 0.057645 0.001254 0.194606 0.102301 0.070975 -0.018382 -0.177395 0.125564 0.453050 -0.071045 -0.024529 -0.163903 -0.108322 0.276714 -0.062873 -0.078410 0.351354 0.021533 -0.531023 0.364732 -0.189529 -0.079115 0.042187 -0.162490 -0.020618 0.469220 -0.383566 -0.357311 0.170463 -0.066531 -0.267801 -0.155349 -0.089083 0.114381 0.176268 -0.007104 0.171485 0.303627 -0.030107 0.195335 -0.244557 0.111760 -0.178022 -0.146359 -0.050361 0.157694 0.296873 0.082511 -0.183582 -0.119903 -0.447229 0.307060 -0.038524 0.238177 -0.048800 0.218706 0.279807 0.001872 -0.054525 -0.052475 -0.177996 0.282970 -0.171505 -0.192277 0.297555 -0.115136 0.250207 0.025185 -0.098133 -0.099821 0.234703 0.233561 0.309585 -0.004186 -0.076616 0.035404 0.069026 -0.046624 -0.049463 -0.243555 -0.204840 0.319268 0.065190 0.162615 -0.467040 -0.445925 0.145040 -0.138049 0.322323 0.485441 0.190802 0.119602 -0.130375 -0.249235 -0.097213 -0.122542 -0.533258 -0.042407 -0.114370 0.301844 0.193697 -0.066796 -0.233580 0.206319 -0.324719 -0.195176 -0.182636 -0.306130 0.134671 -0.140788 0.254837 0.169021 0.068808 0.111362 0.030972 0.075867 0.244519 -0.113582 0.253593 -0.218603 -0.128107 0.031109 -0.018193 -0.476318 -0.152692 -0.016220 0.299898 -0.145928 0.407657 -0.076996 -0.349726 0.187613 0.034355 0.339118 0.160623 0.406669 0.136816 -0.175493 0.169244 -0.242308 -0.105498 0.079340 -0.053031 -0.688877 0.177227 -0.195849 -0.065266 -0.001500 0.350933 -0.201686 -0.160561 0.135916 -0.312532 0.148593 0.115048 -0.133349 0.064333 -0.149751 0.201856 -0.114131 -0.019424 0.281861 0.203287 0.072967 -0.121782 0.224172 -0.472179 0.599388 -0.191044 0.094953 0.322697 -0.126813 -0.098181 -0.496133 -0.050895 -0.041320 0.166509 0.133348 0.305594 -0.288405 0.322028 0.153604 0.036626 0.169451 0.327350 0.102198 0.411925 
bus	0.084734 -0.017727 0.126820 0.115685 -0.119803 -0.284710 -0.009201 -0.255467 -0.055901 0.349474 -0.527881 -0.221857 0.044558 -0.096063 -0.107615 -0.226795 -0.463937 0.129249 0.162754 -0.450873 -0.105112 -0.029500 -0.132698 0.195890 -0.089293 0.256594 0.033724 -0.161154 0.174052 0.499390 -0.082719 -0.071707 0.328880 -0.240706 -0.163859 -0.243684 -0.134224 0.017660 -0.261740 -0.401983 -0.393891 0.012558 0.253675 -0.313027 -0.220035 -0.114312 -0.102348 -0.131236 -0.311394 -0.012381 0.130279 0.108559 0.287427 -0.250448 0.104511 0.000506 -0.317818 0.093217 -0.179472 0.297310 -0.143159 0.030716 -0.109632 -0.383141 -0.027896 -0.003828 0.394398 0.377203 0.119233 -0.071918 -0.106261 0.221996 0.235715 -0.630032 -0.214674 0.233523 0.145435 -0.128576 -0.077636 -0.262057 -0.090338 -0.102938 0.355073 0.188091 -0.098999 0.041831 0.037591 -0.100735 -0.177136 -0.162423 0.045313 0.225334 -0.210080 -0.458694 0.183946 -0.265028 0.131617 -0.279331 -0.067433 -0.022676 -0.088640 0.432109 0.056246 0.285598 0.233954 0.100922 -0.121424 0.596622 -0.040813 -0.022222 -0.278169 -0.076044 0.097311 -0.049531 -0.402823 -0.430892 0.244945 0.159308 -0.020086 0.001113 -0.093378 0.324168 -0.033518 0.171509 -0.061996 0.492178 -0.061364 -0.037561 0.159007 0.105838 -0.046119 0.325973 -0.028585 -0.151479 -0.164690 0.049472 0.012790 0.327684 0.245063 -0.328406 0.450410 -0.149155 -0.193015 -0.127361 -0.362246 -0.020371 0.191576 -0.236273 -0.093289 0.266663 -0.277084 -0.289994 0.164814 0.015433 -0.100931 -0.199897 0.144436 -0.488046 -0.281961 0.015032 -0.209521 0.252119 -0.003807 0.442431 0.036758 0.108814 0.133690 -0.006402 -0.472776 -0.086188 -0.361089 0.050778 0.056939 0.370269 -0.127401 -0.252764 -0.024994 0.027672 -0.615268 -0.398861 0.472364 0.393255 -0.288741 -0.084975 -0.015427 -0.020874 -0.131525 -0.020828 -0.070782 0.254814 0.315283 0.287890 0.218567 -0.117817 0.054944 -0.142639 -0.175938 0.327705 -0.209742 0.187232 
girl	-0.096334 0.000133 -0.114021 -0.080278 0.227184 -0.141696 0.119040 -0.109418 -0.106649 0.296773 -0.006336 -0.070592 0.249204 -0.678500 0.030170 0.086704 0.076617 0.185888 -0.279797 -0.140938 0.083140 0.118940 -0.343826 0.153202 0.153162 -0.329206 -0.048669 -0.151183 0.081798 0.378202 0.191182 0.074199 0.140339 -0.171390 0.216520 0.221462 -0.305522 0.580366 -0.420505 -0.102906 -0.094839 -0.158337 -0.312488 -0.162493 0.048837 0.186592 -0.179279 0.434054 -0.097248 -0.099620 -0.095765 0.232003 0.307772 -0.203737 -0.167722 -0.006275 0.094657 -0.025941 0.129040 -0.034977 -0.179170 0.134054 -0.173794 -0.395841 0.540099 -0.182114 -0.123807 0.107148 0.182184 0.295124 0.017112 0.167306 -0.068266 -0.367775 -0.114711 0.138006 0.030064 -0.013258 0.367242 0.108009 -0.295988 -0.042894 0.446860 -0.021115 -0.132051 -0.206014 0.052669 -0.079339 -0.483516 -0.144633 0.021988 -0.413987 -0.390882 -0.019125 0.090936 -0.376162 -0.120824 -0.213174 0.271332 0.345164 0.191465 0.193284 -0.246678 0.045419 -0.032595 -0.015610 0.177928 0.307853 -0.129897 -0.063876 0.175334 0.180220 0.058578 -0.030908 -0.214784 0.075253 -0.019814 -0.050500 0.136048 0.019211 0.128559 -0.236004 0.044823 -0.357926 0.299972 0.495505 0.020608 0.250860 -0.008583 0.027098 0.103264 -0.002710 -0.270548 0.027096 -0.416104 0.125964 -0.337416 0.081666 -0.104228 -0.196968 0.011005 -0.206405 0.084892 0.016386 -0.079395 0.202335 -0.215983 0.214793 -0.077433 0.051554 0.235587 -0.383658 0.077995 0.135960 0.146189 -0.016880 -0.321863 -0.262569 -0.349538 0.053607 -0.098849 0.253399 -0.017548 0.123212 0.307140 -0.059967 -0.258711 0.272403 -0.027143 0.017734 -0.126108 0.075788 -0.143565 0.007033 -0.071156 -0.236711 -0.023045 -0.134626 0.016703 -0.303912 0.182834 0.026393 -0.008192 -0.185447 0.140318 0.319249 -0.102499 0.485240 0.258324 0.278233 -0.189558 -0.263627 0.050555 0.177681 0.187813 -0.081711 0.162872 -0.214008 -0.136084 0.201345 
virginia	0.023037 0.175252 -0.450901 -0.349565 0.034818 -0.192748 -0.235308 -0.126550 0.341014 0.113409 -0.210591 -0.138771 0.382209 -0.318893 0.064271 -0.273473 -0.138376 0.181265 0.109936 -0.056989 -0.044619 0.099405 0.175982 -0.255913 -0.201605 -0.219305 0.283434 0.170160 -0.088529 0.175226 -0.170383 0.213162 0.413200 -0.389986 -0.059280 -0.062106 0.047307 0.460318 -0.124831 0.222306 -0.017984 0.007577 0.053470 0.203855 -0.457124 -0.273769 0.075912 0.165458 -0.061156 -0.311750 -0.036986 0.283965 0.424267 -0.477190 0.048379 -0.313905 -0.006314 0.285844 -0.018096 0.021339 0.149466 0.111003 0.155264 0.024537 -0.233300 0.021009 0.083302 0.328720 0.150577 -0.301163 -0.147111 -0.139241 -0.233726 0.186312 0.115758 -0.272481 0.020350 0.264145 -0.482224 0.139791 -0.112971 0.046776 -0.353252 -0.036907 -0.050148 0.166276 -0.225977 -0.271525 -0.195336 -0.200539 -0.038027 0.222485 -0.355419 -0.213918 0.618878 0.079653 0.087431 -0.185464 0.148358 0.167868 -0.253250 0.219464 0.095870 0.255170 0.046312 -0.088454 -0.038100 0.296496 0.218372 -0.180769 0.261192 -0.080374 0.224168 -0.047389 0.266017 -0.076064 0.039906 0.246479 -0.204006 -0.511389 0.435653 -0.340018 -0.078240 0.159114 0.364128 -0.190384 0.446513 -0.102962 0.290421 -0.031905 0.187327 -0.056283 -0.253894 -0.184251 -0.418854 0.350070 -0.366769 -0.435678 0.021624 0.023937 0.321599 0.085803 -0.040618 0.292811 -0.178245 -0.312287 -0.084556 -0.125011 0.024662 0.072382 -0.045937 -0.151578 0.224549 -0.501374 0.086107 -0.278315 -0.125448 0.051519 0.016426 -0.293321 -0.047371 0.298657 0.108996 -0.023835 0.307908 0.070016 0.054380 0.302904 -0.040905 -0.446678 0.035425 0.324211 -0.165841 0.129748 0.355796 -0.349225 -0.097028 0.262742 0.215412 -0.181721 0.107061 -0.242452 0.270438 -0.252193 0.228762 0.533204 -0.053214 0.140323 -0.267636 -0.161526 -0.012925 -0.168630 0.009581 0.027578 0.126161 -0.268963 0.288357 -0.093044 0.067219 0.171033 
