state	-0.179129 0.078960 -0.094481 -0.338442 -0.021921 -0.172313 0.079553 0.078403 0.248982 -0.021339 -0.303624 0.374907 0.245494 -0.150379 0.055670 -0.409702 -0.360851 -0.046637 0.039655 0.375363 -0.560368 -0.188542 -0.193244 -0.419241 0.285507 -0.204528 -0.017171 0.309006 -0.202161 -0.350411 -0.681794 0.532322 0.398670 -0.193469 -0.480013 0.216259 0.012276 0.184048 -0.287138 -0.084845 -0.063619 0.093404 -0.442007 0.099616 -0.115311 -0.460851 0.351709 -0.020515 0.004853 -0.292518 
states	-0.003670 -0.121866 -0.271015 -0.173376 -0.245177 -0.230583 -0.335747 -0.308654 0.291089 -0.153230 -0.200261 0.372019 0.006238 -0.637744 0.218461 0.095210 -0.330677 -0.053303 -0.166533 0.370357 -0.471128 -0.025763 -0.312600 -0.504926 -0.150907 -0.196023 0.033251 -0.123521 -0.549570 -0.465733 -0.364300 0.231861 0.462495 -0.203828 -0.217722 0.620573 0.390325 0.396556 0.011494 0.058647 -0.025158 0.197420 -0.205982 -0.028921 -0.350891 -0.158097 -0.334959 -0.194528 0.061046 0.164802 
country	0.371425 0.254490 -0.121920 -0.467645 -0.031170 -0.236548 -0.230374 -0.235872 -0.076695 0.111870 -0.103497 0.198952 0.119990 -0.281219 0.288415 -0.307320 -0.069143 -0.017046 0.234859 0.084725 -0.221027 0.000707 -0.332876 -0.364328 0.097404 0.362017 0.085160 0.049786 -0.231363 -0.141264 -0.104160 0.339639 0.163771 -0.063236 -0.442239 0.107128 0.197861 0.508535 0.014045 0.024456 -0.108338 0.344178 -0.180706 0.054484 -0.198806 -0.205700 0.004660 0.165194 0.003369 0.319371 
city	-0.121287 0.319601 0.090279 -0.434978 0.207710 -0.295351 -0.126917 0.458277 -0.096378 -0.169869 -0.467380 -0.093505 0.337731 -0.475912 -0.117363 -0.771526 -0.077301 -0.168050 -0.001441 0.201490 -0.408480 -0.008784 -0.194597 -0.040572 0.007950 0.076687 -0.346451 0.024859 -0.245378 -0.340834 -0.600925 0.140340 0.439462 -0.442503 -0.205845 0.141019 0.017981 0.212179 -0.358603 -0.041268 0.120794 0.123363 -0.050552 0.124452 0.197282 -0.652510 0.107797 0.305101 0.022038 -0.194045 
company	-0.191489 -0.212460 -0.283783 -0.296132 0.321758 -0.239376 -0.253013 -0.063525 -0.371208 -0.050830 -0.278635 0.117180 -0.391167 -0.898467 -0.420428 -0.569441 -0.124769 0.173147 0.193288 0.222389 -0.265202 -0.300242 0.203490 0.092734 0.418367 -0.174305 -0.146393 -0.141062 -0.092736 0.003347 -0.004272 0.211655 0.419985 -0.328916 -0.334198 0.173008 0.207533 -0.251393 0.008057 -0.053879 -0.040148 0.670417 0.150258 -0.384897 -0.157895 -0.188187 0.175808 0.033307 -0.533364 -0.034282 
team	-0.153559 -0.302235 -0.011242 -0.414766 0.403265 -0.423049 -0.396068 0.228932 -0.403900 0.206241 -0.128777 0.100177 0.249495 -0.435395 0.143432 0.190372 0.054181 -0.153723 0.209834 -0.809689 -0.567794 0.085853 -0.775050 -0.227188 -0.002934 0.162516 -0.392302 -0.163115 -0.094438 -0.434969 -0.609360 0.105918 0.059995 -0.303561 -0.330574 0.145112 -0.098103 -0.215163 -0.407714 0.131074 -0.287218 0.228932 -0.385638 0.069708 -0.282796 -0.211080 -0.104034 -0.187770 -0.592647 0.123846 
countries	0.271900 0.402567 -0.289109 -0.627355 -0.423663 0.283776 0.030588 -0.536123 -0.237440 0.180102 -0.082259 0.704857 -0.071707 -0.486831 0.399585 -0.138284 -0.074679 0.270047 0.109657 0.101962 0.064652 0.019021 -0.641635 -0.222694 -0.240547 0.242744 -0.007946 -0.197782 -0.465266 0.105587 -0.333689 0.259696 0.435611 0.103064 -0.330384 0.537554 0.307792 0.735763 0.217343 0.014930 -0.095008 0.010102 -0.253060 -0.294031 -0.822674 0.090801 -0.207437 0.009403 -0.133891 0.530425 
school	-0.346757 -0.223603 -0.133386 -0.503637 0.332645 -0.339579 0.036922 0.370742 -0.220196 -0.032137 -1.131517 0.251958 0.878497 -0.465713 0.040385 -0.251885 -0.421151 0.373929 -0.227985 0.461181 -0.352523 0.367004 -0.423996 0.188718 0.221809 0.021014 0.098129 0.167784 -0.018501 -0.298342 -0.446850 0.271990 0.371397 -0.323908 -0.419334 -0.187729 -0.035567 0.315567 -0.668132 0.335238 -0.204919 0.367777 -0.325388 0.148736 0.058573 -0.469524 -0.046106 -0.128776 -0.162029 -0.404921 
dollars	0.054286 -0.279240 -0.738471 -0.361214 -0.106117 -0.064639 -0.135699 0.484472 -0.000092 0.349911 0.137487 0.336786 -0.472916 -0.474288 -0.121231 -0.692555 0.191936 0.504529 0.199587 -0.367454 0.054576 -0.590292 -0.196712 0.205790 0.218563 0.139972 0.078277 0.309366 -0.478004 0.023613 -0.124455 0.260818 0.472571 0.535013 0.318105 -0.002406 0.674416 0.604442 0.134573 0.398761 -0.112535 0.945161 -0.125658 -0.476863 -0.374413 0.125054 0.055777 0.147872 0.420665 0.041747 
family	0.200630 0.279426 -0.426334 -0.058248 0.524296 0.244426 0.007946 -0.279953 -0.298247 0.274865 -0.253052 0.100994 0.186379 -0.272880 -0.367411 -0.074244 -0.052958 0.025518 -0.125772 0.513930 -0.739025 0.054940 -0.095817 -0.125048 -0.086790 -0.123825 -0.101207 -0.106617 0.140517 0.326436 -0.249362 0.812194 0.123087 -0.746415 -0.169949 0.748841 0.055965 0.396706 -0.650037 0.357061 -0.375822 0.186975 -0.062675 -0.156229 0.091423 -0.126221 -0.164019 0.256452 -0.015740 0.118454 
bush	-0.077783 -0.260536 0.061496 -0.170586 -0.190130 -0.230046 0.105583 -0.167937 0.669080 -0.427843 0.509470 0.636951 -0.106321 -0.420774 -0.126256 0.139764 0.057092 -0.320640 -0.062191 0.509470 -0.591229 0.050567 -0.597861 0.036286 0.126962 0.363535 0.048170 0.438823 -0.487519 -0.402690 0.060840 0.521597 0.655035 0.599905 0.126345 0.116379 0.014055 0.313850 -0.585905 -0.014916 0.157199 -0.066116 -0.265361 0.040316 0.001935 0.305844 0.133225 0.607059 0.173289 0.565449 
university	-0.357258 -0.020500 0.118260 -0.535022 0.503130 0.021793 0.207507 0.084285 -0.095482 -0.396718 -0.711797 0.181844 0.655577 -0.538054 0.257554 -0.147153 -0.488467 0.340777 0.004062 0.211354 -0.762461 -0.163942 -0.475606 0.168906 0.525836 -0.146919 -0.010952 0.120237 0.077222 -0.507991 -0.669879 -0.252357 0.398122 -0.366520 -0.720772 -0.171603 -0.198474 0.323606 -0.748862 0.686877 -0.063087 0.390111 -0.507982 -0.130602 -0.122202 -0.304323 -0.281319 -0.168399 -0.077576 -0.537934 
companies	-0.339964 -0.153701 -0.561904 -0.593328 0.009538 -0.033825 -0.068672 -0.304473 -0.470567 -0.096754 0.369300 0.303519 -0.421819 -0.549751 -0.216287 -0.504028 -0.140243 0.360089 0.079643 0.323153 -0.010138 0.005675 -0.046014 0.260371 0.491524 0.039487 -0.238111 -0.315489 -0.351668 0.074070 -0.148879 0.333194 0.530740 -0.153483 -0.274824 -0.024159 0.315220 -0.199001 0.354582 -0.052971 -0.115201 0.530019 -0.105839 -0.338281 -0.610657 -0.071189 0.235511 -0.059060 -0.372373 -0.036904 
television	-0.019522 -0.259226 -0.070509 -0.305338 0.603857 -0.318900 0.097584 0.241832 -0.550572 0.048139 -0.049168 -0.286986 -0.289547 -1.057791 -0.192119 -0.351702 -0.581561 -0.204768 0.793379 0.144506 -0.732523 0.057565 0.241810 0.106433 0.082304 0.611574 0.276463 -0.270512 -0.481266 -0.030129 -0.060215 0.154719 0.265941 -0.251963 -0.161202 0.013512 -0.077602 0.676663 -0.331852 -0.092784 -0.029249 0.068676 -0.184250 0.153724 0.240742 0.377821 -0.156059 0.210216 -0.168137 0.084939 
workers	-0.089361 0.408017 -0.597101 -0.797331 -0.041077 -0.120418 0.038557 0.233438 -0.665780 0.149822 0.046480 0.272613 0.329770 -0.388391 -0.118911 -0.520144 0.028369 0.056527 -0.319853 0.262257 0.049560 -0.425099 0.062662 0.300161 0.049430 -0.303218 -0.324844 -0.336947 -0.113139 0.069681 0.141000 0.411027 0.704631 -0.247997 -0.415263 -0.129333 -0.069991 0.140744 0.127228 -0.008239 -0.018834 0.334046 -0.635714 0.376053 -0.336447 0.203038 0.410288 -0.020439 0.076575 0.478928 
car	-0.254712 -0.118099 -0.430928 -0.457926 -0.041121 -0.148314 0.116545 0.113245 -0.454032 0.130483 -0.238846 -0.114622 0.238828 -1.069651 -0.365422 -1.056614 0.391276 -0.244011 -0.237065 -0.420547 -0.016739 0.000891 -0.309422 -0.044480 0.184889 0.031615 0.285056 0.062345 0.022574 -0.009432 0.565220 0.575690 -0.081791 -0.244452 0.085432 0.144365 0.167345 -0.575337 -0.429271 -0.274990 0.037142 0.095489 0.003260 0.448618 -0.157049 -0.425907 -0.108380 0.697557 -0.394694 0.509882 
book	0.289202 -0.081502 -0.524159 -0.033835 0.502650 -0.385967 0.214039 -0.433652 -0.016129 -0.306844 -0.237000 0.119874 -0.222427 -0.917510 -0.048272 -0.089360 0.140265 0.288734 -0.007073 0.072512 -0.255302 0.120622 0.084561 -0.171974 0.349355 0.388653 -0.029346 0.439595 0.143302 0.312660 -0.207466 0.110441 0.072508 -0.338779 -0.018877 0.065781 -0.011397 0.282995 -0.590941 0.483550 0.122004 0.008953 -0.536484 -0.150231 0.659777 0.377012 -0.053758 -0.052547 -0.365526 -0.477077 
weapons	-0.010606 -0.326878 0.011683 -1.074179 -0.120189 0.154177 0.215519 0.090031 0.109173 -0.522610 -0.178610 0.857967 -0.161677 -0.946905 0.073153 0.070742 0.248929 -0.481702 -0.399205 -0.205786 0.221056 -0.061671 0.095236 -0.254990 0.207482 0.320159 0.195402 -0.003035 0.371191 -0.420689 -0.234082 0.225791 0.413961 0.540228 0.863763 0.669036 0.284243 0.363273 0.075827 0.006534 0.019304 0.063630 -0.652468 0.002704 -0.457847 -0.573598 -0.609631 0.074340 -0.142244 0.659333 
dollar	-0.324052 -0.206092 -0.375012 -0.453343 -0.459600 0.074527 -0.070872 -0.041619 0.364881 0.195551 -0.109731 0.045349 -0.344822 -0.533182 0.060003 -0.600651 0.555983 0.722363 -0.061772 -0.557514 -0.231133 -0.014638 -0.682443 0.216817 0.274235 0.165913 0.143636 -0.033000 -0.486718 0.141920 -0.431217 0.592293 0.476189 0.650627 0.630932 -0.632798 0.547864 0.319951 0.051326 0.247492 -0.790227 0.609110 -0.173116 -0.702322 -0.142726 -0.046448 0.174347 0.102854 0.313053 0.409068 
father	0.254252 -0.019999 -0.225826 -0.093722 0.338647 0.002281 -0.037374 0.393841 0.164868 -0.059237 -0.389906 -0.303621 0.396360 -0.706764 -0.122174 0.018414 0.197310 0.043970 -0.353010 0.363220 -0.717466 -0.092413 -0.330895 -0.133273 0.337733 0.169365 -0.103169 -0.110208 0.438658 0.324535 0.223794 0.571222 -0.100773 -0.423012 -0.341808 0.599280 0.139394 0.078509 -0.702510 0.533979 -0.168299 0.347156 -0.420960 0.047661 0.241825 -0.101076 -0.035134 0.162678 -0.272709 -0.158117 
king	0.372877 0.541325 -0.384224 0.301962 0.057571 -0.474049 -0.385351 0.087644 0.327178 -0.216814 -0.311460 -0.191354 -0.240527 -0.804510 -0.343504 -0.063271 -0.227024 -0.068462 0.078533 0.444600 -0.564823 0.118825 -0.402120 -0.160750 0.173119 0.229608 -0.305401 0.139197 0.400105 -0.057060 -0.152409 0.613524 -0.321598 -0.046775 0.035885 0.696522 -0.076546 0.129420 -0.456726 0.480523 -0.286418 0.008966 -0.189225 -0.449455 0.408814 -0.469026 0.154810 0.182714 -0.443002 -0.158270 
person	-0.018363 -0.329601 -0.344044 -0.178340 0.475138 0.186216 0.150877 -0.061163 0.076550 0.185594 -0.195830 0.108390 0.032212 -0.418510 -0.036007 -0.271431 -0.431275 0.115695 -0.274728 -0.044443 -0.034041 -0.154444 -0.215395 -0.294117 -0.282152 0.305156 -0.071663 0.298624 -0.177891 0.288297 0.335925 0.474179 -0.276706 -0.455442 0.102848 0.343671 -0.027554 0.202026 -0.386380 0.177164 -0.266937 0.087586 -0.485660 -0.068580 0.053743 -0.430909 0.166719 0.305025 0.124985 0.014259 
teams	-0.264809 -0.243455 -0.255959 -0.605272 0.256323 -0.441323 -0.471074 0.178699 -0.871514 0.046937 -0.110039 0.323272 0.283271 -0.227694 -0.035608 0.039205 -0.146886 -0.069697 0.315485 -0.850691 -0.178329 0.370586 -0.808401 -0.124859 -0.229752 0.159328 -0.527459 -0.271451 -0.272573 -0.595313 -0.877053 0.254953 0.246254 -0.381150 -0.300235 0.115608 0.024068 -0.105443 -0.330402 -0.043602 -0.274925 0.054353 -0.527983 0.131465 -0.381333 -0.183078 -0.131389 -0.301768 -0.411561 0.216408 
star	0.206990 -0.418122 0.172351 -0.053813 0.476459 -0.631481 -0.111804 0.123391 -0.327192 0.251472 -0.176314 0.045132 0.099755 -0.713673 -0.049417 -0.236910 -0.111475 -0.420405 0.317733 -0.359498 -0.685703 -0.204681 -0.261602 -0.120433 -0.205532 0.530645 -0.211725 0.408364 -0.177251 0.089089 -0.283680 0.062987 -0.226686 -0.467452 0.262198 0.360679 -0.116496 -0.029371 -0.059863 0.201007 -0.276001 0.513270 -0.026042 -0.255709 0.397861 0.315343 -0.025906 0.141569 -0.129385 -0.209410 
schools	-0.444047 0.084142 -0.199922 -0.591726 0.277455 -0.345661 -0.041528 0.142967 -0.447441 -0.124423 -0.759347 0.534766 0.754626 -0.330791 0.101132 -0.366064 -0.648829 0.280583 -0.181643 0.663633 -0.080696 0.533798 -0.578566 0.275970 0.250293 -0.036926 0.005414 0.075963 -0.196309 -0.441871 -0.408604 0.339758 0.524017 -0.354171 -0.462620 -0.328642 0.211373 0.484437 -0.410604 0.382503 0.003941 0.169745 -0.539815 0.254777 -0.064251 -0.490598 0.312500 -0.070072 -0.016133 -0.329652 
computer	-0.246548 -0.549546 -0.330096 -0.749824 0.146616 -0.233451 0.384583 -0.744146 -0.780075 -0.356961 -0.118319 0.377224 -0.035060 -0.973255 0.013788 -0.280199 -0.577938 -0.328341 -0.154273 0.011009 0.059635 -0.205524 -0.100661 0.102651 0.838314 0.017290 -0.053655 0.020551 -0.255065 0.542039 0.175565 -0.054981 -0.072744 -0.021884 -0.238185 -0.146002 -0.083995 0.023601 -0.180713 0.488604 -0.466553 0.225188 0.044931 -0.315753 0.081228 -0.194339 -0.532750 -0.099432 -0.034721 -0.167900 
families	0.017873 0.375485 -0.602235 -0.381976 -0.019517 0.089209 0.065436 0.025176 -0.434618 0.317337 -0.074918 0.347080 0.373072 -0.168605 -0.351071 -0.157768 -0.014223 0.177843 -0.245461 0.696620 0.040082 0.045051 -0.277798 0.122728 -0.373644 0.059012 -0.436407 -0.065591 -0.036007 0.156162 -0.014818 0.683664 0.365735 -0.578881 -0.156586 0.432743 0.197214 0.610211 -0.319887 0.194316 0.102247 0.326557 -0.495609 0.173857 -0.040331 0.002553 0.103252 0.231124 0.204599 0.210407 
movie	0.067648 -0.494102 -0.183109 -0.262596 0.311351 -0.374044 0.109920 0.276652 -0.494644 0.056929 -0.192106 -0.157253 -0.507972 -0.949350 -0.076798 -0.678629 -0.481843 0.072768 0.189207 0.257311 -0.524643 0.047302 0.077434 -0.215427 -0.127717 1.064331 -0.073241 0.222167 0.173541 0.487977 -0.082908 0.193351 0.195769 -0.112407 0.400219 -0.015328 0.046759 0.084081 -0.184907 0.221870 -0.217539 0.094951 -0.174126 0.267146 0.722290 0.442610 -0.240215 0.254114 -0.243412 -0.115996 
song	0.510355 -0.221256 -0.691226 -0.503244 0.001896 -0.664313 -0.011984 0.037545 0.055414 0.284808 -0.608787 -0.560349 -0.338643 -0.660941 0.284007 -0.198553 -0.565307 0.028145 0.274533 0.045843 -0.766352 0.591377 -0.526892 -0.885966 0.047912 0.698899 0.189218 -0.066425 0.057634 0.480206 0.110314 -0.045191 0.078722 -0.437728 0.501615 -0.148300 0.185746 0.263234 -0.358664 -0.034803 0.376193 0.287778 -0.294979 0.122622 0.236190 0.290965 0.016802 0.110822 -0.820119 -0.263878 
cities	-0.180328 0.419017 -0.090348 -0.739234 -0.102943 -0.155816 -0.101874 0.031160 -0.436361 -0.186892 -0.126628 0.125138 0.260023 -0.433069 0.018125 -0.884075 -0.160711 -0.135284 0.351396 0.307243 -0.136198 0.284314 -0.530877 0.118241 -0.116680 0.067023 -0.655968 -0.073534 -0.199757 -0.298602 -0.693002 -0.013201 0.328022 -0.501060 -0.306673 0.115879 0.209996 0.291336 0.026042 -0.047547 0.243094 -0.255338 -0.252957 0.094802 0.114193 -0.483947 0.075894 0.353210 0.116841 0.063608 
phone	-0.067796 -0.541138 -0.622192 -0.276399 -0.133346 0.061297 0.568741 -0.124116 -0.511682 -0.067310 0.515899 -0.135599 0.130286 -0.988062 -0.339995 0.131499 -0.471983 -0.505728 0.173438 0.015204 -0.317158 0.011374 -0.122369 0.051718 0.293053 0.071089 0.020249 -0.122664 -0.530509 0.473599 0.643933 0.221687 -0.026564 -0.159616 0.059460 -0.156366 0.208059 0.131134 -0.464972 -0.070214 -0.143773 0.219377 0.071328 -0.613869 0.046212 -0.506833 0.349226 0.487027 0.049287 -0.070042 
cars	-0.118280 0.026768 -0.567462 -0.590556 -0.185227 -0.520867 0.186542 0.168513 -0.622853 0.151884 -0.136840 0.154759 -0.011177 -0.905538 -0.373899 -1.400039 0.365386 -0.348293 -0.164932 -0.227289 0.056428 0.316310 -0.415796 0.249937 0.123077 -0.131832 0.015099 -0.139404 0.117838 0.098216 0.330810 0.417539 0.174145 -0.256963 0.068176 0.012132 0.363699 -0.574430 -0.104677 -0.454869 0.249781 -0.000498 -0.120452 0.347320 -0.394478 -0.341620 -0.158874 0.298409 -0.425462 0.765622 
books	0.385924 0.002855 -0.622176 -0.211650 0.526660 -0.459975 0.107070 -0.393761 -0.375517 -0.313209 -0.103843 0.301874 -0.267801 -0.890135 -0.007599 -0.179883 0.115975 0.416828 -0.076831 0.034528 -0.040360 0.266446 0.195315 0.073874 0.469808 0.283179 -0.047176 0.199822 0.006161 0.243175 -0.136746 0.188347 0.203539 -0.401095 -0.094618 -0.023625 0.107448 0.396557 -0.550642 0.605219 0.145848 0.032343 -0.616114 -0.157789 0.502113 0.340181 -0.259686 -0.167282 -0.284161 -0.645614 
lake	-0.176851 0.029511 -0.487703 -0.221691 0.164471 -0.472793 -0.134906 0.167143 -0.130457 0.277559 -0.304987 0.281102 0.320869 0.133851 -0.014652 -0.642532 0.238738 0.201618 0.169053 0.206002 -1.047291 0.509621 0.084594 -0.626643 -0.070234 -0.314387 -0.009039 0.356112 -0.202296 0.190943 -0.717278 -0.495128 0.684882 -0.393239 -0.214272 0.646412 -0.010858 -0.065480 -0.505230 -0.489808 -0.124187 0.538570 -0.373686 -0.400230 0.400398 -0.848469 0.106694 0.218341 -0.200784 -0.153847 
seat	0.134857 0.130094 -0.215448 -0.164569 0.274963 -0.687438 -0.109702 0.026870 -0.007713 0.272806 -0.253052 -0.348265 0.182726 -0.123650 -0.764867 -0.605947 -0.418790 0.003975 -0.287029 0.007023 -0.991741 -0.299129 -0.833205 -0.080870 0.055987 -0.349291 0.396740 -0.011541 -0.113762 -0.318951 0.158052 0.680873 0.202936 0.163732 -0.480627 0.282807 0.098359 -0.078041 -0.273498 -0.199597 -0.195115 -0.356107 -0.213551 0.321760 -0.375263 -0.702122 -0.047582 0.439935 -0.118315 -0.207260 
seats	0.480654 0.339492 -0.368484 -0.682318 0.454410 -0.577813 0.026792 -0.085147 -0.483489 0.365613 0.257932 -0.528603 -0.176526 0.151407 -0.962965 -0.933277 -0.758328 0.110493 -0.282964 -0.479633 -0.757828 -0.127368 -1.065446 0.326938 -0.266700 -0.376859 0.176244 -0.064322 -0.284588 -0.350371 0.194549 0.686599 0.279933 0.405436 -0.408914 0.047337 0.023522 0.091898 0.085298 -0.276367 -0.117548 -0.547084 -0.271843 0.161793 -0.564798 -0.396596 -0.239518 0.292616 -0.013473 -0.049539 
van	-0.263095 0.555687 -0.728869 0.237853 -0.012940 -0.655525 0.259380 0.010906 0.151110 -0.122968 -0.325876 0.049362 0.408334 -0.805012 0.182692 -0.324794 -0.361467 -0.224692 0.262363 -0.420593 -0.570297 -0.795325 -0.232759 -0.259101 -0.479205 0.255755 -0.066863 -0.018692 0.581317 0.549493 0.122115 -0.150629 0.514541 -0.247552 -0.189741 0.033548 0.266414 -0.453991 -0.506500 0.327224 -0.294577 -0.057890 0.341992 0.019050 0.123427 -0.349920 -0.212992 -0.152281 -0.813637 0.041699 
bus	-0.286311 0.197834 -0.509668 -0.657327 -0.193978 0.017801 0.448114 0.416310 -0.558966 0.232976 -0.570689 -0.082924 0.606380 -1.043500 -0.677116 -0.948092 -0.234269 -0.460090 -0.050341 -0.313151 0.137266 0.208783 -0.377276 -0.103718 -0.177679 0.025221 0.191682 -0.056270 -0.399164 0.140709 0.092359 0.137433 0.179588 -0.306956 -0.284395 0.228246 -0.009786 -0.277982 -0.195652 -0.161204 0.080575 0.034817 -0.050365 0.166200 0.192451 -0.678719 0.729058 0.648961 -0.184928 -0.041643 
stars	0.245340 -0.231074 -0.002603 -0.112629 0.434586 -0.717292 0.047628 0.140711 -0.637177 0.326413 -0.133505 -0.227487 -0.136021 -0.346712 0.025966 -0.236546 -0.246114 0.077323 0.193930 -0.290340 -0.821753 -0.047687 -0.363151 -0.038807 -0.293989 0.656593 -0.587489 0.356970 -0.115599 0.040692 -0.220337 -0.199675 0.044857 -0.579770 0.380870 0.319912 -0.019317 -0.108360 -0.019644 0.120082 -0.277980 0.325691 -0.221403 0.104210 0.272561 0.412641 -0.464635 0.026863 -0.241152 0.020341 
girl	0.003347 -0.485458 -0.558778 -0.062394 0.195405 -0.007928 -0.206613 0.134526 -0.368779 0.369493 -0.506018 -0.260622 0.667447 -0.773943 0.295023 -0.216739 0.018182 0.005032 -0.157491 0.291919 -0.337368 0.040865 -0.127628 -0.419980 -0.028750 0.689084 0.283477 0.014085 0.037216 0.682126 0.223160 0.542662 0.178777 -0.408263 0.493197 0.306996 -0.142378 0.335136 -0.454803 0.155737 -0.256162 0.360143 -0.400833 0.474240 0.376454 0.097986 0.024239 0.281351 -0.164597 -0.044877 
songs	0.709542 -0.042206 -0.703334 -0.700478 -0.071265 -0.628621 0.225745 -0.074980 -0.408407 0.181975 -0.402716 -0.517371 -0.524920 -0.567348 0.225090 -0.116370 -0.719443 0.328063 0.281238 0.061581 -0.553757 0.851564 -0.474350 -0.546300 0.104754 0.810826 0.019597 -0.096935 0.051887 0.431881 0.244572 0.076221 0.221234 -0.762186 0.426811 -0.131787 0.398296 0.377269 -0.440596 0.026629 0.462543 0.268880 -0.428349 -0.030373 0.267214 0.237403 -0.025878 -0.101463 -0.718045 -0.132243 
prince	0.403539 0.414453 -0.347310 0.534803 0.071119 -0.262277 -0.407018 0.303329 0.437899 0.152145 -0.168053 -0.294442 -0.235553 -0.795613 -0.420807 -0.247344 -0.049418 -0.010939 0.160965 0.384782 -0.857863 0.158971 -0.274084 0.240939 0.057810 0.226154 -0.377486 -0.092385 0.275471 0.051937 -0.051265 0.442699 -0.206618 -0.028532 -0.102315 0.962909 0.097309 0.298334 -0.363625 0.692086 -0.364632 -0.006169 -0.277780 -0.416013 0.213430 -0.584200 -0.122793 0.500270 -0.464940 0.051523 
girls	-0.125890 -0.244537 -0.720239 -0.002176 0.375546 -0.143808 -0.210054 0.175728 -0.692999 0.279435 -0.777183 0.019943 0.860291 -0.604037 0.445659 -0.022367 -0.250030 0.152390 -0.143124 0.442137 -0.010354 0.546321 -0.480016 -0.203197 -0.067136 0.514393 0.151773 -0.124367 -0.202202 0.269868 -0.159566 0.658312 0.235523 -0.389203 0.142510 0.080438 0.056973 0.472255 -0.205047 0.138155 -0.241842 0.325143 -0.264087 0.494597 -0.031432 -0.104689 -0.198632 -0.015711 -0.151665 -0.003427 
bowl	0.378578 -0.830246 -0.687481 -0.195640 0.616462 -0.695814 -0.955865 0.238804 -0.495772 -0.877384 -0.415375 0.499773 0.072344 0.514969 -0.183041 -0.135298 -0.824467 -0.248388 0.487543 -0.701450 -0.367529 0.220084 -1.229113 -0.083212 0.616371 0.333945 -0.001543 0.620923 -0.007935 -0.109248 -0.815115 0.153056 0.428818 -0.076788 0.182432 0.120020 -0.204559 -0.310230 -0.435968 0.122992 0.036423 0.444079 -0.142503 -0.196222 0.092935 0.086184 0.361855 -0.060595 -0.145145 0.377655 
senator	-0.036410 -0.408191 0.173386 -0.211815 0.144447 -0.485497 0.066817 -0.117004 0.590630 -0.314915 0.414239 0.021626 0.066912 -0.430987 -0.186710 0.191572 -0.388754 0.113343 -0.134673 0.398037 -1.249875 0.016578 -0.490997 -0.075611 0.015341 -0.094940 0.058558 0.535686 -0.293596 -0.062291 0.222449 0.708669 0.516367 0.559929 -0.296749 0.291376 0.505400 -0.083261 -0.666260 0.083387 0.434624 0.195882 -0.707574 0.447247 -0.204562 -0.166615 0.258324 0.406474 0.042043 -0.025878 
politicians	0.126268 0.431497 -0.150741 -0.654646 0.457967 -0.280635 0.475239 -0.122832 -0.171662 -0.231278 0.418353 -0.109902 0.265998 -0.143242 -0.071235 -0.108989 -0.010703 0.402458 0.106167 0.100659 -0.472135 0.057184 -0.257958 0.050946 0.144185 0.559369 -0.405739 0.048365 0.045213 -0.121336 0.309448 0.665593 0.433781 0.231629 -0.247107 -0.159629 0.307935 0.213298 0.176067 0.051143 0.009318 -0.299080 -0.769090 0.087601 -0.238232 -0.039470 0.319927 0.352358 0.154170 0.222792 
novel	0.025912 -0.068614 -0.340896 -0.042556 0.322083 -0.305486 0.231182 -0.240045 -0.064064 -0.331298 -0.381411 -0.136520 -0.455325 -1.035425 -0.024139 -0.243297 0.250062 0.218184 -0.044379 0.147438 -0.711309 0.196718 0.212365 -0.147466 0.076510 0.507568 -0.027839 0.538919 0.409626 0.545452 -0.289080 -0.073164 0.067669 -0.282109 0.082231 0.403004 0.106839 0.321643 -0.379668 0.454081 -0.083488 -0.014173 -0.796025 0.185771 0.896343 0.466809 -0.128528 -0.149531 -0.499220 -0.355554 
movies	0.224203 -0.475722 -0.371223 -0.457028 0.387937 -0.303742 0.120101 0.135116 -0.770318 -0.065527 -0.074583 -0.103470 -0.508802 -0.947422 0.060334 -0.732857 -0.625611 0.075828 0.273219 0.324908 -0.316530 0.333144 0.101922 -0.053374 -0.153163 0.990743 0.013884 -0.024401 0.113473 0.445685 -0.091317 0.205703 0.210581 -0.197096 0.211210 -0.075121 0.236219 0.166545 -0.046650 0.255722 -0.212626 0.014341 -0.249101 0.199647 0.671371 0.556648 -0.395585 0.143719 -0.068584 -0.034492 
animals	-0.124977 0.478375 -0.782923 -0.230322 0.592836 0.355011 -0.128216 -0.097758 -0.305616 0.146784 0.279034 0.605715 -0.257254 -0.429793 0.305518 -0.433386 -0.146034 0.219702 0.078894 0.405979 -0.116852 0.656999 0.023175 0.012639 -0.140822 -0.030663 -0.213625 0.365680 0.459024 0.901673 -0.276085 -0.146795 0.667940 -0.222620 0.656694 0.397125 -0.436370 0.370755 -0.569509 0.159924 -0.424121 0.119898 -0.509235 0.166078 0.084170 -0.464136 -0.048896 -0.428593 -0.247191 0.498364 
singer	0.377808 -0.060215 -0.201473 -0.236677 -0.045120 -0.350591 0.088627 0.311234 -0.242978 0.292293 -0.478844 -0.601044 -0.115981 -0.773381 0.520588 -0.197343 -0.496775 0.423174 0.099290 0.112375 -1.069376 0.172790 -0.470134 -0.414301 0.057064 0.706900 0.169157 -0.068362 0.061712 0.196353 0.527871 0.323490 0.162963 -0.820287 0.218134 0.254342 0.212783 0.284119 -0.334433 0.160813 0.165052 0.595298 -0.136481 0.080828 0.058869 0.150359 0.067820 0.287213 -0.683356 -0.339265 
computers	-0.021736 -0.563372 -0.365668 -0.913618 -0.109023 -0.361497 0.425494 -0.639334 -0.936742 -0.417946 0.146302 0.383822 -0.054835 -0.961272 -0.183331 -0.440058 -0.477220 -0.553304 -0.219677 0.035444 0.221410 0.001307 -0.273621 0.256777 0.741765 -0.169275 -0.086914 -0.128252 -0.223439 0.641946 0.370930 -0.197243 0.003418 0.045321 -0.151231 -0.097066 0.257193 0.036322 -0.089018 0.413530 -0.358908 0.157683 -0.076266 -0.451740 -0.109267 -0.237768 -0.526337 -0.057049 0.055369 0.119281 
color	0.427369 -0.242610 -0.407044 -0.259264 0.638341 -0.680981 0.191395 -0.630010 -0.406969 -0.167272 -0.317308 0.334241 -0.137541 -0.303800 0.094460 -0.318624 -0.079653 -0.395192 -0.163679 -0.019233 -0.673114 0.043340 -0.171741 0.602215 -0.097669 0.111084 0.221300 0.287369 -0.089385 0.370599 -0.207322 0.229673 0.070396 -0.794283 0.712505 -0.197675 -0.461808 0.098115 0.150404 -0.293908 -0.171376 -0.068269 -0.321914 -0.151351 0.377342 0.125535 -0.335738 -0.324628 -0.319976 0.259060 
bird	0.125292 0.195678 -0.379010 0.085304 0.365492 0.248783 -0.546893 -0.483691 -0.009577 0.227413 0.178685 0.432979 -0.029201 -0.254010 0.067833 -0.567028 -0.406833 -0.171868 0.664815 -0.041383 -0.577853 0.209077 -0.403672 -0.225436 -0.267913 0.154584 0.159643 0.307848 0.046276 0.737959 -0.469124 -0.082249 0.510013 -0.087476 0.792635 0.306213 -0.403617 0.168271 -0.816698 0.487025 -0.643973 0.238801 -0.319479 0.346786 0.153524 -0.525606 0.094596 -0.032959 -0.236312 0.187924 
library	0.086670 -0.180652 -0.137366 -0.549220 0.321329 -0.607483 0.243872 -0.155753 -0.455779 -0.268151 -0.354393 0.486495 -0.076842 -0.742248 -0.311309 -0.318080 -0.333376 0.165344 -0.276235 0.296032 -0.317784 0.117519 -0.029056 0.171919 0.483862 -0.132398 0.100793 0.321516 -0.219082 0.122965 -0.358125 0.141611 0.411449 -0.298904 -0.467269 -0.200270 -0.042302 0.885398 -0.669672 0.723595 0.369462 -0.032979 0.052651 -0.288904 0.203466 -0.755969 -0.418018 0.044104 -0.158104 -0.777205 
animal	-0.226400 0.443414 -0.718971 -0.228538 0.837312 0.308155 -0.143771 -0.190019 -0.253333 -0.000539 0.122119 0.535351 -0.188699 -0.573341 0.405977 -0.337926 -0.248600 0.180836 0.038890 0.352288 -0.235827 0.260445 0.256690 -0.117494 0.043002 -0.141772 0.013398 0.472022 0.269846 0.788139 -0.120869 -0.032602 0.613186 -0.078726 0.537147 0.309905 -0.638381 0.187883 -0.444089 0.094453 -0.408134 0.193736 -0.252082 0.233480 0.061899 -0.324591 -0.006769 -0.318135 -0.296976 0.316635 
website	0.033539 0.072924 -0.295000 -0.484788 0.740520 -0.428244 -0.056072 -0.540715 -0.577651 0.403956 -0.132589 -0.001627 -0.203686 -1.002252 0.275422 0.005918 -0.227662 -0.353939 0.328641 -0.076012 -0.037848 0.240817 0.308867 -0.319226 0.373120 0.163240 -0.000171 0.234992 -0.522400 -0.233769 -0.006620 0.060654 0.030574 -0.223574 0.029009 -0.226644 -0.068530 0.553686 -0.609716 0.121746 0.166259 0.205544 -0.102945 -0.269116 0.168542 0.044879 -0.021538 0.460707 -0.613696 -0.453012 
trees	-0.005500 0.939978 -0.904294 -0.502473 -0.058654 -0.157519 0.025314 -0.180981 -0.613615 0.032554 0.031902 0.611027 -0.315283 0.183382 -0.372359 -0.630323 0.159074 -0.328453 -0.278704 0.557515 -0.532621 0.202196 -0.442786 -0.171671 0.132912 -0.007121 0.201303 0.246757 0.281375 0.743386 -0.399098 0.220285 0.577953 -0.409711 0.329236 -0.061306 -0.406518 -0.003119 -0.487967 -0.160495 0.068511 0.397251 -0.162306 -0.251864 0.777724 -0.541471 -0.332207 -0.088816 0.196027 0.716256 
tree	0.021224 0.644522 -0.879046 -0.398447 0.248891 -0.029293 0.173069 -0.380395 -0.218539 0.337626 -0.353426 0.361311 -0.206259 0.024738 -0.310582 -0.225308 0.038155 -0.258987 -0.270022 0.453593 -0.752285 0.033532 -0.464062 -0.323286 0.232976 -0.052934 0.095801 0.491700 0.135005 0.780351 -0.189695 0.317274 0.236358 -0.306383 0.388581 0.116774 -0.532766 0.041418 -0.680772 0.006568 -0.289350 0.089457 0.235333 -0.244844 0.761756 -0.425238 -0.130650 0.030020 -0.078164 0.394312 
dog	0.040060 -0.197958 -0.773537 -0.213315 0.736458 -0.199667 -0.175826 0.113108 0.013017 0.237640 0.058410 0.253474 0.132751 -0.671587 0.095961 -0.200638 -0.041843 0.041109 0.057296 0.105061 -0.550070 0.520811 0.063941 -0.232134 -0.088936 0.088765 0.087865 0.064754 0.041110 0.732953 0.081494 0.126723 0.468639 -0.054343 0.555552 0.247099 -0.291988 -0.213162 -0.529390 0.020906 -0.564317 -0.082887 -0.102359 0.360801 0.343576 -0.196512 0.213111 0.204996 -0.265840 0.164196 
ring	-0.167768 -0.174946 -0.393873 -0.479762 0.200806 -0.602028 0.178684 0.089688 0.275529 -0.002359 -0.109085 -0.084915 0.185339 -0.498372 0.078916 -0.155423 -0.111708 -0.034974 0.028055 -0.483130 -0.435751 0.214026 -0.399450 -0.367824 0.314671 0.283383 -0.141505 0.267295 -0.238335 0.421389 -0.336761 0.407351 -0.401485 -0.352003 0.551435 0.792430 -0.324240 -0.134779 0.081206 -0.129773 -0.380664 0.073664 0.419857 -0.147224 0.129819 -0.740538 -0.094500 0.137881 -0.113157 0.014077 
rangers	0.013341 -0.219512 0.148801 -0.605903 0.914825 -0.178792 -0.272884 0.673677 -0.710059 0.002391 -0.167166 -0.075636 -0.438574 -0.413023 -0.147483 -0.011813 0.188453 -0.329197 -0.537114 -0.790858 -0.374617 0.094651 -0.525969 -0.389455 -0.588304 -0.066390 -0.943089 -0.048267 -0.552286 -0.500228 -0.538644 0.424968 0.804512 0.039210 0.134491 0.346043 0.000345 -0.168323 -0.847797 0.090156 -0.627219 0.281650 -0.003909 -0.079052 0.703723 -0.296120 0.205953 -0.314908 -0.249904 0.467402 
opera	-0.203351 -0.268902 0.234954 -0.075271 0.177752 -0.631820 0.008514 0.733245 -0.158242 -0.252148 -0.745257 -0.542503 -0.305133 -1.112725 -0.014758 -0.586554 -0.457281 0.712888 0.321212 0.220121 -0.898506 0.459793 -0.211225 0.072447 0.225798 0.670786 -0.443228 -0.107600 0.154567 0.443105 -0.147252 -0.089110 0.531438 -0.765177 -0.269375 0.083989 0.110014 0.618133 -0.118437 0.222243 0.176918 -0.334529 -0.186327 -0.237925 0.127888 0.104183 -0.140816 0.310284 -0.624542 -0.183510 
horse	-0.135559 -0.210935 -0.675103 -0.061284 0.658442 -0.338763 -0.501495 0.155102 0.456576 0.311619 -0.086636 0.464656 -0.079633 -0.875488 -0.175907 -0.504657 0.223989 0.140759 0.171231 -0.081176 -0.546341 0.950220 -0.338107 0.083257 0.035052 0.066688 -0.022889 0.163737 0.263667 0.467698 -0.397801 0.409951 0.101301 0.141261 0.052846 0.370372 -0.295524 -0.350363 -0.331013 -0.177882 -0.159682 0.148775 -0.306116 0.384075 0.507516 -0.707884 0.213881 -0.124024 -0.332505 0.098463 
dinner	0.631969 -0.325816 -0.693357 0.164829 0.102656 0.067864 -0.234887 0.452334 -0.285610 -0.092786 -0.300537 0.105071 0.328579 -0.463865 -0.392350 0.089279 -0.261673 0.421125 0.118314 -0.155774 -0.852873 0.448051 -0.242495 0.153613 -0.191440 0.437905 -0.101156 0.235826 0.223847 0.295479 0.242810 0.332108 0.764567 0.091682 -0.040615 -0.079249 -0.385621 -0.097896 -0.479621 0.113454 0.064529 -0.371699 -0.078794 -0.611245 -0.103086 -0.023284 -0.033963 0.983233 0.340917 0.136237 
worker	-0.066501 0.123349 -0.418240 -0.530706 0.029785 0.068216 0.211373 0.487160 -0.266499 0.253322 -0.140154 0.275459 0.497709 -0.459828 0.047130 -0.423806 0.034044 -0.114089 -0.388430 0.287329 -0.267357 -0.478430 0.114504 0.158498 0.086337 -0.157158 0.077914 -0.167515 -0.087353 0.322069 0.401848 0.554508 0.401570 -0.423855 -0.371305 0.020724 -0.078129 0.127339 -0.268186 0.279170 -0.153392 0.354934 -0.456732 0.456263 -0.038013 0.162566 0.207029 0.238674 -0.016279 0.008347 
apple	0.105544 -0.479298 -0.514381 -0.308160 0.221035 -0.413782 -0.390599 -1.155838 -0.745299 -0.400352 -0.170004 0.152928 -0.282788 -0.563074 -0.025411 -0.311009 -0.582700 -0.636965 0.074938 0.313847 -0.237367 0.009764 -0.222049 -0.052468 0.566486 -0.008119 -0.015070 0.291485 0.276090 0.556403 0.485151 0.282618 0.665013 0.051013 0.184227 -0.542390 0.099064 -0.236573 -0.013944 -0.119808 -0.242698 0.636644 0.351742 -0.898643 0.560861 0.111864 -0.058674 0.025431 -0.357081 0.076046 
birds	0.327655 0.511899 -0.688827 -0.340025 0.377985 0.126484 -0.062247 -0.557674 -0.326959 0.505899 0.443726 0.652823 -0.122061 0.122942 -0.181896 -0.415521 -0.521862 0.169299 0.482860 0.266940 -0.457413 0.664493 -0.364956 0.108970 -0.223375 -0.065446 0.065010 0.060101 0.079193 0.978126 -0.563044 -0.565551 1.076680 -0.308560 0.875746 0.490590 -0.020446 0.266123 -0.990118 0.487651 -0.789230 -0.181256 -0.612361 -0.059393 0.023323 -0.317988 0.008112 -0.149628 -0.206541 0.601827 
politician	0.143789 0.594170 -0.037819 -0.479333 0.642329 -0.042108 0.383332 -0.068929 0.090535 0.069688 -0.499696 -0.240527 0.177106 -0.458224 -0.039241 -0.122027 -0.156136 0.331609 -0.145309 -0.147523 -1.663682 -0.624160 -0.137680 -0.157983 -0.027626 -0.014194 0.127688 -0.023290 0.200390 -0.381919 0.262524 0.670068 0.195274 0.193530 -0.706845 0.267092 0.524906 0.010387 -0.315168 0.489855 -0.186163 -0.102987 -0.914838 0.395114 0.181319 -0.276827 0.316926 0.352923 -0.275662 -0.511740 
hero	0.412189 0.110648 0.126808 -0.452493 0.498761 -0.556313 -0.014936 0.274427 0.114033 0.182834 -0.124145 -0.146357 0.107717 -0.910950 -0.186438 0.051448 0.024313 -0.251793 -0.045421 -0.097648 -0.680377 -0.141395 -0.418817 -0.430848 0.084687 0.685792 -0.272434 0.375645 0.269303 0.102669 -0.071322 0.197699 -0.263328 -0.020759 0.247648 0.291210 0.111701 -0.078881 -0.063502 0.507963 -0.123514 0.225102 -0.266690 0.223233 0.341699 0.182716 -0.154148 -0.144276 -0.189893 0.076610 
dogs	-0.170959 0.047625 -0.809148 -0.366764 0.754470 -0.012952 -0.297551 0.134405 -0.207604 0.061519 0.183713 0.356236 0.165949 -0.553951 0.111157 -0.126346 -0.176463 0.139346 0.072226 -0.034330 -0.295529 0.713728 0.092425 0.145603 -0.230980 -0.058498 -0.205986 -0.025422 0.101768 0.722214 -0.033327 -0.080026 0.661660 -0.261167 0.651974 0.146582 -0.230522 -0.012241 -0.416010 0.038684 -0.520129 -0.064603 -0.367949 0.502676 0.180545 -0.468968 0.096992 0.058651 -0.028233 0.431861 
senators	0.098899 -0.447049 -0.064907 -0.232945 -0.018815 -0.353136 -0.009280 -0.018274 0.094378 -0.435879 0.721474 -0.122752 -0.017568 0.214261 -0.201655 0.026541 -0.646177 0.228407 -0.316778 -0.069113 -0.639501 0.210051 -0.508817 -0.227989 -0.100499 -0.276862 -0.651420 0.544255 -0.670749 -0.406685 0.246511 0.554531 1.270139 0.360384 0.014385 0.171392 0.368748 0.075578 -0.650735 0.121378 -0.133647 -0.417643 -0.536822 0.078213 -0.472577 0.139842 -0.125616 -0.028215 -0.184340 0.252488 
weapon	-0.418733 -0.261947 0.026222 -0.913145 0.223722 -0.015499 0.158900 0.090883 0.200625 -0.311232 -0.402600 0.471126 -0.096525 -0.880631 0.017466 0.112923 -0.027400 -0.464445 -0.361490 -0.196945 0.000916 -0.179320 -0.084337 -0.429391 0.202636 0.257589 0.310599 0.328444 0.170305 0.101921 -0.071947 0.230025 -0.119358 0.161726 1.050702 0.733446 0.127046 0.008839 -0.104776 0.124761 -0.526419 0.061940 -0.248979 0.167618 -0.166777 -0.394965 -0.594202 -0.088947 -0.057091 0.374902 
universities	-0.417006 0.182131 -0.281754 -0.977677 0.319525 -0.077055 0.185330 -0.335382 -0.513716 -0.129241 -0.466029 0.601604 0.510355 -0.412061 0.174309 -0.088886 -0.584331 0.508062 0.034603 0.252567 -0.141645 0.199306 -0.664597 0.458204 0.530027 0.215386 -0.270095 -0.050744 -0.149596 -0.463236 -0.482764 -0.027451 0.414985 -0.184726 -0.767227 -0.386847 -0.013488 0.585321 -0.178809 0.681092 0.209120 0.043340 -0.542823 -0.172925 -0.492755 -0.276937 0.065236 -0.208556 0.085488 -0.299479 
chair	0.199062 0.026344 -0.425394 -0.017035 0.290159 -0.320803 0.145056 0.127745 0.090248 -0.188525 -0.447478 0.083843 0.303851 -0.269012 -0.186831 0.241081 -0.341921 0.562768 -0.342171 0.078638 -1.074705 -0.574881 -0.329251 -0.113395 0.476989 -0.091500 0.578951 0.058767 -0.442933 0.262095 0.107972 0.261899 0.433623 0.056623 -0.578129 -0.209789 -0.708316 0.126005 -0.447462 0.261560 -0.201045 -0.061710 -0.065829 0.099262 -0.346969 -0.431125 -0.377650 0.010304 -0.102064 -0.004826 
instruments	0.424921 0.085696 -0.287461 -0.635161 -0.398417 -0.411416 0.292646 -0.320217 -0.120766 -0.087162 -0.574078 0.109606 -0.302831 -0.629239 0.368156 0.019746 -0.674822 0.908538 -0.523632 0.085799 0.186433 -0.134626 -0.182788 -0.426421 0.217113 0.193196 0.029251 0.359023 -0.633416 0.508468 -0.098854 -0.180727 0.411427 -0.621461 0.257765 0.264109 0.008984 0.268864 0.290227 -0.005240 -0.072664 0.219264 0.048350 -0.448860 -0.759819 -0.388975 -0.610951 -0.713966 -0.695180 0.396154 
kings	0.498205 0.312695 -0.013405 -0.059371 0.343921 -0.533952 -0.548083 0.161423 -0.231941 -0.264273 -0.298598 -0.388924 0.017939 -0.055649 -0.196920 -0.707175 -0.292312 0.223227 0.032855 -0.007916 -0.209543 0.028346 -0.550417 -0.580829 -0.117294 0.187015 -0.936738 0.275844 0.150433 -0.173091 -0.369480 0.360294 0.073056 -0.338489 0.257165 0.659494 0.169280 0.007869 -0.625528 0.320856 -0.530839 -0.047623 -0.361553 -0.538949 0.464591 -0.696182 0.058537 -0.294925 -0.642742 -0.523532 
planet	0.318137 -0.208226 -0.177910 -0.746121 0.401554 -0.482375 0.001210 -0.599051 -0.396002 0.114628 -0.023863 0.020446 -0.393894 -0.510123 -0.209964 -0.464040 0.074478 -0.113969 -0.252301 0.305061 -0.458029 -0.149114 -0.112318 -0.562116 0.062383 0.428352 -0.508516 0.388514 0.014004 0.535714 -0.372799 -0.829824 -0.156661 0.039866 0.282677 0.900464 -0.429595 0.231727 -0.413766 -0.028936 -0.340594 0.401373 -0.108026 0.216717 0.252234 0.283288 -0.364356 0.131719 -0.005381 0.364978 
tools	0.062983 0.132980 -0.462474 -0.774005 0.113561 -0.321291 0.206595 -0.480833 -0.825409 -0.576309 -0.039450 0.980982 -0.093448 -0.674511 0.121957 0.123930 -0.049896 -0.107318 -0.433076 0.058733 0.170043 0.098004 0.123535 0.256508 0.585645 -0.065996 -0.105272 0.375213 -0.169693 0.538950 0.045260 0.070308 -0.024026 -0.126495 -0.052005 -0.048714 -0.176063 -0.084232 0.000074 -0.045632 -0.297742 0.186254 -0.129034 -0.150015 -0.206248 -0.404703 -0.650119 -0.261434 -0.520475 -0.026939 
pipeline	-0.548976 -0.001916 -0.259945 -0.826379 -0.576440 0.376362 -0.239305 0.333617 -0.504743 -0.391285 -0.139414 0.604064 -0.496782 -0.397981 -0.263020 -1.041586 0.350028 -0.147032 0.562330 0.042568 -0.624667 -0.216975 0.045487 -0.456620 0.704068 -0.092251 0.077992 0.189823 -0.575806 -0.133127 0.081964 -0.075569 -0.000790 0.121214 -0.214971 0.743959 0.086192 0.548978 -0.301287 -0.729979 0.063547 0.240334 -0.251487 -0.557454 -0.384291 -0.564093 0.312320 0.412558 -0.018085 0.354115 
vessel	-0.375203 -0.059237 -0.229454 -0.915651 -0.263518 -0.306033 -0.663614 -0.173856 0.102414 0.398404 -0.334919 -0.018730 -0.206942 -0.724115 -0.562894 -0.334390 0.192037 -0.045411 -0.335400 -0.301486 -0.471620 0.030404 0.450160 0.193251 -0.127745 -0.219011 0.187998 0.147306 -0.281853 0.531660 0.198442 -0.692644 0.279055 -0.211871 0.362501 1.191092 -0.346101 -0.265691 -0.553489 0.400683 0.068086 0.479476 -1.073369 -0.259553 -0.523721 -0.458385 0.220315 0.220041 -0.103193 0.118356 
buses	-0.030016 0.347214 -0.500816 -0.741127 -0.203329 -0.429482 0.511024 0.537248 -0.589867 0.405511 -0.541613 -0.000887 0.243337 -0.912598 -0.615633 -1.116430 -0.297119 -0.553350 -0.165244 -0.099508 0.138479 0.528699 -0.474318 0.447316 -0.076614 -0.164782 -0.086408 -0.227247 -0.195626 -0.126690 0.021300 -0.010077 0.480319 -0.361180 -0.118641 0.187763 0.125232 -0.166878 0.042243 -0.233064 0.306673 -0.124141 -0.210696 0.120956 -0.106694 -0.730229 0.737577 0.598701 -0.147975 0.310744 
plate	0.376346 -0.173508 -0.311451 -0.801448 0.344389 -0.146362 -0.163442 0.087401 0.177271 -0.235799 -0.234082 0.239465 -0.344356 -0.191125 -0.211195 -0.327543 0.105104 -0.435339 -0.717739 -0.970485 -0.661741 0.198616 -0.379015 -0.017683 0.077689 -0.021511 0.301170 0.222588 -0.723718 0.380106 -0.147220 0.349001 0.345217 -0.791487 0.152332 0.242790 -0.573262 -0.510834 -0.504422 -0.450695 0.051160 -0.020614 0.076219 -0.401085 -0.069313 -0.020215 0.254601 -0.321586 -0.089283 0.024764 
phones	-0.090151 -0.318996 -0.787233 -0.703589 0.077944 -0.087365 0.516191 -0.410253 -0.912474 0.003644 0.522485 0.029211 -0.024302 -1.158464 -0.029184 -0.343136 -0.554688 -0.695787 0.054648 0.181732 -0.060656 0.116913 -0.363312 0.406210 0.358307 -0.024210 0.014140 -0.248579 -0.458825 0.550136 0.672763 0.153001 0.000170 -0.035099 0.163321 -0.163609 0.356096 0.099517 -0.093802 0.087257 -0.079177 0.054332 0.256318 -0.604105 -0.090644 -0.436493 -0.082239 0.218873 0.180241 0.309290 
chip	-0.307531 -0.419184 -0.685523 -0.748457 0.102939 -0.264152 -0.170637 -0.622190 -0.386972 -0.435493 -0.162824 -0.185720 -0.097827 -0.656816 -0.151448 -0.010384 0.139547 -0.469370 -0.385105 -0.407822 -0.298811 -0.252649 -0.339444 0.401612 0.220280 -0.101429 0.272424 0.392808 0.014572 0.501588 0.291967 -0.000923 0.299546 0.254138 0.189665 -0.557456 0.126201 -0.488389 -0.010772 0.009480 -0.290055 0.904552 0.312145 -0.453533 -0.019545 0.080386 -0.330979 -0.536960 -0.362546 -0.005916 
princess	0.257716 0.061043 -0.235736 0.654507 0.151215 -0.345761 -0.608549 0.100898 -0.090594 0.558014 -0.312228 -0.397451 -0.060387 -1.265337 -0.745369 -0.433881 0.177184 0.182428 -0.018554 0.504330 -0.764029 0.346726 -0.315605 -0.078110 -0.014432 0.337219 -0.195272 -0.148519 0.191859 0.633895 0.117012 0.482882 -0.098202 -0.227052 0.228585 0.772479 -0.049568 0.472280 -0.293679 0.625545 -0.217791 0.003141 -0.493311 -0.324841 0.160511 -0.212585 -0.119276 0.515289 -0.255831 -0.027453 
flowers	0.526982 0.217625 -0.708592 0.019230 0.323139 -0.301930 0.324909 -0.082041 -0.191630 0.443984 -0.386089 0.498388 -0.095856 0.061717 -0.278779 -0.017068 0.145696 -0.502885 -0.046346 0.293855 -0.903501 0.389767 -0.578591 0.328546 -0.002236 0.127703 -0.128027 0.148434 0.202957 0.790913 -0.189258 0.661943 0.638867 -0.627160 0.788714 0.033216 -0.440126 0.366720 -0.240491 -0.101297 0.216848 0.281809 -0.005713 -0.618496 0.508141 -0.159506 -0.308205 0.119553 0.084251 0.578512 
drink	0.548382 0.024610 -0.757385 -0.117275 0.957715 0.211606 -0.441853 0.279459 -0.472769 -0.092800 -0.340827 0.056613 -0.199782 -0.628058 0.319301 -0.263000 -0.071424 0.274381 -0.285321 -0.010154 -0.395573 0.481742 -0.339589 -0.165632 0.226899 -0.008181 0.065768 0.005836 0.258288 0.648667 0.391418 0.029893 0.414198 -0.321036 0.394085 0.051116 -0.007747 -0.444540 0.026317 -0.300518 -0.067118 0.188219 -0.278138 -0.310846 -0.011646 -0.257414 0.504629 0.709785 0.308793 0.316003 
chips	0.057728 -0.507079 -1.033212 -0.857723 0.170657 0.176495 -0.316130 -0.946447 -0.431286 -0.728310 -0.376115 -0.345444 -0.354545 -0.422138 -0.128983 -0.173758 -0.156238 -0.329783 -0.284952 -0.372070 -0.298052 0.102672 -0.362946 0.813108 0.503772 -0.056012 0.053829 0.120348 -0.044574 0.774493 -0.029594 0.260821 0.554359 0.211656 0.611869 -0.635868 0.112561 -0.505442 0.416059 0.052045 -0.207325 0.792803 0.194697 -0.615792 -0.104744 -0.083043 -0.260698 -0.221758 -0.002636 0.129902 
vessels	-0.447536 0.374444 -0.226799 -0.943461 -0.252462 -0.212402 -0.714576 -0.065825 0.185281 0.088033 0.088586 0.254735 -0.125933 -0.659676 -0.424281 -0.216982 0.066360 -0.012156 -0.168561 -0.313316 -0.276158 0.552044 0.195338 0.575865 -0.332226 -0.378443 0.124092 0.087842 -0.337634 0.571273 0.155629 -0.633901 0.218136 -0.347143 0.452993 1.475603 -0.399548 -0.103215 -0.030715 0.288934 -0.020014 0.461024 -0.906941 -0.570138 -0.564020 -0.455912 0.163066 0.124648 -0.169000 0.287967 
dress	0.599652 -0.459619 -0.536908 0.136449 0.275133 -0.638291 -0.362630 0.121871 -0.197459 0.384154 -0.459715 0.243090 0.564189 -0.438117 0.102610 -0.215529 -0.220141 0.279991 -0.372628 0.449185 -0.362322 0.080819 -0.502715 0.509045 0.272264 0.679587 0.313869 -0.126535 -0.169143 0.150126 0.145461 0.444437 0.469080 -0.600654 0.806845 -0.125784 -0.316898 -0.129740 0.076435 0.040722 -0.398333 -0.560464 -0.609479 -0.048115 0.302424 -0.291754 -0.235214 0.071532 -0.427054 0.095790 
tool	0.074206 0.022666 -0.156619 -0.894903 0.366072 -0.257085 0.343894 -0.510929 -0.431549 -0.422113 -0.030345 0.717424 -0.094102 -0.625229 0.324473 0.150429 -0.156581 -0.065495 -0.285723 0.027437 -0.058579 -0.048061 0.046252 -0.048053 0.372885 0.085877 0.199469 0.492754 -0.270799 0.333518 0.042715 0.055399 -0.130055 0.033975 -0.066452 -0.001355 -0.205407 -0.010630 0.159581 -0.025040 -0.375307 0.118719 -0.027213 -0.071883 -0.064885 -0.291859 -0.353071 0.025601 -0.456454 -0.171033 
shoes	0.556262 -0.424481 -0.726601 0.059023 0.379267 -0.631218 -0.191779 0.395325 -0.295213 0.201921 0.110765 0.576774 0.470756 -0.455777 0.135513 -0.466067 0.106594 0.098290 -0.316099 -0.011501 -0.334525 -0.073213 -0.536950 0.363863 0.264201 0.523747 0.483924 -0.393409 -0.158467 0.485469 0.262485 0.405611 0.281224 -0.508721 0.597337 -0.120806 -0.220598 -0.342962 -0.051909 -0.022459 -0.201214 0.144627 -0.138085 0.077176 -0.034154 -0.335190 -0.246517 0.030746 -0.319420 0.226570 
horses	-0.109061 -0.055627 -0.844997 0.007608 0.504088 -0.177976 -0.400112 0.155534 0.195996 0.323208 0.163638 0.673133 -0.176870 -0.757147 0.002051 -0.458328 0.165056 0.138375 0.267142 -0.084924 -0.228049 1.168629 -0.555559 0.408639 -0.052003 -0.017443 -0.221313 0.082713 0.406874 0.593661 -0.431765 0.385305 0.209100 -0.010521 0.119855 0.471703 -0.109658 -0.213022 -0.431028 -0.249184 -0.141072 0.186647 -0.465751 0.529854 0.332299 -0.816978 0.229323 -0.212940 -0.244627 0.378776 
desk	0.564411 -0.802524 -0.413400 -0.069268 -0.147765 -0.463856 0.455825 -0.223927 -0.412838 -0.231817 -0.059742 0.390369 0.457541 -0.606905 -0.612957 -0.182476 0.012503 0.019386 -0.308947 -0.468432 -0.705261 -0.058164 0.142379 0.175038 0.037830 0.177723 0.305999 0.036947 -0.965666 0.474455 -0.129816 0.363205 0.253203 0.049913 0.148143 -0.497656 -0.389953 0.330114 -0.435966 0.549436 -0.360987 -0.071763 -0.170617 0.123506 0.055359 -0.286538 -0.074470 0.664410 0.137805 -0.164051 
colors	0.447048 -0.303990 -0.226031 -0.365075 0.648626 -0.823706 -0.063373 -0.378964 -0.385021 0.047288 -0.473772 0.370245 0.100211 -0.246571 -0.070287 -0.242779 -0.042610 -0.305836 -0.166923 0.171104 -0.727718 0.178051 -0.684737 0.713160 -0.050994 0.294282 -0.122631 0.199622 -0.019964 0.278365 -0.516184 0.184379 0.245217 -0.740778 0.796962 -0.193438 -0.334907 -0.170021 0.144521 -0.366779 0.031517 -0.334873 -0.240470 -0.048737 0.180145 -0.187678 -0.424224 -0.365976 -0.357046 0.273404 
robin	-0.168984 0.175875 -0.575724 0.460283 0.087497 -0.309685 0.001947 0.189180 -0.217493 -0.263874 -0.179229 -0.020809 -0.274780 -0.578240 -0.109248 0.322428 -0.156957 -0.387364 -0.296559 0.052613 -1.049762 0.037960 -0.217186 -0.325807 -0.360450 0.571221 -0.065516 -0.122337 -0.066947 -0.061648 -0.097260 0.234745 0.360180 -0.226518 0.104466 0.436910 0.070977 0.047922 -0.071923 0.315627 -0.866175 0.191391 0.171155 0.115638 0.402304 0.268171 -0.463714 0.139393 -0.295706 -0.087755 
piano	0.071252 -0.301505 -0.402971 -0.554403 -0.265397 -0.628757 0.409168 0.411484 -0.013103 -0.199111 -1.056638 -0.166513 0.058854 -0.778125 0.051813 -0.150307 -0.667486 0.976370 -0.162286 -0.248915 -0.818430 0.659777 -0.645311 -0.166341 0.441077 0.537698 0.055584 -0.047998 0.125527 0.772741 0.474926 0.042515 0.393108 -0.889891 -0.175802 -0.102054 0.178686 0.193056 -0.366064 0.360175 0.148612 -0.058830 0.090234 -0.280187 -0.150784 -0.030684 -0.542639 -0.203137 -0.619386 -0.055057 
instrument	0.341107 -0.052676 -0.052439 -0.758022 -0.249264 -0.294358 0.354499 -0.324537 0.287415 0.185920 -0.768851 0.201010 -0.261651 -0.536217 0.149460 -0.009335 -0.592048 0.579695 -0.441308 -0.003087 -0.227414 -0.264774 -0.384805 -0.547156 0.242744 0.201640 0.311045 0.468172 -0.288686 0.493529 0.142150 -0.142534 0.232400 -0.411058 0.184260 0.383664 -0.132625 0.147492 0.217374 -0.135498 -0.207843 -0.075670 0.067132 -0.333091 -0.673023 -0.429532 -0.473992 -0.423370 -0.599970 0.274419 
cat	0.087668 -0.051189 -0.774759 -0.092237 0.527235 -0.218778 -0.296870 -0.115629 -0.012024 0.211263 0.027845 0.090223 -0.088299 -0.705713 -0.068310 -0.232487 -0.238625 -0.007045 0.037935 0.065991 -0.528900 0.363057 0.034768 -0.127386 0.050018 0.026747 0.238214 0.221907 -0.019060 0.951842 -0.144815 0.048811 0.227995 -0.109441 0.551813 0.394976 -0.284732 -0.017916 -0.420323 0.092119 -0.651783 0.079261 0.005682 0.354069 0.286812 -0.229459 0.151574 0.001504 -0.362437 0.032965 
lakes	0.455854 0.245926 -0.402369 -0.162624 -0.229073 -0.403364 -0.179008 -0.280735 -0.359397 -0.118983 -0.228884 0.590824 0.254215 0.315190 0.040438 -0.300200 0.267715 0.425546 0.406677 0.256300 -0.700431 0.461478 -0.198288 -0.560447 -0.391586 -0.236355 0.178680 0.289911 -0.268794 0.230965 -0.886129 -0.595912 0.708347 -0.159400 -0.480800 0.658135 -0.034621 0.296674 -0.258091 -0.517186 -0.180283 0.616717 -0.439987 -0.347147 0.248113 -1.043919 0.056188 0.239365 -0.282897 0.730687 
sheet	0.170430 -0.310950 -0.773129 -0.546943 0.249889 -0.586795 0.046439 -0.294009 -0.089964 -0.157285 -0.377232 0.556295 -0.272437 0.297940 -0.289774 -0.123894 0.237308 0.082647 -0.276316 -0.775251 -0.155858 -0.594485 -0.128547 0.012461 0.514661 0.137011 0.119339 0.338567 -0.775794 0.383209 0.187373 0.205139 0.380433 -0.585261 0.426210 -0.109703 -0.288528 0.062789 0.135642 -0.053808 -0.037695 0.369364 0.137247 -0.333830 0.059558 0.055644 -0.049672 0.169188 -0.533321 -0.130965 
automobile	-0.120097 -0.162752 -0.133956 -0.327278 0.051866 -0.251164 0.186139 -0.124664 -0.194050 0.066659 -0.334430 0.125333 0.049838 -1.065573 -0.044978 -1.459447 0.410445 0.069905 -0.166398 0.142836 -0.277929 -0.016478 -0.267846 -0.039878 0.219732 -0.547181 -0.022074 -0.136985 -0.005479 0.049682 0.100701 0.517542 0.441604 -0.232868 -0.259316 0.005518 0.123826 -0.645713 0.040183 -0.112570 0.114250 0.180768 -0.159839 0.266830 -0.608985 0.000430 0.029684 0.052952 -0.779872 0.360014 
heroes	0.460009 0.073308 -0.004883 -0.569020 0.542206 -0.833738 0.044794 0.128099 -0.186487 0.057531 0.097014 -0.038066 0.144402 -0.806889 -0.499755 0.039711 -0.003152 0.040855 -0.009311 -0.035596 -0.302115 0.143779 -0.336555 -0.256936 -0.254922 0.668225 -0.756748 0.161295 0.225247 0.211258 -0.410598 0.203326 -0.232134 -0.218170 0.457079 0.258744 -0.101327 0.102370 -0.060100 0.408460 -0.001244 0.372231 -0.332461 0.435757 0.414927 0.204115 -0.168325 -0.106036 -0.287364 0.186406 
hat	0.687856 -0.153368 -0.417427 -0.172917 0.542481 -0.562366 -0.246675 0.177459 -0.109949 0.435855 -0.020768 0.237010 0.316542 -0.383831 -0.056485 0.020345 -0.107347 -0.182417 -0.280513 -0.205142 -0.622929 -0.303147 -0.529833 -0.089143 0.307956 0.426477 0.202831 0.224476 -0.143056 0.311019 -0.032876 0.178098 0.462819 -0.159486 0.591478 -0.195311 -0.130985 -0.455217 -0.312717 0.149214 -0.571372 -0.280189 0.149818 -0.014685 0.424490 -0.335048 -0.148305 -0.160235 -0.476813 -0.049939 
shirt	0.453723 -0.403683 -0.420888 -0.100668 0.829441 -0.716814 -0.275421 0.267902 -0.311157 0.605210 -0.213548 0.145560 0.553097 -0.452967 -0.036397 0.284554 0.171605 -0.409256 -0.538345 -0.228501 -0.624331 -0.445951 -0.775028 0.391516 0.149609 0.569773 0.773438 -0.215797 -0.149243 0.277856 -0.046691 0.590292 0.640148 -0.393749 0.899365 -0.318620 -0.380794 -0.389470 -0.211938 0.067246 -0.326216 -0.058518 -0.071565 -0.188933 0.248268 -0.249268 0.011598 0.006795 -0.399937 0.396087 
cow	-0.020690 0.210182 -0.812223 -0.064335 0.495396 0.281256 -0.291919 -0.165583 0.183621 -0.181303 -0.010141 0.288609 -0.010760 -0.463542 0.104086 -0.580055 0.079210 -0.001209 0.422324 -0.055445 -0.345128 0.577934 -0.214246 -0.432284 0.349948 -0.126340 0.253227 0.326656 0.675822 0.740060 -0.025778 0.102185 1.052567 -0.135787 0.798997 0.058070 -0.237134 0.406384 -0.531946 0.159167 -0.294577 -0.073090 -0.016734 0.233008 -0.145779 -0.079863 0.436973 0.043162 -0.649242 0.199167 
vegetables	0.491917 0.329153 -1.145378 -0.600762 0.206762 0.609756 -0.750048 -0.011064 -0.501882 -0.625663 -0.685226 1.159690 -0.388960 0.133641 0.284282 -0.521938 -0.005685 -0.124395 -0.151433 -0.000234 -0.575197 0.500504 -0.419877 0.524721 0.086726 -0.072589 -0.047632 -0.088589 0.444177 0.990419 0.005822 0.396680 0.862364 -0.312126 0.377514 -0.128047 -0.051381 -0.093790 -0.048277 -0.122427 0.062848 0.040873 -0.525123 -0.332181 0.326619 0.004370 0.109631 0.778421 0.176233 0.016193 
meal	0.627211 -0.137678 -1.053274 -0.071509 0.225835 0.364759 -0.650271 0.365436 -0.441914 -0.238786 -0.623405 0.472744 -0.211595 -0.324656 -0.007253 -0.186038 -0.338184 0.422594 -0.000951 -0.157897 -0.272155 0.472721 -0.352895 0.414236 0.024482 -0.004075 -0.113666 0.340814 0.384648 0.699969 0.310586 0.227891 0.554747 -0.222881 0.215505 -0.063562 -0.207191 -0.080203 -0.438969 -0.033676 -0.143550 -0.163559 -0.413554 -0.473814 0.227225 -0.177325 0.402383 0.731956 0.453814 0.163567 
pet	0.104615 0.024810 -0.644018 -0.146407 0.710524 -0.000218 -0.316291 -0.043852 -0.438231 0.019158 0.265803 0.296095 -0.214072 -0.838275 0.158923 -0.263901 -0.160859 0.040344 -0.143381 0.296308 -0.216918 0.484516 0.170229 -0.069981 0.055824 -0.201307 0.011018 0.111427 0.217989 0.859201 0.174878 0.228015 0.485722 -0.215657 0.637768 0.111502 -0.300922 0.060004 -0.524999 0.246947 -0.492813 0.115017 0.138862 0.221582 -0.306999 0.026987 -0.050370 0.445678 -0.421596 -0.015851 
pot	0.363598 0.005769 -1.158008 -0.605202 0.436287 -0.287310 -0.465682 -0.376782 0.039101 -0.636222 -0.040816 0.228093 0.088768 0.434377 -0.094668 -0.111877 -0.235357 0.083877 -0.238441 -0.530641 -0.644083 0.180440 -0.063681 -0.293248 0.347743 0.101128 -0.086426 0.370088 0.686565 0.774611 0.285360 0.550260 0.326845 -0.045100 0.214619 0.002207 -0.071574 -0.073630 0.460440 0.268200 -0.132018 0.331231 -0.237630 -0.284115 0.541521 -0.143807 -0.201784 0.409132 0.371310 0.567704 
rings	0.345111 -0.380626 -0.729083 -0.286057 0.375655 -0.641460 0.117788 -0.116720 -0.023658 -0.077346 -0.179270 0.176229 -0.063154 -0.309687 -0.112348 -0.115065 0.006020 0.017312 0.196465 -0.473365 -0.387706 0.151517 -0.348073 -0.121897 0.130332 0.385966 -0.626604 0.339070 -0.197877 0.570505 -0.171062 0.280922 -0.148638 -0.257069 0.845610 0.772694 -0.396904 -0.199410 0.165647 0.229644 -0.236080 0.114547 0.135063 -0.214382 0.136386 -0.478081 -0.303078 -0.132180 -0.106019 -0.040659 
pen	-0.019013 0.194039 -0.777081 0.123620 0.669797 -0.476686 0.027197 -0.140367 0.125245 -0.031818 0.159166 0.095605 0.217122 -0.818556 -0.126356 0.014992 -0.070865 -0.411510 -0.262864 -0.480646 -0.927116 -0.068418 -0.017388 0.235383 0.177509 0.139214 0.247993 0.290225 0.145836 0.482748 -0.006505 0.015424 0.182671 0.091683 -0.018115 -0.268659 -0.114033 0.330763 -0.194232 0.215342 -0.241185 -0.253520 -0.116453 0.121516 0.196682 0.096570 -0.071434 -0.410019 -0.040990 -0.271732 
flower	0.759301 0.448291 -0.559750 0.211792 0.117781 -0.116336 0.204261 -0.123560 -0.266631 0.322142 -0.556238 0.455227 -0.332998 0.051451 -0.116865 -0.303177 -0.062578 -0.517520 -0.395946 0.056348 -0.659847 0.403566 -0.656812 0.228125 0.098803 0.419156 0.102443 0.323878 0.158196 0.633269 -0.396182 0.442828 0.826215 -0.576264 0.517636 0.159099 -0.473519 0.050647 0.015024 0.288068 -0.180564 0.410594 0.112910 -0.160587 0.632591 -0.278839 -0.214266 -0.029405 -0.268085 0.148441 
stamp	0.606796 0.076609 -0.225834 -0.334893 0.383833 -0.638708 -0.017744 -0.069739 0.252260 0.184848 0.156000 0.572263 -0.308751 -0.721905 0.183625 -0.251175 -0.026073 -0.143103 -0.017319 -0.263224 -0.172668 -0.176954 -0.312578 -0.101808 0.145406 -0.015078 0.113463 0.319344 -0.012324 0.026502 0.141459 0.504882 0.523986 0.144497 0.417006 -0.176644 -0.174323 0.190463 0.151422 0.654619 -0.010879 -0.093008 -0.122361 0.001248 0.122224 -0.284613 0.151701 0.099435 -0.230084 -0.205315 
meals	0.473802 -0.077766 -0.882320 -0.254971 0.071586 0.118193 -0.548298 0.448900 -0.651888 0.043648 -0.291652 0.733080 0.133423 -0.410176 -0.050163 -0.321665 -0.618502 0.567420 -0.355774 0.011512 0.071706 0.808708 -0.158409 0.544485 -0.093872 -0.206583 -0.095419 0.435396 -0.092982 0.413122 0.409987 0.213704 0.728954 -0.455880 -0.153600 0.026340 -0.066383 -0.222609 -0.260017 0.253894 -0.043069 -0.142230 -0.306755 -0.607149 0.123549 0.000487 0.222469 1.091608 0.485201 0.258913 
chairs	0.493863 0.373230 -0.663181 -0.069183 -0.020309 -0.717509 0.268161 0.339175 -0.457061 -0.283964 0.142637 0.291937 0.292185 -0.074298 -0.459776 0.060480 -0.257692 0.619335 -0.283738 0.106104 -0.773786 -0.154594 -0.257875 0.231407 0.324980 0.008355 0.459627 0.048902 -0.347050 0.253864 0.222775 0.334927 0.655898 -0.029796 -0.086764 -0.306577 -0.499205 -0.043445 -0.248452 0.099570 -0.073991 -0.309350 0.013915 0.096318 -0.683087 -0.574895 -0.664266 0.347517 -0.067058 0.196783 
drinks	0.577866 0.094934 -0.814431 -0.082901 0.916172 0.304530 -0.460852 0.220310 -0.653242 -0.086092 -0.252958 0.185111 -0.374330 -0.696477 0.326645 -0.416124 -0.234919 0.428546 -0.219015 -0.145105 -0.359564 0.405235 -0.399243 0.165415 0.176452 -0.065277 0.231388 0.024466 -0.112763 0.520178 0.478010 0.276822 0.707183 -0.241111 0.322576 0.118629 -0.020578 -0.556613 0.149657 -0.293859 -0.031310 0.155997 0.002869 -0.591406 -0.120252 -0.170893 0.413344 0.685832 0.394204 0.174076 
dish	0.372736 -0.433630 -0.752501 -0.658411 0.700083 0.373112 -0.820469 -0.244727 -0.604001 -0.509982 -0.392303 0.456714 -0.258998 0.063307 -0.524570 -0.118445 -0.610464 -0.337604 0.089106 -0.274230 -1.122468 0.313857 -0.222067 0.308929 0.369097 0.316360 0.258005 0.354338 -0.009620 0.764987 0.221939 -0.293601 0.315651 -0.639739 0.172461 0.133806 -0.084087 0.123269 -0.062121 -0.236294 0.117598 -0.382252 -0.188456 -0.667090 0.241481 0.206661 0.105846 0.663537 -0.035502 -0.144077 
ham	-0.269862 0.245569 -0.545058 -0.242869 0.957774 -0.061985 -0.911560 0.341817 -0.251415 -0.281500 -0.825897 0.379114 -0.199280 -0.195930 -0.319137 0.301781 0.055924 -1.291752 -0.515236 -0.418952 -0.569172 0.100390 -0.344584 0.154126 -0.129169 0.521121 -0.097689 -0.216669 -0.091365 -0.354042 -0.338285 -0.023545 0.889690 -0.195514 0.521913 0.130640 0.061202 0.057906 -0.681334 -0.166094 -0.120788 0.204693 0.174622 -0.461839 0.366623 0.546811 0.551997 0.474219 -0.230733 -0.175627 
container	-0.000948 -0.121525 -0.896280 -0.834993 -0.033893 -0.081356 -0.528984 -0.245010 -0.356075 -0.224882 -0.561015 0.474805 -0.412672 -0.290336 -0.552958 -0.677027 0.141015 -0.575576 -0.296374 -0.577600 -0.410728 -0.222993 0.112627 0.318430 0.052251 -0.040187 0.199525 -0.060616 -0.420335 0.769914 0.148376 -0.302101 0.478220 -0.294998 0.305472 0.689457 -0.352619 -0.386672 0.213630 0.270274 0.182554 0.290305 0.011277 -0.293648 -0.362816 -0.537106 0.130760 0.744278 0.081662 0.134372 
plates	0.442900 -0.062504 -0.690506 -0.730385 0.185254 -0.443418 -0.145247 -0.520148 -0.186032 -0.064825 -0.192599 0.355519 0.159148 -0.142953 -0.352462 -0.771980 0.173380 -0.167774 -0.292476 -0.673246 -0.439453 0.117078 -0.009667 0.028812 0.296564 -0.304665 0.319366 0.383170 -0.216467 0.328044 0.443882 0.302279 0.291311 -0.936888 0.445508 0.442314 -0.505520 -0.408858 -0.060816 -0.306796 0.383839 -0.330564 -0.488103 -0.426182 -0.196678 -0.455820 0.018797 0.177722 -0.124548 -0.164899 
cats	-0.108788 0.219063 -0.727681 0.023961 0.708152 -0.134431 -0.329722 0.102109 -0.460382 -0.135345 0.125590 0.199520 -0.019827 -0.384254 0.105621 -0.305275 -0.200300 -0.088379 0.075084 0.054283 -0.132335 0.776882 -0.208755 0.109941 -0.320953 0.121701 -0.174151 0.267295 0.361183 0.849280 -0.321427 -0.137755 0.752832 -0.169569 0.724478 0.367775 -0.114884 0.231072 -0.565624 0.262700 -0.743653 0.092756 -0.259113 0.491830 -0.063234 -0.151815 0.080953 -0.260034 -0.267749 0.116328 
hammer	-0.052341 0.129154 -0.662062 -0.338097 -0.004745 -0.541074 0.252199 0.244088 0.173704 -0.071377 -0.002114 0.285356 0.135307 -0.470914 -0.058946 -0.058084 0.318629 0.166632 -0.178646 -0.352715 -0.657701 -0.054258 -0.196740 -0.486474 0.337600 0.187440 -0.005520 0.192845 -0.074061 0.043326 0.251928 0.418294 0.188407 0.045477 0.450856 0.261096 -0.575238 0.066334 -0.036917 -0.242676 -0.244106 0.163287 0.167723 0.221147 -0.119261 0.010727 -0.385899 -0.316294 -0.484327 -0.076864 
mouse	0.133234 -0.124336 -0.643854 -0.441662 0.377165 -0.224939 0.254114 -0.568521 -0.453754 -0.090185 0.309960 0.213335 -0.209013 -0.934658 0.018579 -0.005693 -0.505834 -0.393489 -0.022640 0.035862 -0.641701 0.413168 -0.284838 0.055175 -0.136767 0.045075 0.276358 0.376240 0.256057 1.134475 -0.039669 -0.082945 0.097513 0.155238 0.697229 0.315824 -0.542929 0.122687 -0.562027 -0.001209 -0.780452 0.007926 0.429978 0.040254 0.390692 -0.043965 -0.236499 -0.217287 -0.421276 -0.207825 
sheets	0.464219 0.022706 -0.697124 -0.418344 0.172549 -0.814732 -0.044739 -0.217950 -0.354221 -0.088514 0.272829 0.440075 -0.392472 0.341374 -0.149792 -0.115334 0.304755 0.082991 -0.513824 -0.556009 -0.132306 -0.144224 -0.218244 0.305910 0.615761 -0.068355 0.000178 0.095665 -0.869909 0.666538 0.014241 0.258240 0.635615 -0.734122 0.308553 -0.100363 -0.420026 0.151343 -0.053336 -0.178031 -0.028456 0.291161 -0.070191 0.018433 0.019855 0.050372 -0.339644 0.269568 -0.174167 -0.087923 
poem	0.428087 0.192454 -0.373104 -0.149419 0.276609 -0.433622 0.489336 -0.001604 0.348214 -0.303881 -0.830781 -0.206283 -0.402400 -0.798969 -0.342373 -0.115073 0.002959 0.297291 -0.015927 0.236564 -0.778057 0.419965 -0.144597 -0.327046 0.249203 0.496518 -0.035250 0.477138 0.315091 0.786205 0.012583 0.130160 -0.158232 -0.408257 0.133972 0.001417 0.048212 0.485496 -0.686979 0.313064 0.475942 -0.217237 -1.083799 -0.328648 0.817491 0.005359 0.190962 -0.278857 -0.413431 -0.336553 
mineral	0.371213 0.353874 -0.273058 -0.363794 0.406175 0.118861 -0.095160 -0.267259 -0.444524 -0.201151 -0.424628 0.866669 -0.622738 0.003099 0.312528 -0.577865 0.596231 0.363630 0.045078 -0.001756 -0.811438 0.095120 0.237450 -0.008514 0.340061 -0.222958 0.051543 0.336587 -0.153928 0.589971 -0.373055 0.160947 0.384852 -0.203936 -0.137974 0.714349 -0.232171 0.227979 0.285712 -0.582327 0.123403 0.766920 -0.492006 -0.362232 -0.452713 -0.803403 -0.179967 0.021012 -0.039916 -0.023788 
singers	0.592761 0.128146 -0.201471 -0.525256 -0.132431 -0.610336 0.232825 0.436836 -0.524324 0.280776 -0.472746 -0.414897 -0.105739 -0.514568 0.324220 -0.047810 -0.850991 0.748609 0.391676 0.356515 -0.882725 0.669886 -0.728307 0.089557 0.041583 0.942136 -0.362065 -0.196795 -0.013459 0.356712 0.402239 0.169467 0.128676 -0.930789 0.075965 0.048485 0.268319 0.115758 -0.201936 0.134639 0.410367 0.216138 -0.433251 0.041465 -0.167404 -0.013895 -0.105760 0.011891 -0.560125 -0.096882 
dishes	0.656201 -0.015022 -0.759387 -0.675391 0.390915 0.340488 -0.858845 -0.103529 -0.758276 -0.413151 -0.171551 0.619722 -0.162009 -0.220770 -0.254508 -0.307771 -0.654802 -0.077808 -0.039357 -0.056062 -0.862777 0.642030 -0.052836 0.532012 0.474203 0.489629 0.201928 0.097373 0.046542 0.733057 0.267691 -0.037014 0.557638 -0.784724 0.238493 -0.020977 -0.105214 -0.001484 -0.116578 0.070593 0.221043 -0.537341 -0.385957 -0.591653 0.035706 -0.080452 -0.053565 0.640707 0.214409 -0.045610 
coins	0.741189 0.053674 -0.656345 -0.632936 0.038014 -0.940003 -0.158845 -0.306652 0.415071 0.401791 -0.281964 0.675189 -0.316574 -0.512346 -0.289313 -0.457952 0.373798 0.476018 0.012666 -0.755521 -0.176224 0.096032 -0.556154 -0.039148 0.325432 -0.176900 -0.345908 -0.008692 0.172107 0.534461 -0.149999 0.438481 0.137402 -0.244844 1.017541 0.253479 0.152433 0.354501 -0.138346 0.512212 0.009282 -0.306253 -0.134682 -0.800293 -0.116060 -0.885532 0.484443 -0.090359 -0.253994 -0.484489 
sculpture	0.085665 0.252264 -0.114340 -0.430013 0.293038 -0.769765 0.082229 0.134715 -0.032019 0.058357 -0.376138 0.536950 0.027749 -0.554230 -0.162040 -0.786692 0.313774 0.659793 -0.347460 0.058099 -0.808166 -0.071841 -0.224824 0.135944 0.059511 0.402547 0.073664 0.468087 0.420001 0.519890 -0.145064 0.056247 0.307408 -0.508874 0.312800 -0.139763 -0.563584 0.340312 -0.445128 0.570609 0.557372 -0.117000 -0.144914 -0.368669 0.179956 -0.646816 -0.770712 -0.313446 -0.401597 -0.139916 
fathers	0.448188 0.139811 -0.531702 -0.269449 0.522539 -0.185574 0.025388 -0.154843 -0.125694 -0.222058 -0.198247 -0.114003 0.583906 -0.597258 -0.169662 0.008126 -0.007091 0.384469 -0.610705 0.731273 0.048131 0.108020 -0.489989 0.151400 -0.272103 0.131220 -0.452124 0.080852 0.164596 0.276784 0.090126 0.515948 0.073689 -0.384065 -0.158826 0.437792 0.075273 0.415724 -0.614916 0.398178 0.197410 0.116194 -0.553527 0.185944 -0.011501 0.128237 0.133863 -0.190780 -0.197363 0.098703 
poems	0.736436 0.286656 -0.353810 -0.345210 0.238855 -0.339787 0.466369 -0.106762 -0.016980 -0.275969 -0.614670 -0.005047 -0.331275 -0.804144 -0.153041 0.058676 -0.041950 0.498941 0.017874 -0.047415 -0.637681 0.645954 -0.100642 0.131728 0.349383 0.502981 -0.041409 0.193296 0.226556 0.723109 -0.041221 0.112797 0.125672 -0.657593 -0.113771 -0.070498 0.153897 0.727485 -0.752700 0.488091 0.712301 -0.083743 -1.333121 -0.309179 0.803624 0.272506 -0.157839 -0.292614 -0.232829 -0.529063 
boots	0.423254 -0.073352 -0.454561 -0.073145 0.610781 -0.798408 -0.371589 0.271890 -0.274798 0.506228 -0.149371 0.523420 0.261210 -0.635467 -0.115990 0.059990 0.213624 0.227000 -0.304054 0.032426 -0.443993 0.065658 -0.425624 0.246465 0.311657 0.330025 0.458048 -0.152580 -0.258575 0.186963 0.204408 0.240541 0.638394 -0.392908 0.879992 -0.157403 -0.024882 -0.315167 0.027458 -0.416237 -0.528757 0.193810 0.048616 0.313196 0.262593 -0.390975 -0.072591 -0.088172 -0.574663 0.465281 
containers	0.342438 0.070571 -0.887412 -0.748867 -0.074377 -0.283710 -0.265670 0.059613 -0.575473 -0.302181 -0.154467 0.750866 -0.656951 -0.273380 -0.169226 -0.548110 0.163861 -0.530309 -0.340472 -0.646471 -0.207352 -0.092550 0.049083 0.373662 0.106535 -0.306188 0.167443 -0.203408 -0.080579 0.534579 0.109242 -0.358547 0.822464 -0.484098 0.481858 0.567244 -0.119937 -0.197245 0.239212 0.138648 0.334694 0.162293 -0.240434 -0.236121 -0.492855 -0.807356 -0.097674 0.689157 0.120222 0.360031 
shirts	0.828438 -0.059965 -0.549897 -0.204307 0.635356 -0.883728 -0.247869 0.099295 -0.475152 0.320391 0.061550 0.047632 0.632699 -0.376350 0.202071 -0.056564 -0.043856 -0.268589 -0.371952 0.016286 -0.376551 0.055571 -0.592856 0.659425 0.106829 0.560686 0.403286 -0.325433 -0.001443 0.118305 -0.192878 0.687242 0.676423 -0.470467 0.928965 -0.455064 -0.228349 -0.396870 0.142039 0.076322 -0.328692 -0.129610 -0.070965 -0.261565 0.053243 -0.387289 -0.013326 -0.099019 -0.379606 0.533542 
vegetable	0.386341 0.377990 -1.157353 -0.369957 0.178356 0.523761 -0.694204 -0.054309 -0.492884 -0.789573 -0.843360 0.886454 -0.344611 0.137200 0.190219 -0.574009 0.031862 -0.214373 -0.081275 -0.048530 -0.563721 0.119775 -0.175667 0.387691 0.334267 0.034627 0.020347 0.054555 0.237803 0.798712 -0.223451 0.421872 0.710837 -0.337924 0.373323 -0.058580 -0.268067 -0.154210 0.092271 -0.236082 0.035812 0.191402 -0.250725 -0.076005 0.286847 -0.120360 0.124123 0.700822 0.118174 0.118453 
stamps	0.784674 -0.072228 -0.519755 -0.400848 -0.003319 -0.885086 -0.104918 -0.137316 0.003292 0.547839 0.194624 0.947705 -0.280114 -0.828864 0.053590 -0.429393 -0.079056 -0.101671 -0.235913 -0.024432 -0.113520 0.023819 -0.426697 0.174714 -0.066531 -0.398451 0.111894 -0.001735 0.008992 0.433429 0.114152 0.460012 0.746643 -0.155560 0.249697 0.012932 -0.045441 0.457833 -0.085223 0.888815 0.241028 -0.242160 -0.273891 -0.160972 0.059822 -0.052492 0.346822 0.092481 -0.116778 -0.497726 
shoe	0.063380 -0.442004 -0.451807 -0.189578 0.495284 -0.458215 -0.311905 0.132858 -0.229643 -0.132210 -0.027676 0.519516 0.451565 -0.619208 0.080098 -0.674512 0.129457 -0.107673 -0.264149 -0.007133 -0.252097 -0.398084 -0.473030 0.149197 0.387577 0.264438 0.492253 -0.334752 -0.089722 0.350148 0.227009 0.431651 0.297991 -0.539653 0.365575 0.034471 -0.329511 -0.446195 -0.121079 0.078188 -0.126577 0.181611 0.198549 -0.017608 0.020614 -0.245246 -0.047140 0.090712 -0.392834 -0.117967 
penny	0.428938 -0.397327 -0.679676 0.172703 0.333762 -0.256613 -0.041513 0.597612 -0.095425 -0.234329 -0.158499 -0.032178 -0.612682 -0.346288 0.111784 -0.594451 0.075543 0.314984 -0.293158 -0.050538 -0.313032 -0.114865 -0.317317 0.105491 -0.053750 -0.163728 -0.147194 0.229730 -0.434161 0.123336 0.228913 0.359969 0.317821 0.026381 0.442471 0.017396 0.207254 -0.090880 -0.793398 0.083621 -0.563680 0.749985 0.062738 -0.393872 0.018058 0.185191 0.014611 -0.260178 0.269667 -0.149370 
libraries	-0.138618 -0.167734 -0.299854 -0.771681 0.240682 -0.536841 0.226455 -0.358679 -0.735459 -0.459699 -0.105811 0.758403 -0.253313 -0.577483 0.056344 -0.356017 -0.623646 0.016534 -0.297107 0.498830 0.039803 0.357533 -0.060222 0.165051 0.537896 -0.032050 -0.258822 0.192253 -0.449161 0.086858 -0.446656 0.087859 0.552826 -0.395853 -0.468813 -0.209602 0.342723 0.992627 -0.335906 0.671619 0.349530 -0.120158 -0.056255 -0.223282 0.109621 -0.585380 -0.312196 -0.100907 -0.075957 -0.755060 
pigs	0.120566 0.295334 -0.769066 -0.540601 0.445753 0.329010 -0.537427 -0.220605 0.304133 -0.492260 0.476191 0.374107 -0.120905 -0.467133 0.354916 -0.251742 -0.306989 -0.435563 0.335194 0.080963 -0.442697 0.410652 -0.038701 0.240785 -0.093938 -0.108673 0.115818 0.051426 0.633281 0.933964 -0.436231 -0.303467 0.867219 -0.146728 0.681582 0.349356 -0.113590 0.520668 -0.718479 0.558607 -0.101282 -0.058900 -0.493134 0.418905 -0.162656 -0.206354 0.335597 -0.018917 -0.020249 0.525015 
pig	0.033782 0.251261 -0.998078 -0.222651 0.725414 0.138325 -0.320201 0.080909 0.065927 -0.312745 -0.041022 0.313470 0.144679 -0.482226 0.135094 -0.295498 -0.211642 -0.263142 0.300256 0.025704 -0.676591 0.264828 0.033907 -0.133051 0.045086 0.106855 0.296068 0.219713 0.525390 0.926102 0.010464 0.091847 0.640684 -0.113263 0.769262 0.246550 -0.262023 0.296942 -0.402946 0.172803 -0.189219 -0.091707 -0.102490 0.426346 -0.047645 -0.179221 0.327927 -0.048263 -0.157484 0.020618 
dresses	0.880247 -0.535477 -0.361449 0.238468 0.161905 -0.732010 -0.176847 0.257309 -0.521712 0.336298 -0.073402 0.353506 0.566128 -0.421918 0.120231 -0.516313 0.088023 0.335056 -0.329868 0.420125 -0.553829 0.147891 -0.848201 0.816684 0.202782 0.854939 0.392739 -0.262085 0.014851 0.628233 0.220352 0.482479 0.741151 -0.660310 0.996040 0.027623 -0.127471 -0.232490 0.109145 -0.251243 -0.370336 -0.489513 -0.464420 -0.113617 0.316133 -0.095109 -0.407131 0.145928 -0.616663 -0.067399 
coin	0.365664 -0.226026 -0.607115 -0.040015 0.241315 -0.518141 -0.252342 -0.021195 0.374806 -0.017590 -0.100680 0.569779 -0.238629 -0.436011 -0.183381 -0.313222 -0.008638 0.055398 -0.141054 -0.531978 -0.455411 -0.087387 -0.670472 -0.305922 0.141568 0.119003 -0.132038 0.209665 -0.162879 0.492123 -0.078619 0.468432 0.073841 -0.121622 0.615752 0.132367 0.124414 0.050993 0.062053 0.416518 -0.265796 -0.187342 0.060872 -0.273927 -0.011493 -0.530981 0.104491 -0.390472 -0.219196 -0.529591 
appliances	0.231166 -0.133134 -0.608528 -0.589225 0.037674 -0.129137 -0.225363 0.063267 -0.961769 -0.475306 -0.253817 0.462126 -0.437189 -0.711018 -0.136643 -1.111344 0.116718 -0.424548 -0.423441 0.397364 -0.161283 0.034108 -0.291352 0.689960 0.534554 -0.525079 0.093899 -0.684910 -0.573697 0.892013 0.521058 0.221717 0.239980 -0.111970 0.131550 -0.288601 0.145917 -0.022765 0.147274 0.271194 0.074566 0.358988 0.005733 -0.390170 -0.576017 -0.183232 -0.684745 0.338784 -0.227321 0.260709 
insects	-0.003543 0.688856 -0.874320 -0.748494 0.637114 0.449687 -0.041929 -0.664799 -0.654820 0.118902 0.195520 0.889273 -0.547396 0.168984 -0.063826 0.041779 -0.299666 0.133872 0.016320 0.206390 -0.685769 0.651157 -0.471588 0.326669 -0.078805 -0.131137 -0.104890 -0.216504 0.074541 1.410827 -0.788966 -0.347755 0.858002 -0.139447 0.862584 0.743147 -0.424091 0.207059 -0.511631 0.113785 -0.891938 -0.221085 -0.533433 -0.177068 0.499364 -0.159117 -0.380514 -0.352170 0.012986 0.958825 
cows	0.089545 0.338286 -1.168973 -0.218615 0.432187 0.527589 -0.071470 0.177963 -0.097899 -0.005119 0.066853 0.586882 -0.029506 -0.320699 0.059094 -0.733079 0.048693 0.046725 0.190849 0.241462 -0.189110 0.726554 -0.308000 0.100457 0.297890 -0.173712 -0.038329 0.143498 0.904321 0.745451 -0.035989 0.065909 0.812869 -0.179876 0.484017 0.052774 -0.156072 0.328359 -0.622179 -0.177332 -0.166650 0.110314 -0.326005 0.263254 -0.094830 -0.358838 0.306751 -0.153846 -0.279728 0.251629 
snake	0.032360 0.323933 -0.619576 -0.390258 0.389711 -0.099076 -0.122520 -0.093228 0.040959 0.337808 -0.002783 0.369174 0.067838 -0.208249 -0.092092 -0.299457 -0.118744 -0.149777 0.024600 0.251365 -0.703654 0.414084 0.130581 -0.408874 0.363382 0.091191 0.127568 0.565197 -0.034965 0.801941 -0.375571 0.003746 0.163392 -0.099027 0.761873 0.674270 -0.431654 -0.240279 -0.616477 -0.154545 -0.643979 0.274158 -0.253091 0.127156 0.513407 -0.378396 0.150430 -0.015547 -0.292987 0.044375 
mice	-0.437955 0.111754 -0.683957 -0.626099 0.701587 0.374893 0.179483 -0.526112 -0.266136 -0.294453 0.065354 0.277670 -0.311381 -0.552643 0.335432 -0.030691 -0.559241 -0.106687 0.049767 -0.012964 -0.490753 0.704994 -0.633271 0.664946 -0.149198 -0.334908 -0.000112 0.177204 0.774391 1.275750 -0.064166 -0.349796 0.420985 -0.024546 0.714711 0.666185 -0.588290 0.382101 -0.373561 0.162980 -0.566686 0.284995 -0.030863 0.179012 0.059284 -0.060135 -0.366864 -0.004043 -0.322708 0.247371 
boot	-0.290544 0.058177 -0.552574 -0.570329 0.276020 -1.034273 -0.219080 0.035723 -0.372764 0.330872 -0.104864 0.396118 0.307303 -0.393097 0.195316 0.280574 -0.114598 -0.470390 -0.406685 -0.299327 -0.124064 0.013342 -0.301965 0.249670 0.301772 0.207362 0.329320 0.446524 0.076461 0.248802 0.221862 -0.019506 0.173358 -0.273363 0.084857 -0.213615 -0.010011 -0.255321 -0.200029 0.084506 -0.579594 0.018161 0.030503 0.179727 0.428649 -0.118673 -0.010437 -0.105316 -0.377108 0.188443 
websites	-0.011216 0.097659 -0.463758 -0.815670 0.603927 -0.278263 0.020715 -0.771701 -0.871474 0.269981 0.482643 0.029079 -0.161755 -1.095886 0.536569 -0.125094 -0.328221 -0.454066 0.336842 -0.003366 0.261408 0.413941 0.361641 -0.036918 0.576222 0.426990 -0.182422 0.069405 -0.824891 0.074919 0.079222 0.187095 -0.006604 -0.191568 0.132530 -0.120401 0.138947 0.483697 -0.271926 0.301714 0.296186 -0.039003 -0.412702 -0.455892 0.190412 -0.012926 0.091701 0.305886 -0.513190 -0.507183 
minerals	0.405572 0.246870 -0.432911 -0.414632 0.209767 0.400192 0.207966 -0.577439 -0.456201 -0.268431 -0.339296 0.821847 -1.017159 0.043722 0.211046 -0.672411 0.634934 0.359287 -0.043075 -0.181047 -0.834524 0.182821 0.255268 0.050277 0.238261 -0.235207 -0.175391 0.239202 -0.007588 0.570779 -0.482728 0.097146 0.482111 -0.153317 0.210413 0.735587 -0.333914 0.265862 0.345810 -0.475493 0.087211 1.053218 -0.673928 -0.281333 -0.585606 -0.580259 -0.226784 -0.012589 -0.229297 0.008828 
laptop	0.099040 -0.849585 -0.419620 -0.755181 -0.064849 -0.356992 0.327071 -0.461324 -0.769642 0.044814 0.013213 0.356570 0.150346 -0.922142 -0.028670 -0.180525 -0.361876 -0.596732 -0.282570 -0.039596 0.025057 -0.225469 -0.233091 0.183555 0.756719 0.081786 0.328345 0.114537 -0.159610 0.770793 0.691542 0.149143 0.060200 -0.126048 0.092145 -0.093173 0.275044 -0.148988 -0.512521 0.440953 -0.245175 0.142377 0.272232 -0.501408 -0.021620 -0.450817 -0.430094 0.506882 0.144962 0.193925 
banana	0.760796 0.321336 -0.856775 -0.191850 0.038877 -0.235080 -0.661089 -0.267600 -0.369506 -0.340453 -0.130046 0.471736 0.003386 -0.094254 0.239718 -0.232167 -0.120046 -0.198307 -0.098898 0.083935 -0.702519 -0.243604 -0.085002 -0.182418 -0.004748 0.129681 0.534165 0.126744 0.230132 0.673726 0.010060 0.501401 0.732765 -0.434442 0.166016 0.273505 0.026078 -0.235319 0.282898 -0.449292 -0.253416 0.278553 -0.014373 -0.179683 0.093419 0.010240 0.438405 0.105117 0.273328 0.198606 
spears	0.232642 -0.288794 -0.612897 0.275914 -0.079053 -0.696309 -0.485162 -0.072982 -0.657369 -0.096746 -0.089091 -0.170031 0.122837 -0.448686 0.264852 0.229161 -0.424461 -0.186619 -0.105322 0.111706 -0.375803 0.340781 -0.116502 -0.320664 0.177782 0.535638 0.132317 0.205976 -0.022842 0.296159 0.415363 0.722793 0.522417 -0.561481 1.091159 0.395770 -0.163303 0.118012 0.024274 -0.486501 -0.284680 0.744328 -0.171053 -0.121015 0.186942 0.082654 -0.021822 0.003831 -0.209340 0.059557 
hats	1.022003 -0.052018 -0.719536 -0.014046 0.521601 -0.836005 -0.099209 0.316409 -0.248635 0.248712 0.205299 0.443296 0.421129 -0.424729 -0.055090 -0.223682 -0.084212 0.118108 -0.319019 0.224079 -0.421629 0.187952 -0.597685 0.436053 0.121391 0.378317 0.067404 -0.264840 -0.185065 0.197076 -0.028193 0.270776 0.680801 -0.467829 0.869243 -0.191306 -0.184038 -0.452176 -0.120670 -0.005483 -0.137713 -0.220571 -0.158656 0.039666 0.030854 -0.325879 -0.238082 -0.189220 -0.274334 0.502457 
ranger	0.201605 -0.348947 0.052061 -0.408258 0.376540 -0.539803 -0.257120 0.196366 -0.396194 0.425709 -0.226416 0.288583 0.144363 -0.645969 -0.272155 -0.197142 -0.189560 -0.134757 -0.113841 -0.010296 -0.365362 0.109984 0.361951 -0.365121 -0.155870 -0.366342 -0.476817 0.541600 -0.281699 0.086373 -0.122524 0.162354 0.398630 0.022743 0.324970 0.263935 0.220257 -0.602365 -0.682119 -0.047912 -0.711107 0.491511 -0.235672 0.270433 0.537423 -0.467973 -0.285308 -0.029012 -0.248513 0.607169 
automobiles	0.122965 0.020595 -0.385540 -0.458585 -0.092435 -0.306937 0.214679 -0.096706 -0.312437 -0.129702 -0.044591 0.394996 -0.278716 -0.950289 -0.040405 -1.529544 0.442129 -0.212061 -0.153004 0.188978 -0.068011 0.275599 -0.274092 0.252390 0.128386 -0.366360 0.102768 -0.117628 -0.046600 0.469253 0.096392 0.385032 0.542465 -0.117322 -0.094016 0.039331 0.397504 -0.502251 0.212003 -0.124651 0.265152 -0.050674 -0.068676 -0.027434 -0.604716 0.032195 -0.497331 -0.007079 -0.296871 0.574461 
pets	0.104607 -0.143237 -0.724928 -0.098082 0.634843 -0.011576 -0.329361 0.087455 -0.657375 0.132812 0.486067 0.468690 -0.006763 -0.631340 0.103463 -0.493990 -0.196414 -0.036520 -0.318161 0.557585 0.015935 0.819005 0.094367 0.156747 -0.368113 -0.324222 -0.192582 0.022372 0.199418 0.980075 0.144618 0.119623 0.724754 -0.147793 0.646481 0.166129 -0.085237 0.087974 -0.515674 0.393319 -0.659201 0.072366 -0.358707 0.080329 -0.024781 -0.219040 0.115698 0.285837 -0.060767 0.343526 
pipelines	-0.389970 0.163443 -0.422623 -1.185805 -0.499726 0.340784 -0.089621 0.319535 -0.562700 -0.720906 0.241732 0.596175 -0.635705 -0.295426 -0.216569 -1.015946 0.501235 -0.261211 0.275322 0.026158 -0.366435 -0.127872 0.264946 -0.136871 0.761952 -0.041710 -0.349451 0.002492 -1.005625 -0.073976 -0.009331 -0.102238 0.071427 0.082947 -0.070007 0.872639 0.319653 0.487253 0.017317 -0.728406 0.078724 0.288584 -0.298425 -0.312959 -0.282263 -0.629879 0.261901 0.350579 -0.091561 0.830753 
beverage	0.407651 -0.008576 -0.498131 -0.279650 0.801271 0.285272 -0.788483 -0.360228 -0.491191 -0.455108 -0.187657 0.251894 -0.652967 -0.857306 0.389189 -0.796952 -0.082619 0.437994 -0.130437 -0.026019 -0.445675 -0.008331 -0.033155 0.189168 0.062869 -0.351103 -0.043547 -0.075377 -0.293723 0.451627 -0.003662 0.460302 0.652576 -0.153867 0.079302 -0.263077 -0.050847 -0.760164 0.302351 -0.285626 0.328705 0.554248 -0.032415 -0.667623 -0.208607 -0.248868 0.499318 0.532535 -0.029208 -0.037539 
bowls	0.769946 -0.303397 -0.857839 -0.174320 0.716339 -0.591841 -0.767018 0.259510 -0.659592 -0.648482 -0.283656 0.836149 0.131189 0.670114 -0.360706 -0.339750 -0.480571 -0.024136 0.381980 -0.914244 -0.312988 0.655441 -0.834762 0.108258 0.485307 0.276944 0.118446 0.500320 -0.044914 0.069510 -0.572107 0.421948 0.375625 -0.245132 0.173237 0.102022 -0.284238 -0.411379 -0.310372 0.315557 0.056193 0.168015 -0.330609 -0.294917 -0.110392 -0.246558 -0.125843 0.058602 -0.138990 0.291783 
grapes	0.275526 0.258141 -0.684066 -0.534576 0.434495 0.031338 -0.651275 -0.080845 -0.063978 -0.621330 -0.341565 0.967178 -0.591374 -0.242122 0.379699 -0.268552 0.174238 -0.080780 0.289672 0.128522 -0.716236 0.416702 -0.175513 0.340096 -0.164966 0.323875 0.137854 0.267294 1.136127 0.173805 0.006055 0.140403 0.719354 -0.592093 0.171752 0.093405 0.464030 -0.127003 -0.008711 -0.871478 0.456004 0.261003 -0.449167 -0.620076 0.815493 0.021675 0.207076 0.208025 0.021185 0.446356 
violin	0.071169 -0.328829 -0.416085 -0.513656 -0.373032 -0.496568 0.443843 0.386320 0.217706 -0.286372 -1.242722 -0.029547 0.115486 -0.715959 -0.087045 -0.038724 -0.659253 1.152923 -0.429288 -0.503246 -0.833595 0.570959 -0.790360 -0.078965 0.432385 0.348672 -0.326257 0.126941 0.120120 0.878668 0.393521 0.078299 0.144097 -1.060418 0.051810 0.080076 0.378534 0.074913 -0.188858 0.255659 0.156094 0.021924 -0.060182 -0.297680 -0.130502 0.045288 -0.338882 -0.198339 -0.774647 -0.095269 
planets	0.281049 -0.597739 0.011820 -1.074583 0.389948 -0.692024 0.384634 -1.170473 -0.600302 0.062286 -0.092273 -0.085502 -0.457153 -0.150191 -0.435454 -0.541832 -0.154048 0.190092 -0.306137 0.036457 -0.368592 -0.021190 -0.465490 -0.110920 0.079423 0.439388 -1.057392 0.181736 0.026093 0.528771 -0.514726 -1.137770 -0.085095 -0.210128 0.421843 1.112431 -0.520862 0.201188 -0.566510 -0.093665 -0.200642 0.272825 -0.568405 -0.167315 0.161130 0.031958 -0.757601 -0.027686 -0.063986 0.235590 
swan	-0.165740 0.080754 -0.102743 0.231893 0.192950 -0.705924 -0.155008 0.057367 0.312201 0.377117 -0.612352 -0.023143 -0.311082 -0.316389 -0.140275 -0.720777 -0.044075 0.221308 0.306271 0.248506 -0.861227 0.505954 -0.014678 -0.430815 -0.169705 0.365241 -0.050539 0.296907 -0.211344 0.578611 -0.152115 -0.010215 0.909361 -0.025883 0.181936 0.280895 -0.058774 0.080929 -0.268066 0.187177 -0.677233 0.264181 0.080315 0.111600 -0.011792 -0.229877 -0.104212 -0.033275 -0.320264 -0.132695 
soda	0.498769 -0.289243 -0.844223 -0.484883 0.985935 -0.215953 -0.355254 0.039676 -0.378538 -0.610238 -0.551268 0.441940 -0.112830 -0.378892 0.085406 -0.424077 -0.058243 0.137014 -0.322489 -0.204077 -0.533857 0.250553 -0.292842 -0.224174 0.473763 -0.312976 0.092640 0.158784 -0.044263 0.595865 0.110623 0.050601 0.744655 -0.398926 0.554737 0.232337 -0.069837 -0.502039 0.077219 -0.734303 0.318925 0.409329 0.152817 -0.195041 0.079806 -0.194605 0.332088 0.662918 0.359736 -0.025420 
sculptures	0.430331 0.477194 -0.204810 -0.441860 0.023997 -0.753948 0.142730 0.165154 -0.456465 0.069718 -0.066976 0.596032 -0.173158 -0.345447 -0.142640 -0.878136 0.432047 0.654217 -0.344729 -0.053562 -0.670992 0.201497 -0.253614 0.185569 0.085874 0.518398 -0.207594 0.365336 0.467502 0.654706 -0.071127 0.090115 0.343762 -0.769181 0.575811 0.098434 -0.296743 0.329242 -0.319909 0.518823 0.576219 -0.269916 -0.415924 -0.544703 0.123396 -0.711855 -0.957543 -0.366443 -0.514843 -0.082776 
fork	-0.312248 -0.400434 -0.970185 -0.700006 -0.063605 -0.449849 -0.191733 -0.296674 0.015016 -0.157115 -0.712210 0.776308 0.537646 0.310536 -0.371155 -0.380127 -0.007808 -0.102306 -0.053442 0.112840 -0.836538 0.426121 -0.178774 -0.454086 0.270975 -0.173471 0.235333 0.639558 -0.212150 0.466515 -0.239689 -0.188002 0.620715 -0.212341 0.076452 0.540066 0.014665 -0.526179 -0.350440 -0.787558 -0.174092 0.419945 0.035643 -0.583705 0.533354 -0.271969 0.662617 0.119050 -0.225179 -0.330081 
couch	0.302134 -0.511386 -0.855509 -0.045843 0.428062 -0.399961 -0.059450 0.370962 -0.529604 -0.358047 -0.035401 0.028783 0.377631 -0.181023 -0.064755 -0.099622 -0.151962 0.217682 -0.075058 0.110965 -0.357562 0.099838 -0.333641 0.049213 0.363792 0.252349 0.591755 -0.003283 -0.158936 0.731960 0.401498 0.340251 0.352302 -0.022771 0.203958 -0.015667 -0.414131 0.042447 -0.980393 -0.014158 -0.684296 0.106554 0.025238 -0.204484 0.403464 -0.041495 -0.310699 0.309167 0.242325 0.230112 
mammals	-0.280089 0.658710 -0.839790 -0.672369 0.590791 0.587413 -0.156766 -0.865200 -0.507455 0.494845 0.296097 0.580829 -0.439341 -0.152450 0.026011 -0.414262 -0.441350 0.449888 0.026918 0.203556 -0.661460 0.646498 -0.270734 0.218909 -0.475821 -0.209374 0.012695 0.310576 0.098214 0.940019 -0.882477 -0.466310 0.669933 -0.077206 0.788364 1.098365 -0.507372 0.226195 -1.026482 0.214709 -0.622981 0.040296 -0.756340 -0.322045 -0.053622 -0.205460 -0.288479 -0.632969 -0.285016 0.666138 
apples	0.310294 -0.058213 -1.080623 -0.336904 0.319616 0.132970 -0.400682 -0.188670 -0.144950 -0.411295 -0.391006 0.785284 -0.351167 0.155097 0.069877 -0.285968 -0.090321 -0.377008 0.072346 -0.044576 -0.629213 0.331702 -0.222096 -0.037319 0.229715 0.097858 -0.020795 0.027231 0.401538 0.640885 -0.010039 0.251199 0.888181 -0.565923 0.607280 -0.224493 0.218495 -0.286694 0.096418 -0.063268 0.016364 0.072199 -0.331783 -0.315347 0.292251 0.220843 0.041408 0.207816 -0.057965 0.054595 
refrigerator	0.427515 -0.878568 -1.157786 -0.680536 0.298036 -0.030663 -0.478595 0.110810 -0.667191 -0.637030 -0.442939 0.377326 -0.106766 0.047724 -0.388228 -0.433301 -0.044053 -0.186513 -0.792488 -0.321143 -0.535183 0.013247 -0.188959 0.114656 0.579638 -0.080795 0.254413 -0.151857 -0.073287 0.932288 0.576392 -0.074892 0.779246 -0.388482 0.323473 0.125418 -0.378787 -0.096285 -0.137194 -0.028958 0.137576 -0.090343 -0.089584 -0.196040 0.156104 0.032671 -0.229505 1.043645 0.203190 0.170736 
crow	0.189696 0.010009 -0.587823 -0.087635 0.282771 -0.688344 0.237131 -0.266786 0.097758 0.088986 0.000619 0.041563 0.199326 -0.206287 0.113982 -0.413562 -0.552501 0.135167 0.032424 0.711516 -0.518900 0.391155 -0.262541 -0.514625 -0.204427 0.307576 -0.011289 0.345024 -0.056416 0.209862 -0.047784 0.073577 0.483086 -0.305258 0.492835 0.314958 -0.102118 -0.245094 -0.553244 -0.047031 -0.334275 0.600158 -0.080108 0.266183 0.150201 0.130847 0.165217 -0.391951 -0.189647 0.179618 
grape	0.335578 0.177439 -0.498803 -0.369315 0.517184 0.017368 -0.625742 -0.446934 -0.201296 -0.418535 -0.606380 0.786394 -0.610165 -0.120866 0.640954 -0.443948 0.111239 -0.046731 0.233616 0.176405 -1.082869 0.454314 -0.495628 0.142275 -0.044313 0.006456 -0.077831 0.297687 0.799056 0.522787 0.003393 0.204322 0.777305 -0.886677 0.169291 0.101627 0.469923 -0.221003 -0.001729 -0.631550 0.321492 -0.047709 -0.337316 -0.474251 0.593334 -0.298434 0.254374 0.139350 -0.117236 0.429860 
skirt	0.258285 -0.316189 -0.571407 0.010143 0.017398 -0.655372 -0.370803 0.003941 0.025031 0.568717 0.044890 0.391914 0.526820 -0.079775 -0.007365 -0.388717 0.009356 0.162474 -0.426194 0.316106 -0.646690 -0.153353 -0.448412 0.461091 0.361976 0.655901 0.816819 0.149819 -0.422886 0.379560 0.062969 0.281941 0.760327 -0.586844 0.816978 0.059089 -0.155864 -0.369135 0.275488 -0.531138 -0.555156 -0.485264 -0.390807 -0.131090 0.224115 0.036890 -0.148619 0.028678 -0.398474 -0.093463 
snakes	0.100516 0.482949 -0.932073 -0.478998 0.434546 0.022929 -0.100935 -0.189096 -0.323514 0.181704 0.261415 0.343607 0.108498 -0.190643 -0.080283 -0.345488 -0.138118 0.034924 0.146406 0.164066 -0.379948 0.696953 -0.099818 -0.273486 0.014842 0.193822 0.116313 0.269845 0.192424 0.926668 -0.523909 -0.131671 0.353322 -0.222905 0.894404 0.598636 -0.310137 0.002192 -0.723443 0.104217 -0.636682 0.084016 -0.295102 0.181811 0.300893 -0.506393 0.033503 0.002301 -0.026586 0.325351 
televisions	0.168815 -0.231721 -0.626349 -0.660950 0.390613 -0.476086 -0.057523 0.037199 -1.055443 -0.038076 0.170941 -0.039962 -0.247918 -0.817429 -0.211853 -0.703188 -0.208297 -0.717234 0.198796 0.221312 -0.176937 -0.006380 -0.408264 0.747454 0.413278 0.156900 0.365691 -0.441930 -0.485209 0.456553 0.206415 0.081777 0.250683 -0.167568 0.351953 -0.458132 0.165351 0.408744 0.070122 0.026770 0.095297 -0.036364 0.288238 -0.391542 -0.433640 -0.027197 -0.725632 0.282253 0.276179 0.654526 
beverages	0.554235 0.109751 -0.781823 -0.314534 0.878810 0.315634 -0.635633 -0.069221 -0.588077 -0.284802 -0.377070 0.366231 -0.550981 -0.840228 0.582047 -0.685663 -0.146085 0.542098 -0.144245 0.026620 -0.270113 0.282748 -0.276718 0.191181 -0.033974 -0.614416 0.256428 -0.197877 -0.336520 0.428534 0.260251 0.522576 0.695455 -0.300362 0.318594 0.005308 0.013349 -0.473098 0.299983 -0.265634 0.258210 0.260196 -0.160273 -0.768073 -0.357072 -0.169700 0.338247 0.684544 0.236989 0.142636 
skirts	0.403799 -0.212727 -0.567282 0.128566 0.014132 -0.923485 -0.088215 0.089186 -0.309092 0.387443 -0.211428 0.441562 0.871403 -0.124416 0.090456 -0.573928 0.188929 0.375614 -0.345599 0.365913 -0.443758 0.326637 -0.941055 0.681521 0.312870 0.736926 0.989504 -0.074218 -0.193456 0.249383 -0.020343 0.269770 0.705668 -0.633802 0.914053 -0.014401 -0.071096 -0.328240 0.298053 -0.757802 -0.549234 -0.506866 -0.477952 -0.211634 0.365507 -0.047609 -0.214265 0.004429 -0.742419 0.026180 
operas	0.082303 -0.267511 0.046678 -0.385897 0.237193 -0.491848 0.026303 0.615465 -0.349335 -0.327578 -0.494108 -0.418940 -0.515349 -1.065825 0.189769 -0.354237 -0.522716 0.732205 0.566530 0.248606 -0.732351 0.807549 -0.228138 0.365647 0.206470 0.839061 -0.562501 -0.284084 0.138032 0.748882 -0.239051 0.099644 0.485858 -0.935581 -0.344491 0.155534 0.406270 0.754011 -0.022786 -0.025519 0.408886 -0.580690 -0.450184 -0.150883 0.219860 0.495575 -0.247574 0.264712 -0.402283 0.051174 
socks	0.457740 -0.619282 -0.707924 0.134983 0.637965 -0.673336 -0.100508 0.282523 -0.331214 0.247383 0.133636 0.475543 0.412965 -0.403027 0.100386 0.060869 0.066528 -0.260901 -0.400574 -0.151541 -0.344729 -0.039551 -0.695152 0.236594 0.220323 0.233359 0.711918 -0.372651 -0.236648 0.663533 -0.129379 0.374425 0.669432 -0.455212 0.925855 0.103597 -0.314607 -0.348136 -0.088645 0.040407 -0.438600 -0.071181 -0.219897 0.107773 -0.002128 -0.267771 -0.276502 0.076280 -0.260890 0.282326 
princes	0.101956 0.546550 -0.340832 0.500785 0.536047 -0.678381 -0.208943 0.296442 0.118919 0.016282 -0.284052 -0.225535 0.141945 -0.509687 -0.785392 -0.162467 0.309613 -0.020833 -0.012852 0.315425 -0.252704 0.574383 -0.527946 0.360540 0.290615 0.549546 -0.647006 -0.101491 -0.001079 0.176636 -0.589517 0.269841 0.156831 0.065534 -0.276289 0.810193 0.461696 0.541207 -0.240926 0.363683 -0.276076 -0.541146 -0.401089 -0.489066 0.072318 -0.752759 0.152065 0.085757 -0.367128 0.020043 
vans	0.319287 -0.044876 -0.554853 -0.532357 -0.215479 -0.621925 0.320699 0.281160 -0.641290 0.373104 -0.210869 0.043747 0.315490 -0.946290 -0.161334 -0.917592 -0.039059 -0.466465 -0.119673 -0.237413 0.179517 0.273583 -0.239174 0.483941 0.139370 -0.129041 0.074485 -0.114363 -0.052831 -0.085326 0.218746 0.355275 0.600862 -0.453157 0.306360 0.011040 0.242081 -0.344688 -0.095920 -0.299202 0.141812 0.130373 0.074336 0.308110 -0.367621 -0.633374 0.091045 0.375309 -0.204265 0.803346 
spoon	0.271624 -0.297395 -1.319313 -0.717935 0.530953 -0.467694 -0.818585 0.010867 -0.373123 -0.667401 -0.812129 0.372903 0.052478 0.588827 -0.332889 0.326404 -0.091693 -0.115797 -0.600142 -0.747814 -0.955130 0.477523 -0.655942 0.016403 0.355111 0.338572 0.213028 0.257043 -0.101191 0.919014 0.287279 -0.153919 0.819950 -0.288440 0.603300 0.261595 -0.250911 -0.182332 0.104869 0.008599 0.173739 0.070388 -0.359870 -0.357164 0.236089 0.240794 0.237445 0.324670 -0.243682 -0.182363 
hobby	0.439419 -0.273413 -0.332048 -0.447015 0.663598 -0.469623 -0.000651 -0.030307 -0.415759 0.009728 0.000688 0.596260 -0.001392 -0.840198 0.227204 -0.463500 0.032309 0.266643 -0.164188 0.088964 -0.211969 0.693041 0.016340 -0.132654 0.156287 0.117779 0.017328 -0.092117 0.304541 0.531842 0.192878 0.094487 0.341155 -0.125578 -0.268160 0.023276 0.003749 -0.519726 -0.516783 0.351546 -0.342070 0.110698 -0.135390 -0.194477 0.081113 -0.109936 -0.397576 0.097482 0.046277 -0.069731 
pots	0.588448 0.473230 -1.033416 -0.577905 0.032388 -0.640374 -0.214835 0.159263 -0.662413 -0.508206 -0.233701 0.571741 -0.045236 0.177997 -0.263738 -0.368709 0.186962 -0.157169 -0.492400 -0.277510 -0.569746 0.465608 -0.301236 0.177773 0.574235 0.118121 -0.216617 -0.080266 0.300905 0.946010 0.073453 0.184538 0.541584 -0.490029 0.518609 -0.140885 -0.305362 -0.053759 0.036864 -0.060463 0.194916 0.006502 -0.240267 -0.225806 -0.166722 -0.533649 -0.463771 0.147200 0.333477 0.327608 
dinners	0.686251 -0.364589 -0.634173 -0.090080 0.324697 -0.216888 -0.320906 0.394600 -0.565759 -0.097289 -0.072045 0.317802 0.266500 -0.309996 -0.218792 -0.058065 -0.430773 0.834994 0.034626 -0.113333 -0.302046 0.969693 -0.193553 0.475441 -0.065512 0.220588 -0.387040 0.389499 0.071535 0.365331 0.156837 0.546409 1.089996 -0.236592 -0.240802 -0.070592 -0.000333 -0.352134 -0.329747 0.148556 0.245530 -0.328941 -0.100069 -0.876643 -0.085817 0.189053 -0.143044 1.218564 0.374683 0.127397 
insect	-0.178605 0.450331 -0.410584 -0.311778 0.658814 0.064440 0.027655 -0.531116 -0.384547 -0.071139 0.053006 0.964670 -0.438193 -0.318954 0.156603 0.012660 -0.276568 -0.149239 -0.029949 0.213996 -0.503163 0.347188 -0.482274 -0.026059 0.122337 -0.225433 -0.023656 0.053007 0.156971 1.254323 -0.720696 -0.422430 0.563869 -0.283048 0.603838 0.514785 -0.660022 0.071669 -0.272124 0.168348 -0.834444 0.049899 -0.226876 0.143824 0.310877 -0.129721 -0.296278 -0.149677 -0.079800 0.563721 
snack	0.314940 -0.118758 -0.996650 -0.367302 0.635977 0.268205 -0.794818 0.002290 -0.739691 -0.425136 -0.539668 0.318317 0.063861 -0.677932 -0.111219 -0.490532 -0.418349 0.232892 -0.212953 0.073142 -0.316301 0.361939 -0.383575 0.217982 0.246102 0.023792 0.149963 0.099884 0.061055 0.660385 0.227266 0.152747 0.806495 -0.173789 0.455895 -0.166291 -0.311942 -0.730089 -0.292345 -0.296765 0.097582 -0.125820 0.181879 -0.430848 0.152596 -0.065690 0.260968 0.835730 0.275827 -0.035915 
bananas	0.768674 0.188764 -1.070089 -0.363906 -0.054306 0.079386 -0.596253 -0.183482 -0.371808 -0.348928 -0.149332 0.710815 -0.300972 -0.158466 0.273898 -0.275150 -0.190878 -0.213251 0.048320 -0.183034 -0.791412 -0.144724 -0.211199 0.061603 -0.161119 0.165630 0.344889 -0.104113 0.348631 0.959370 -0.088052 0.375561 0.854960 -0.360371 0.451170 0.357882 0.063517 -0.126268 0.159710 -0.331062 -0.221986 0.165067 -0.097475 -0.100593 -0.233013 0.116516 0.478578 0.066077 0.448558 0.219603 
lamps	0.599004 0.270168 -0.543323 -0.265239 0.155994 -0.908533 0.080704 0.312358 -0.595886 -0.134363 -0.585973 0.125725 -0.376306 -0.287928 -0.481961 -1.005386 0.210170 -0.212100 -0.630301 0.182213 -0.416706 0.242122 -0.251380 0.545803 0.551713 -0.339726 0.049146 0.248592 -0.365428 0.754914 0.134286 -0.224980 -0.034166 -0.496861 0.713652 -0.008583 -0.309343 0.023484 0.052965 -0.065039 0.244771 -0.022311 -0.325834 -0.331516 -0.219763 -0.433920 -0.723675 0.174908 -0.175165 0.626505 
lamp	0.381974 0.022887 -0.382779 -0.438953 0.490928 -0.784431 0.094311 0.179882 -0.343502 -0.158378 -0.632140 -0.096520 -0.322684 -0.298791 -0.472928 -0.560143 0.138183 -0.119661 -0.648063 0.163205 -0.653620 -0.060790 -0.157965 0.314884 0.783545 -0.052411 0.031895 0.312722 -0.227406 0.753274 0.338777 -0.058941 -0.237436 -0.266233 0.699787 0.066571 -0.680982 0.030169 -0.266464 -0.108579 -0.097305 0.154327 -0.100782 -0.187126 0.091775 -0.525184 -0.417033 0.183784 -0.098423 0.181270 
appliance	-0.100567 -0.554786 -0.541195 -0.598141 0.246843 -0.113011 -0.323276 -0.240374 -0.782491 -0.419433 -0.356192 0.258414 -0.308239 -0.717765 -0.197131 -1.083198 0.123718 -0.441087 -0.422093 0.345191 -0.270106 -0.250588 -0.224083 0.258176 0.782305 -0.390438 -0.012016 -0.407676 -0.527670 0.796818 0.492260 0.264437 0.177932 -0.137481 -0.034315 -0.406621 0.049059 -0.092181 0.314988 0.041254 -0.002331 0.354452 0.136142 -0.263748 -0.282647 -0.083032 -0.307568 0.428509 -0.403996 -0.043904 
bushes	0.206340 0.215814 -0.773200 -0.230211 0.103612 -0.166744 0.083870 0.056438 -0.302028 0.220800 0.160284 0.493307 0.195140 -0.009883 -0.453885 -0.012538 0.287414 -0.344034 -0.084042 0.278752 -0.669088 0.374543 -0.323212 0.034418 -0.039821 0.027014 0.178148 0.208637 0.146686 0.851171 -0.073021 0.733025 0.939529 0.024353 0.498344 0.145091 -0.078081 -0.103764 -0.613624 -0.430928 -0.100076 0.406220 -0.151118 -0.103221 0.720769 -0.680293 -0.429798 0.100201 0.568062 0.662696 
snacks	0.697178 -0.130718 -1.088321 -0.325054 0.620284 0.206816 -0.643573 0.099057 -0.961053 -0.255264 -0.327850 0.519554 0.063792 -0.763901 -0.150717 -0.395223 -0.443994 0.330950 -0.104043 0.016611 -0.043331 0.563657 -0.309929 0.488144 0.112758 -0.143816 -0.064528 0.002465 -0.074333 0.706965 0.251595 0.030101 0.852419 -0.165475 0.372425 -0.170333 -0.157130 -0.719740 -0.159152 -0.187710 0.037764 -0.003238 -0.057325 -0.552163 0.111416 0.000285 0.330646 0.719457 0.165560 0.071254 
laptops	0.175070 -0.721134 -0.485072 -0.929404 0.037953 -0.631492 0.262480 -0.616935 -1.069243 -0.082591 0.230656 0.428319 0.233927 -0.861791 -0.021222 -0.332302 -0.559160 -0.503283 -0.232796 0.024442 0.159431 0.118456 -0.453515 0.613906 0.593066 -0.127904 0.037918 0.058973 -0.099133 0.699282 0.591763 -0.045887 0.170730 -0.060778 0.116613 -0.362483 0.477764 -0.111095 -0.239068 0.305655 -0.205986 0.147334 0.096893 -0.535938 -0.227300 -0.306476 -0.485704 0.227362 0.244444 0.275602 
carrots	0.443739 -0.278515 -1.348274 -0.821406 0.317577 0.344994 -0.615355 0.038127 -0.351997 -0.718664 -0.549167 1.090523 0.019557 0.396746 -0.254605 0.291306 -0.117186 -0.181759 -0.398830 -0.267868 -0.977334 0.369650 -0.376974 0.414102 0.115136 0.189604 0.003887 0.400571 0.347942 0.564824 0.021509 0.226743 0.978127 -0.159769 0.818142 -0.046190 0.246960 0.127822 0.275338 -0.412046 -0.152818 0.004994 -0.254385 -0.206199 0.358491 0.549881 0.174038 0.670040 -0.131628 0.190440 
desks	0.343843 -0.124458 -0.705720 -0.463358 -0.120956 -0.718972 0.448947 0.076190 -0.617959 -0.294153 -0.025906 0.112918 0.420251 -0.204027 -0.666412 -0.206800 -0.261343 0.234653 -0.304212 -0.183544 0.104051 -0.071250 -0.193149 0.701892 0.690840 0.128905 0.065398 -0.340095 -0.657154 0.623405 0.252295 0.180468 0.839063 -0.167106 -0.024651 -0.659363 -0.173115 0.051898 -0.364483 0.189960 -0.329627 -0.214157 -0.164418 -0.093879 -0.175496 -0.486391 -0.359472 0.233440 0.309619 0.123441 
flute	0.361508 0.160078 -0.516183 -0.603758 -0.246980 -0.365587 0.231193 0.214062 0.085369 -0.028162 -1.105881 -0.101312 0.000353 -0.476610 -0.122206 0.047702 -0.615018 0.972823 0.031727 -0.368067 -0.990454 0.608434 -0.712140 -0.190937 0.366160 0.425542 -0.305033 0.332337 0.148961 0.952547 0.150905 -0.010564 0.163935 -0.899796 0.348619 0.201562 0.121618 -0.179794 -0.337786 0.034394 -0.018423 -0.032872 0.020771 -0.337450 0.024590 -0.255875 -0.370857 -0.263059 -0.618580 -0.200975 
sweater	0.918818 -0.897836 -0.446445 0.127444 0.613402 -0.481028 -0.177799 0.137376 -0.405179 0.464142 -0.131300 0.322490 0.392665 -0.226765 -0.086260 -0.357629 0.046114 0.135833 -0.411966 0.120636 -0.691652 -0.490275 -0.784900 0.299480 0.198973 0.441846 0.379375 -0.288936 -0.294149 0.499753 0.167644 0.170046 0.934095 -0.509114 0.916025 -0.146488 -0.138990 -0.397290 -0.238071 -0.167425 -0.602294 -0.299434 -0.246775 -0.208184 0.494456 -0.139697 -0.548454 0.017720 -0.473367 0.361705 
ants	-0.024471 0.352134 -0.734648 -0.964331 0.469018 -0.163363 0.309904 -0.519714 -0.405429 -0.282864 0.021535 0.462791 -0.229053 -0.238187 -0.020320 0.314297 -0.231410 -0.179556 -0.046498 0.234615 -0.593766 0.496532 -0.119951 -0.099138 0.011965 -0.046938 -0.179869 -0.293621 0.179642 1.205955 -0.346851 -0.312833 0.580122 -0.176150 0.781392 0.247320 -0.578495 -0.029409 -0.594352 -0.147809 -0.701931 0.317357 -0.202732 0.168400 0.216051 -0.221320 -0.110319 -0.371571 0.130675 0.532457 
librarian	0.199402 -0.425885 -0.143571 -0.142558 0.337728 -0.623397 0.240289 0.007661 -0.159186 -0.305018 -0.364750 0.297547 0.190078 -0.668573 0.105702 0.076941 -0.147300 0.284913 -0.382214 0.550117 -0.662802 -0.098690 0.071383 0.067238 0.356758 0.036874 0.022495 -0.011855 -0.020528 0.318974 0.080381 0.161829 0.528058 -0.300355 -0.490807 -0.085518 0.068549 0.392210 -0.792236 0.818362 -0.098263 -0.046177 -0.507773 -0.008724 0.477161 -0.112068 -0.244240 0.153393 -0.186096 -0.662556 
dime	0.292598 -0.862606 -0.594594 -0.502645 0.381303 -0.716059 0.044416 0.250570 0.179172 -0.303008 0.171944 0.622981 -0.088448 -0.257580 -0.270546 -0.300089 -0.211777 0.552385 -0.239723 0.059017 0.063521 -0.228275 -0.427559 -0.142702 0.176872 0.298781 -0.047119 0.236794 -0.097469 0.218403 0.242592 0.202572 0.276562 -0.139336 0.291862 -0.050840 0.435450 -0.083479 -0.458017 -0.301560 -0.101972 0.661501 0.277269 -0.068485 -0.062074 0.145142 0.254907 0.110940 0.114131 -0.207331 
pens	0.553460 -0.103201 -0.924459 -0.297596 0.648614 -0.552635 0.056734 0.195223 -0.328704 0.001280 0.431778 0.665795 -0.016652 -0.648590 0.015205 -0.005166 0.119477 -0.246090 -0.266509 -0.303000 -0.204502 0.165965 -0.001249 0.817101 0.373449 -0.197445 0.189460 0.098593 0.034816 0.723739 -0.055085 -0.204315 0.706678 -0.219864 0.557062 -0.009082 -0.274901 0.127483 -0.336266 0.167939 -0.060111 -0.044397 -0.052111 -0.130336 0.057169 -0.372042 -0.339056 -0.403750 -0.096765 0.075663 
