state	-0.179129 0.078960 -0.094481 -0.338442 -0.021921 -0.172313 0.079553 0.078403 0.248982 -0.021339 -0.303624 0.374907 0.245494 -0.150379 0.055670 -0.409702 -0.360851 -0.046637 0.039655 0.375363 -0.560368 -0.188542 -0.193244 -0.419241 0.285507 -0.204528 -0.017171 0.309006 -0.202161 -0.350411 -0.681794 0.532322 0.398670 -0.193469 -0.480013 0.216259 0.012276 0.184048 -0.287138 -0.084845 -0.063619 0.093404 -0.442007 0.099616 -0.115311 -0.460851 0.351709 -0.020515 0.004853 -0.292518 
country	0.371425 0.254490 -0.121920 -0.467645 -0.031170 -0.236548 -0.230374 -0.235872 -0.076695 0.111870 -0.103497 0.198952 0.119990 -0.281219 0.288415 -0.307320 -0.069143 -0.017046 0.234859 0.084725 -0.221027 0.000707 -0.332876 -0.364328 0.097404 0.362017 0.085160 0.049786 -0.231363 -0.141264 -0.104160 0.339639 0.163771 -0.063236 -0.442239 0.107128 0.197861 0.508535 0.014045 0.024456 -0.108338 0.344178 -0.180706 0.054484 -0.198806 -0.205700 0.004660 0.165194 0.003369 0.319371 
china	0.094262 0.088045 -0.190254 -0.115941 -0.207860 0.235414 -0.373604 -0.439046 0.405715 0.098066 0.061633 0.263436 0.338891 -0.403995 0.183831 -0.807959 0.046079 -0.590143 0.127174 0.102689 -0.317412 0.012655 -0.112927 -0.407869 0.221837 0.330459 -0.443443 -0.021649 -0.497432 0.335652 -0.202696 0.063269 0.636299 0.434142 0.055407 0.164550 0.025672 0.269838 0.550720 0.342825 0.015959 0.407437 -0.423465 -0.452924 -0.584650 0.268351 -0.335095 -0.178375 -0.155660 0.269652 
city	-0.121287 0.319601 0.090279 -0.434978 0.207710 -0.295351 -0.126917 0.458277 -0.096378 -0.169869 -0.467380 -0.093505 0.337731 -0.475912 -0.117363 -0.771526 -0.077301 -0.168050 -0.001441 0.201490 -0.408480 -0.008784 -0.194597 -0.040572 0.007950 0.076687 -0.346451 0.024859 -0.245378 -0.340834 -0.600925 0.140340 0.439462 -0.442503 -0.205845 0.141019 0.017981 0.212179 -0.358603 -0.041268 0.120794 0.123363 -0.050552 0.124452 0.197282 -0.652510 0.107797 0.305101 0.022038 -0.194045 
company	-0.191489 -0.212460 -0.283783 -0.296132 0.321758 -0.239376 -0.253013 -0.063525 -0.371208 -0.050830 -0.278635 0.117180 -0.391167 -0.898467 -0.420428 -0.569441 -0.124769 0.173147 0.193288 0.222389 -0.265202 -0.300242 0.203490 0.092734 0.418367 -0.174305 -0.146393 -0.141062 -0.092736 0.003347 -0.004272 0.211655 0.419985 -0.328916 -0.334198 0.173008 0.207533 -0.251393 0.008057 -0.053879 -0.040148 0.670417 0.150258 -0.384897 -0.157895 -0.188187 0.175808 0.033307 -0.533364 -0.034282 
team	-0.153559 -0.302235 -0.011242 -0.414766 0.403265 -0.423049 -0.396068 0.228932 -0.403900 0.206241 -0.128777 0.100177 0.249495 -0.435395 0.143432 0.190372 0.054181 -0.153723 0.209834 -0.809689 -0.567794 0.085853 -0.775050 -0.227188 -0.002934 0.162516 -0.392302 -0.163115 -0.094438 -0.434969 -0.609360 0.105918 0.059995 -0.303561 -0.330574 0.145112 -0.098103 -0.215163 -0.407714 0.131074 -0.287218 0.228932 -0.385638 0.069708 -0.282796 -0.211080 -0.104034 -0.187770 -0.592647 0.123846 
home	0.220729 0.056479 -0.293121 -0.243061 0.196733 -0.173164 -0.151684 0.418742 -0.326437 0.069259 -0.146451 -0.111625 0.161505 -0.475780 0.022945 -0.276846 0.064511 -0.411567 -0.284258 0.004143 -0.189921 0.171120 -0.428443 0.030247 0.031327 0.051068 -0.163621 -0.039146 -0.257168 -0.154098 -0.277585 0.278083 0.389737 -0.347376 -0.206147 0.162954 0.029476 0.132815 -0.673134 0.309802 -0.258250 0.363085 0.173259 -0.051816 0.305434 -0.241539 -0.143798 0.116456 0.114150 -0.081922 
school	-0.346757 -0.223603 -0.133386 -0.503637 0.332645 -0.339579 0.036922 0.370742 -0.220196 -0.032137 -1.131517 0.251958 0.878497 -0.465713 0.040385 -0.251885 -0.421151 0.373929 -0.227985 0.461181 -0.352523 0.367004 -0.423996 0.188718 0.221809 0.021014 0.098129 0.167784 -0.018501 -0.298342 -0.446850 0.271990 0.371397 -0.323908 -0.419334 -0.187729 -0.035567 0.315567 -0.668132 0.335238 -0.204919 0.367777 -0.325388 0.148736 0.058573 -0.469524 -0.046106 -0.128776 -0.162029 -0.404921 
family	0.200630 0.279426 -0.426334 -0.058248 0.524296 0.244426 0.007946 -0.279953 -0.298247 0.274865 -0.253052 0.100994 0.186379 -0.272880 -0.367411 -0.074244 -0.052958 0.025518 -0.125772 0.513930 -0.739025 0.054940 -0.095817 -0.125048 -0.086790 -0.123825 -0.101207 -0.106617 0.140517 0.326436 -0.249362 0.812194 0.123087 -0.746415 -0.169949 0.748841 0.055965 0.396706 -0.650037 0.357061 -0.375822 0.186975 -0.062675 -0.156229 0.091423 -0.126221 -0.164019 0.256452 -0.015740 0.118454 
bush	-0.077783 -0.260536 0.061496 -0.170586 -0.190130 -0.230046 0.105583 -0.167937 0.669080 -0.427843 0.509470 0.636951 -0.106321 -0.420774 -0.126256 0.139764 0.057092 -0.320640 -0.062191 0.509470 -0.591229 0.050567 -0.597861 0.036286 0.126962 0.363535 0.048170 0.438823 -0.487519 -0.402690 0.060840 0.521597 0.655035 0.599905 0.126345 0.116379 0.014055 0.313850 -0.585905 -0.014916 0.157199 -0.066116 -0.265361 0.040316 0.001935 0.305844 0.133225 0.607059 0.173289 0.565449 
university	-0.357258 -0.020500 0.118260 -0.535022 0.503130 0.021793 0.207507 0.084285 -0.095482 -0.396718 -0.711797 0.181844 0.655577 -0.538054 0.257554 -0.147153 -0.488467 0.340777 0.004062 0.211354 -0.762461 -0.163942 -0.475606 0.168906 0.525836 -0.146919 -0.010952 0.120237 0.077222 -0.507991 -0.669879 -0.252357 0.398122 -0.366520 -0.720772 -0.171603 -0.198474 0.323606 -0.748862 0.686877 -0.063087 0.390111 -0.507982 -0.130602 -0.122202 -0.304323 -0.281319 -0.168399 -0.077576 -0.537934 
money	-0.096146 -0.387216 -0.616024 -0.593218 0.161481 -0.258163 0.009372 0.331631 -0.017289 0.168781 0.451456 0.577798 -0.107558 -0.238718 0.055839 -0.074318 0.067117 0.438641 -0.228238 -0.095278 0.059810 0.042648 -0.229941 -0.186804 0.299370 0.383136 -0.287885 0.107838 -0.003126 0.285266 0.062882 0.503096 0.237920 0.025729 -0.198418 0.091198 0.480292 0.121158 -0.122526 0.252730 -0.191194 0.531680 0.115218 -0.074473 -0.264175 -0.028971 0.175691 0.546655 0.115484 -0.178945 
oil	0.093972 0.176967 -0.591081 -0.545972 -0.233260 0.278022 -0.751790 -0.089906 -0.111890 -0.616954 -0.502180 0.657049 -0.881969 -0.021211 0.032642 -0.688852 0.608077 0.249089 0.199030 0.004603 -0.558518 -0.447182 0.036989 0.287044 0.816845 0.198660 -0.052406 -0.097127 -0.629820 -0.042375 -0.034504 0.037664 0.372753 0.061969 0.235629 0.363998 0.077691 0.186554 -0.098443 -0.467379 -0.212060 0.509880 -0.396461 -0.274488 -0.423696 0.066605 0.308350 0.367179 0.378404 0.617110 
film	-0.124924 -0.187082 -0.126290 -0.307388 0.332321 -0.353578 0.148471 0.314039 -0.332694 0.269963 -0.513410 -0.183301 -0.576877 -0.978028 0.100083 -0.553702 -0.445994 0.214653 0.233850 0.159308 -0.780236 0.013173 0.207380 -0.149224 -0.074039 0.918412 -0.134710 0.248690 0.208504 0.292578 -0.251717 0.091092 0.271871 -0.357954 0.168813 -0.049155 -0.032573 0.253329 -0.040639 0.338665 -0.043923 0.067514 -0.403705 0.315318 0.726501 0.483089 -0.300402 0.040188 -0.467200 -0.204958 
water	-0.142190 0.573723 -0.586911 -0.500459 0.254391 -0.244801 -0.356800 0.264348 -0.401187 -0.097229 -0.516889 0.616705 -0.393019 0.151148 -0.075556 -0.448723 0.105682 -0.017607 -0.204081 0.108720 -0.528575 0.370569 -0.024398 -0.139285 0.373430 -0.219968 0.258066 0.245302 -0.370874 0.674591 -0.269815 -0.509266 0.267318 -0.321882 -0.092276 0.299210 -0.424802 0.055527 0.029987 -0.492934 -0.017708 0.579629 -0.459473 -0.062378 -0.057889 -0.511789 0.093356 0.510809 0.241834 0.308800 
television	-0.019522 -0.259226 -0.070509 -0.305338 0.603857 -0.318900 0.097584 0.241832 -0.550572 0.048139 -0.049168 -0.286986 -0.289547 -1.057791 -0.192119 -0.351702 -0.581561 -0.204768 0.793379 0.144506 -0.732523 0.057565 0.241810 0.106433 0.082304 0.611574 0.276463 -0.270512 -0.481266 -0.030129 -0.060215 0.154719 0.265941 -0.251963 -0.161202 0.013512 -0.077602 0.676663 -0.331852 -0.092784 -0.029249 0.068676 -0.184250 0.153724 0.240742 0.377821 -0.156059 0.210216 -0.168137 0.084939 
food	0.515911 0.323251 -0.588632 -0.219243 0.041308 0.175137 -0.658996 0.073815 -0.513589 -0.346196 -0.176259 0.924984 -0.195015 -0.488058 0.483118 -0.248885 -0.108193 0.098417 -0.001824 0.159283 -0.028071 0.133908 0.108771 0.266482 0.111841 -0.279943 0.138329 0.004216 0.076601 0.480744 0.106870 -0.034640 0.678111 -0.216204 0.084964 -0.053927 -0.042677 0.397281 0.167397 -0.094151 -0.195695 0.400408 -0.383664 0.013190 0.028667 -0.127715 0.173244 0.597749 -0.022034 0.168529 
car	-0.254712 -0.118099 -0.430928 -0.457926 -0.041121 -0.148314 0.116545 0.113245 -0.454032 0.130483 -0.238846 -0.114622 0.238828 -1.069651 -0.365422 -1.056614 0.391276 -0.244011 -0.237065 -0.420547 -0.016739 0.000891 -0.309422 -0.044480 0.184889 0.031615 0.285056 0.062345 0.022574 -0.009432 0.565220 0.575690 -0.081791 -0.244452 0.085432 0.144365 0.167345 -0.575337 -0.429271 -0.274990 0.037142 0.095489 0.003260 0.448618 -0.157049 -0.425907 -0.108380 0.697557 -0.394694 0.509882 
book	0.289202 -0.081502 -0.524159 -0.033835 0.502650 -0.385967 0.214039 -0.433652 -0.016129 -0.306844 -0.237000 0.119874 -0.222427 -0.917510 -0.048272 -0.089360 0.140265 0.288734 -0.007073 0.072512 -0.255302 0.120622 0.084561 -0.171974 0.349355 0.388653 -0.029346 0.439595 0.143302 0.312660 -0.207466 0.110441 0.072508 -0.338779 -0.018877 0.065781 -0.011397 0.282995 -0.590941 0.483550 0.122004 0.008953 -0.536484 -0.150231 0.659777 0.377012 -0.053758 -0.052547 -0.365526 -0.477077 
red	0.636562 0.266603 -0.540443 -0.200006 0.487987 -0.425003 -0.391065 0.134108 0.074895 0.182701 -0.031106 0.153600 0.173030 -0.203391 -0.099447 -0.055673 0.158473 -0.344465 0.019649 -0.349432 -0.582366 -0.014485 -0.172350 0.129612 -0.070434 -0.102257 -0.276587 0.100044 -0.530810 -0.078821 -0.409917 0.116915 0.493097 -0.705648 0.483418 0.182785 -0.334917 0.000732 -0.142613 -0.256880 -0.108010 0.149697 0.068737 -0.031562 0.459426 -0.133435 0.006174 -0.211369 -0.559500 0.471468 
dollar	-0.324052 -0.206092 -0.375012 -0.453343 -0.459600 0.074527 -0.070872 -0.041619 0.364881 0.195551 -0.109731 0.045349 -0.344822 -0.533182 0.060003 -0.600651 0.555983 0.722363 -0.061772 -0.557514 -0.231133 -0.014638 -0.682443 0.216817 0.274235 0.165913 0.143636 -0.033000 -0.486718 0.141920 -0.431217 0.592293 0.476189 0.650627 0.630932 -0.632798 0.547864 0.319951 0.051326 0.247492 -0.790227 0.609110 -0.173116 -0.702322 -0.142726 -0.046448 0.174347 0.102854 0.313053 0.409068 
father	0.254252 -0.019999 -0.225826 -0.093722 0.338647 0.002281 -0.037374 0.393841 0.164868 -0.059237 -0.389906 -0.303621 0.396360 -0.706764 -0.122174 0.018414 0.197310 0.043970 -0.353010 0.363220 -0.717466 -0.092413 -0.330895 -0.133273 0.337733 0.169365 -0.103169 -0.110208 0.438658 0.324535 0.223794 0.571222 -0.100773 -0.423012 -0.341808 0.599280 0.139394 0.078509 -0.702510 0.533979 -0.168299 0.347156 -0.420960 0.047661 0.241825 -0.101076 -0.035134 0.162678 -0.272709 -0.158117 
king	0.372877 0.541325 -0.384224 0.301962 0.057571 -0.474049 -0.385351 0.087644 0.327178 -0.216814 -0.311460 -0.191354 -0.240527 -0.804510 -0.343504 -0.063271 -0.227024 -0.068462 0.078533 0.444600 -0.564823 0.118825 -0.402120 -0.160750 0.173119 0.229608 -0.305401 0.139197 0.400105 -0.057060 -0.152409 0.613524 -0.321598 -0.046775 0.035885 0.696522 -0.076546 0.129420 -0.456726 0.480523 -0.286418 0.008966 -0.189225 -0.449455 0.408814 -0.469026 0.154810 0.182714 -0.443002 -0.158270 
person	-0.018363 -0.329601 -0.344044 -0.178340 0.475138 0.186216 0.150877 -0.061163 0.076550 0.185594 -0.195830 0.108390 0.032212 -0.418510 -0.036007 -0.271431 -0.431275 0.115695 -0.274728 -0.044443 -0.034041 -0.154444 -0.215395 -0.294117 -0.282152 0.305156 -0.071663 0.298624 -0.177891 0.288297 0.335925 0.474179 -0.276706 -0.455442 0.102848 0.343671 -0.027554 0.202026 -0.386380 0.177164 -0.266937 0.087586 -0.485660 -0.068580 0.053743 -0.430909 0.166719 0.305025 0.124985 0.014259 
space	0.111372 -0.381563 0.030809 -0.676054 -0.067170 -0.409660 0.342614 -0.132201 -0.495378 0.009484 -0.236566 0.430754 -0.364487 -0.694021 -0.493644 -0.549875 -0.317750 0.067560 -0.422977 -0.095721 -0.257816 -0.370751 -0.117693 0.047237 0.013741 0.138109 0.013116 0.323336 -0.466708 0.183820 -0.252441 -0.680381 0.161349 -0.047828 -0.248402 0.634670 -0.745434 0.190368 -0.187765 0.048468 -0.307553 0.040053 0.150033 -0.112817 0.038195 -0.106260 -0.841034 0.173150 0.067955 0.077615 
indian	0.498678 0.743304 0.136920 0.002942 0.074107 0.220290 0.108016 -0.512565 0.011850 0.420824 -0.589392 0.324823 0.049482 -0.720479 -0.344653 -0.486555 -0.494012 0.039756 -0.192508 0.027862 -0.091980 0.111435 -0.038361 -0.396285 0.611191 0.408785 -0.169923 0.334229 -0.243019 -0.229284 -0.445854 0.532380 0.729761 -0.052352 -0.141986 0.495644 -0.157536 -0.297171 -0.033278 -0.107547 -0.514340 0.449495 -0.528361 -0.159547 0.084472 -0.065378 0.120114 -0.262726 0.419887 -0.104225 
internet	-0.079714 -0.302486 -0.540082 -0.564903 0.308123 -0.231234 0.320657 -0.769842 -0.843773 -0.126267 0.486467 0.106410 -0.089092 -1.122874 0.282361 -0.290396 -0.429038 -0.293974 0.146080 0.358116 0.055909 0.146853 0.013748 -0.191356 0.533738 0.247397 -0.067275 0.127795 -0.705099 0.362620 0.234190 -0.128620 0.055964 0.124665 -0.325166 -0.159100 0.266031 0.290135 -0.168884 0.169745 0.073456 0.012807 -0.015735 -0.623360 0.146950 -0.227420 0.141498 0.157518 -0.026165 -0.277679 
star	0.206990 -0.418122 0.172351 -0.053813 0.476459 -0.631481 -0.111804 0.123391 -0.327192 0.251472 -0.176314 0.045132 0.099755 -0.713673 -0.049417 -0.236910 -0.111475 -0.420405 0.317733 -0.359498 -0.685703 -0.204681 -0.261602 -0.120433 -0.205532 0.530645 -0.211725 0.408364 -0.177251 0.089089 -0.283680 0.062987 -0.226686 -0.467452 0.262198 0.360679 -0.116496 -0.029371 -0.059863 0.201007 -0.276001 0.513270 -0.026042 -0.255709 0.397861 0.315343 -0.025906 0.141569 -0.129385 -0.209410 
light	0.112559 -0.032455 -0.283489 -0.186591 0.262486 -0.464171 0.004429 -0.150885 0.156414 -0.174097 -0.855657 -0.080304 -0.275334 -0.628519 -0.234207 -0.215076 0.120118 -0.050472 -0.011383 -0.030075 -0.337988 -0.059133 -0.120248 0.156382 0.151585 -0.076362 0.215693 0.308067 -0.463376 0.249226 -0.337696 -0.079135 0.160803 -0.275978 0.420005 0.272033 -0.416234 -0.072644 0.073067 -0.424911 -0.238705 0.164172 -0.074003 -0.071371 0.053517 -0.360739 -0.393230 -0.029569 0.017280 0.614506 
art	0.259649 0.006334 0.073051 -0.390538 0.279442 -0.536777 0.257770 -0.036425 -0.289743 -0.376873 -0.465211 0.413584 0.070363 -0.905732 0.217950 -0.590261 0.021820 0.687639 -0.254236 0.011856 -0.430245 0.218275 0.069189 -0.028917 0.025023 0.505700 -0.069065 0.252607 0.090839 0.144051 -0.218610 0.139790 0.346673 -0.609728 0.028480 -0.341441 -0.159137 0.333189 -0.272879 0.792425 0.001916 -0.165851 -0.170080 -0.303600 0.164983 -0.333610 -0.535055 -0.288101 -0.312772 -0.379867 
computer	-0.246548 -0.549546 -0.330096 -0.749824 0.146616 -0.233451 0.384583 -0.744146 -0.780075 -0.356961 -0.118319 0.377224 -0.035060 -0.973255 0.013788 -0.280199 -0.577938 -0.328341 -0.154273 0.011009 0.059635 -0.205524 -0.100661 0.102651 0.838314 0.017290 -0.053655 0.020551 -0.255065 0.542039 0.175565 -0.054981 -0.072744 -0.021884 -0.238185 -0.146002 -0.083995 0.023601 -0.180713 0.488604 -0.466553 0.225188 0.044931 -0.315753 0.081228 -0.194339 -0.532750 -0.099432 -0.034721 -0.167900 
movie	0.067648 -0.494102 -0.183109 -0.262596 0.311351 -0.374044 0.109920 0.276652 -0.494644 0.056929 -0.192106 -0.157253 -0.507972 -0.949350 -0.076798 -0.678629 -0.481843 0.072768 0.189207 0.257311 -0.524643 0.047302 0.077434 -0.215427 -0.127717 1.064331 -0.073241 0.222167 0.173541 0.487977 -0.082908 0.193351 0.195769 -0.112407 0.400219 -0.015328 0.046759 0.084081 -0.184907 0.221870 -0.217539 0.094951 -0.174126 0.267146 0.722290 0.442610 -0.240215 0.254114 -0.243412 -0.115996 
green	0.124906 0.357264 -0.726868 -0.270444 0.524818 -0.472789 -0.229512 -0.131949 -0.045639 -0.097703 -0.367338 0.270361 0.117791 -0.003304 -0.143799 -0.139176 -0.012842 -0.459226 -0.131369 -0.039671 -0.701609 0.100575 -0.124874 0.144654 -0.077234 0.026446 0.324767 0.471340 -0.210546 -0.209047 -0.209151 0.290666 0.575931 -0.160625 0.263683 -0.027506 -0.354872 -0.271767 -0.411890 -0.183266 -0.063025 0.234271 0.267440 0.024651 0.361624 -0.215591 -0.283836 -0.083455 -0.316914 0.203428 
brown	0.133288 -0.041198 -0.557069 0.275950 0.490859 -0.477551 0.104732 -0.222464 0.124988 -0.294109 -0.383043 0.204765 0.013053 0.240747 0.053756 0.032970 -0.119773 -0.257991 0.238350 0.018761 -0.859941 -0.229176 -0.245325 0.197923 -0.217883 0.080065 0.095238 0.376585 -0.348512 0.023697 0.111744 0.456220 0.742114 -0.190963 0.265187 0.341233 -0.334892 -0.100057 -0.482151 0.110831 -0.359987 0.410306 0.043170 0.103981 0.160530 0.169544 0.027649 -0.026271 -0.342776 0.335167 
song	0.510355 -0.221256 -0.691226 -0.503244 0.001896 -0.664313 -0.011984 0.037545 0.055414 0.284808 -0.608787 -0.560349 -0.338643 -0.660941 0.284007 -0.198553 -0.565307 0.028145 0.274533 0.045843 -0.766352 0.591377 -0.526892 -0.885966 0.047912 0.698899 0.189218 -0.066425 0.057634 0.480206 0.110314 -0.045191 0.078722 -0.437728 0.501615 -0.148300 0.185746 0.263234 -0.358664 -0.034803 0.376193 0.287778 -0.294979 0.122622 0.236190 0.290965 0.016802 0.110822 -0.820119 -0.263878 
phone	-0.067796 -0.541138 -0.622192 -0.276399 -0.133346 0.061297 0.568741 -0.124116 -0.511682 -0.067310 0.515899 -0.135599 0.130286 -0.988062 -0.339995 0.131499 -0.471983 -0.505728 0.173438 0.015204 -0.317158 0.011374 -0.122369 0.051718 0.293053 0.071089 0.020249 -0.122664 -0.530509 0.473599 0.643933 0.221687 -0.026564 -0.159616 0.059460 -0.156366 0.208059 0.131134 -0.464972 -0.070214 -0.143773 0.219377 0.071328 -0.613869 0.046212 -0.506833 0.349226 0.487027 0.049287 -0.070042 
cars	-0.118280 0.026768 -0.567462 -0.590556 -0.185227 -0.520867 0.186542 0.168513 -0.622853 0.151884 -0.136840 0.154759 -0.011177 -0.905538 -0.373899 -1.400039 0.365386 -0.348293 -0.164932 -0.227289 0.056428 0.316310 -0.415796 0.249937 0.123077 -0.131832 0.015099 -0.139404 0.117838 0.098216 0.330810 0.417539 0.174145 -0.256963 0.068176 0.012132 0.363699 -0.574430 -0.104677 -0.454869 0.249781 -0.000498 -0.120452 0.347320 -0.394478 -0.341620 -0.158874 0.298409 -0.425462 0.765622 
pacific	0.075595 0.124792 0.117506 -0.459951 -0.370002 -0.093055 -0.449932 -0.640669 -0.059486 0.059849 -0.295715 -0.024447 0.204512 -0.461922 -0.382733 -0.433404 -0.333447 0.024343 0.109101 0.122155 -0.679638 0.037986 0.073865 -0.415671 -0.535467 -0.171198 -0.094672 0.228871 -0.889252 0.107129 -0.936096 -0.052984 0.798886 -0.019501 -0.284184 0.296960 -0.175660 -0.318566 -0.195148 0.207298 -0.380447 0.693290 0.016002 -0.412262 -0.347236 -0.084829 -0.070715 0.011273 0.152178 0.329732 
books	0.385924 0.002855 -0.622176 -0.211650 0.526660 -0.459975 0.107070 -0.393761 -0.375517 -0.313209 -0.103843 0.301874 -0.267801 -0.890135 -0.007599 -0.179883 0.115975 0.416828 -0.076831 0.034528 -0.040360 0.266446 0.195315 0.073874 0.469808 0.283179 -0.047176 0.199822 0.006161 0.243175 -0.136746 0.188347 0.203539 -0.401095 -0.094618 -0.023625 0.107448 0.396557 -0.550642 0.605219 0.145848 0.032343 -0.616114 -0.157789 0.502113 0.340181 -0.259686 -0.167282 -0.284161 -0.645614 
fuel	-0.031901 0.094026 -0.159871 -0.966456 -0.360275 -0.072345 0.167203 0.206737 -0.266981 -0.181471 -0.456308 0.573214 -0.603083 -0.527343 -0.095059 -0.882158 0.293645 -0.203638 -0.257923 -0.309225 -0.083054 -0.091944 -0.292881 0.235015 0.562708 -0.466448 0.199543 0.227465 -0.050771 -0.146190 0.306521 -0.478765 0.300889 -0.024618 0.220856 0.425181 0.322878 -0.197115 0.171363 -0.562686 -0.214569 0.455148 -0.437516 0.085530 -0.702515 0.045691 0.042540 0.669767 0.009331 0.654600 
ireland	-0.088792 0.648464 -0.371757 -0.085002 0.298757 -0.714661 -0.317878 -0.808559 -0.216919 -0.103721 -0.733079 -0.073369 0.023994 -0.346296 -0.177047 0.035643 0.130573 0.038785 -0.241609 -0.425078 -0.333546 0.494118 -0.554142 -0.741309 -0.714595 0.031005 0.045505 0.239997 -0.147892 -0.631014 0.320767 0.528546 0.837110 0.220730 -0.337368 0.539265 0.520984 0.624336 -0.239914 0.228914 -0.193153 0.369174 -0.159748 -0.130303 -0.336998 -0.146776 0.342748 0.142329 0.020183 0.074523 
blue	0.368839 -0.255672 -0.483955 -0.198372 0.550870 -0.455493 -0.232727 -0.232154 0.150696 0.296710 -0.335018 -0.259294 0.219163 -0.321393 -0.174442 -0.219393 -0.004960 -0.144307 -0.168323 0.043783 -0.678160 0.153185 -0.190687 0.436366 -0.062948 0.042580 -0.006031 0.241350 -0.668202 0.034978 -0.533458 0.092167 0.742269 -0.452091 0.799566 -0.104697 -0.301522 -0.177545 -0.098728 -0.225933 -0.369379 0.370495 0.200097 0.021121 0.344431 -0.218133 -0.194385 -0.503205 -0.519755 0.213284 
currency	0.057839 0.018887 -0.298615 -1.013488 -0.517484 -0.221553 0.071878 -0.415298 0.602261 0.164078 0.011239 0.234725 -0.379355 -0.355968 0.175630 -0.517804 0.650219 0.762987 0.042200 -0.388231 -0.203748 -0.092992 -0.651088 -0.048714 0.221838 0.141926 -0.026355 -0.375719 -0.494217 0.468834 -0.097390 0.537104 0.343183 0.643079 0.340556 -0.351087 0.462034 0.365250 0.209462 0.423621 -0.770826 0.086804 -0.215664 -0.645109 -0.479174 -0.173375 0.739929 0.128784 -0.338194 0.103301 
lake	-0.176851 0.029511 -0.487703 -0.221691 0.164471 -0.472793 -0.134906 0.167143 -0.130457 0.277559 -0.304987 0.281102 0.320869 0.133851 -0.014652 -0.642532 0.238738 0.201618 0.169053 0.206002 -1.047291 0.509621 0.084594 -0.626643 -0.070234 -0.314387 -0.009039 0.356112 -0.202296 0.190943 -0.717278 -0.495128 0.684882 -0.393239 -0.214272 0.646412 -0.010858 -0.065480 -0.505230 -0.489808 -0.124187 0.538570 -0.373686 -0.400230 0.400398 -0.848469 0.106694 0.218341 -0.200784 -0.153847 
charles	0.174209 0.267726 -0.289352 0.615801 0.206261 -0.824032 0.131719 0.072773 0.411445 -0.565600 -0.125339 -0.185337 -0.022767 -0.665459 -0.157599 0.021193 -0.163226 0.353584 -0.050140 0.214474 -0.819397 -0.169383 0.015383 0.312989 -0.087281 -0.190077 -0.053811 0.332011 0.291814 -0.114940 -0.111773 0.032787 0.384578 -0.105310 -0.350079 0.702256 0.547625 -0.094199 -0.579076 0.407212 -0.406406 0.301506 -0.117438 -0.129948 0.048099 -0.537063 -0.232687 0.171488 -0.404675 0.041942 
seat	0.134857 0.130094 -0.215448 -0.164569 0.274963 -0.687438 -0.109702 0.026870 -0.007713 0.272806 -0.253052 -0.348265 0.182726 -0.123650 -0.764867 -0.605947 -0.418790 0.003975 -0.287029 0.007023 -0.991741 -0.299129 -0.833205 -0.080870 0.055987 -0.349291 0.396740 -0.011541 -0.113762 -0.318951 0.158052 0.680873 0.202936 0.163732 -0.480627 0.282807 0.098359 -0.078041 -0.273498 -0.199597 -0.195115 -0.356107 -0.213551 0.321760 -0.375263 -0.702122 -0.047582 0.439935 -0.118315 -0.207260 
egypt	0.312357 0.731447 -0.632201 0.052252 -0.489984 -0.107454 -0.567759 -0.362147 0.395798 -0.441700 0.070129 0.624678 0.387636 -0.728823 0.158531 -0.117971 0.106344 -0.045502 0.077534 -0.170656 0.062584 -0.201519 -0.518890 0.062156 0.322483 0.786737 -0.082880 -0.203005 -0.236304 -0.224650 -0.307431 0.165268 -0.052358 0.211258 -0.107185 1.046928 -0.477793 0.812945 -0.455457 -0.164982 0.215865 0.037122 -0.398491 -0.322381 -0.327479 0.043937 0.199657 0.264352 0.083954 0.019945 
van	-0.263095 0.555687 -0.728869 0.237853 -0.012940 -0.655525 0.259380 0.010906 0.151110 -0.122968 -0.325876 0.049362 0.408334 -0.805012 0.182692 -0.324794 -0.361467 -0.224692 0.262363 -0.420593 -0.570297 -0.795325 -0.232759 -0.259101 -0.479205 0.255755 -0.066863 -0.018692 0.581317 0.549493 0.122115 -0.150629 0.514541 -0.247552 -0.189741 0.033548 0.266414 -0.453991 -0.506500 0.327224 -0.294577 -0.057890 0.341992 0.019050 0.123427 -0.349920 -0.212992 -0.152281 -0.813637 0.041699 
weather	-0.138325 0.062678 -0.032478 -0.219256 -0.348908 -0.356147 -0.256469 -0.335205 -0.371778 0.055144 -0.073063 0.118259 -0.361060 -0.373997 -0.020320 -0.480299 -0.089535 -0.232866 0.274066 -0.026206 -0.541381 0.236432 -0.521602 -0.249657 0.150637 -0.216183 0.109948 -0.183266 -0.437485 0.215530 -0.416880 -0.723923 0.365638 -0.573844 -0.329446 -0.367720 -0.313234 -0.227446 -0.175666 -0.229231 -0.514462 0.261451 -0.804302 -0.200057 0.542529 0.056436 0.004051 0.438415 0.446378 0.936351 
bus	-0.286311 0.197834 -0.509668 -0.657327 -0.193978 0.017801 0.448114 0.416310 -0.558966 0.232976 -0.570689 -0.082924 0.606380 -1.043500 -0.677116 -0.948092 -0.234269 -0.460090 -0.050341 -0.313151 0.137266 0.208783 -0.377276 -0.103718 -0.177679 0.025221 0.191682 -0.056270 -0.399164 0.140709 0.092359 0.137433 0.179588 -0.306956 -0.284395 0.228246 -0.009786 -0.277982 -0.195652 -0.161204 0.080575 0.034817 -0.050365 0.166200 0.192451 -0.678719 0.729058 0.648961 -0.184928 -0.041643 
girl	0.003347 -0.485458 -0.558778 -0.062394 0.195405 -0.007928 -0.206613 0.134526 -0.368779 0.369493 -0.506018 -0.260622 0.667447 -0.773943 0.295023 -0.216739 0.018182 0.005032 -0.157491 0.291919 -0.337368 0.040865 -0.127628 -0.419980 -0.028750 0.689084 0.283477 0.014085 0.037216 0.682126 0.223160 0.542662 0.178777 -0.408263 0.493197 0.306996 -0.142378 0.335136 -0.454803 0.155737 -0.256162 0.360143 -0.400833 0.474240 0.376454 0.097986 0.024239 0.281351 -0.164597 -0.044877 
virginia	-0.528264 -0.330606 -0.363942 0.196697 0.044526 -0.698587 -0.396371 -0.172772 0.281906 -0.785701 -0.410338 0.291218 0.515104 -0.491705 0.045297 -0.217031 -0.443811 -0.287325 -0.163502 0.727434 -0.526896 0.199049 -0.270887 -0.131098 0.217657 -0.277834 0.074712 0.161314 -0.388944 -0.364768 -0.624238 0.122565 0.748744 -0.153895 -0.313354 0.574718 0.250789 -0.051182 -0.764127 0.131149 -0.068258 0.539705 -0.218197 0.144596 0.148764 -0.389190 -0.210477 -0.062226 0.320711 0.042943 
prince	0.403539 0.414453 -0.347310 0.534803 0.071119 -0.262277 -0.407018 0.303329 0.437899 0.152145 -0.168053 -0.294442 -0.235553 -0.795613 -0.420807 -0.247344 -0.049418 -0.010939 0.160965 0.384782 -0.857863 0.158971 -0.274084 0.240939 0.057810 0.226154 -0.377486 -0.092385 0.275471 0.051937 -0.051265 0.442699 -0.206618 -0.028532 -0.102315 0.962909 0.097309 0.298334 -0.363625 0.692086 -0.364632 -0.006169 -0.277780 -0.416013 0.213430 -0.584200 -0.122793 0.500270 -0.464940 0.051523 
earth	0.259248 -0.052547 -0.226845 -0.727590 0.173873 -0.385190 0.158752 -0.474089 -0.176759 0.027514 -0.251954 0.007195 -0.309686 -0.450787 -0.375614 -0.396496 0.023385 -0.034867 -0.275161 0.270344 -0.412702 -0.180512 -0.239627 -0.538010 0.294196 0.353202 -0.480066 0.499600 -0.035254 0.452849 -0.324955 -0.922095 -0.138706 -0.005648 0.235309 0.745692 -0.589581 0.320774 -0.445372 -0.140164 -0.085726 0.465090 -0.232833 0.213481 0.234627 0.095413 -0.435145 -0.047358 0.076191 0.358591 
bowl	0.378578 -0.830246 -0.687481 -0.195640 0.616462 -0.695814 -0.955865 0.238804 -0.495772 -0.877384 -0.415375 0.499773 0.072344 0.514969 -0.183041 -0.135298 -0.824467 -0.248388 0.487543 -0.701450 -0.367529 0.220084 -1.229113 -0.083212 0.616371 0.333945 -0.001543 0.620923 -0.007935 -0.109248 -0.815115 0.153056 0.428818 -0.076788 0.182432 0.120020 -0.204559 -0.310230 -0.435968 0.122992 0.036423 0.444079 -0.142503 -0.196222 0.092935 0.086184 0.361855 -0.060595 -0.145145 0.377655 
henry	-0.084073 0.335011 -0.155965 0.516847 0.357609 -0.860081 -0.027076 0.260516 0.552387 -0.449593 -0.357326 0.102101 -0.186429 -0.751454 -0.184296 0.266478 0.285273 -0.059629 -0.294797 0.187450 -0.717630 0.041836 -0.177103 0.175849 -0.048046 -0.035483 -0.109907 0.272123 0.297102 0.108485 -0.295315 0.306706 0.509790 -0.052441 -0.273467 0.464087 0.408760 -0.081922 -0.773647 0.421118 -0.182382 0.362344 -0.087216 -0.055469 -0.049186 -0.279889 -0.208308 -0.049529 -0.511226 -0.216104 
fish	-0.230188 0.463866 -1.073626 -0.308287 0.314852 0.239659 -0.870541 -0.330984 -0.229670 -0.163244 0.025765 0.746906 -0.536722 0.101218 0.156477 -0.317748 -0.212289 0.023695 0.040219 0.038766 -0.798692 0.504308 0.238026 -0.141712 -0.096123 0.035278 0.137965 0.080437 -0.287741 0.852068 -0.301406 -0.195143 0.738515 -0.237118 0.325417 0.446232 -0.182571 -0.223668 -0.414915 0.094785 -0.510100 0.090287 -0.407403 -0.160882 -0.018724 -0.180831 -0.163481 0.018492 0.199547 0.143634 
senator	-0.036410 -0.408191 0.173386 -0.211815 0.144447 -0.485497 0.066817 -0.117004 0.590630 -0.314915 0.414239 0.021626 0.066912 -0.430987 -0.186710 0.191572 -0.388754 0.113343 -0.134673 0.398037 -1.249875 0.016578 -0.490997 -0.075611 0.015341 -0.094940 0.058558 0.535686 -0.293596 -0.062291 0.222449 0.708669 0.516367 0.559929 -0.296749 0.291376 0.505400 -0.083261 -0.666260 0.083387 0.434624 0.195882 -0.707574 0.447247 -0.204562 -0.166615 0.258324 0.406474 0.042043 -0.025878 
transportation	-0.394596 0.044492 -0.050433 -0.413907 -0.495677 -0.257117 0.313144 0.174433 -0.039018 -0.203326 -0.143048 0.726110 -0.130843 -0.674843 -0.134292 -0.953145 -0.385950 0.054588 -0.033654 0.216517 -0.184260 -0.033082 0.024690 0.230154 -0.148020 -0.505433 -0.064409 0.239595 -0.649830 0.178558 -0.196115 0.066034 0.542230 -0.184914 -0.680415 0.106595 0.075977 -0.464886 -0.134836 -0.021043 0.076016 -0.043292 -0.240840 0.049828 -0.402305 -0.542337 0.308025 0.497157 -0.172250 0.221758 
rain	-0.231973 0.434238 -0.471740 0.163150 -0.660331 -0.304917 -0.320041 0.319000 -0.508560 -0.028025 -0.068874 -0.253287 -0.466653 -0.063342 -0.107374 -0.463163 -0.168021 -0.454884 -0.095039 -0.208205 -0.568034 0.439938 -0.959803 -0.619429 0.364207 0.051119 0.225125 0.077108 -0.141284 0.412851 -0.516380 -0.288539 0.606529 -0.564353 0.090198 -0.414309 -0.173765 0.019843 -0.047579 -0.331928 -0.176423 0.646718 -0.728210 0.071724 0.635363 0.039767 -0.109337 0.032357 0.409028 0.868659 
novel	0.025912 -0.068614 -0.340896 -0.042556 0.322083 -0.305486 0.231182 -0.240045 -0.064064 -0.331298 -0.381411 -0.136520 -0.455325 -1.035425 -0.024139 -0.243297 0.250062 0.218184 -0.044379 0.147438 -0.711309 0.196718 0.212365 -0.147466 0.076510 0.507568 -0.027839 0.538919 0.409626 0.545452 -0.289080 -0.073164 0.067669 -0.282109 0.082231 0.403004 0.106839 0.321643 -0.379668 0.454081 -0.083488 -0.014173 -0.796025 0.185771 0.896343 0.466809 -0.128528 -0.149531 -0.499220 -0.355554 
atlantic	0.056943 -0.043575 -0.061873 -0.439453 -0.344171 -0.644680 -0.812132 -0.670880 0.160511 -0.147560 -0.115758 -0.018256 0.116011 -0.513648 -0.230979 -0.310809 -0.177593 0.264817 0.248355 0.019683 -0.670836 -0.113050 -0.247896 -0.470411 -0.454867 -0.127018 0.252557 0.006909 -0.667458 -0.222770 -0.392958 -0.603623 0.927782 -0.317547 -0.221114 0.789065 0.068737 -0.176276 -0.388030 -0.217219 -0.419115 0.260861 0.007971 -0.354718 0.096461 -0.022222 0.043680 0.070096 0.155645 0.452501 
animals	-0.124977 0.478375 -0.782923 -0.230322 0.592836 0.355011 -0.128216 -0.097758 -0.305616 0.146784 0.279034 0.605715 -0.257254 -0.429793 0.305518 -0.433386 -0.146034 0.219702 0.078894 0.405979 -0.116852 0.656999 0.023175 0.012639 -0.140822 -0.030663 -0.213625 0.365680 0.459024 0.901673 -0.276085 -0.146795 0.667940 -0.222620 0.656694 0.397125 -0.436370 0.370755 -0.569509 0.159924 -0.424121 0.119898 -0.509235 0.166078 0.084170 -0.464136 -0.048896 -0.428593 -0.247191 0.498364 
michigan	-0.389798 -0.506902 -0.273243 -0.054945 0.396551 -0.761505 -0.144015 -0.280878 0.175085 -0.560033 -0.335646 0.313394 0.756140 -0.180879 0.320246 -0.823704 -0.226170 -0.161876 -0.012804 0.520915 -0.445232 0.202887 -0.338097 -0.181674 0.308322 -0.509413 -0.136704 0.353955 -0.271341 -0.408894 -0.259057 0.015341 0.874060 -0.061252 -0.380083 0.121061 0.352085 -0.046095 -0.962834 -0.253809 -0.103774 0.486347 0.091812 0.252913 -0.205349 0.078301 -0.364463 -0.161929 -0.286178 0.063165 
singer	0.377808 -0.060215 -0.201473 -0.236677 -0.045120 -0.350591 0.088627 0.311234 -0.242978 0.292293 -0.478844 -0.601044 -0.115981 -0.773381 0.520588 -0.197343 -0.496775 0.423174 0.099290 0.112375 -1.069376 0.172790 -0.470134 -0.414301 0.057064 0.706900 0.169157 -0.068362 0.061712 0.196353 0.527871 0.323490 0.162963 -0.820287 0.218134 0.254342 0.212783 0.284119 -0.334433 0.160813 0.165052 0.595298 -0.136481 0.080828 0.058869 0.150359 0.067820 0.287213 -0.683356 -0.339265 
ocean	0.107815 0.229274 -0.108774 -0.571976 -0.329455 -0.200506 -0.484231 -0.643233 -0.348399 0.245667 -0.255940 0.060881 -0.133990 -0.444386 -0.461561 -0.497174 -0.027252 0.245874 -0.106931 0.062402 -0.704980 0.046196 0.037723 -0.519874 -0.169110 0.155998 0.398852 0.448062 -0.641265 0.422651 -0.564383 -0.717930 0.607510 -0.149620 -0.105979 0.797873 -0.339466 -0.333516 -0.335562 -0.097396 -0.145447 0.443410 -0.526857 -0.135797 0.099129 -0.252256 -0.145144 0.158531 0.488968 0.206797 
color	0.427369 -0.242610 -0.407044 -0.259264 0.638341 -0.680981 0.191395 -0.630010 -0.406969 -0.167272 -0.317308 0.334241 -0.137541 -0.303800 0.094460 -0.318624 -0.079653 -0.395192 -0.163679 -0.019233 -0.673114 0.043340 -0.171741 0.602215 -0.097669 0.111084 0.221300 0.287369 -0.089385 0.370599 -0.207322 0.229673 0.070396 -0.794283 0.712505 -0.197675 -0.461808 0.098115 0.150404 -0.293908 -0.171376 -0.068269 -0.321914 -0.151351 0.377342 0.125535 -0.335738 -0.324628 -0.319976 0.259060 
bird	0.125292 0.195678 -0.379010 0.085304 0.365492 0.248783 -0.546893 -0.483691 -0.009577 0.227413 0.178685 0.432979 -0.029201 -0.254010 0.067833 -0.567028 -0.406833 -0.171868 0.664815 -0.041383 -0.577853 0.209077 -0.403672 -0.225436 -0.267913 0.154584 0.159643 0.307848 0.046276 0.737959 -0.469124 -0.082249 0.510013 -0.087476 0.792635 0.306213 -0.403617 0.168271 -0.816698 0.487025 -0.643973 0.238801 -0.319479 0.346786 0.153524 -0.525606 0.094596 -0.032959 -0.236312 0.187924 
dallas	-0.165681 -0.587826 -0.086437 0.053378 0.322751 -0.743891 -0.352018 0.141668 -0.368689 -0.890703 0.075263 -0.044253 0.656899 -0.202698 0.383515 -0.517006 -0.592365 -0.122696 0.046260 -0.132354 -0.258912 -0.215055 -0.219200 -0.156751 -0.277805 -0.130259 -0.449926 0.655835 -0.282532 -0.094696 -0.288956 0.172753 0.620130 -0.153207 -0.057351 0.132406 0.075387 -0.092574 -0.981332 -0.039858 -0.231346 0.529251 0.238344 -0.277040 0.073021 -0.179025 0.011815 -0.224502 -0.127609 0.222082 
animal	-0.226400 0.443414 -0.718971 -0.228538 0.837312 0.308155 -0.143771 -0.190019 -0.253333 -0.000539 0.122119 0.535351 -0.188699 -0.573341 0.405977 -0.337926 -0.248600 0.180836 0.038890 0.352288 -0.235827 0.260445 0.256690 -0.117494 0.043002 -0.141772 0.013398 0.472022 0.269846 0.788139 -0.120869 -0.032602 0.613186 -0.078726 0.537147 0.309905 -0.638381 0.187883 -0.444089 0.094453 -0.408134 0.193736 -0.252082 0.233480 0.061899 -0.324591 -0.006769 -0.318135 -0.296976 0.316635 
website	0.033539 0.072924 -0.295000 -0.484788 0.740520 -0.428244 -0.056072 -0.540715 -0.577651 0.403956 -0.132589 -0.001627 -0.203686 -1.002252 0.275422 0.005918 -0.227662 -0.353939 0.328641 -0.076012 -0.037848 0.240817 0.308867 -0.319226 0.373120 0.163240 -0.000171 0.234992 -0.522400 -0.233769 -0.006620 0.060654 0.030574 -0.223574 0.029009 -0.226644 -0.068530 0.553686 -0.609716 0.121746 0.166259 0.205544 -0.102945 -0.269116 0.168542 0.044879 -0.021538 0.460707 -0.613696 -0.453012 
hair	0.302218 -0.276566 -0.466473 0.019074 0.725639 -0.260821 0.105921 0.099977 -0.110080 0.261008 -0.113616 0.197431 0.314392 -0.104886 0.210538 -0.152583 0.076658 0.048498 -0.280811 0.183101 -0.606991 -0.024059 -0.732762 0.488371 0.350657 0.508416 0.655807 -0.069549 -0.005404 0.765477 0.051890 0.355303 0.303502 -0.738382 0.851492 0.280792 -0.554245 -0.073842 -0.081727 -0.196391 -0.449718 0.181565 -0.273489 0.131216 0.363260 0.078735 -0.227361 0.018401 -0.466938 0.206289 
tree	0.021224 0.644522 -0.879046 -0.398447 0.248891 -0.029293 0.173069 -0.380395 -0.218539 0.337626 -0.353426 0.361311 -0.206259 0.024738 -0.310582 -0.225308 0.038155 -0.258987 -0.270022 0.453593 -0.752285 0.033532 -0.464062 -0.323286 0.232976 -0.052934 0.095801 0.491700 0.135005 0.780351 -0.189695 0.317274 0.236358 -0.306383 0.388581 0.116774 -0.532766 0.041418 -0.680772 0.006568 -0.289350 0.089457 0.235333 -0.244844 0.761756 -0.425238 -0.130650 0.030020 -0.078164 0.394312 
salt	0.136248 -0.178348 -0.753552 -0.165869 0.648353 -0.174394 -0.619806 0.277392 -0.041921 -0.627730 -0.534546 0.738467 0.092680 0.517800 0.124612 -0.184471 -0.147944 0.095368 -0.011338 -0.432632 -0.737972 0.338199 -0.206221 -0.317745 0.285225 -0.310073 -0.625659 0.368450 -0.299792 0.105343 -0.423395 -0.352210 0.703554 -0.695663 0.198251 0.604002 -0.266429 -0.227516 0.168686 -0.715595 0.367951 0.551232 -0.339546 -0.479143 0.243895 -0.110592 0.201131 0.478293 0.055684 0.071205 
dog	0.040060 -0.197958 -0.773537 -0.213315 0.736458 -0.199667 -0.175826 0.113108 0.013017 0.237640 0.058410 0.253474 0.132751 -0.671587 0.095961 -0.200638 -0.041843 0.041109 0.057296 0.105061 -0.550070 0.520811 0.063941 -0.232134 -0.088936 0.088765 0.087865 0.064754 0.041110 0.732953 0.081494 0.126723 0.468639 -0.054343 0.555552 0.247099 -0.291988 -0.213162 -0.529390 0.020906 -0.564317 -0.082887 -0.102359 0.360801 0.343576 -0.196512 0.213111 0.204996 -0.265840 0.164196 
ring	-0.167768 -0.174946 -0.393873 -0.479762 0.200806 -0.602028 0.178684 0.089688 0.275529 -0.002359 -0.109085 -0.084915 0.185339 -0.498372 0.078916 -0.155423 -0.111708 -0.034974 0.028055 -0.483130 -0.435751 0.214026 -0.399450 -0.367824 0.314671 0.283383 -0.141505 0.267295 -0.238335 0.421389 -0.336761 0.407351 -0.401485 -0.352003 0.551435 0.792430 -0.324240 -0.134779 0.081206 -0.129773 -0.380664 0.073664 0.419857 -0.147224 0.129819 -0.740538 -0.094500 0.137881 -0.113157 0.014077 
drama	-0.341672 -0.330395 -0.030875 -0.227540 0.259765 -0.329342 0.105900 0.427414 -0.346861 -0.060357 -0.747278 -0.389978 -0.027409 -0.776379 -0.151704 -0.296736 -0.376356 0.472833 0.355430 0.087556 -0.741977 0.278783 0.108089 0.065381 -0.004083 1.045045 -0.138803 0.358764 -0.184647 0.176615 -0.291521 0.253908 0.200505 -0.304966 -0.152780 0.097534 -0.177232 0.460688 -0.176571 0.247686 -0.224853 0.030297 -0.526576 0.362819 0.580556 0.587901 -0.335588 0.058044 -0.214094 -0.074714 
rangers	0.013341 -0.219512 0.148801 -0.605903 0.914825 -0.178792 -0.272884 0.673677 -0.710059 0.002391 -0.167166 -0.075636 -0.438574 -0.413023 -0.147483 -0.011813 0.188453 -0.329197 -0.537114 -0.790858 -0.374617 0.094651 -0.525969 -0.389455 -0.588304 -0.066390 -0.943089 -0.048267 -0.552286 -0.500228 -0.538644 0.424968 0.804512 0.039210 0.134491 0.346043 0.000345 -0.168323 -0.847797 0.090156 -0.627219 0.281650 -0.003909 -0.079052 0.703723 -0.296120 0.205953 -0.314908 -0.249904 0.467402 
opera	-0.203351 -0.268902 0.234954 -0.075271 0.177752 -0.631820 0.008514 0.733245 -0.158242 -0.252148 -0.745257 -0.542503 -0.305133 -1.112725 -0.014758 -0.586554 -0.457281 0.712888 0.321212 0.220121 -0.898506 0.459793 -0.211225 0.072447 0.225798 0.670786 -0.443228 -0.107600 0.154567 0.443105 -0.147252 -0.089110 0.531438 -0.765177 -0.269375 0.083989 0.110014 0.618133 -0.118437 0.222243 0.176918 -0.334529 -0.186327 -0.237925 0.127888 0.104183 -0.140816 0.310284 -0.624542 -0.183510 
comedy	-0.059884 -0.411376 -0.259021 -0.192459 0.589070 -0.372823 0.125229 0.554923 -0.586783 -0.176137 -0.615752 -0.256021 -0.450275 -0.800477 0.019466 -0.541078 -0.610846 0.399394 0.423798 0.166228 -0.781025 0.444985 -0.023523 -0.084103 -0.341910 1.170444 0.163203 0.182911 -0.196823 0.342600 -0.068709 0.130127 0.305342 -0.152527 0.120762 0.253262 0.068696 0.166467 -0.354731 0.050753 -0.232828 -0.129008 -0.300186 0.276477 0.628887 0.783704 -0.088284 0.390806 -0.421015 -0.157143 
horse	-0.135559 -0.210935 -0.675103 -0.061284 0.658442 -0.338763 -0.501495 0.155102 0.456576 0.311619 -0.086636 0.464656 -0.079633 -0.875488 -0.175907 -0.504657 0.223989 0.140759 0.171231 -0.081176 -0.546341 0.950220 -0.338107 0.083257 0.035052 0.066688 -0.022889 0.163737 0.263667 0.467698 -0.397801 0.409951 0.101301 0.141261 0.052846 0.370372 -0.295524 -0.350363 -0.331013 -0.177882 -0.159682 0.148775 -0.306116 0.384075 0.507516 -0.707884 0.213881 -0.124024 -0.332505 0.098463 
dinner	0.631969 -0.325816 -0.693357 0.164829 0.102656 0.067864 -0.234887 0.452334 -0.285610 -0.092786 -0.300537 0.105071 0.328579 -0.463865 -0.392350 0.089279 -0.261673 0.421125 0.118314 -0.155774 -0.852873 0.448051 -0.242495 0.153613 -0.191440 0.437905 -0.101156 0.235826 0.223847 0.295479 0.242810 0.332108 0.764567 0.091682 -0.040615 -0.079249 -0.385621 -0.097896 -0.479621 0.113454 0.064529 -0.371699 -0.078794 -0.611245 -0.103086 -0.023284 -0.033963 0.983233 0.340917 0.136237 
worker	-0.066501 0.123349 -0.418240 -0.530706 0.029785 0.068216 0.211373 0.487160 -0.266499 0.253322 -0.140154 0.275459 0.497709 -0.459828 0.047130 -0.423806 0.034044 -0.114089 -0.388430 0.287329 -0.267357 -0.478430 0.114504 0.158498 0.086337 -0.157158 0.077914 -0.167515 -0.087353 0.322069 0.401848 0.554508 0.401570 -0.423855 -0.371305 0.020724 -0.078129 0.127339 -0.268186 0.279170 -0.153392 0.354934 -0.456732 0.456263 -0.038013 0.162566 0.207029 0.238674 -0.016279 0.008347 
apple	0.105544 -0.479298 -0.514381 -0.308160 0.221035 -0.413782 -0.390599 -1.155838 -0.745299 -0.400352 -0.170004 0.152928 -0.282788 -0.563074 -0.025411 -0.311009 -0.582700 -0.636965 0.074938 0.313847 -0.237367 0.009764 -0.222049 -0.052468 0.566486 -0.008119 -0.015070 0.291485 0.276090 0.556403 0.485151 0.282618 0.665013 0.051013 0.184227 -0.542390 0.099064 -0.236573 -0.013944 -0.119808 -0.242698 0.636644 0.351742 -0.898643 0.560861 0.111864 -0.058674 0.025431 -0.357081 0.076046 
birds	0.327655 0.511899 -0.688827 -0.340025 0.377985 0.126484 -0.062247 -0.557674 -0.326959 0.505899 0.443726 0.652823 -0.122061 0.122942 -0.181896 -0.415521 -0.521862 0.169299 0.482860 0.266940 -0.457413 0.664493 -0.364956 0.108970 -0.223375 -0.065446 0.065010 0.060101 0.079193 0.978126 -0.563044 -0.565551 1.076680 -0.308560 0.875746 0.490590 -0.020446 0.266123 -0.990118 0.487651 -0.789230 -0.181256 -0.612361 -0.059393 0.023323 -0.317988 0.008112 -0.149628 -0.206541 0.601827 
politician	0.143789 0.594170 -0.037819 -0.479333 0.642329 -0.042108 0.383332 -0.068929 0.090535 0.069688 -0.499696 -0.240527 0.177106 -0.458224 -0.039241 -0.122027 -0.156136 0.331609 -0.145309 -0.147523 -1.663682 -0.624160 -0.137680 -0.157983 -0.027626 -0.014194 0.127688 -0.023290 0.200390 -0.381919 0.262524 0.670068 0.195274 0.193530 -0.706845 0.267092 0.524906 0.010387 -0.315168 0.489855 -0.186163 -0.102987 -0.914838 0.395114 0.181319 -0.276827 0.316926 0.352923 -0.275662 -0.511740 
gasoline	-0.021088 -0.103176 -0.379631 -0.709373 -0.247233 -0.144152 0.112138 0.250872 -0.316561 -0.566663 -0.549326 0.242045 -0.847956 -0.669388 0.485744 -1.231182 0.609389 0.272441 -0.280292 0.033131 -0.050285 0.052014 -0.574293 0.313335 0.676432 -0.693009 -0.032749 -0.210052 -0.482427 -0.094404 0.466251 0.030251 0.464711 0.285276 0.636013 -0.082189 0.608622 -0.240076 -0.567712 -0.830489 -0.129122 0.373099 -0.537224 0.037293 -0.701539 -0.140241 0.179133 0.772558 0.638216 0.808586 
hero	0.412189 0.110648 0.126808 -0.452493 0.498761 -0.556313 -0.014936 0.274427 0.114033 0.182834 -0.124145 -0.146357 0.107717 -0.910950 -0.186438 0.051448 0.024313 -0.251793 -0.045421 -0.097648 -0.680377 -0.141395 -0.418817 -0.430848 0.084687 0.685792 -0.272434 0.375645 0.269303 0.102669 -0.071322 0.197699 -0.263328 -0.020759 0.247648 0.291210 0.111701 -0.078881 -0.063502 0.507963 -0.123514 0.225102 -0.266690 0.223233 0.341699 0.182716 -0.154148 -0.144276 -0.189893 0.076610 
meat	0.235611 0.202663 -1.149702 -0.512071 0.578597 0.617642 -0.873661 -0.159987 -0.211295 -0.434607 -0.324526 0.845190 -0.218171 -0.117415 0.163697 -0.506737 -0.064845 0.052846 0.053913 -0.125738 -0.508229 0.321926 -0.052540 -0.015774 0.163503 -0.231432 0.253146 0.074153 0.299096 0.681270 0.175417 0.110909 1.123440 -0.312470 0.778825 0.160632 -0.227963 0.005382 -0.188128 0.118861 -0.255232 -0.323194 -0.523367 0.002422 -0.074071 0.218629 0.472066 0.189383 -0.257295 -0.027888 
dogs	-0.170959 0.047625 -0.809148 -0.366764 0.754470 -0.012952 -0.297551 0.134405 -0.207604 0.061519 0.183713 0.356236 0.165949 -0.553951 0.111157 -0.126346 -0.176463 0.139346 0.072226 -0.034330 -0.295529 0.713728 0.092425 0.145603 -0.230980 -0.058498 -0.205986 -0.025422 0.101768 0.722214 -0.033327 -0.080026 0.661660 -0.261167 0.651974 0.146582 -0.230522 -0.012241 -0.416010 0.038684 -0.520129 -0.064603 -0.367949 0.502676 0.180545 -0.468968 0.096992 0.058651 -0.028233 0.431861 
weapon	-0.418733 -0.261947 0.026222 -0.913145 0.223722 -0.015499 0.158900 0.090883 0.200625 -0.311232 -0.402600 0.471126 -0.096525 -0.880631 0.017466 0.112923 -0.027400 -0.464445 -0.361490 -0.196945 0.000916 -0.179320 -0.084337 -0.429391 0.202636 0.257589 0.310599 0.328444 0.170305 0.101921 -0.071947 0.230025 -0.119358 0.161726 1.050702 0.733446 0.127046 0.008839 -0.104776 0.124761 -0.526419 0.061940 -0.248979 0.167618 -0.166777 -0.394965 -0.594202 -0.088947 -0.057091 0.374902 
clothes	0.703932 -0.253682 -0.544827 -0.015190 0.224166 -0.428269 -0.286029 0.461822 -0.526781 0.139677 -0.064552 0.398943 0.406600 -0.502742 0.164300 -0.507202 0.222837 0.076254 -0.456893 0.238355 -0.060743 -0.005066 -0.287093 0.496898 0.320223 0.597988 0.277915 -0.493302 -0.003624 0.646637 0.437002 0.381547 0.477478 -0.605801 0.632960 -0.093565 -0.025458 -0.097360 0.019827 -0.016870 -0.266895 -0.032082 -0.424406 0.107420 0.189502 -0.381360 -0.362225 0.353893 -0.110685 0.231744 
literature	0.220322 0.341518 -0.107800 -0.548235 0.620267 0.147864 0.313447 -0.503781 -0.016793 -0.275967 -0.735907 0.378695 0.007393 -0.941419 0.246338 -0.137027 -0.193601 0.638643 0.021912 0.084214 -0.526124 0.228708 -0.170650 0.057861 0.303588 0.420504 -0.103511 0.252252 0.214218 0.170723 -0.278889 0.082766 0.031290 -0.619173 -0.352498 0.037970 -0.016550 0.525368 -0.394764 0.605630 0.315913 -0.176661 -1.058826 -0.310297 0.397641 0.169072 -0.243379 -0.458840 -0.023427 -0.684458 
chair	0.199062 0.026344 -0.425394 -0.017035 0.290159 -0.320803 0.145056 0.127745 0.090248 -0.188525 -0.447478 0.083843 0.303851 -0.269012 -0.186831 0.241081 -0.341921 0.562768 -0.342171 0.078638 -1.074705 -0.574881 -0.329251 -0.113395 0.476989 -0.091500 0.578951 0.058767 -0.442933 0.262095 0.107972 0.261899 0.433623 0.056623 -0.578129 -0.209789 -0.708316 0.126005 -0.447462 0.261560 -0.201045 -0.061710 -0.065829 0.099262 -0.346969 -0.431125 -0.377650 0.010304 -0.102064 -0.004826 
beef	0.062462 0.017010 -0.735054 -0.443790 0.133768 0.493848 -1.094475 -0.284788 -0.031883 -0.602049 -0.273742 0.877460 -0.114431 -0.241606 0.158904 -0.385197 -0.120390 -0.180334 0.251941 -0.303675 -0.561101 0.238612 -0.039009 0.009069 -0.043042 -0.201488 0.396723 0.219334 0.384660 0.195243 0.083886 0.292262 1.384381 -0.171237 0.687830 -0.181654 0.201655 -0.053782 0.133343 0.093681 -0.289167 -0.170500 -0.250928 -0.229797 -0.312887 0.122398 0.656508 0.457861 -0.410843 0.307909 
clothing	0.618353 -0.011337 -0.509990 -0.076598 0.304620 -0.497214 -0.403975 0.079470 -0.465933 0.189120 -0.142914 0.610330 0.170825 -0.739803 0.421357 -0.569997 0.237048 0.207781 -0.246365 0.346846 0.122391 -0.211928 -0.224084 0.535376 0.082496 0.032465 0.366181 -0.484708 -0.301488 0.381121 0.329834 0.554014 0.591174 -0.635895 0.605175 0.070895 -0.102632 -0.114106 0.071716 0.020948 -0.064044 0.183411 -0.259670 0.007264 0.125448 -0.297498 -0.361935 0.155658 -0.316317 0.027644 
milk	0.393799 0.008546 -1.075670 -0.233566 0.722141 0.308119 -0.534559 0.083509 -0.364776 -0.381245 -0.642597 0.598146 -0.276030 -0.205563 0.348960 -0.344359 -0.122180 -0.054582 0.016369 -0.014232 -0.533874 0.139597 -0.411202 0.166611 0.416372 -0.418372 0.061701 0.096366 0.418223 0.823523 0.211159 0.086441 0.807020 -0.312800 0.399165 0.352586 -0.027319 0.105046 0.242006 -0.444792 0.179518 0.268449 -0.362734 0.114710 -0.171387 0.170524 0.612919 0.398989 -0.028598 -0.176204 
planet	0.318137 -0.208226 -0.177910 -0.746121 0.401554 -0.482375 0.001210 -0.599051 -0.396002 0.114628 -0.023863 0.020446 -0.393894 -0.510123 -0.209964 -0.464040 0.074478 -0.113969 -0.252301 0.305061 -0.458029 -0.149114 -0.112318 -0.562116 0.062383 0.428352 -0.508516 0.388514 0.014004 0.535714 -0.372799 -0.829824 -0.156661 0.039866 0.282677 0.900464 -0.429595 0.231727 -0.413766 -0.028936 -0.340594 0.401373 -0.108026 0.216717 0.252234 0.283288 -0.364356 0.131719 -0.005381 0.364978 
fruit	0.724422 0.420272 -0.833786 -0.399375 0.316286 0.439377 -0.482095 -0.309329 -0.340170 -0.171346 -0.506985 0.712457 -0.451255 -0.015674 0.166140 -0.277737 0.105868 -0.185678 -0.008038 0.138159 -0.691102 0.084823 -0.395410 0.314690 0.008875 0.012466 0.077727 0.172020 0.420625 0.806093 -0.209275 0.411760 0.784938 -0.458478 0.496814 0.165758 -0.280160 -0.171409 -0.059469 -0.254358 -0.111357 0.060039 -0.013691 -0.491854 0.466037 -0.109468 0.105889 0.318061 -0.080116 0.323662 
tea	0.935148 0.419210 -0.639434 0.365851 0.366178 0.411708 -0.199809 -0.024667 -0.492458 -0.313369 -0.630218 0.346429 -0.489393 -0.365529 -0.045796 -0.433006 -0.217010 -0.259585 -0.212377 -0.346175 -0.408734 0.655890 -0.525515 0.128528 0.441816 0.118695 0.236889 0.300264 0.080523 0.552498 0.087785 0.296458 1.015273 0.006043 0.204337 0.222830 -0.207374 -0.374002 0.269385 0.124394 -0.060544 0.314609 -0.298257 -0.324856 0.203562 -0.240341 0.013643 0.325076 0.333851 -0.115491 
pipeline	-0.548976 -0.001916 -0.259945 -0.826379 -0.576440 0.376362 -0.239305 0.333617 -0.504743 -0.391285 -0.139414 0.604064 -0.496782 -0.397981 -0.263020 -1.041586 0.350028 -0.147032 0.562330 0.042568 -0.624667 -0.216975 0.045487 -0.456620 0.704068 -0.092251 0.077992 0.189823 -0.575806 -0.133127 0.081964 -0.075569 -0.000790 0.121214 -0.214971 0.743959 0.086192 0.548978 -0.301287 -0.729979 0.063547 0.240334 -0.251487 -0.557454 -0.384291 -0.564093 0.312320 0.412558 -0.018085 0.354115 
arthur	-0.098685 0.260818 -0.429409 0.590054 0.274538 -0.690370 0.277395 0.208026 0.149827 -0.668465 -0.319938 -0.158822 -0.300855 -0.632996 -0.338254 0.025479 -0.161101 0.291330 0.032979 -0.001518 -0.754549 -0.172435 0.040679 -0.168175 0.095980 0.129185 -0.239149 0.146662 0.121458 0.195779 -0.401261 0.058133 0.393425 -0.206575 -0.446049 0.576476 0.026323 -0.150380 -0.385205 0.545572 -0.495855 0.475729 -0.105805 -0.028948 0.259012 -0.178173 -0.032036 -0.032380 -0.275927 -0.155419 
vessel	-0.375203 -0.059237 -0.229454 -0.915651 -0.263518 -0.306033 -0.663614 -0.173856 0.102414 0.398404 -0.334919 -0.018730 -0.206942 -0.724115 -0.562894 -0.334390 0.192037 -0.045411 -0.335400 -0.301486 -0.471620 0.030404 0.450160 0.193251 -0.127745 -0.219011 0.187998 0.147306 -0.281853 0.531660 0.198442 -0.692644 0.279055 -0.211871 0.362501 1.191092 -0.346101 -0.265691 -0.553489 0.400683 0.068086 0.479476 -1.073369 -0.259553 -0.523721 -0.458385 0.220315 0.220041 -0.103193 0.118356 
sony	-0.278584 -0.678659 -0.158687 -0.497993 0.138341 -0.528601 -0.373257 -0.547146 -0.717842 0.041556 0.084139 -0.516646 -0.649385 -1.164462 -0.361701 -0.705197 -0.571046 -0.076861 -0.019129 0.205088 -0.176197 0.027490 0.020699 -0.240097 0.353254 0.413917 -0.150673 -0.067819 -0.200946 0.368007 0.126272 0.514723 0.353115 -0.011456 0.354687 -0.764936 0.353272 0.391964 0.135332 0.172693 -0.270365 0.833543 0.490870 -0.575787 0.101996 0.542625 -0.793842 -0.222921 -0.666873 0.324646 
plate	0.376346 -0.173508 -0.311451 -0.801448 0.344389 -0.146362 -0.163442 0.087401 0.177271 -0.235799 -0.234082 0.239465 -0.344356 -0.191125 -0.211195 -0.327543 0.105104 -0.435339 -0.717739 -0.970485 -0.661741 0.198616 -0.379015 -0.017683 0.077689 -0.021511 0.301170 0.222588 -0.723718 0.380106 -0.147220 0.349001 0.345217 -0.791487 0.152332 0.242790 -0.573262 -0.510834 -0.504422 -0.450695 0.051160 -0.020614 0.076219 -0.401085 -0.069313 -0.020215 0.254601 -0.321586 -0.089283 0.024764 
princess	0.257716 0.061043 -0.235736 0.654507 0.151215 -0.345761 -0.608549 0.100898 -0.090594 0.558014 -0.312228 -0.397451 -0.060387 -1.265337 -0.745369 -0.433881 0.177184 0.182428 -0.018554 0.504330 -0.764029 0.346726 -0.315605 -0.078110 -0.014432 0.337219 -0.195272 -0.148519 0.191859 0.633895 0.117012 0.482882 -0.098202 -0.227052 0.228585 0.772479 -0.049568 0.472280 -0.293679 0.625545 -0.217791 0.003141 -0.493311 -0.324841 0.160511 -0.212585 -0.119276 0.515289 -0.255831 -0.027453 
flowers	0.526982 0.217625 -0.708592 0.019230 0.323139 -0.301930 0.324909 -0.082041 -0.191630 0.443984 -0.386089 0.498388 -0.095856 0.061717 -0.278779 -0.017068 0.145696 -0.502885 -0.046346 0.293855 -0.903501 0.389767 -0.578591 0.328546 -0.002236 0.127703 -0.128027 0.148434 0.202957 0.790913 -0.189258 0.661943 0.638867 -0.627160 0.788714 0.033216 -0.440126 0.366720 -0.240491 -0.101297 0.216848 0.281809 -0.005713 -0.618496 0.508141 -0.159506 -0.308205 0.119553 0.084251 0.578512 
drink	0.548382 0.024610 -0.757385 -0.117275 0.957715 0.211606 -0.441853 0.279459 -0.472769 -0.092800 -0.340827 0.056613 -0.199782 -0.628058 0.319301 -0.263000 -0.071424 0.274381 -0.285321 -0.010154 -0.395573 0.481742 -0.339589 -0.165632 0.226899 -0.008181 0.065768 0.005836 0.258288 0.648667 0.391418 0.029893 0.414198 -0.321036 0.394085 0.051116 -0.007747 -0.444540 0.026317 -0.300518 -0.067118 0.188219 -0.278138 -0.310846 -0.011646 -0.257414 0.504629 0.709785 0.308793 0.316003 
chips	0.057728 -0.507079 -1.033212 -0.857723 0.170657 0.176495 -0.316130 -0.946447 -0.431286 -0.728310 -0.376115 -0.345444 -0.354545 -0.422138 -0.128983 -0.173758 -0.156238 -0.329783 -0.284952 -0.372070 -0.298052 0.102672 -0.362946 0.813108 0.503772 -0.056012 0.053829 0.120348 -0.044574 0.774493 -0.029594 0.260821 0.554359 0.211656 0.611869 -0.635868 0.112561 -0.505442 0.416059 0.052045 -0.207325 0.792803 0.194697 -0.615792 -0.104744 -0.083043 -0.260698 -0.221758 -0.002636 0.129902 
tool	0.074206 0.022666 -0.156619 -0.894903 0.366072 -0.257085 0.343894 -0.510929 -0.431549 -0.422113 -0.030345 0.717424 -0.094102 -0.625229 0.324473 0.150429 -0.156581 -0.065495 -0.285723 0.027437 -0.058579 -0.048061 0.046252 -0.048053 0.372885 0.085877 0.199469 0.492754 -0.270799 0.333518 0.042715 0.055399 -0.130055 0.033975 -0.066452 -0.001355 -0.205407 -0.010630 0.159581 -0.025040 -0.375307 0.118719 -0.027213 -0.071883 -0.064885 -0.291859 -0.353071 0.025601 -0.456454 -0.171033 
alaska	-0.153002 -0.310276 -0.050933 -0.113487 -0.022903 -0.330648 -0.355178 -0.374369 0.174290 0.326101 0.057205 0.580959 -0.089346 -0.279389 -0.136152 -0.705816 -0.445112 0.189719 0.081954 0.727646 -0.739447 0.204401 0.154709 -0.609078 0.133392 -0.372116 -0.285889 0.519531 -0.715702 -0.178147 -0.178006 -0.344630 0.889662 -0.116091 -0.086512 0.786134 0.158005 -0.356681 -0.993012 -0.350656 -0.310661 0.216221 -0.603716 -0.235261 -0.054137 0.186866 -0.047633 0.078618 0.601008 0.219614 
wheat	0.641258 0.012942 -0.772209 -0.166842 -0.097039 0.508306 -0.251751 -0.022867 0.204726 -0.785805 -0.630631 1.146759 -0.678255 -0.095757 0.524614 -0.661581 0.217393 -0.056988 0.426325 -0.084681 -0.451526 0.213929 -0.528953 0.211828 0.651254 -0.543039 -0.123747 -0.334734 0.067381 0.275577 -0.320859 0.351916 1.111163 -0.008382 0.507652 0.008103 0.299199 0.116310 -0.254419 -0.474176 -0.208891 0.571471 -0.511253 -0.073573 0.226437 -0.313186 0.317444 -0.128485 0.116965 0.231759 
landscape	0.053902 0.562459 0.003514 -0.354741 0.165070 -0.526691 0.188852 -0.405098 -0.433658 -0.294469 0.007484 0.455292 -0.041661 -0.076041 -0.100439 -0.757550 0.482756 0.282115 0.015901 0.608217 -0.752455 0.131278 -0.155947 0.056920 0.106465 0.396124 0.055958 0.372481 0.128116 0.364427 -0.389534 -0.040348 0.510807 -0.354791 -0.430934 -0.117422 -0.241667 0.065155 -0.164077 -0.031588 -0.160072 -0.009357 -0.238483 -0.236004 0.675250 -0.470560 -0.551715 -0.171598 -0.148069 0.096409 
desk	0.564411 -0.802524 -0.413400 -0.069268 -0.147765 -0.463856 0.455825 -0.223927 -0.412838 -0.231817 -0.059742 0.390369 0.457541 -0.606905 -0.612957 -0.182476 0.012503 0.019386 -0.308947 -0.468432 -0.705261 -0.058164 0.142379 0.175038 0.037830 0.177723 0.305999 0.036947 -0.965666 0.474455 -0.129816 0.363205 0.253203 0.049913 0.148143 -0.497656 -0.389953 0.330114 -0.435966 0.549436 -0.360987 -0.071763 -0.170617 0.123506 0.055359 -0.286538 -0.074470 0.664410 0.137805 -0.164051 
colors	0.447048 -0.303990 -0.226031 -0.365075 0.648626 -0.823706 -0.063373 -0.378964 -0.385021 0.047288 -0.473772 0.370245 0.100211 -0.246571 -0.070287 -0.242779 -0.042610 -0.305836 -0.166923 0.171104 -0.727718 0.178051 -0.684737 0.713160 -0.050994 0.294282 -0.122631 0.199622 -0.019964 0.278365 -0.516184 0.184379 0.245217 -0.740778 0.796962 -0.193438 -0.334907 -0.170021 0.144521 -0.366779 0.031517 -0.334873 -0.240470 -0.048737 0.180145 -0.187678 -0.424224 -0.365976 -0.357046 0.273404 
robin	-0.168984 0.175875 -0.575724 0.460283 0.087497 -0.309685 0.001947 0.189180 -0.217493 -0.263874 -0.179229 -0.020809 -0.274780 -0.578240 -0.109248 0.322428 -0.156957 -0.387364 -0.296559 0.052613 -1.049762 0.037960 -0.217186 -0.325807 -0.360450 0.571221 -0.065516 -0.122337 -0.066947 -0.061648 -0.097260 0.234745 0.360180 -0.226518 0.104466 0.436910 0.070977 0.047922 -0.071923 0.315627 -0.866175 0.191391 0.171155 0.115638 0.402304 0.268171 -0.463714 0.139393 -0.295706 -0.087755 
piano	0.071252 -0.301505 -0.402971 -0.554403 -0.265397 -0.628757 0.409168 0.411484 -0.013103 -0.199111 -1.056638 -0.166513 0.058854 -0.778125 0.051813 -0.150307 -0.667486 0.976370 -0.162286 -0.248915 -0.818430 0.659777 -0.645311 -0.166341 0.441077 0.537698 0.055584 -0.047998 0.125527 0.772741 0.474926 0.042515 0.393108 -0.889891 -0.175802 -0.102054 0.178686 0.193056 -0.366064 0.360175 0.148612 -0.058830 0.090234 -0.280187 -0.150784 -0.030684 -0.542639 -0.203137 -0.619386 -0.055057 
diana	0.192729 -0.307358 -0.115496 0.939470 0.212436 -0.568124 -0.086674 0.021808 -0.141935 -0.045276 0.121536 -0.348724 -0.073485 -1.010340 -0.372389 -0.389303 0.321333 0.366166 -0.068134 0.102992 -0.466382 0.380871 -0.368966 -0.105679 -0.111546 0.405703 0.097571 0.238963 -0.079912 0.306371 0.589669 0.470208 0.195680 -0.300078 0.244608 0.605184 0.038609 0.468014 -0.615040 0.372759 0.154096 0.481367 -0.491134 -0.118650 -0.166640 -0.203557 -0.023193 0.623125 -0.121419 0.141781 
instrument	0.341107 -0.052676 -0.052439 -0.758022 -0.249264 -0.294358 0.354499 -0.324537 0.287415 0.185920 -0.768851 0.201010 -0.261651 -0.536217 0.149460 -0.009335 -0.592048 0.579695 -0.441308 -0.003087 -0.227414 -0.264774 -0.384805 -0.547156 0.242744 0.201640 0.311045 0.468172 -0.288686 0.493529 0.142150 -0.142534 0.232400 -0.411058 0.184260 0.383664 -0.132625 0.147492 0.217374 -0.135498 -0.207843 -0.075670 0.067132 -0.333091 -0.673023 -0.429532 -0.473992 -0.423370 -0.599970 0.274419 
furniture	0.381211 0.165580 -0.501440 -0.263587 -0.073828 -0.593492 -0.200568 0.224216 -0.790619 -0.528193 -0.172665 0.566047 -0.267474 -0.495952 -0.286329 -1.031043 0.353428 0.283124 -0.401271 0.198558 -0.172849 -0.201785 -0.095654 0.442284 0.305607 0.030326 0.487946 -0.494378 -0.008478 0.504693 0.334887 0.603425 0.570014 -0.560375 0.146959 -0.212896 -0.140948 -0.045573 -0.161825 0.445473 0.132571 0.105902 -0.077739 -0.340462 -0.160116 -0.705721 -0.723273 0.192576 -0.203341 0.030250 
honda	-0.414717 -0.328264 -0.172406 -0.265424 -0.154122 -0.119981 -0.289694 -0.509946 -0.361280 0.465198 -0.303073 -0.100201 -0.185693 -1.362378 -0.103380 -1.164542 0.562216 -0.336744 -0.743022 -0.143336 -0.479886 0.539275 -0.369677 0.004181 0.042292 -0.204846 -0.144691 0.426760 -0.013020 0.236835 0.187200 0.994435 0.131749 0.087921 -0.126946 -0.515587 0.652289 -0.859382 -0.227825 -0.393971 0.131197 0.402939 -0.037931 -0.043794 -0.707276 0.434268 -0.452932 -0.127050 -0.795514 0.886291 
cat	0.087668 -0.051189 -0.774759 -0.092237 0.527235 -0.218778 -0.296870 -0.115629 -0.012024 0.211263 0.027845 0.090223 -0.088299 -0.705713 -0.068310 -0.232487 -0.238625 -0.007045 0.037935 0.065991 -0.528900 0.363057 0.034768 -0.127386 0.050018 0.026747 0.238214 0.221907 -0.019060 0.951842 -0.144815 0.048811 0.227995 -0.109441 0.551813 0.394976 -0.284732 -0.017916 -0.420323 0.092119 -0.651783 0.079261 0.005682 0.354069 0.286812 -0.229459 0.151574 0.001504 -0.362437 0.032965 
pepper	0.228205 -0.142587 -1.307623 -0.420568 0.606933 0.190271 -0.728841 0.061728 -0.447582 -0.884762 -0.977194 0.377728 -0.072252 0.245570 -0.281834 0.375028 -0.598231 0.041177 -0.048648 -0.507748 -0.897449 -0.152831 -0.151200 0.057473 0.064862 0.070068 0.127663 0.129322 -0.046517 0.478531 -0.177670 0.353617 0.864563 -0.517870 0.848432 -0.065023 -0.013236 -0.565033 0.414552 -0.350034 0.182726 0.768063 -0.404478 -0.380210 0.427199 0.378025 0.267698 0.277729 0.125000 0.458955 
bread	0.791475 0.240665 -1.281506 -0.486067 0.388396 0.089227 -0.576711 0.332072 -0.255422 -0.854402 -0.762580 0.599330 0.042929 -0.007707 -0.165529 -0.284821 -0.062255 0.196961 -0.249068 -0.143979 -0.441986 0.091707 -0.386565 0.308093 0.289718 0.036182 -0.096286 -0.013400 0.336674 0.561988 0.418027 0.175624 0.631122 -0.470334 0.378841 -0.055016 0.075848 0.082105 -0.012288 -0.275153 0.205844 -0.114461 -0.327281 -0.228886 0.419371 0.111312 0.559452 0.504286 0.144719 -0.006924 
cardinal	-0.233187 0.082432 0.111614 -0.072672 0.315858 -0.691356 -0.078176 0.021899 0.580821 -0.526799 -0.234312 -0.463252 0.526467 -0.214597 -0.014237 0.294879 -0.136997 0.216126 -0.477737 0.113311 -0.728829 -0.212234 -0.598662 0.327734 -0.210493 -0.121703 -0.647688 0.697009 0.130781 0.209367 -0.018620 0.575330 -0.053738 -0.690105 -0.270632 -0.218872 0.336417 0.757769 -0.523073 0.443455 0.513279 -0.029662 -0.407333 -0.703243 0.079639 -0.434942 0.503677 0.065862 -0.642653 0.534112 
sheet	0.170430 -0.310950 -0.773129 -0.546943 0.249889 -0.586795 0.046439 -0.294009 -0.089964 -0.157285 -0.377232 0.556295 -0.272437 0.297940 -0.289774 -0.123894 0.237308 0.082647 -0.276316 -0.775251 -0.155858 -0.594485 -0.128547 0.012461 0.514661 0.137011 0.119339 0.338567 -0.775794 0.383209 0.187373 0.205139 0.380433 -0.585261 0.426210 -0.109703 -0.288528 0.062789 0.135642 -0.053808 -0.037695 0.369364 0.137247 -0.333830 0.059558 0.055644 -0.049672 0.169188 -0.533321 -0.130965 
automobile	-0.120097 -0.162752 -0.133956 -0.327278 0.051866 -0.251164 0.186139 -0.124664 -0.194050 0.066659 -0.334430 0.125333 0.049838 -1.065573 -0.044978 -1.459447 0.410445 0.069905 -0.166398 0.142836 -0.277929 -0.016478 -0.267846 -0.039878 0.219732 -0.547181 -0.022074 -0.136985 -0.005479 0.049682 0.100701 0.517542 0.441604 -0.232868 -0.259316 0.005518 0.123826 -0.645713 0.040183 -0.112570 0.114250 0.180768 -0.159839 0.266830 -0.608985 0.000430 0.029684 0.052952 -0.779872 0.360014 
shirt	0.453723 -0.403683 -0.420888 -0.100668 0.829441 -0.716814 -0.275421 0.267902 -0.311157 0.605210 -0.213548 0.145560 0.553097 -0.452967 -0.036397 0.284554 0.171605 -0.409256 -0.538345 -0.228501 -0.624331 -0.445951 -0.775028 0.391516 0.149609 0.569773 0.773438 -0.215797 -0.149243 0.277856 -0.046691 0.590292 0.640148 -0.393749 0.899365 -0.318620 -0.380794 -0.389470 -0.211938 0.067246 -0.326216 -0.058518 -0.071565 -0.188933 0.248268 -0.249268 0.011598 0.006795 -0.399937 0.396087 
meal	0.627211 -0.137678 -1.053274 -0.071509 0.225835 0.364759 -0.650271 0.365436 -0.441914 -0.238786 -0.623405 0.472744 -0.211595 -0.324656 -0.007253 -0.186038 -0.338184 0.422594 -0.000951 -0.157897 -0.272155 0.472721 -0.352895 0.414236 0.024482 -0.004075 -0.113666 0.340814 0.384648 0.699969 0.310586 0.227891 0.554747 -0.222881 0.215505 -0.063562 -0.207191 -0.080203 -0.438969 -0.033676 -0.143550 -0.163559 -0.413554 -0.473814 0.227225 -0.177325 0.402383 0.731956 0.453814 0.163567 
pet	0.104615 0.024810 -0.644018 -0.146407 0.710524 -0.000218 -0.316291 -0.043852 -0.438231 0.019158 0.265803 0.296095 -0.214072 -0.838275 0.158923 -0.263901 -0.160859 0.040344 -0.143381 0.296308 -0.216918 0.484516 0.170229 -0.069981 0.055824 -0.201307 0.011018 0.111427 0.217989 0.859201 0.174878 0.228015 0.485722 -0.215657 0.637768 0.111502 -0.300922 0.060004 -0.524999 0.246947 -0.492813 0.115017 0.138862 0.221582 -0.306999 0.026987 -0.050370 0.445678 -0.421596 -0.015851 
pot	0.363598 0.005769 -1.158008 -0.605202 0.436287 -0.287310 -0.465682 -0.376782 0.039101 -0.636222 -0.040816 0.228093 0.088768 0.434377 -0.094668 -0.111877 -0.235357 0.083877 -0.238441 -0.530641 -0.644083 0.180440 -0.063681 -0.293248 0.347743 0.101128 -0.086426 0.370088 0.686565 0.774611 0.285360 0.550260 0.326845 -0.045100 0.214619 0.002207 -0.071574 -0.073630 0.460440 0.268200 -0.132018 0.331231 -0.237630 -0.284115 0.541521 -0.143807 -0.201784 0.409132 0.371310 0.567704 
rings	0.345111 -0.380626 -0.729083 -0.286057 0.375655 -0.641460 0.117788 -0.116720 -0.023658 -0.077346 -0.179270 0.176229 -0.063154 -0.309687 -0.112348 -0.115065 0.006020 0.017312 0.196465 -0.473365 -0.387706 0.151517 -0.348073 -0.121897 0.130332 0.385966 -0.626604 0.339070 -0.197877 0.570505 -0.171062 0.280922 -0.148638 -0.257069 0.845610 0.772694 -0.396904 -0.199410 0.165647 0.229644 -0.236080 0.114547 0.135063 -0.214382 0.136386 -0.478081 -0.303078 -0.132180 -0.106019 -0.040659 
pen	-0.019013 0.194039 -0.777081 0.123620 0.669797 -0.476686 0.027197 -0.140367 0.125245 -0.031818 0.159166 0.095605 0.217122 -0.818556 -0.126356 0.014992 -0.070865 -0.411510 -0.262864 -0.480646 -0.927116 -0.068418 -0.017388 0.235383 0.177509 0.139214 0.247993 0.290225 0.145836 0.482748 -0.006505 0.015424 0.182671 0.091683 -0.018115 -0.268659 -0.114033 0.330763 -0.194232 0.215342 -0.241185 -0.253520 -0.116453 0.121516 0.196682 0.096570 -0.071434 -0.410019 -0.040990 -0.271732 
flower	0.759301 0.448291 -0.559750 0.211792 0.117781 -0.116336 0.204261 -0.123560 -0.266631 0.322142 -0.556238 0.455227 -0.332998 0.051451 -0.116865 -0.303177 -0.062578 -0.517520 -0.395946 0.056348 -0.659847 0.403566 -0.656812 0.228125 0.098803 0.419156 0.102443 0.323878 0.158196 0.633269 -0.396182 0.442828 0.826215 -0.576264 0.517636 0.159099 -0.473519 0.050647 0.015024 0.288068 -0.180564 0.410594 0.112910 -0.160587 0.632591 -0.278839 -0.214266 -0.029405 -0.268085 0.148441 
yale	-0.405952 -0.573515 -0.000189 -0.114090 0.464562 -0.456558 0.362770 -0.179052 0.457198 -0.557183 -0.319617 0.340138 0.759171 -0.431378 0.386547 -0.038479 -0.414278 0.569115 -0.421522 0.138008 -0.432875 -0.047621 -0.245233 0.294468 0.392330 0.190406 -0.024978 0.220930 0.065918 -0.081823 -0.268122 -0.125625 0.884551 -0.253810 -0.455541 0.166206 -0.199375 0.072173 -0.719068 0.674698 -0.256588 0.519193 -0.437229 -0.142878 0.163281 0.122161 -0.431248 -0.195418 0.045466 -0.377733 
chairs	0.493863 0.373230 -0.663181 -0.069183 -0.020309 -0.717509 0.268161 0.339175 -0.457061 -0.283964 0.142637 0.291937 0.292185 -0.074298 -0.459776 0.060480 -0.257692 0.619335 -0.283738 0.106104 -0.773786 -0.154594 -0.257875 0.231407 0.324980 0.008355 0.459627 0.048902 -0.347050 0.253864 0.222775 0.334927 0.655898 -0.029796 -0.086764 -0.306577 -0.499205 -0.043445 -0.248452 0.099570 -0.073991 -0.309350 0.013915 0.096318 -0.683087 -0.574895 -0.664266 0.347517 -0.067058 0.196783 
dish	0.372736 -0.433630 -0.752501 -0.658411 0.700083 0.373112 -0.820469 -0.244727 -0.604001 -0.509982 -0.392303 0.456714 -0.258998 0.063307 -0.524570 -0.118445 -0.610464 -0.337604 0.089106 -0.274230 -1.122468 0.313857 -0.222067 0.308929 0.369097 0.316360 0.258005 0.354338 -0.009620 0.764987 0.221939 -0.293601 0.315651 -0.639739 0.172461 0.133806 -0.084087 0.123269 -0.062121 -0.236294 0.117598 -0.382252 -0.188456 -0.667090 0.241481 0.206661 0.105846 0.663537 -0.035502 -0.144077 
oak	-0.155611 0.032394 -0.548407 -0.119266 0.572898 -0.575221 -0.254534 -0.275042 -0.125533 -0.236358 -0.758715 0.676975 0.097696 -0.063207 -0.356767 -0.273207 0.129551 -0.079079 -0.307273 0.335422 -0.892771 0.409972 -0.286975 0.087269 0.038594 -0.307097 0.139515 0.482004 0.238033 0.000993 -0.441403 0.300346 0.698988 -0.485569 0.230008 0.109426 -0.164892 -0.022095 -0.550973 -0.350624 0.095318 0.640640 0.213240 -0.278250 0.413872 -0.687166 -0.408595 -0.060548 0.058890 0.450416 
ham	-0.269862 0.245569 -0.545058 -0.242869 0.957774 -0.061985 -0.911560 0.341817 -0.251415 -0.281500 -0.825897 0.379114 -0.199280 -0.195930 -0.319137 0.301781 0.055924 -1.291752 -0.515236 -0.418952 -0.569172 0.100390 -0.344584 0.154126 -0.129169 0.521121 -0.097689 -0.216669 -0.091365 -0.354042 -0.338285 -0.023545 0.889690 -0.195514 0.521913 0.130640 0.061202 0.057906 -0.681334 -0.166094 -0.120788 0.204693 0.174622 -0.461839 0.366623 0.546811 0.551997 0.474219 -0.230733 -0.175627 
container	-0.000948 -0.121525 -0.896280 -0.834993 -0.033893 -0.081356 -0.528984 -0.245010 -0.356075 -0.224882 -0.561015 0.474805 -0.412672 -0.290336 -0.552958 -0.677027 0.141015 -0.575576 -0.296374 -0.577600 -0.410728 -0.222993 0.112627 0.318430 0.052251 -0.040187 0.199525 -0.060616 -0.420335 0.769914 0.148376 -0.302101 0.478220 -0.294998 0.305472 0.689457 -0.352619 -0.386672 0.213630 0.270274 0.182554 0.290305 0.011277 -0.293648 -0.362816 -0.537106 0.130760 0.744278 0.081662 0.134372 
salmon	0.239357 0.256650 -0.688901 -0.322580 0.309848 0.390048 -0.826490 -0.058437 0.135544 -0.197725 0.244630 0.605450 -0.752273 0.247403 0.160127 -0.482596 -0.222002 0.124057 -0.308330 -0.025866 -0.858825 0.650712 0.012113 -0.297722 -0.179014 -0.130350 -0.052299 0.504289 -0.590730 0.312369 -0.025128 -0.038814 1.311521 -0.433324 0.022745 0.499779 -0.199699 -0.550682 -0.796960 -0.358594 -0.326109 0.203445 -0.233175 -0.303940 0.434427 0.158351 0.364862 -0.077655 -0.146001 -0.028805 
dell	-0.284479 -0.652847 -0.242119 -0.030677 -0.065670 -0.685566 -0.563765 -0.845226 -0.596232 -0.636315 -0.197389 -0.011561 -0.079052 -0.898022 -0.014743 -0.188997 0.315911 -0.209953 -0.072828 0.286294 -0.219177 -0.417010 -0.202259 0.292696 0.399810 -0.067270 -0.508904 0.412130 -0.126788 0.566842 0.313862 0.359007 0.055704 -0.032709 -0.202876 -0.500881 0.860786 -0.292039 -0.127573 -0.099451 0.173425 0.618563 0.116236 -0.904522 0.245969 0.120329 -0.214175 0.075202 -0.338136 -0.085740 
plates	0.442900 -0.062504 -0.690506 -0.730385 0.185254 -0.443418 -0.145247 -0.520148 -0.186032 -0.064825 -0.192599 0.355519 0.159148 -0.142953 -0.352462 -0.771980 0.173380 -0.167774 -0.292476 -0.673246 -0.439453 0.117078 -0.009667 0.028812 0.296564 -0.304665 0.319366 0.383170 -0.216467 0.328044 0.443882 0.302279 0.291311 -0.936888 0.445508 0.442314 -0.505520 -0.408858 -0.060816 -0.306796 0.383839 -0.330564 -0.488103 -0.426182 -0.196678 -0.455820 0.018797 0.177722 -0.124548 -0.164899 
memphis	0.039374 -0.556820 -0.318881 0.084240 0.036167 -0.711623 -0.727616 -0.004524 -0.028737 -1.065526 -0.245013 -0.212046 0.561673 -0.561343 0.360349 -0.755562 -0.845512 0.096184 0.089509 0.078063 0.004951 0.226790 -0.502655 -0.278390 -0.153677 0.085179 -0.109695 0.356350 -0.012800 -0.226009 -0.234767 0.319452 0.440566 -0.303439 0.193165 0.371760 0.028518 -0.144997 -0.961820 0.111444 0.029748 0.567007 0.187708 0.002237 -0.075487 -0.391057 -0.194570 -0.068061 -0.175980 0.154028 
cats	-0.108788 0.219063 -0.727681 0.023961 0.708152 -0.134431 -0.329722 0.102109 -0.460382 -0.135345 0.125590 0.199520 -0.019827 -0.384254 0.105621 -0.305275 -0.200300 -0.088379 0.075084 0.054283 -0.132335 0.776882 -0.208755 0.109941 -0.320953 0.121701 -0.174151 0.267295 0.361183 0.849280 -0.321427 -0.137755 0.752832 -0.169569 0.724478 0.367775 -0.114884 0.231072 -0.565624 0.262700 -0.743653 0.092756 -0.259113 0.491830 -0.063234 -0.151815 0.080953 -0.260034 -0.267749 0.116328 
hammer	-0.052341 0.129154 -0.662062 -0.338097 -0.004745 -0.541074 0.252199 0.244088 0.173704 -0.071377 -0.002114 0.285356 0.135307 -0.470914 -0.058946 -0.058084 0.318629 0.166632 -0.178646 -0.352715 -0.657701 -0.054258 -0.196740 -0.486474 0.337600 0.187440 -0.005520 0.192845 -0.074061 0.043326 0.251928 0.418294 0.188407 0.045477 0.450856 0.261096 -0.575238 0.066334 -0.036917 -0.242676 -0.244106 0.163287 0.167723 0.221147 -0.119261 0.010727 -0.385899 -0.316294 -0.484327 -0.076864 
pants	0.428516 -0.675217 -0.730388 -0.031889 0.359666 -0.804897 -0.206269 0.263235 -0.230579 0.367837 0.060466 0.340967 0.671909 -0.278482 0.214635 -0.207381 -0.013526 0.163250 -0.412906 0.080647 -0.374916 -0.183915 -0.605336 0.425199 0.268413 0.613994 0.917950 -0.214633 -0.296905 0.460159 0.030171 0.400848 0.641519 -0.598722 1.006728 0.025888 -0.136262 -0.529877 -0.219957 -0.343692 -0.483857 -0.125123 -0.301370 0.109843 0.283149 -0.058037 -0.247281 0.127305 -0.459023 0.336923 
mouse	0.133234 -0.124336 -0.643854 -0.441662 0.377165 -0.224939 0.254114 -0.568521 -0.453754 -0.090185 0.309960 0.213335 -0.209013 -0.934658 0.018579 -0.005693 -0.505834 -0.393489 -0.022640 0.035862 -0.641701 0.413168 -0.284838 0.055175 -0.136767 0.045075 0.276358 0.376240 0.256057 1.134475 -0.039669 -0.082945 0.097513 0.155238 0.697229 0.315824 -0.542929 0.122687 -0.562027 -0.001209 -0.780452 0.007926 0.429978 0.040254 0.390692 -0.043965 -0.236499 -0.217287 -0.421276 -0.207825 
jewelry	0.619541 -0.333996 -0.550805 -0.066787 0.048947 -0.401853 -0.175470 0.121984 -0.345523 0.060894 0.163952 0.559194 0.072456 -0.720893 0.394275 -0.898203 0.441697 0.389619 -0.280542 -0.007796 -0.096333 -0.246256 -0.113476 0.463337 0.151989 0.498492 -0.004676 -0.255480 -0.003577 0.636550 0.298621 0.817739 0.399351 -0.680408 0.827006 0.244566 0.035503 -0.180012 0.023452 0.360059 0.081492 0.282254 0.037058 -0.368906 -0.070398 -0.737915 -0.462976 0.142986 -0.186099 -0.272279 
sheets	0.464219 0.022706 -0.697124 -0.418344 0.172549 -0.814732 -0.044739 -0.217950 -0.354221 -0.088514 0.272829 0.440075 -0.392472 0.341374 -0.149792 -0.115334 0.304755 0.082991 -0.513824 -0.556009 -0.132306 -0.144224 -0.218244 0.305910 0.615761 -0.068355 0.000178 0.095665 -0.869909 0.666538 0.014241 0.258240 0.635615 -0.734122 0.308553 -0.100363 -0.420026 0.151343 -0.053336 -0.178031 -0.028456 0.291161 -0.070191 0.018433 0.019855 0.050372 -0.339644 0.269568 -0.174167 -0.087923 
mineral	0.371213 0.353874 -0.273058 -0.363794 0.406175 0.118861 -0.095160 -0.267259 -0.444524 -0.201151 -0.424628 0.866669 -0.622738 0.003099 0.312528 -0.577865 0.596231 0.363630 0.045078 -0.001756 -0.811438 0.095120 0.237450 -0.008514 0.340061 -0.222958 0.051543 0.336587 -0.153928 0.589971 -0.373055 0.160947 0.384852 -0.203936 -0.137974 0.714349 -0.232171 0.227979 0.285712 -0.582327 0.123403 0.766920 -0.492006 -0.362232 -0.452713 -0.803403 -0.179967 0.021012 -0.039916 -0.023788 
coins	0.741189 0.053674 -0.656345 -0.632936 0.038014 -0.940003 -0.158845 -0.306652 0.415071 0.401791 -0.281964 0.675189 -0.316574 -0.512346 -0.289313 -0.457952 0.373798 0.476018 0.012666 -0.755521 -0.176224 0.096032 -0.556154 -0.039148 0.325432 -0.176900 -0.345908 -0.008692 0.172107 0.534461 -0.149999 0.438481 0.137402 -0.244844 1.017541 0.253479 0.152433 0.354501 -0.138346 0.512212 0.009282 -0.306253 -0.134682 -0.800293 -0.116060 -0.885532 0.484443 -0.090359 -0.253994 -0.484489 
ash	-0.009451 0.597984 -0.447340 -0.255057 0.314428 -0.604151 0.080039 -0.003545 -0.292830 -0.054596 -0.549837 0.066340 -0.340130 0.115871 -0.230893 -0.534095 0.091845 0.054866 -0.075795 0.112468 -0.594146 0.230776 -0.158665 -0.715199 0.363953 -0.187397 -0.046900 0.130308 -0.169560 0.323306 -0.204259 -0.339695 0.577300 -0.792966 0.661714 0.174108 -0.538852 -0.021875 -0.554939 -0.338883 0.020468 0.786330 -0.313227 0.087730 0.211585 -0.105164 0.090249 0.300144 0.055828 0.304699 
makeup	0.311366 -0.400297 -0.190801 0.113097 0.466270 -0.201294 0.076321 -0.109092 -0.509240 -0.046553 -0.011023 0.232692 0.224168 -0.171550 0.329266 -0.383430 -0.200853 0.182975 -0.171237 0.300152 -0.644920 -0.308330 -0.515983 0.477866 -0.088475 0.379093 0.144592 -0.047306 -0.170536 0.168003 0.067022 0.476333 0.336370 -0.617514 0.572491 0.066500 -0.438632 0.157004 -0.034753 -0.477913 -0.445574 -0.117602 -0.396993 0.428864 -0.067463 0.175456 -0.650039 -0.050698 -0.174776 -0.147423 
sculpture	0.085665 0.252264 -0.114340 -0.430013 0.293038 -0.769765 0.082229 0.134715 -0.032019 0.058357 -0.376138 0.536950 0.027749 -0.554230 -0.162040 -0.786692 0.313774 0.659793 -0.347460 0.058099 -0.808166 -0.071841 -0.224824 0.135944 0.059511 0.402547 0.073664 0.468087 0.420001 0.519890 -0.145064 0.056247 0.307408 -0.508874 0.312800 -0.139763 -0.563584 0.340312 -0.445128 0.570609 0.557372 -0.117000 -0.144914 -0.368669 0.179956 -0.646816 -0.770712 -0.313446 -0.401597 -0.139916 
poems	0.736436 0.286656 -0.353810 -0.345210 0.238855 -0.339787 0.466369 -0.106762 -0.016980 -0.275969 -0.614670 -0.005047 -0.331275 -0.804144 -0.153041 0.058676 -0.041950 0.498941 0.017874 -0.047415 -0.637681 0.645954 -0.100642 0.131728 0.349383 0.502981 -0.041409 0.193296 0.226556 0.723109 -0.041221 0.112797 0.125672 -0.657593 -0.113771 -0.070498 0.153897 0.727485 -0.752700 0.488091 0.712301 -0.083743 -1.333121 -0.309179 0.803624 0.272506 -0.157839 -0.292614 -0.232829 -0.529063 
shirts	0.828438 -0.059965 -0.549897 -0.204307 0.635356 -0.883728 -0.247869 0.099295 -0.475152 0.320391 0.061550 0.047632 0.632699 -0.376350 0.202071 -0.056564 -0.043856 -0.268589 -0.371952 0.016286 -0.376551 0.055571 -0.592856 0.659425 0.106829 0.560686 0.403286 -0.325433 -0.001443 0.118305 -0.192878 0.687242 0.676423 -0.470467 0.928965 -0.455064 -0.228349 -0.396870 0.142039 0.076322 -0.328692 -0.129610 -0.070965 -0.261565 0.053243 -0.387289 -0.013326 -0.099019 -0.379606 0.533542 
vegetable	0.386341 0.377990 -1.157353 -0.369957 0.178356 0.523761 -0.694204 -0.054309 -0.492884 -0.789573 -0.843360 0.886454 -0.344611 0.137200 0.190219 -0.574009 0.031862 -0.214373 -0.081275 -0.048530 -0.563721 0.119775 -0.175667 0.387691 0.334267 0.034627 0.020347 0.054555 0.237803 0.798712 -0.223451 0.421872 0.710837 -0.337924 0.373323 -0.058580 -0.268067 -0.154210 0.092271 -0.236082 0.035812 0.191402 -0.250725 -0.076005 0.286847 -0.120360 0.124123 0.700822 0.118174 0.118453 
stamps	0.784674 -0.072228 -0.519755 -0.400848 -0.003319 -0.885086 -0.104918 -0.137316 0.003292 0.547839 0.194624 0.947705 -0.280114 -0.828864 0.053590 -0.429393 -0.079056 -0.101671 -0.235913 -0.024432 -0.113520 0.023819 -0.426697 0.174714 -0.066531 -0.398451 0.111894 -0.001735 0.008992 0.433429 0.114152 0.460012 0.746643 -0.155560 0.249697 0.012932 -0.045441 0.457833 -0.085223 0.888815 0.241028 -0.242160 -0.273891 -0.160972 0.059822 -0.052492 0.346822 0.092481 -0.116778 -0.497726 
shoe	0.063380 -0.442004 -0.451807 -0.189578 0.495284 -0.458215 -0.311905 0.132858 -0.229643 -0.132210 -0.027676 0.519516 0.451565 -0.619208 0.080098 -0.674512 0.129457 -0.107673 -0.264149 -0.007133 -0.252097 -0.398084 -0.473030 0.149197 0.387577 0.264438 0.492253 -0.334752 -0.089722 0.350148 0.227009 0.431651 0.297991 -0.539653 0.365575 0.034471 -0.329511 -0.446195 -0.121079 0.078188 -0.126577 0.181611 0.198549 -0.017608 0.020614 -0.245246 -0.047140 0.090712 -0.392834 -0.117967 
libraries	-0.138618 -0.167734 -0.299854 -0.771681 0.240682 -0.536841 0.226455 -0.358679 -0.735459 -0.459699 -0.105811 0.758403 -0.253313 -0.577483 0.056344 -0.356017 -0.623646 0.016534 -0.297107 0.498830 0.039803 0.357533 -0.060222 0.165051 0.537896 -0.032050 -0.258822 0.192253 -0.449161 0.086858 -0.446656 0.087859 0.552826 -0.395853 -0.468813 -0.209602 0.342723 0.992627 -0.335906 0.671619 0.349530 -0.120158 -0.056255 -0.223282 0.109621 -0.585380 -0.312196 -0.100907 -0.075957 -0.755060 
madonna	0.308421 -0.202411 -0.244256 0.387485 0.100934 -0.805146 -0.154438 0.046618 -0.272287 0.378873 -0.024324 -0.249531 0.164968 -0.672060 0.372523 -0.452826 -0.049919 0.304152 -0.210192 0.342629 -0.495843 0.115472 -0.729079 -0.302075 0.078112 0.996408 0.207918 0.522561 0.011589 0.363712 0.273609 0.270837 0.330867 -0.709457 0.437419 -0.079412 0.063817 0.697856 -0.438039 -0.108710 0.330482 0.072954 0.165154 0.058010 0.131244 0.055930 0.054441 0.328636 -0.582358 -0.148472 
pig	0.033782 0.251261 -0.998078 -0.222651 0.725414 0.138325 -0.320201 0.080909 0.065927 -0.312745 -0.041022 0.313470 0.144679 -0.482226 0.135094 -0.295498 -0.211642 -0.263142 0.300256 0.025704 -0.676591 0.264828 0.033907 -0.133051 0.045086 0.106855 0.296068 0.219713 0.525390 0.926102 0.010464 0.091847 0.640684 -0.113263 0.769262 0.246550 -0.262023 0.296942 -0.402946 0.172803 -0.189219 -0.091707 -0.102490 0.426346 -0.047645 -0.179221 0.327927 -0.048263 -0.157484 0.020618 
dresses	0.880247 -0.535477 -0.361449 0.238468 0.161905 -0.732010 -0.176847 0.257309 -0.521712 0.336298 -0.073402 0.353506 0.566128 -0.421918 0.120231 -0.516313 0.088023 0.335056 -0.329868 0.420125 -0.553829 0.147891 -0.848201 0.816684 0.202782 0.854939 0.392739 -0.262085 0.014851 0.628233 0.220352 0.482479 0.741151 -0.660310 0.996040 0.027623 -0.127471 -0.232490 0.109145 -0.251243 -0.370336 -0.489513 -0.464420 -0.113617 0.316133 -0.095109 -0.407131 0.145928 -0.616663 -0.067399 
nuts	0.648490 -0.114199 -1.137910 -0.375932 0.529091 -0.067607 -0.166409 -0.116245 -0.500527 -0.936475 -0.337003 0.709375 0.020697 0.004778 -0.048357 -0.137472 -0.022889 -0.270338 -0.096146 -0.395453 -0.654904 0.166151 -0.150999 -0.281695 0.156006 -0.164961 0.271709 0.073088 0.404627 0.585420 0.167581 0.175041 0.503977 -0.264285 0.312980 -0.079304 0.026186 -0.520346 -0.065763 -0.343740 -0.203257 0.130218 -0.295353 -0.077094 0.188226 0.324515 -0.049145 0.246772 0.063338 0.324264 
cows	0.089545 0.338286 -1.168973 -0.218615 0.432187 0.527589 -0.071470 0.177963 -0.097899 -0.005119 0.066853 0.586882 -0.029506 -0.320699 0.059094 -0.733079 0.048693 0.046725 0.190849 0.241462 -0.189110 0.726554 -0.308000 0.100457 0.297890 -0.173712 -0.038329 0.143498 0.904321 0.745451 -0.035989 0.065909 0.812869 -0.179876 0.484017 0.052774 -0.156072 0.328359 -0.622179 -0.177332 -0.166650 0.110314 -0.326005 0.263254 -0.094830 -0.358838 0.306751 -0.153846 -0.279728 0.251629 
snake	0.032360 0.323933 -0.619576 -0.390258 0.389711 -0.099076 -0.122520 -0.093228 0.040959 0.337808 -0.002783 0.369174 0.067838 -0.208249 -0.092092 -0.299457 -0.118744 -0.149777 0.024600 0.251365 -0.703654 0.414084 0.130581 -0.408874 0.363382 0.091191 0.127568 0.565197 -0.034965 0.801941 -0.375571 0.003746 0.163392 -0.099027 0.761873 0.674270 -0.431654 -0.240279 -0.616477 -0.154545 -0.643979 0.274158 -0.253091 0.127156 0.513407 -0.378396 0.150430 -0.015547 -0.292987 0.044375 
boot	-0.290544 0.058177 -0.552574 -0.570329 0.276020 -1.034273 -0.219080 0.035723 -0.372764 0.330872 -0.104864 0.396118 0.307303 -0.393097 0.195316 0.280574 -0.114598 -0.470390 -0.406685 -0.299327 -0.124064 0.013342 -0.301965 0.249670 0.301772 0.207362 0.329320 0.446524 0.076461 0.248802 0.221862 -0.019506 0.173358 -0.273363 0.084857 -0.213615 -0.010011 -0.255321 -0.200029 0.084506 -0.579594 0.018161 0.030503 0.179727 0.428649 -0.118673 -0.010437 -0.105316 -0.377108 0.188443 
laptop	0.099040 -0.849585 -0.419620 -0.755181 -0.064849 -0.356992 0.327071 -0.461324 -0.769642 0.044814 0.013213 0.356570 0.150346 -0.922142 -0.028670 -0.180525 -0.361876 -0.596732 -0.282570 -0.039596 0.025057 -0.225469 -0.233091 0.183555 0.756719 0.081786 0.328345 0.114537 -0.159610 0.770793 0.691542 0.149143 0.060200 -0.126048 0.092145 -0.093173 0.275044 -0.148988 -0.512521 0.440953 -0.245175 0.142377 0.272232 -0.501408 -0.021620 -0.450817 -0.430094 0.506882 0.144962 0.193925 
sedan	-0.031834 -0.584888 0.118118 -0.313909 0.313650 -0.382556 -0.308059 -0.193297 -0.623145 0.310138 -0.797152 0.150810 0.333369 -1.166284 -0.558717 -1.387466 0.437280 -0.589335 -0.396029 -0.380082 -0.192069 -0.183897 -0.565233 0.626311 0.118893 -0.015535 0.267232 0.609868 0.235526 0.366377 -0.054731 0.569854 0.191333 -0.006576 0.132188 -0.072446 0.919810 -0.244158 -0.204644 -0.585512 -0.228512 -0.675512 0.033277 0.332725 -0.286106 -0.160089 -0.316973 0.200344 -0.777868 0.901757 
banana	0.760796 0.321336 -0.856775 -0.191850 0.038877 -0.235080 -0.661089 -0.267600 -0.369506 -0.340453 -0.130046 0.471736 0.003386 -0.094254 0.239718 -0.232167 -0.120046 -0.198307 -0.098898 0.083935 -0.702519 -0.243604 -0.085002 -0.182418 -0.004748 0.129681 0.534165 0.126744 0.230132 0.673726 0.010060 0.501401 0.732765 -0.434442 0.166016 0.273505 0.026078 -0.235319 0.282898 -0.449292 -0.253416 0.278553 -0.014373 -0.179683 0.093419 0.010240 0.438405 0.105117 0.273328 0.198606 
abstract	0.162928 0.152841 -0.140337 -0.467744 0.243004 -0.411460 0.852093 -0.500155 0.017872 -0.554057 -0.288738 0.303033 -0.203574 -0.529733 0.200912 -0.490574 -0.045236 0.623513 -0.475574 0.104714 -0.331154 -0.109638 -0.343246 0.234681 -0.134578 0.712096 0.114365 0.460951 0.158223 0.629097 -0.043123 0.042025 0.064866 -0.656523 0.143074 0.023990 -0.149725 0.151003 -0.151674 0.184784 -0.141292 -0.474937 -0.235145 -0.332739 0.090242 -0.217000 -0.685673 -0.608982 -0.490434 -0.008088 
hats	1.022003 -0.052018 -0.719536 -0.014046 0.521601 -0.836005 -0.099209 0.316409 -0.248635 0.248712 0.205299 0.443296 0.421129 -0.424729 -0.055090 -0.223682 -0.084212 0.118108 -0.319019 0.224079 -0.421629 0.187952 -0.597685 0.436053 0.121391 0.378317 0.067404 -0.264840 -0.185065 0.197076 -0.028193 0.270776 0.680801 -0.467829 0.869243 -0.191306 -0.184038 -0.452176 -0.120670 -0.005483 -0.137713 -0.220571 -0.158656 0.039666 0.030854 -0.325879 -0.238082 -0.189220 -0.274334 0.502457 
pets	0.104607 -0.143237 -0.724928 -0.098082 0.634843 -0.011576 -0.329361 0.087455 -0.657375 0.132812 0.486067 0.468690 -0.006763 -0.631340 0.103463 -0.493990 -0.196414 -0.036520 -0.318161 0.557585 0.015935 0.819005 0.094367 0.156747 -0.368113 -0.324222 -0.192582 0.022372 0.199418 0.980075 0.144618 0.119623 0.724754 -0.147793 0.646481 0.166129 -0.085237 0.087974 -0.515674 0.393319 -0.659201 0.072366 -0.358707 0.080329 -0.024781 -0.219040 0.115698 0.285837 -0.060767 0.343526 
beverage	0.407651 -0.008576 -0.498131 -0.279650 0.801271 0.285272 -0.788483 -0.360228 -0.491191 -0.455108 -0.187657 0.251894 -0.652967 -0.857306 0.389189 -0.796952 -0.082619 0.437994 -0.130437 -0.026019 -0.445675 -0.008331 -0.033155 0.189168 0.062869 -0.351103 -0.043547 -0.075377 -0.293723 0.451627 -0.003662 0.460302 0.652576 -0.153867 0.079302 -0.263077 -0.050847 -0.760164 0.302351 -0.285626 0.328705 0.554248 -0.032415 -0.667623 -0.208607 -0.248868 0.499318 0.532535 -0.029208 -0.037539 
seating	0.033154 -0.207389 -0.323937 -0.284479 0.203257 -0.894520 0.036038 0.455178 -0.691213 0.210812 -0.582677 0.226167 -0.022287 -0.167363 -0.727226 -1.007170 -0.739419 0.142327 -0.241217 -0.175116 -0.235626 0.373132 -0.883493 0.517206 -0.140725 -0.053384 0.400119 0.276691 -0.472697 -0.184381 -0.231416 0.339192 0.351191 -0.517187 -0.193315 -0.018400 -0.311415 -0.113131 -0.181539 -0.201453 0.020731 -0.507449 0.372480 -0.617023 -0.578955 -0.562670 -0.550472 0.413843 -0.035733 0.628881 
artwork	0.312963 -0.069751 -0.477466 -0.512900 0.221571 -1.021311 0.190356 -0.101999 -0.399356 0.124124 -0.029636 0.258910 -0.519978 -0.778074 0.161683 -0.390469 0.200401 0.283163 -0.211420 0.042176 -0.229918 0.239645 0.251079 -0.111368 0.104805 0.453660 0.048024 0.188685 0.125393 0.453799 0.131699 0.386171 0.346870 -0.706410 0.502964 0.005923 -0.151624 0.340084 -0.484716 0.519274 0.392107 0.042324 0.023186 -0.360399 0.252868 -0.103623 -0.580119 -0.106879 -0.813424 -0.300595 
violin	0.071169 -0.328829 -0.416085 -0.513656 -0.373032 -0.496568 0.443843 0.386320 0.217706 -0.286372 -1.242722 -0.029547 0.115486 -0.715959 -0.087045 -0.038724 -0.659253 1.152923 -0.429288 -0.503246 -0.833595 0.570959 -0.790360 -0.078965 0.432385 0.348672 -0.326257 0.126941 0.120120 0.878668 0.393521 0.078299 0.144097 -1.060418 0.051810 0.080076 0.378534 0.074913 -0.188858 0.255659 0.156094 0.021924 -0.060182 -0.297680 -0.130502 0.045288 -0.338882 -0.198339 -0.774647 -0.095269 
garment	0.538511 0.230369 -0.646739 -0.311974 -0.170592 -0.291719 -0.028113 0.022184 -0.445071 0.205544 -0.291440 0.523427 0.289526 -0.397040 0.270359 -1.218600 -0.104260 0.040712 -0.322075 0.284780 0.056245 -0.563344 -0.306522 0.503916 0.341269 0.384066 0.407852 -0.515029 -0.189903 0.541817 0.141666 0.994013 0.697145 -0.374690 0.234694 -0.067239 -0.440326 -0.386985 0.539378 0.381783 -0.138120 0.220664 -0.363874 0.251311 -0.140203 0.143476 -0.024699 -0.172270 -0.181449 0.191745 
swan	-0.165740 0.080754 -0.102743 0.231893 0.192950 -0.705924 -0.155008 0.057367 0.312201 0.377117 -0.612352 -0.023143 -0.311082 -0.316389 -0.140275 -0.720777 -0.044075 0.221308 0.306271 0.248506 -0.861227 0.505954 -0.014678 -0.430815 -0.169705 0.365241 -0.050539 0.296907 -0.211344 0.578611 -0.152115 -0.010215 0.909361 -0.025883 0.181936 0.280895 -0.058774 0.080929 -0.268066 0.187177 -0.677233 0.264181 0.080315 0.111600 -0.011792 -0.229877 -0.104212 -0.033275 -0.320264 -0.132695 
fork	-0.312248 -0.400434 -0.970185 -0.700006 -0.063605 -0.449849 -0.191733 -0.296674 0.015016 -0.157115 -0.712210 0.776308 0.537646 0.310536 -0.371155 -0.380127 -0.007808 -0.102306 -0.053442 0.112840 -0.836538 0.426121 -0.178774 -0.454086 0.270975 -0.173471 0.235333 0.639558 -0.212150 0.466515 -0.239689 -0.188002 0.620715 -0.212341 0.076452 0.540066 0.014665 -0.526179 -0.350440 -0.787558 -0.174092 0.419945 0.035643 -0.583705 0.533354 -0.271969 0.662617 0.119050 -0.225179 -0.330081 
superman	0.188013 -0.681190 -0.144228 -0.448482 0.404706 -0.972080 0.025012 0.134780 0.001258 -0.312931 0.121566 -0.081585 -0.250700 -0.951408 -0.110426 -0.436967 -0.001711 -0.214155 -0.102280 0.141660 -0.267050 0.179516 -0.265502 -0.468614 -0.140562 0.529095 -0.165682 0.000952 -0.160323 0.600466 -0.236340 -0.044621 -0.109600 0.105948 0.621761 0.969981 -0.516686 0.111051 -0.416767 0.256528 -0.525793 0.142955 -0.178205 0.537682 0.540457 0.559322 -0.273113 -0.087875 -0.873380 -0.009811 
herb	0.073346 0.321912 -0.500067 0.097882 0.590131 -0.258215 -0.162087 -0.156187 0.010166 -0.478699 0.042114 0.755410 -0.088062 0.204485 0.262201 -0.053129 -0.335152 0.074368 0.338490 0.058712 -1.206526 0.439029 -0.245254 -0.126255 -0.005327 -0.484734 -0.151288 0.496407 0.327499 0.386709 -0.012161 0.362294 0.653875 -0.650302 0.151861 0.096728 -0.209978 -0.317552 -0.141873 -0.197597 -0.132112 0.442356 -0.009733 -0.469688 0.461425 0.120736 -0.225341 0.185397 -0.270889 0.153301 
couch	0.302134 -0.511386 -0.855509 -0.045843 0.428062 -0.399961 -0.059450 0.370962 -0.529604 -0.358047 -0.035401 0.028783 0.377631 -0.181023 -0.064755 -0.099622 -0.151962 0.217682 -0.075058 0.110965 -0.357562 0.099838 -0.333641 0.049213 0.363792 0.252349 0.591755 -0.003283 -0.158936 0.731960 0.401498 0.340251 0.352302 -0.022771 0.203958 -0.015667 -0.414131 0.042447 -0.980393 -0.014158 -0.684296 0.106554 0.025238 -0.204484 0.403464 -0.041495 -0.310699 0.309167 0.242325 0.230112 
apples	0.310294 -0.058213 -1.080623 -0.336904 0.319616 0.132970 -0.400682 -0.188670 -0.144950 -0.411295 -0.391006 0.785284 -0.351167 0.155097 0.069877 -0.285968 -0.090321 -0.377008 0.072346 -0.044576 -0.629213 0.331702 -0.222096 -0.037319 0.229715 0.097858 -0.020795 0.027231 0.401538 0.640885 -0.010039 0.251199 0.888181 -0.565923 0.607280 -0.224493 0.218495 -0.286694 0.096418 -0.063268 0.016364 0.072199 -0.331783 -0.315347 0.292251 0.220843 0.041408 0.207816 -0.057965 0.054595 
refrigerator	0.427515 -0.878568 -1.157786 -0.680536 0.298036 -0.030663 -0.478595 0.110810 -0.667191 -0.637030 -0.442939 0.377326 -0.106766 0.047724 -0.388228 -0.433301 -0.044053 -0.186513 -0.792488 -0.321143 -0.535183 0.013247 -0.188959 0.114656 0.579638 -0.080795 0.254413 -0.151857 -0.073287 0.932288 0.576392 -0.074892 0.779246 -0.388482 0.323473 0.125418 -0.378787 -0.096285 -0.137194 -0.028958 0.137576 -0.090343 -0.089584 -0.196040 0.156104 0.032671 -0.229505 1.043645 0.203190 0.170736 
grape	0.335578 0.177439 -0.498803 -0.369315 0.517184 0.017368 -0.625742 -0.446934 -0.201296 -0.418535 -0.606380 0.786394 -0.610165 -0.120866 0.640954 -0.443948 0.111239 -0.046731 0.233616 0.176405 -1.082869 0.454314 -0.495628 0.142275 -0.044313 0.006456 -0.077831 0.297687 0.799056 0.522787 0.003393 0.204322 0.777305 -0.886677 0.169291 0.101627 0.469923 -0.221003 -0.001729 -0.631550 0.321492 -0.047709 -0.337316 -0.474251 0.593334 -0.298434 0.254374 0.139350 -0.117236 0.429860 
skirt	0.258285 -0.316189 -0.571407 0.010143 0.017398 -0.655372 -0.370803 0.003941 0.025031 0.568717 0.044890 0.391914 0.526820 -0.079775 -0.007365 -0.388717 0.009356 0.162474 -0.426194 0.316106 -0.646690 -0.153353 -0.448412 0.461091 0.361976 0.655901 0.816819 0.149819 -0.422886 0.379560 0.062969 0.281941 0.760327 -0.586844 0.816978 0.059089 -0.155864 -0.369135 0.275488 -0.531138 -0.555156 -0.485264 -0.390807 -0.131090 0.224115 0.036890 -0.148619 0.028678 -0.398474 -0.093463 
trout	-0.008287 -0.035174 -1.031409 -0.420813 0.543703 -0.354119 -0.494207 -0.209296 -0.142465 0.150798 -0.107108 0.873917 -0.283142 0.332980 0.181637 -0.452897 -0.164674 0.355269 0.111108 0.384650 -0.854741 0.858411 -0.001307 -0.341230 -0.148563 0.051048 0.089582 0.552602 -0.128203 0.653711 -0.343836 -0.451129 1.159387 -0.056135 0.213126 0.679262 -0.137833 -0.525602 -0.787087 -0.397331 -0.296242 0.317966 -0.280748 -0.375721 0.586704 -0.163321 0.225182 0.006896 0.004848 0.153067 
beverages	0.554235 0.109751 -0.781823 -0.314534 0.878810 0.315634 -0.635633 -0.069221 -0.588077 -0.284802 -0.377070 0.366231 -0.550981 -0.840228 0.582047 -0.685663 -0.146085 0.542098 -0.144245 0.026620 -0.270113 0.282748 -0.276718 0.191181 -0.033974 -0.614416 0.256428 -0.197877 -0.336520 0.428534 0.260251 0.522576 0.695455 -0.300362 0.318594 0.005308 0.013349 -0.473098 0.299983 -0.265634 0.258210 0.260196 -0.160273 -0.768073 -0.357072 -0.169700 0.338247 0.684544 0.236989 0.142636 
basil	0.688496 0.306834 -0.559933 0.096854 0.440021 -0.128970 -0.638592 0.187868 -0.051513 -0.882411 -1.047810 0.339141 -0.208065 0.299529 -0.680157 0.303118 -0.121645 -0.040370 -0.111450 -0.296153 -1.095957 0.129885 -0.178507 0.374220 0.395475 0.173102 -0.407154 0.407625 0.278797 0.431320 0.176788 0.536480 0.465545 -0.738309 0.254174 0.470054 0.139603 0.215579 -0.025094 0.199395 -0.192559 0.156842 -0.385456 -0.378040 0.623222 0.122786 0.391604 0.506464 -0.287052 -0.004521 
spoon	0.271624 -0.297395 -1.319313 -0.717935 0.530953 -0.467694 -0.818585 0.010867 -0.373123 -0.667401 -0.812129 0.372903 0.052478 0.588827 -0.332889 0.326404 -0.091693 -0.115797 -0.600142 -0.747814 -0.955130 0.477523 -0.655942 0.016403 0.355111 0.338572 0.213028 0.257043 -0.101191 0.919014 0.287279 -0.153919 0.819950 -0.288440 0.603300 0.261595 -0.250911 -0.182332 0.104869 0.008599 0.173739 0.070388 -0.359870 -0.357164 0.236089 0.240794 0.237445 0.324670 -0.243682 -0.182363 
erie	-0.269612 -0.552102 -0.215692 -0.263308 0.356977 -0.937934 -0.037663 0.104647 0.530399 -0.506509 -0.360135 0.244489 0.575937 -0.099042 -0.174581 -0.930355 -0.374954 0.105675 -0.182235 0.288790 -0.464158 0.438520 0.035112 -0.366407 -0.065876 -0.548848 -0.027392 0.261418 -0.609105 -0.050267 -0.670922 -0.394825 1.247197 -0.279614 -0.524791 1.015122 0.155227 -0.133762 -0.534672 -0.120309 -0.171251 0.363275 0.007980 -0.153531 0.095285 -0.292015 0.209121 0.040124 -0.078122 0.039382 
hobby	0.439419 -0.273413 -0.332048 -0.447015 0.663598 -0.469623 -0.000651 -0.030307 -0.415759 0.009728 0.000688 0.596260 -0.001392 -0.840198 0.227204 -0.463500 0.032309 0.266643 -0.164188 0.088964 -0.211969 0.693041 0.016340 -0.132654 0.156287 0.117779 0.017328 -0.092117 0.304541 0.531842 0.192878 0.094487 0.341155 -0.125578 -0.268160 0.023276 0.003749 -0.519726 -0.516783 0.351546 -0.342070 0.110698 -0.135390 -0.194477 0.081113 -0.109936 -0.397576 0.097482 0.046277 -0.069731 
insect	-0.178605 0.450331 -0.410584 -0.311778 0.658814 0.064440 0.027655 -0.531116 -0.384547 -0.071139 0.053006 0.964670 -0.438193 -0.318954 0.156603 0.012660 -0.276568 -0.149239 -0.029949 0.213996 -0.503163 0.347188 -0.482274 -0.026059 0.122337 -0.225433 -0.023656 0.053007 0.156971 1.254323 -0.720696 -0.422430 0.563869 -0.283048 0.603838 0.514785 -0.660022 0.071669 -0.272124 0.168348 -0.834444 0.049899 -0.226876 0.143824 0.310877 -0.129721 -0.296278 -0.149677 -0.079800 0.563721 
lamp	0.381974 0.022887 -0.382779 -0.438953 0.490928 -0.784431 0.094311 0.179882 -0.343502 -0.158378 -0.632140 -0.096520 -0.322684 -0.298791 -0.472928 -0.560143 0.138183 -0.119661 -0.648063 0.163205 -0.653620 -0.060790 -0.157965 0.314884 0.783545 -0.052411 0.031895 0.312722 -0.227406 0.753274 0.338777 -0.058941 -0.237436 -0.266233 0.699787 0.066571 -0.680982 0.030169 -0.266464 -0.108579 -0.097305 0.154327 -0.100782 -0.187126 0.091775 -0.525184 -0.417033 0.183784 -0.098423 0.181270 
appliance	-0.100567 -0.554786 -0.541195 -0.598141 0.246843 -0.113011 -0.323276 -0.240374 -0.782491 -0.419433 -0.356192 0.258414 -0.308239 -0.717765 -0.197131 -1.083198 0.123718 -0.441087 -0.422093 0.345191 -0.270106 -0.250588 -0.224083 0.258176 0.782305 -0.390438 -0.012016 -0.407676 -0.527670 0.796818 0.492260 0.264437 0.177932 -0.137481 -0.034315 -0.406621 0.049059 -0.092181 0.314988 0.041254 -0.002331 0.354452 0.136142 -0.263748 -0.282647 -0.083032 -0.307568 0.428509 -0.403996 -0.043904 
footwear	0.344576 -0.116500 -0.623260 -0.006865 0.299840 -0.325607 -0.520752 -0.009199 -0.377591 0.128829 -0.221455 1.003122 0.055568 -0.734936 0.679831 -1.060754 0.265597 0.176908 0.106808 0.115555 -0.099508 -0.274508 -0.477499 0.586756 -0.036739 0.009916 0.723153 -0.594972 -0.431648 0.428447 -0.041425 0.741940 0.432681 -0.392710 0.721142 -0.311877 -0.068670 -0.432625 0.362042 0.049175 0.050455 0.547427 -0.209861 -0.327598 -0.367477 -0.065427 -0.374058 -0.213233 -0.501833 0.173430 
cobra	-0.262496 0.173210 -0.265763 -0.639164 -0.005359 -0.564112 -0.446757 0.084079 0.041172 0.276131 0.001395 0.413240 0.067268 -1.046168 -0.691995 0.030791 -0.391513 0.055103 0.146390 -0.016463 -0.228449 0.275419 0.305886 -0.085408 0.195697 -0.085849 0.016049 0.193952 0.061609 0.309582 -0.072411 0.468144 -0.079112 0.103810 0.635908 0.402589 -0.062032 -0.268335 -0.310406 -0.349370 -0.974380 0.221857 -0.019284 0.513123 0.184775 0.201750 -0.179734 0.204378 -0.531076 0.444645 
snacks	0.697178 -0.130718 -1.088321 -0.325054 0.620284 0.206816 -0.643573 0.099057 -0.961053 -0.255264 -0.327850 0.519554 0.063792 -0.763901 -0.150717 -0.395223 -0.443994 0.330950 -0.104043 0.016611 -0.043331 0.563657 -0.309929 0.488144 0.112758 -0.143816 -0.064528 0.002465 -0.074333 0.706965 0.251595 0.030101 0.852419 -0.165475 0.372425 -0.170333 -0.157130 -0.719740 -0.159152 -0.187710 0.037764 -0.003238 -0.057325 -0.552163 0.111416 0.000285 0.330646 0.719457 0.165560 0.071254 
daisy	0.223436 0.036386 -0.472541 0.174391 0.318148 -0.344851 -0.008576 -0.134562 -0.244010 0.122262 -0.449241 0.027806 0.077706 -0.516494 -0.007190 -0.191181 -0.160113 -0.372137 -0.124229 0.577293 -1.271732 0.255408 0.090306 -0.027580 -0.090693 0.133568 0.144240 0.304626 0.210925 0.692064 -0.101001 0.431496 0.289393 -0.611650 0.313999 0.429944 0.120463 0.029708 -0.419291 -0.072467 -0.394823 0.464618 0.044785 0.083858 0.288865 0.164787 -0.129416 0.196222 -0.118480 0.182507 
flute	0.361508 0.160078 -0.516183 -0.603758 -0.246980 -0.365587 0.231193 0.214062 0.085369 -0.028162 -1.105881 -0.101312 0.000353 -0.476610 -0.122206 0.047702 -0.615018 0.972823 0.031727 -0.368067 -0.990454 0.608434 -0.712140 -0.190937 0.366160 0.425542 -0.305033 0.332337 0.148961 0.952547 0.150905 -0.010564 0.163935 -0.899796 0.348619 0.201562 0.121618 -0.179794 -0.337786 0.034394 -0.018423 -0.032872 0.020771 -0.337450 0.024590 -0.255875 -0.370857 -0.263059 -0.618580 -0.200975 
sweater	0.918818 -0.897836 -0.446445 0.127444 0.613402 -0.481028 -0.177799 0.137376 -0.405179 0.464142 -0.131300 0.322490 0.392665 -0.226765 -0.086260 -0.357629 0.046114 0.135833 -0.411966 0.120636 -0.691652 -0.490275 -0.784900 0.299480 0.198973 0.441846 0.379375 -0.288936 -0.294149 0.499753 0.167644 0.170046 0.934095 -0.509114 0.916025 -0.146488 -0.138990 -0.397290 -0.238071 -0.167425 -0.602294 -0.299434 -0.246775 -0.208184 0.494456 -0.139697 -0.548454 0.017720 -0.473367 0.361705 
librarian	0.199402 -0.425885 -0.143571 -0.142558 0.337728 -0.623397 0.240289 0.007661 -0.159186 -0.305018 -0.364750 0.297547 0.190078 -0.668573 0.105702 0.076941 -0.147300 0.284913 -0.382214 0.550117 -0.662802 -0.098690 0.071383 0.067238 0.356758 0.036874 0.022495 -0.011855 -0.020528 0.318974 0.080381 0.161829 0.528058 -0.300355 -0.490807 -0.085518 0.068549 0.392210 -0.792236 0.818362 -0.098263 -0.046177 -0.507773 -0.008724 0.477161 -0.112068 -0.244240 0.153393 -0.186096 -0.662556 
dime	0.292598 -0.862606 -0.594594 -0.502645 0.381303 -0.716059 0.044416 0.250570 0.179172 -0.303008 0.171944 0.622981 -0.088448 -0.257580 -0.270546 -0.300089 -0.211777 0.552385 -0.239723 0.059017 0.063521 -0.228275 -0.427559 -0.142702 0.176872 0.298781 -0.047119 0.236794 -0.097469 0.218403 0.242592 0.202572 0.276562 -0.139336 0.291862 -0.050840 0.435450 -0.083479 -0.458017 -0.301560 -0.101972 0.661501 0.277269 -0.068485 -0.062074 0.145142 0.254907 0.110940 0.114131 -0.207331 
spinach	0.323213 -0.202081 -1.219185 -0.520712 0.394447 0.395008 -0.933570 -0.375484 -0.535975 -0.836437 -0.608698 0.812344 -0.350713 0.344234 -0.260748 -0.101239 -0.290439 -0.077097 -0.246158 -0.332041 -1.042784 0.424092 -0.692369 0.157888 0.107986 -0.063138 0.249113 0.326764 0.503182 1.198673 -0.154705 0.308392 0.994636 -0.522898 0.820192 -0.051410 0.189640 -0.042479 0.071590 -0.282410 0.088438 -0.066411 -0.415359 -0.280729 0.541285 0.387378 0.354435 1.137324 -0.157824 0.104816 
